tree
version=v3
num_class=1
num_tree_per_iteration=1
label_index=0
max_feature_idx=30
objective=binary sigmoid:1
feature_names=BertzCT Chi1 Chi1n Chi1v Chi2n Chi2v Chi3v Chi4n EState_VSA1 EState_VSA2 ExactMolWt FpDensityMorgan1 FpDensityMorgan2 FpDensityMorgan3 HallKierAlpha HeavyAtomMolWt Kappa3 MaxAbsEStateIndex MinEStateIndex NumHeteroatoms PEOE_VSA10 PEOE_VSA14 PEOE_VSA6 PEOE_VSA7 PEOE_VSA8 SMR_VSA10 SMR_VSA5 SlogP_VSA3 VSA_EState9 fr_COO fr_COO2
feature_infos=[0:4069.9597800000001] [0:69.551167280000001] [0:50.174587760000001] [0:53.431953749999998] [0:32.19536806] [0:34.579312880000003] [0:22.589275570000002] [0:16.072809700000001] [0:363.70595409999999] [0:99.936429000000004] [12.02187243:2237.3184900000001] [-14.4584615:3] [-14.4584615:3.2000000000000002] [-14.4584615:3.3999999999999999] [-7.7300000000000004:0.81999999999999995] [12.018000000000001:2035.133] [-104.04000000000001:1512.2422309999999] [0:15.63025112] [-6.3275141909999997:4.75] [0:42] [0:97.663462199999998] [0:482.43422270000002] [0:375.4251476] [0:211.50127889999999] [0:100.34841609999999] [0:80.742293309999994] [0:492.72973910000002] [0:115.4061569] [-5.4305555559999998:384.45051910000001] [0:8] [0:8]
tree_sizes=30871 31345 31291 31342 31368 31416 31374 31370 31427 31406 31368 31462 31416 31413 31415 31435 31524 31359 31433 31510 31389 31536 31364 31409 31478 31500 31485 31448 31485 31595 31445 31512 31496 31561

Tree=0
num_leaves=300
num_cat=0
split_feature=26 0 20 8 0 13 0 8 27 23 6 13 20 8 18 27 15 18 12 20 27 8 18 12 18 12 27 10 13 26 18 15 22 9 6 6 0 0 0 0 0 27 8 12 27 6 20 23 13 18 12 24 23 12 23 18 6 23 20 26 26 18 15 24 8 8 10 6 12 12 15 12 27 24 8 13 15 13 13 24 13 20 26 18 9 8 27 18 13 24 8 26 18 24 15 8 12 10 13 18 12 10 12 9 13 0 20 18 12 13 26 24 26 13 26 20 0 23 24 6 13 18 8 27 9 13 12 12 9 10 27 6 0 0 26 8 23 23 0 12 8 6 18 10 27 27 23 9 12 8 18 6 18 13 8 13 24 6 22 10 27 13 8 8 0 13 12 8 6 10 12 27 18 26 10 9 10 8 9 10 24 6 12 15 13 15 26 6 13 15 0 12 13 0 27 15 10 22 18 13 9 24 12 20 18 13 15 24 22 27 23 18 9 8 0 10 0 22 20 6 6 0 9 10 26 6 9 13 10 6 27 0 8 26 22 12 12 6 6 20 13 10 26 26 9 18 18 26 13 6 6 26 23 6 12 26 26 9 0 24 18 13 18 10 0 0 18 10 8 22 12 6 13 20 10 10 27 0 18 18 18 6 6 22 12 20 18 23 26 6 12 20 10 22 15 9 6 24 8
split_gain=156.55 94.4635 218.16 70.333 54.4887 48.7478 37.5749 29.3147 32.5656 25.5178 24.8315 26.9954 21.3698 21.1627 21.0019 28.8475 26.8613 20.4212 19.064 18.5603 18.1147 16.7051 14.6908 14.4992 14.3238 14.3145 13.7694 12.8589 12.7542 12.2406 11.9729 10.9864 13.0424 13.1269 11.9544 10.7032 10.2229 10.1387 18.2875 9.90755 9.60479 26.3273 16.4939 9.76283 9.12125 8.42707 8.34741 8.31368 12.579 16.0191 12.196 9.83193 9.65078 8.72517 8.09926 8.96351 7.835 8.72894 8.72658 11.3599 10.745 7.4983 7.31066 9.00585 7.1717 6.96953 6.8601 6.77035 6.38013 6.37641 6.27971 6.22875 9.81739 6.10795 6.70444 10.1426 5.98818 5.88867 6.07222 9.44326 5.85903 5.79135 11.7157 11.9311 14.1456 5.75007 5.68314 5.66724 5.60342 10.8056 7.04834 5.54771 5.54611 7.11414 7.06442 12.9582 9.11783 9.71069 7.83272 6.19671 13.2031 7.79027 6.3685 9.13288 5.54531 6.39453 5.51483 5.50894 5.64413 17.769 6.15199 5.18848 9.92114 5.06445 5.09835 5.00918 4.99455 4.99052 8.33418 4.89195 6.78557 4.75202 4.64414 4.53188 7.28507 5.22776 4.68585 7.60331 4.52078 4.40352 4.36024 4.2913 4.28104 4.47958 4.64024 8.40833 4.16538 5.92686 4.07197 6.34091 4.16618 4.02191 4.99455 4.90621 4.34542 5.06568 8.65721 4.5107 3.95438 4.73559 3.94941 3.86223 3.84838 8.28792 3.82406 3.73557 3.72626 5.04296 8.23701 4.07626 3.69712 3.61345 3.5687 4.88543 4.14988 3.54587 3.53523 4.01873 3.51631 3.49967 3.58152 3.48147 3.33067 3.29818 3.19651 3.19651 3.19651 3.19651 3.18803 7.89297 4.38384 4.99455 3.43741 3.1248 3.81902 3.72693 9.29771 3.11085 3.08761 3.04747 3.04039 3.36338 4.00108 6.25404 2.9537 2.94259 6.42207 5.73928 5.12591 4.97656 4.29051 9.83124 6.29586 7.23325 3.86854 3.11348 2.91869 2.9027 2.8912 5.20105 3.37845 3.3529 2.77311 3.00194 2.68046 2.66742 2.66376 2.65488 3.27967 2.63922 2.53858 2.48775 2.89427 2.48258 2.47303 2.46198 2.66997 3.06519 2.39383 2.38531 2.34671 2.31369 5.19232 2.30225 2.14697 8.05843 2.13653 2.136 5.4124 2.51831 6.25644 5.43285 4.30432 8.07598 3.59607 2.16047 2.28125 2.12811 2.1189 2.11439 4.09355 2.04437 2.02778 3.89495 2.02149 1.97776 2.47371 1.96149 1.92004 1.8973 3.04747 1.81035 1.80657 2.78012 1.8004 1.79804 1.72387 1.71717 1.70521 1.63591 1.54732 1.53182 2.34062 1.44296 1.32505 1.27771 1.26877 1.26528 1.23354 3.29652 1.22578 1.21161 1.14161 1.12085 1.0988 1.05757 1.03012 1.38766 1.08394 0.961912 0.915018 0.912696 0.898438 0.880616 2.17592 0.7909 0.772782 0.766515 1.14578
threshold=12.174936895000002 289.75463155000006 17.181824000000002 12.005782960000001 149.48906240000005 1.9095454545000001 1327.4185060000002 36.990119700000008 14.20295585 51.515034005000011 2.6897384370000004 1.9733121245000003 5.7305984180000005 18.078844730000004 -1.1998717454999996 9.5025630230000022 110.07350000000001 -1.6692824074999997 1.4595827905000003 6.0589304680000007 13.854495515000002 23.964514665000006 -4.5690364304999989 2.4833333335000005 -1.5363078699999997 1.1188235295000004 6.2623940055000009 195.51593625000004 2.6220238095000004 55.025297605000006 -1.0624400044999998 481.43700000000007 34.875096790000008 6.0541039490000008 5.7452286355000011 0.38841294550000005 56.240914015000008 97.378850745000008 94.763604795000006 145.96710295000005 779.23228030000007 22.807895955000003 11.208730215000001 1.7372735115000002 9.395070512500002 2.5757885970000003 6.7532961280000015 11.378360770000002 2.1923809525000002 -0.95930413849999996 2.0801282050000007 6.3177111015000014 18.539116425000003 2.0801282050000007 79.641474620000011 -0.29574357849999994 2.3773443340000004 31.852650325000003 11.762440115000002 24.794688180000005 23.851536090000007 -0.24668981499999998 685.12800000000004 12.218442935000002 23.964514665000006 30.674829500000005 121.52402960000002 2.2672662205000003 1.8541019960000003 1.7327380950000002 260.64150000000006 1.8110119050000002 14.883498025000002 18.376328485000002 52.909028145000008 2.3274294670000004 829.31150000000014 1.6381818180000003 2.3917306055000003 12.162857720000002 1.9039938560000003 5.7305984180000005 18.75611924 -0.98912479999999992 11.515061630000002 36.67326446500001 18.591358465000003 -4.7315052449999984 2.4158805035000004 6.0711935880000008 23.964514665000006 12.493725230000001 -4.6885090104999998 25.378218845000003 284.18400000000003 36.690573380000011 1.5823643410000001 284.15442990000003 2.3620261440000005 -5.169216099999999 1.2945998070000002 373.01682920000002 1.7819293480000002 11.145390460000003 2.2290209790000004 591.07652135000012 23.255824175000004 -5.527622845999999 1.742724868 2.3406954885000002 63.688308545000005 12.440437915000002 36.782225945 1.8133928570000002 12.991277650000002 5.7680492765000002 613.74111540000013 33.171906655000008 6.4465212440000004 1.2223659195000003 2.0845238095000007 -0.97944444449999979 12.0422089 13.932769840000001 6.0541039490000008 2.4158805035000004 2.2182539680000004 2.2928571430000004 5.7129860410000015 174.10605900000004 18.132377435000006 1.0582599580000001 195.49715370000004 128.44288750000001 18.75611924 24.439632070000005 23.767379220000006 19.324432260000005 431.83596125000003 1.8585714285000001 45.006015260000005 2.2555987515000004 -1.3013074349999998 206.03874620000002 4.6509556195000004 6.2623940055000009 6.7513364420000004 5.5682780110000012 1.5527777780000003 27.073127615000004 -1.0033217594999997 4.4646664875000006 -1.0328675269999998 2.4158805035000004 18.042418795000007 2.3304597700000005 5.9179394875000009 1.2552695495000001 11.873079030000001 175.07084440000003 22.943290965000006 2.4220647775000006 14.110790750000001 6.0002099000000007 591.28339375000007 2.8535714285000005 1.9591666665 20.449049900000002 1.6243944530000003 589.07662170000015 1.7731560895000003 6.2623940055000009 -1.2994978359999998 6.0729036085000008 386.68906650000002 6.4153584645000006 224.06098280000003 44.583025870000007 13.182701150000002 288.06064845000009 6.3177111015000014 2.9176544775000006 2.065591398 118.075 2.2861904765000003 136.12000000000003 5.9745102790000013 2.8544737795000006 2.4701426025000006 132.07600000000005 201.88985680000002 1.5400641030000004 2.1411960135000006 304.1082641000001 4.6509556195000004 144.06150000000005 136.55005400000002 18.213580760000003 -1.4233569539999997 2.3982758620000006 6.250380551500001 5.5493267105000017 1.9913793105000004 5.9798734375000011 -4.4901656824999989 2.2714987715000006 256.15250000000009 23.390113625000001 5.7455052880000013 6.2623940055000009 12.722561280000003 -0.65127314849999995 6.5584466480000012 52.303251335000006 192.48274945000003 171.98302575000002 522.09318950000022 5.7455052880000013 5.9798734375000011 1.1312236280000001 1.6075064305000002 1202.0498770000002 16.957844025000004 88.034236745000015 24.450200220000003 1.9115416940000001 5.7129860410000015 2.2714987715000006 268.07649550000008 0.9077673715000002 9.5602372530000022 577.30645460000017 43.04825656500001 30.498901155000002 11.468862885000002 1.9148550725000002 1.7475490195000003 11.784484690000001 11.856505990000002 36.592735550000008 2.3437799045000003 711.1310772500002 67.236660440000023 70.563640405000015 12.514549490000002 -5.5820390739999999 -5.573859378499999 56.579948875000007 2.4939024390000006 11.630406000000002 11.320470910000003 12.846937875000002 25.563796700000001 1.9177547515000002 1.8994444445000001 18.914546855000001 13.217035815000001 11.505478130000002 238.70321870000001 6.0541039490000008 -0.91914652749999992 1.8729838710000002 -0.88310768149999985 88.555670670000026 479.28533825000005 83.117537620000022 -0.96715092599999986 286.07101615000005 84.006457460000021 55.657489340000005 1.9148550725000002 12.388449055000001 2.3806250000000007 6.0589304680000007 131.05565205000002 889.15198840000005 9.5025630230000022 572.69849940000006 -2.8154023289999999 -4.5036562079999989 -1.182769298 1.5053176830000001 8.3668367800000016 20.519753810000005 1.906926407 6.4465212440000004 -1.0000000180025095e-35 13.172158065000001 6.2418351775000014 0.9077673715000002 1.7836120405000002 24.171625835000004 229.53358109000001 11.873079030000001 100.10100000000001 12.483486710000003 1.8276237985000001 36.623624110000009 53.279409955000006
decision_type=2 2 2 2 2 2 2 2 2 2 2 2 2 2 2 2 2 2 2 2 2 2 2 2 2 2 2 2 2 2 2 2 2 2 2 2 2 2 2 2 2 2 2 2 2 2 2 2 2 2 2 2 2 2 2 2 2 2 2 2 2 2 2 2 2 2 2 2 2 2 2 2 2 2 2 2 2 2 2 2 2 2 2 2 2 2 2 2 2 2 2 2 2 2 2 2 2 2 2 2 2 2 2 2 2 2 2 2 2 2 2 2 2 2 2 2 2 2 2 2 2 2 2 2 2 2 2 2 2 2 2 2 2 2 2 2 2 2 2 2 2 2 2 2 2 2 2 2 2 2 2 2 2 2 2 2 2 2 2 2 2 2 2 2 2 2 2 2 2 2 2 2 2 2 2 2 2 2 2 2 2 2 2 2 2 2 2 2 2 2 2 2 2 2 2 2 2 2 2 2 2 2 2 2 2 2 2 2 2 2 2 2 2 2 2 2 2 2 2 2 2 2 2 2 2 2 2 2 2 2 2 2 2 2 2 2 2 2 2 2 2 2 2 2 2 2 2 2 2 2 2 2 2 2 2 2 2 2 2 2 2 2 2 2 2 2 2 2 2 2 2 2 2 2 2 2 2 2 2 2 2 2 2 2 2 2 2 2 2 2 2 2 2 2 2 2 2 2 2
left_child=13 2 3 66 5 -4 9 12 17 29 11 18 21 36 15 16 -14 22 -6 23 27 113 -9 35 -19 -11 -23 85 45 56 119 32 34 61 46 -16 285 38 121 -18 43 42 115 77 116 67 247 48 219 50 51 -50 129 -54 -36 290 57 58 80 60 122 -34 63 68 152 -7 251 177 221 -12 -45 148 123 74 -44 -76 166 -31 79 87 -3 91 230 -84 -85 -13 -74 -79 132 90 -90 -68 99 94 95 178 -97 98 -98 111 -101 130 160 -104 105 106 -89 155 109 -109 -110 188 -113 -5 150 -42 -35 165 -119 229 -121 -37 -60 124 126 -126 131 -128 -71 175 138 -73 133 -17 135 -135 137 162 139 -102 270 143 -143 144 -82 146 -146 -147 149 -15 172 173 -21 -154 -136 -65 206 -158 159 -159 -103 -61 163 164 183 207 167 -8 215 170 -157 -33 -115 -138 -95 -49 -10 -29 182 180 181 -180 194 280 185 186 189 -100 268 -185 -187 -192 193 -193 -94 196 198 204 -165 -198 201 202 -200 223 -197 -202 234 261 209 210 -186 -212 -190 -214 -66 -133 -184 218 -149 -39 -122 222 -43 -204 -62 226 227 -116 -145 -28 -83 232 -72 -47 255 -236 -67 239 -239 242 -241 -242 297 -244 -245 -240 -247 -27 -229 250 275 265 253 258 -24 256 -93 -194 -175 -206 -261 -96 263 -253 286 -2 -265 -132 277 -251 -140 -271 -273 -150 -228 -78 -164 -58 279 291 -38 -125 -246 -280 -269 295 -210 288 -288 -264 -56 -263 -227 -282 -295 -1 -134 298 -169
right_child=1 6 4 7 10 65 76 8 176 25 69 20 14 71 19 88 39 24 -20 64 -22 26 254 -25 -26 31 30 28 -30 40 -32 171 33 44 54 37 136 47 -40 -41 41 62 73 70 -46 233 -48 52 49 -51 -52 -53 53 -55 55 -57 92 -59 59 161 224 -63 -64 107 214 236 81 -69 -70 128 231 72 86 -75 75 -77 249 78 -80 -81 141 82 83 84 -86 -87 -88 104 89 -91 -92 156 93 174 117 96 97 -99 187 100 101 102 103 -105 -106 -107 -108 108 110 -111 -112 112 -114 114 225 -117 -118 118 -120 120 220 -123 -124 281 125 -127 127 -129 -130 -131 267 168 296 134 154 -137 151 -139 140 -141 -142 142 -144 228 145 147 -148 217 273 -151 -152 -153 153 -155 -156 169 157 158 -160 -161 -162 -163 276 195 -166 -167 -168 237 -170 -171 -172 -173 -174 252 -176 -177 -178 -179 179 -181 -182 -183 216 184 208 190 -188 -189 212 -191 191 192 257 -195 -196 197 199 -199 200 -201 205 -203 203 -205 259 -207 -208 -209 264 -211 211 -213 213 -215 -216 -217 -218 -219 -220 -221 -222 -223 -224 -225 -226 292 274 248 -230 -231 -232 -233 -234 -235 235 -237 -238 238 245 240 241 -243 243 244 282 246 -248 -249 -250 269 -252 262 -254 -255 -256 -257 -258 -259 -260 260 -262 278 289 266 -266 -267 -268 284 -270 271 -272 272 -274 -275 -276 -277 -278 -279 283 -281 293 -283 -284 -285 -286 -287 287 -289 -290 -291 -292 -293 -294 294 -296 -297 -298 -299 -300
leaf_value=-1.8144198332186392 -1.7398823997026447 -1.6981888018579958 -1.707417853464233 -1.7199042174020838 -1.64498603377498 -1.5724462051836572 -1.7323905813399345 -1.597815325565322 -1.7398823997026447 -1.6410429714788166 -1.6866072469011488 -1.5939548072463734 -1.7878300372239913 -1.7122203011326373 -1.7798387643037668 -1.8197951289048888 -1.53439252461116 -1.4747174346224714 -1.7905587645626044 -1.8089961114451261 -1.7199042174020838 -1.6200133058992789 -1.7627146080461431 -1.7890594638271027 -1.6399914881998399 -1.7676781315990775 -1.7503057991638071 -1.6000351235987178 -1.536770879646941 -1.8049964753489176 -1.6507489709770646 -1.8197951289048888 -1.801633144995288 -1.7398823997026447 -1.6578098670084482 -1.6200133058992787 -1.7769847382608295 -1.6926612415376825 -1.5153656843249115 -1.6628236965433381 -1.7912548684755158 -1.8094168523851168 -1.6824451255885318 -1.7334029892267873 -1.5877904312209545 -1.6399914881998396 -1.6999260351015228 -1.7398823997026447 -1.5800569412981564 -1.7436877677598945 -1.5362338317356357 -1.7155611342932662 -1.6018513219896777 -1.7238998538621959 -1.801633144995288 -1.682445125588532 -1.7798387643037668 -1.6599696705004008 -1.6957926180738205 -1.7398823997026447 -1.6104998857561545 -1.6913639569727108 -1.8102817087617646 -1.7032557321516162 -1.6675804066149 -1.4963388440386629 -1.7199042174020838 -1.725780153372837 -1.6999260351015228 -1.7341743476167701 -1.8114708862796551 -1.8112937747344373 -1.6381752898088795 -1.7122203011326371 -1.6634441369874549 -1.5292033863512742 -1.8197951289048888 -1.8024227964696182 -1.7931575525041408 -1.643987124659952 -1.8197951289048888 -1.8197951289048888 -1.8016331449952878 -1.7509048451098508 -1.613568730963614 -1.4928794185320724 -1.7341743476167701 -1.7993046855196981 -1.7598605820032058 -1.7912548684755161 -1.6522361805776029 -1.8197951289048886 -1.7665199761033927 -1.6799478528009617 -1.772787641138863 -1.8197951289048888 -1.6770938267580244 -1.6422112862332354 -1.7398823997026449 -1.6460718045521843 -1.6902069193877363 -1.7238998538621959 -1.6342834361139651 -1.7484444778314567 -1.6634441369874549 -1.6866072469011488 -1.716204554013091 -1.7458018611250332 -1.6913639569727108 -1.5724462051836572 -1.7878300372239913 -1.6968524685937441 -1.8060170721458813 -1.7329334667285365 -1.8089961114451261 -1.7032557321516162 -1.6399914881998399 -1.6799478528009617 -1.7955791503587544 -1.8197951289048888 -1.7817414483323917 -1.7095706748328281 -1.772787641138863 -1.7769847382608295 -1.6485535663286517 -1.7471471932664853 -1.6599696705004008 -1.7817414483323917 -1.8197951289048888 -1.7032557321516162 -1.7598605820032058 -1.7698496731534863 -1.8197951289048888 -1.7698496731534863 -1.7365527026525513 -1.6563372737184805 -1.8162591674357631 -1.7284662955308956 -1.8197951289048888 -1.7741307122178922 -1.7378333553641256 -1.6799478528009617 -1.7798387643037668 -1.8146725180585912 -1.6599696705004008 -1.7310032075690622 -1.7753991682369754 -1.80381258306444 -1.8197951289048888 -1.7940168291622294 -1.7032557321516162 -1.7436877677598945 -1.6799478528009617 -1.8031466436544212 -1.8089961114451261 -1.8197951289048888 -1.8083790247331397 -1.6780144803202623 -1.8055249986902024 -1.7598605820032058 -1.8024227964696184 -1.8197951289048888 -1.7890594638271027 -1.812906100525385 -1.7398823997026447 -1.7398823997026447 -1.7275881336715304 -1.7850504640343479 -1.7948224010291876 -1.7238998538621959 -1.7436877677598945 -1.7550010241463125 -1.8055249986902024 -1.8197951289048888 -1.7598605820032058 -1.8197951289048888 -1.8197951289048888 -1.6799478528009617 -1.6999260351015226 -1.6968524685937441 -1.8121112126354424 -1.7998169466043279 -1.7341743476167701 -1.8086961387379106 -1.8134528488094726 -1.8197951289048888 -1.6866072469011488 -1.8044272963659957 -1.7350392039934179 -1.7398823997026449 -1.8197951289048888 -1.6808164694227252 -1.8197951289048888 -1.7850504640343479 -1.8163206624178347 -1.7484444778314567 -1.6759522163408496 -1.7323905813399345 -1.8197951289048888 -1.7627146080461431 -1.7627146080461431 -1.6770938267580244 -1.8073087649670383 -1.701005936847499 -1.8161294073818501 -1.8197951289048888 -1.7436877677598945 -1.7532011879030187 -1.8168786059413033 -1.7199042174020838 -1.7199042174020838 -1.8007682886186402 -1.8197951289048888 -1.7503057991638071 -1.7398823997026449 -1.7056340871873974 -1.8007682886186402 -1.8197951289048888 -1.7289852093568843 -1.7627146080461431 -1.7199042174020838 -1.7484444778314567 -1.7532011879030187 -1.7532011879030187 -1.6799478528009617 -1.7398823997026447 -1.7798387643037668 -1.7199042174020838 -1.7598605820032058 -1.6866072469011488 -1.7646829018688586 -1.8148622443862319 -1.7398823997026449 -1.5772029152552194 -1.8197951289048888 -1.7056340871873974 -1.4402096651942295 -1.6999260351015228 -1.8197951289048888 -1.8197951289048888 -1.6799478528009617 -1.772787641138863 -1.6981888018579958 -1.7484444778314567 -1.7798387643037668 -1.7329334667285365 -1.7890594638271027 -1.8197951289048888 -1.783471161085687 -1.81723382348174 -1.7398823997026447 -1.7436877677598945 -1.8111089626872536 -1.7199042174020838 -1.6999260351015228 -1.8141275594579211 -1.7573633092156358 -1.7598605820032058 -1.7682385294195702 -1.8086961387379106 -1.7398823997026447 -1.8197951289048888 -1.8197951289048888 -1.8197951289048888 -1.7676781315990775 -1.7998169466043279 -1.7736916312882096 -1.8197951289048888 -1.7753991682369754 -1.7598605820032058 -1.776599059065838 -1.8149224015145082 -1.7698496731534863 -1.7811276792908999 -1.8197951289048888 -1.7811276792908999 -1.8197951289048888 -1.8197951289048888 -1.8146943164026179 -1.7436877677598945 -1.8134191132770503 -1.8197951289048888 -1.8197951289048888 -1.7798387643037668 -1.7798387643037668 -1.7798387643037668 -1.7646829018688586 -1.8197951289048888 -1.8044272963659957 -1.7901978217929466 -1.7598605820032058 -1.7850504640343479 -1.7817414483323917 -1.7646829018688586 -1.8125303353410485 -1.7890594638271027 -1.7890594638271027 -1.7948224010291876 -1.8197951289048888
leaf_weight=55.81088325381279 2.5027301907539359 2.8781397193670264 4.0043683052062979 3.5038222670555106 4.0043683052062971 2.6278667002916318 4.0043683052062979 3.3786857575178146 2.5027301907539359 4.755187362432479 3.3786857575178129 2.8781397193670335 3.1284127384424192 3.2535492479801205 2.5027301907539359 3.1284127384424272 2.6278667002916336 2.7530032098293304 5.1305968910455704 4.6300508528947821 4.5049143433570853 2.7530032098293331 2.6278667002916336 3.2535492479801169 2.5027301907539377 2.8781397193670291 2.8781397193670371 2.5027301907539385 3.0032762289047232 3.3786857575178173 3.2535492479801134 3.7540952861309034 2.7530032098293304 2.502730190753935 4.6300508528947821 2.5027301907539368 3.5038222670555106 2.7530032098293367 2.6278667002916336 3.5038222670555115 3.5038222670555141 9.6355112344026619 4.0043683052062971 4.6300508528947857 3.879231795668602 2.5027301907539359 2.5027301907539359 2.502730190753935 2.5027301907539332 2.6278667002916345 3.879231795668602 2.8781397193670273 2.7530032098293296 3.128412738442421 2.7530032098293251 4.0043683052063024 2.502730190753943 2.5027301907539359 3.6289587765932101 2.5027301907539359 2.6278667002916336 3.5038222670555106 5.2557334005832663 3.003276228904725 2.6278667002916327 5.2557334005832672 3.5038222670555106 4.2546413242816925 2.5027301907539359 3.5038222670555115 6.00655245780945 5.8814159482717612 2.7530032098293296 3.2535492479801169 2.8781397193670273 2.7530032098293304 4.7551873624324781 2.8781397193670371 3.7540952861309043 3.1284127384424201 3.1284127384424236 4.1295048147439983 2.7530032098293313 3.6289587765932056 3.879231795668602 2.7530032098293304 3.5038222670555115 4.8803238719701749 2.502730190753935 5.2557334005832672 3.879231795668602 2.6278667002916398 3.7540952861309114 2.5027301907539359 4.2546413242816916 2.5027301907539394 3.5038222670555097 3.3786857575178137 4.3797778338193893 2.8781397193670264 4.6300508528947848 3.1284127384424192 3.5038222670555115 3.5038222670555115 2.8781397193670264 3.7540952861309043 3.3786857575178146 3.3786857575178146 3.5038222670555115 2.6278667002916336 3.128412738442421 4.8803238719701749 3.6289587765932083 2.8781397193670273 4.6300508528947883 3.0032762289047241 2.5027301907539368 2.5027301907539359 4.1295048147439957 4.7551873624324781 2.6278667002916336 3.6289587765932065 4.2546413242816925 3.5038222670555106 2.6278667002916327 2.7530032098293304 2.5027301907539359 2.6278667002916336 2.7530032098293304 3.0032762289047241 2.5027301907539359 3.0032762289047223 5.5060064196586591 4.0043683052062971 3.0032762289047241 2.7530032098293304 28.280851155519485 4.3797778338193885 3.7540952861309034 4.3797778338193893 4.8803238719701758 2.5027301907539368 2.5027301907539359 9.7606477439403516 3.1284127384424236 4.5049143433570853 3.3786857575178146 3.1284127384424192 6.381961986422537 3.879231795668602 3.0032762289047223 2.6278667002916327 2.5027301907539359 3.0032762289047241 4.630050852894783 3.7540952861309034 4.3797778338193885 3.8792317956686002 3.5038222670555115 2.5027301907539368 2.8781397193670273 3.2535492479801178 4.8803238719701758 7.2579175531864157 3.7540952861309043 2.5027301907539359 3.2535492479801169 2.8781397193670299 4.0043683052062988 3.128412738442421 2.6278667002916336 4.630050852894783 3.5038222670555115 3.3786857575178129 2.5027301907539368 2.5027301907539368 2.5027301907539368 2.5027301907539368 2.502730190753935 3.2535492479801169 6.5070984959602356 2.5027301907539368 3.5038222670555106 4.504914343357088 7.8836001008749026 5.130596891045573 3.7540952861309052 3.2535492479801178 4.1295048147439939 2.5027301907539368 3.2535492479801169 2.8781397193670255 3.0032762289047241 2.8781397193670273 14.390698596835135 3.5038222670555177 3.1284127384424201 4.0043683052062979 4.504914343357096 3.5038222670555115 4.3797778338193876 3.5038222670555106 4.0043683052062971 4.6300508528947821 13.639879539608957 5.2557334005832672 2.6278667002916327 3.0032762289047232 17.14370180666447 3.0032762289047232 2.5027301907539368 2.6278667002916336 3.3786857575178146 2.8781397193670273 2.5027301907539368 3.5038222670555115 2.6278667002916336 4.5049143433570862 2.7530032098293304 2.6278667002916336 4.5049143433570862 3.5038222670555106 3.0032762289047232 4.5049143433570862 2.5027301907539368 2.5027301907539359 2.5027301907539359 2.5027301907539368 2.5027301907539359 3.0032762289047241 3.6289587765932083 10.136057272553442 4.3797778338193893 3.5038222670555115 3.7540952861309043 2.6278667002916336 2.5027301907539368 2.5027301907539359 2.7530032098293296 3.6289587765932065 2.5027301907539368 4.2546413242816925 2.8781397193670264 3.5038222670555106 2.502730190753935 2.8781397193670264 4.8803238719701767 6.1316889673471451 2.7530032098293304 19.521295487880707 3.7540952861309043 2.6278667002916363 5.7562794387340537 2.5027301907539368 2.5027301907539368 17.644247844815254 4.0043683052062988 2.5027301907539368 3.879231795668602 4.5049143433570862 2.5027301907539359 5.5060064196586591 14.640971615910532 5.3808699101209632 2.8781397193670264 2.5027301907539368 3.2535492479801169 5.5060064196586591 4.5049143433570853 2.5027301907539394 4.630050852894783 10.261193782091139 4.0043683052062979 3.879231795668602 12.138241425156592 3.879231795668602 10.761739820241926 9.5103747248649579 29.407079741358768 2.6278667002916256 23.525663793087006 3.128412738442421 6.2568254768848419 2.5027301907539359 2.5027301907539368 2.5027301907539359 3.6289587765932101 4.2546413242816925 3.2535492479801178 3.3786857575178137 2.5027301907539368 2.8781397193670273 2.6278667002916336 3.6289587765932065 6.8825080245733261 3.2535492479801169 3.2535492479801178 8.0087366104125994 13.514743030071257
leaf_count=446 20 23 32 28 32 21 32 27 20 38 27 23 25 26 20 25 21 22 41 37 36 22 21 26 20 23 23 20 24 27 26 30 22 20 37 20 28 22 21 28 28 77 32 37 31 20 20 20 20 21 31 23 22 25 22 32 20 20 29 20 21 28 42 24 21 42 28 34 20 28 48 47 22 26 23 22 38 23 30 25 25 33 22 29 31 22 28 39 20 42 31 21 30 20 34 20 28 27 35 23 37 25 28 28 23 30 27 27 28 21 25 39 29 23 37 24 20 20 33 38 21 29 34 28 21 22 20 21 22 24 20 24 44 32 24 22 226 35 30 35 39 20 20 78 25 36 27 25 51 31 24 21 20 24 37 30 35 31 28 20 23 26 39 58 30 20 26 23 32 25 21 37 28 27 20 20 20 20 20 26 52 20 28 36 63 41 30 26 33 20 26 23 24 23 115 28 25 32 36 28 35 28 32 37 109 42 21 24 137 24 20 21 27 23 20 28 21 36 22 21 36 28 24 36 20 20 20 20 20 24 29 81 35 28 30 21 20 20 22 29 20 34 23 28 20 23 39 49 22 156 30 21 46 20 20 141 32 20 31 36 20 44 117 43 23 20 26 44 36 20 37 82 32 31 97 31 86 76 235 21 188 25 50 20 20 20 29 34 26 27 20 23 21 29 55 26 26 64 108
internal_value=0 0.221812 0.623546 0.26794 2.33653 4.03986 -0.0330107 0.624128 1.81157 0.100215 1.81694 2.1845 0.496355 -0.543043 0.770485 0.269559 1.85189 2.60585 0.689143 1.15827 2.66538 0.0494698 1.64861 1.47732 4.15568 0.746813 0.720832 3.01207 2.60486 0.0116765 0.445444 0.585833 0.801316 1.53595 0.363431 1.63336 -0.643257 1.75913 2.70964 3.06843 0.275142 0.522838 1.50911 -0.0436582 2.31731 2.23428 -0.390083 1.49192 1.95518 2.52938 3.14777 2.17335 0.915972 1.88865 0.987966 0.448015 -0.106828 0.192896 0.120636 0.692792 1.21018 0.426417 0.13286 0.266591 0.203709 5.18267 -0.397865 1.63591 -0.260082 0.384904 -0.495959 0.0172355 0.23543 2.16432 2.56434 3.26776 -0.532536 0.362201 0.531885 0.742239 -0.119766 -0.21636 0.271031 0.972162 1.62511 4.33326 1.38537 0.460183 -0.116884 0.460788 1.33523 -0.38838 -0.203495 -0.341144 -0.391779 -0.137253 0.590943 0.894871 0.444375 -0.00644393 0.225094 0.0945387 0.749141 1.39679 0.708462 0.409768 -0.0821189 0.657011 1.12269 1.82489 0.486728 -0.324706 0.355905 -0.325703 -0.429059 0.211267 1.42533 -0.632343 0.185171 0.122523 -0.246533 1.76373 0.477155 0.0208894 0.203404 1.24413 -0.0567766 0.777253 -0.212885 0.201662 -0.165304 -0.317809 -0.372711 -0.087308 0.148459 0.751987 -0.555933 -0.496453 0.0852163 0.604001 -0.267165 -0.214799 0.626199 -0.329221 -0.0709993 0.089942 0.82598 -0.231688 -0.481944 0.089942 0.213316 -0.827201 -0.283919 0.281121 -0.385811 0.186678 -0.477859 -0.0502557 0.345492 1.02184 -0.00644393 -0.476945 -0.520769 -0.483295 -0.608243 -0.73526 -0.345646 -0.395116 0.0649067 -0.120355 -0.545071 -0.456202 -0.231688 -0.897851 0.82598 -0.372711 -0.372711 2.42423 -0.454672 -0.0882755 -0.476945 0.226635 -0.677532 -0.641982 -0.52738 -0.251033 0.221989 -0.123802 -0.53997 -0.458331 -0.51014 -0.276264 -0.0175429 0.565395 -0.896277 -0.279342 -0.119766 -0.532536 -0.278077 0.788286 -0.0998379 0.15216 -0.151675 0.198095 -0.716377 -0.652924 -0.661117 -0.793199 -0.705504 -0.360224 -0.633964 -0.00238333 -0.112754 -0.532536 1.16707 0.518624 -0.0302275 -0.594156 -0.151675 0.686598 0.370338 -0.490412 -0.697109 -0.349207 2.33653 -0.632343 -0.76412 -0.362595 -0.845663 0.868487 -0.656272 -0.733292 -0.401595 3.15677 -0.747811 -0.231688 5.65941 -0.456913 -0.0960896 -0.550962 -0.112754 0.456014 -0.666061 -0.247228 -0.601033 -0.410764 -0.140706 -0.838868 0.160041 -0.802062 -0.445359 -0.763525 -0.52738 -0.249768 0.582344 -0.883493 -0.417944 -0.626978 -0.620716 -0.881246 -0.458331 -0.853883 -0.864481 -0.550294 -0.882997 -0.172929 -0.824391 -0.696167 -0.808598 -0.923833 -0.694747 -0.694747 -0.821343 -0.879474 -1.03523 -0.824391 -0.980047 -1.00535 -0.915558 -0.626978 -0.878825 -0.719502 -0.943516 -1.01515 -0.922111 -1.00941 -0.95968 -0.72289 -0.445359 -1.06085 -0.410764 -0.933292 -0.00238333 -0.9368 -0.696167 -1.03639 -0.943516 -0.925953 -1.04983
internal_weight=0 922.757 358.141 296.574 61.5672 14.3907 564.616 193.211 18.7705 445.736 47.1765 37.541 174.44 376.911 108.118 47.1765 9.2601 13.765 9.13497 60.9415 28.406 66.3224 8.50928 45.6748 5.25573 53.6836 23.7759 23.9011 18.2699 392.053 21.0229 48.9284 40.5442 15.1415 25.4027 42.4213 319.724 39.9185 8.75956 6.13169 121.633 68.4497 19.3962 53.183 8.88469 15.2667 11.5126 31.159 17.2688 11.888 9.2601 5.38087 13.8902 5.88142 13.8902 9.2601 270.42 65.9469 63.4442 18.7705 13.0142 6.25683 49.0535 43.7978 15.2667 10.3863 103.363 9.2601 18.6453 9.63551 25.1524 57.1874 39.7934 12.8891 9.63551 5.63114 118.88 28.0306 24.6519 20.8978 44.6737 69.0754 18.0197 10.2612 7.50819 5.63114 6.25683 17.7694 37.9164 11.6377 6.38196 51.0557 204.473 120.381 115.376 56.0612 17.0186 14.5158 11.1371 84.0917 48.6781 45.8 13.0142 7.00764 14.8912 12.0131 8.25901 25.1524 12.6388 6.00655 6.63224 35.4136 8.50928 42.5464 39.0426 6.5071 5.00546 59.3147 6.63224 17.7694 11.888 6.13169 7.8836 33.5366 26.9043 5.38087 21.5235 5.1306 6.25683 8.00874 32.7858 16.3929 26.2787 17.5191 14.3907 6.75737 258.157 211.731 22.2743 9.00983 13.2645 41.7956 5.00546 36.7901 24.5268 21.3983 6.5071 14.8912 17.394 7.13278 9.38524 46.4256 10.1361 5.50601 7.63333 12.5137 47.5519 14.2656 9.88578 6.38196 6.00655 5.75628 207.351 191.709 118.88 52.6825 70.2016 66.948 10.5115 9.51037 6.38196 8.38415 6.38196 43.7978 5.00546 5.00546 5.00546 5.00546 39.0426 14.7661 11.5126 5.00546 24.2765 115.126 77.5846 30.4082 10.7617 7.63333 26.9043 7.00764 19.6464 14.5158 11.2623 5.75628 18.1448 72.8294 44.6737 28.1557 38.0415 6.63224 30.7836 21.1481 17.6442 13.1393 24.1513 9.63551 33.2863 50.1797 47.1765 16.0175 13.0142 5.1306 10.3863 6.25683 5.1306 6.5071 6.13169 10.3863 5.88142 5.38087 7.13278 16.1426 12.6388 8.50928 5.1306 29.6574 24.5268 9.88578 12.2634 5.88142 7.75846 20.5224 10.3863 6.00655 30.6584 6.38196 7.75846 62.9437 13.0142 49.9295 10.3863 6.75737 39.5431 15.1415 12.2634 10.5115 7.75846 9.00983 5.25573 48.6781 12.3885 34.2874 15.5169 9.76065 5.1306 24.2765 6.63224 5.50601 7.25792 20.6475 7.00764 47.1765 29.2819 11.2623 31.159 5.00546 8.63442 10.5115 16.518 36.2896 8.38415 16.7683 14.2656 10.2612 14.641 8.63442 15.6421 12.0131 42.9218 11.012 37.541 6.63224 8.75956 31.9098 8.00874 61.5672 28.2809 11.1371 6.88251 18.0197 5.25573 8.38415 5.1306 34.0371 10.5115 59.0644 8.75956 24.4016 16.3929
internal_count=10386 7374 2862 2370 492 115 4512 1544 150 3562 377 300 1394 3012 864 377 74 110 73 487 227 530 68 365 42 429 190 191 146 3133 168 391 324 121 203 339 2555 319 70 49 972 547 155 425 71 122 92 249 138 95 74 43 111 47 111 74 2161 527 507 150 104 50 392 350 122 83 826 74 149 77 201 457 318 103 77 45 950 224 197 167 357 552 144 82 60 45 50 142 303 93 51 408 1634 962 922 448 136 116 89 672 389 366 104 56 119 96 66 201 101 48 53 283 68 340 312 52 40 474 53 142 95 49 63 268 215 43 172 41 50 64 262 131 210 140 115 54 2063 1692 178 72 106 334 40 294 196 171 52 119 139 57 75 371 81 44 61 100 380 114 79 51 48 46 1657 1532 950 421 561 535 84 76 51 67 51 350 40 40 40 40 312 118 92 40 194 920 620 243 86 61 215 56 157 116 90 46 145 582 357 225 304 53 246 169 141 105 193 77 266 401 377 128 104 41 83 50 41 52 49 83 47 43 57 129 101 68 41 237 196 79 98 47 62 164 83 48 245 51 62 503 104 399 83 54 316 121 98 84 62 72 42 389 99 274 124 78 41 194 53 44 58 165 56 377 234 90 249 40 69 84 132 290 67 134 114 82 117 69 125 96 343 88 300 53 70 255 64 492 226 89 55 144 42 67 41 272 84 472 70 195 131
shrinkage=1


Tree=1
num_leaves=300
num_cat=0
split_feature=26 25 24 2 19 13 17 2 2 2 13 23 16 29 16 0 2 6 6 11 6 17 24 6 10 15 2 13 17 17 0 12 13 19 10 15 0 17 15 17 19 26 26 24 26 24 26 10 16 25 16 12 13 6 12 26 6 0 2 11 6 23 17 13 16 2 17 11 15 0 25 23 23 11 17 15 0 0 12 17 13 16 11 17 0 23 0 10 6 24 16 10 26 26 12 13 23 23 13 19 17 19 16 17 25 11 6 11 11 12 25 25 13 0 12 2 6 19 11 13 2 0 16 11 17 26 6 10 17 19 2 16 11 0 13 2 16 15 10 11 17 0 26 6 25 26 11 19 23 6 0 15 11 12 16 17 2 0 25 19 17 15 11 26 26 0 26 17 6 17 15 16 10 17 25 13 0 19 12 13 12 24 12 25 17 13 6 17 2 11 10 0 17 15 2 13 2 11 17 2 26 17 15 0 12 24 12 13 0 16 24 25 10 0 2 16 17 24 23 17 26 12 13 2 12 0 16 0 6 11 13 16 16 13 6 6 26 12 0 16 10 11 15 17 0 13 0 24 12 17 16 24 24 23 16 10 26 6 11 19 17 16 2 16 25 13 11 15 16 0 6 2 11 13 24 12 6 13 26 2 10 16 11 0 15 17 11 25 17 0 10 16 17 16 26 13 16 6 6
split_gain=142.419 167.947 90.9032 63.1342 128.239 58.216 55.2327 24.5089 24.4061 24.0595 23.3974 26.3365 35.8861 18.2106 17.5288 16.1968 15.6583 25.7146 17.0428 15.362 15.2303 14.6324 14.0816 13.5246 13.4083 12.4723 18.554 14.7559 12.2437 11.8204 11.8006 11.7386 9.95872 9.89779 9.84774 9.64841 16.344 9.50023 9.02427 10.2712 8.83769 8.82452 9.6573 8.61527 8.51463 11.3207 10.4986 11.349 8.50317 11.9526 9.60606 8.30173 15.0085 7.85999 7.67755 7.44274 7.40666 8.59536 7.87133 6.92077 6.79823 8.43233 8.28823 6.56555 6.5305 6.31027 6.26771 6.2378 8.5959 6.12483 6.97253 6.01009 6.73796 14.4311 6.37017 5.98599 9.68603 5.96069 5.85784 5.57514 5.56304 8.18547 5.52706 5.49747 5.4959 5.93955 5.9216 8.0385 5.1131 5.04763 4.98753 6.70505 9.02959 4.9028 4.88034 4.6926 8.98039 14.0051 4.89491 4.68366 8.06289 10.6391 7.79867 7.41622 5.7126 6.88292 6.9147 11.6599 6.85131 5.6184 7.02489 5.53781 5.484 5.14321 7.71436 7.8409 4.80995 4.76913 4.65027 6.58425 5.07748 6.98969 4.64652 4.63911 4.61756 4.61016 4.40841 4.44661 4.34008 8.96234 4.12205 4.10262 7.00199 14.1832 5.90675 7.02574 4.42062 4.00891 3.97912 4.24319 3.9092 3.89567 3.87098 7.6737 5.18285 3.74884 3.7352 7.31535 7.94109 7.0633 4.36748 4.45552 6.75629 11.5755 26.3827 8.89398 11.0656 5.906 4.43039 7.70766 11.4513 4.22694 3.74329 6.8626 3.72656 3.67148 3.63896 3.6388 3.61968 3.53786 6.64474 3.51993 3.46685 3.40412 4.62405 4.2869 3.7974 5.30445 3.57915 7.24673 3.31911 4.34027 3.31709 3.28722 3.28113 3.5008 3.26375 3.24343 3.1593 3.15815 3.10069 3.08873 5.44027 4.41513 3.08312 3.67414 3.06921 13.741 3.0349 2.98489 2.93327 2.86925 2.84988 5.78543 2.8648 3.00655 6.14717 10.4441 3.41928 3.60831 2.85265 2.96047 2.81985 6.09261 4.63053 9.02303 3.84156 2.74473 2.72046 6.09235 2.76904 5.16315 8.43638 2.69441 2.5408 2.54006 2.46746 2.45231 2.88949 2.44146 2.4342 2.4327 2.42082 3.4813 6.77141 2.36344 2.31965 2.30777 4.03509 2.25324 2.19991 2.19278 2.16019 2.15711 2.1303 2.58095 2.8026 2.09368 2.0148 1.96019 1.95472 1.90569 1.86988 2.8037 2.86987 1.83709 2.73355 1.81913 1.79676 1.73078 1.7237 1.67936 1.61384 1.59868 2.81808 3.02904 1.51618 6.05826 1.44243 1.42745 1.75493 3.324 4.04637 1.39277 1.7362 1.34026 1.33581 3.08481 1.8211 1.25893 1.23134 1.22638 1.22334 1.16315 4.15007 1.15818 1.13828 1.09231 0.987627 0.96692 0.934589 0.924737 0.914752 1.80563 0.896775 0.893415 0.89231 0.879986 0.875322
threshold=12.174936895000002 11.933577050000002 1.0000000180025095e-35 5.0046507835000007 4.5000000000000009 1.9733121245000003 9.6168059100000018 2.1646160360000004 12.580120925000001 9.9041360805000007 2.7752525255000005 1.0000000180025095e-35 3.5683953370000006 1.0000000180025095e-35 12.865268685000002 56.240914015000008 4.0378068190000009 1.5935129830000003 2.5757885970000003 1.2656862745000002 1.9208303040000001 10.857929785000001 12.218442935000002 4.7395832010000012 180.05282340000002 128.06450000000004 2.8411190705000005 2.3620261440000005 12.432111180000001 12.165057545000002 170.36652560000002 1.4472222220000002 1.5300163800000002 8.5000000000000018 268.55541125000008 124.05300000000001 346.29674570000003 10.657945270000001 183.08650000000003 12.190286865000003 6.5000000000000009 24.450200220000003 32.68231758000001 6.4465212440000004 57.404983755000011 11.502365440000002 73.157166175000015 313.12000425000002 6.713678133000001 21.747355670000001 6.7327432855000007 1.5590277780000001 2.4292857145000002 2.1808029855000002 2.0801282050000007 12.991277650000002 1.2552695495000001 177.59784025000002 2.8077139160000004 1.1769852940000003 1.0921385530000001 1.0000000180025095e-35 10.138147910000002 2.6273148150000005 2.6370049055000004 3.3204455840000002 11.243749545000002 1.4868421055000003 144.06150000000005 867.0273079000001 17.487865845000005 11.378360770000002 6.0899932475000007 1.0506410255000003 12.127435895000001 494.67400000000004 606.56783845000007 1623.0091185000003 1.7363455810000004 10.248719060000001 2.1923809525000002 2.1312749055000002 1.5419580425000003 12.671391775000002 650.21993650000013 24.191237760000003 399.68130420000006 328.72393865000009 1.7824622230000002 17.683922510000002 2.9614700350000005 328.72393865000009 55.562547845000005 32.352135850000003 1.6233108110000003 2.2714987715000006 11.378360770000002 18.560092300000004 2.0972972975000004 3.5000000000000004 9.9103472220000004 5.5000000000000009 1.9191050585000002 10.038549695000002 17.726522880000001 1.3651515153500002 1.6986311250000001 1.2204861110000003 0.93592375350000012 1.8759615385000001 17.096349565000004 17.655012770000003 1.9733121245000003 234.52896095000003 1.9284962410000002 3.4806494050000008 1.9504027850000003 11.500000000000002 1.5683229810000003 2.2826923075000001 3.5138626795000003 280.45698810000005 3.1626564675000002 0.86285266500000013 9.8546759260000005 83.892255450000007 1.8644634565000002 238.1232487 12.437718110000002 21.500000000000004 2.6863393745000006 5.398906771500001 1.1411960135000003 421.30394402500002 2.4158805035000004 3.2789417875000004 4.6775515530000007 829.31150000000014 412.02639540000007 1.0560796650000002 10.037645970000002 568.0312613000001 24.226375155000003 2.3773443340000004 14.603791015000001 83.892255450000007 1.8309523810000001 4.5000000000000009 6.7513364420000004 0.54387827200000005 75.064573185000015 138.09050000000002 1.3839743590000002 1.9148550725000002 1.3091368880000003 9.5198148150000019 2.9497255275000005 112.69368115000002 6.250380551500001 3.5000000000000004 9.6168059100000018 168.00450000000004 1.0415476190000004 5.9745102790000013 19.007577025000003 215.14719465000005 53.219807675000006 10.100967970000001 3.7056872235000005 9.6350336715000022 85.062500000000014 1.7202384895000002 89.050053980000015 11.406265850000002 20.233160500000004 2.3620261440000005 476.46525319500006 9.5000000000000018 1.9148550725000002 2.6558704455000002 1.906926407 6.0899932475000007 1.5358974360000002 11.867875035000003 12.643404515000002 2.3963890695000005 1.6269715910000002 9.799157677000002 9.9901541755000007 1.3118055555000001 189.97630700000005 466.19239460000006 10.482777775000001 177.56900000000005 7.0905051305000013 2.1492869825000005 8.3792962870000007 1.0898989900000002 10.126774740000002 4.4370729540000005 25.204415415000003 9.8954861115000021 505.39150000000006 1117.4945445000001 1.8729838710000002 36.044414190000005 1.7257053290000002 2.3754824560000007 1863.6555525000001 13.792072690000001 5.0493267105000008 44.196902555000001 385.34704105000009 797.19507080000005 9.9841998710000031 6.6076788870000014 11.817497872000002 23.138655835000005 19.637857440000001 11.639322600000002 5.9745102790000013 2.0408333335000006 2.4939024390000006 4.1451879370000011 1.9148550725000002 75.721327230000014 13.792072690000001 133.58413280000005 1.2377463020000001 0.83484848450000004 2.5375234525000008 2.5026530700000005 4.0740745795000004 2.2826923075000001 2.7648543860000001 1.9090103405000003 24.922053015000003 1.8153409090000003 254.61581520000001 2.1876872215000005 119.03851340000001 1.4868421055000003 290.20250000000004 11.786326410000003 97.966262650000019 2.5979411750000003 72.609769300000025 6.4465212440000004 1.7215762275000002 12.693941200000003 5.3251662145000003 12.162857720000002 12.791621615000002 31.093713375000004 1.7746673400000004 124.02080355000001 6.0729036085000008 0.92972848650000006 1.3839743590000002 5.5000000000000009 11.426426775000001 5.3801404910000015 3.4159295280000008 4.1735486095000009 19.692583465000002 2.1923809525000002 1.5419580425000003 148.07450000000003 2.7130831785000002 265.89042050000006 1.7210264135000004 3.1795701165000003 1.2845238095000002 2.7445652175000004 5.5493267105000017 1.8202020200000002 2.6269209015000006 2.3115131580000003 18.914546855000001 8.5870556415000028 838.61423305000005 3.8472677300000004 0.81698564600000012 224.37059780000001 179.53050000000005 8.5729166665000012 1.3266666665000002 6.3481279145000009 11.595076210000002 176.73187675000003 175.56388965000002 1.1751134080000003 10.402636270000002 3.3393842740000004 25.269971030000004 2.2480769230000006 3.2682564705000003 1.323737256 1.1825971320000002
decision_type=2 2 2 2 2 2 2 2 2 2 2 2 2 2 2 2 2 2 2 2 2 2 2 2 2 2 2 2 2 2 2 2 2 2 2 2 2 2 2 2 2 2 2 2 2 2 2 2 2 2 2 2 2 2 2 2 2 2 2 2 2 2 2 2 2 2 2 2 2 2 2 2 2 2 2 2 2 2 2 2 2 2 2 2 2 2 2 2 2 2 2 2 2 2 2 2 2 2 2 2 2 2 2 2 2 2 2 2 2 2 2 2 2 2 2 2 2 2 2 2 2 2 2 2 2 2 2 2 2 2 2 2 2 2 2 2 2 2 2 2 2 2 2 2 2 2 2 2 2 2 2 2 2 2 2 2 2 2 2 2 2 2 2 2 2 2 2 2 2 2 2 2 2 2 2 2 2 2 2 2 2 2 2 2 2 2 2 2 2 2 2 2 2 2 2 2 2 2 2 2 2 2 2 2 2 2 2 2 2 2 2 2 2 2 2 2 2 2 2 2 2 2 2 2 2 2 2 2 2 2 2 2 2 2 2 2 2 2 2 2 2 2 2 2 2 2 2 2 2 2 2 2 2 2 2 2 2 2 2 2 2 2 2 2 2 2 2 2 2 2 2 2 2 2 2 2 2 2 2 2 2 2 2 2 2 2 2 2 2 2 2 2 2 2 2 2 2 2 2
left_child=15 2 3 4 7 31 54 55 14 35 11 12 16 63 22 201 17 80 19 -18 200 23 77 34 -12 26 27 164 29 51 -13 88 -25 -16 41 244 43 259 -24 48 79 -5 -43 56 82 242 47 -47 53 50 -50 -11 251 -40 94 124 58 65 130 66 -27 -62 -63 67 93 -58 -35 68 294 -41 -71 72 73 -55 260 76 141 99 -68 146 -8 -82 123 128 86 -86 87 -36 -6 -75 91 92 -23 118 -7 98 -97 -98 -59 292 101 102 -101 -102 108 106 107 -106 112 167 113 -112 166 114 -111 198 -115 142 119 -45 -121 -122 -20 -38 -2 -78 -14 -128 188 -130 -37 136 -133 134 135 140 191 202 224 229 -134 -34 -118 -144 168 173 150 148 171 -150 291 152 153 155 -155 255 157 -157 159 165 -161 266 163 182 -15 285 -105 -110 -145 -57 -171 -148 -173 235 175 -175 -176 -178 212 -180 286 183 -163 258 185 226 262 -104 -72 -124 -136 192 193 -42 195 -125 232 -198 -116 -21 -19 -1 -10 -204 205 210 207 208 209 280 211 -205 -179 216 -215 -216 -214 252 219 220 237 222 227 -113 296 -174 -139 -222 -229 -140 287 -194 276 234 250 -108 -177 238 -81 -65 -172 -220 -46 283 245 246 247 -4 -30 -212 -234 -53 253 254 -197 -152 -257 -159 -182 -32 -73 -235 -33 -237 -265 -266 269 -268 -88 -153 271 -271 -273 -239 -275 -230 277 278 297 -74 -207 -246 -89 284 -107 -154 -164 -66 -256 -200 -64 -17 -3 -294 -9 -96 -92 -169 -60
right_child=1 8 9 21 5 6 10 13 137 28 24 30 126 25 33 40 18 20 122 199 -22 90 38 32 -26 60 -28 -29 248 -31 37 186 75 59 84 36 44 -39 39 69 131 42 -44 64 45 46 -48 -49 49 -51 -52 52 -54 71 -56 169 57 95 298 -61 61 62 290 239 230 -67 78 -69 -70 70 83 74 279 89 -76 -77 125 -79 -80 218 81 -83 -84 -85 85 -87 268 282 -90 -91 138 -93 -94 -95 295 96 97 -99 -100 100 103 -103 187 104 105 243 145 -109 109 110 111 223 -114 116 115 -117 117 -119 -120 120 121 -123 189 194 -126 -127 127 -129 129 -131 -132 132 133 -135 190 -137 -138 184 139 -141 -142 -143 143 144 -146 -147 147 -149 149 -151 151 161 158 154 -156 156 -158 257 -160 160 -162 162 180 -165 -166 -167 -168 196 -170 170 240 172 225 174 176 236 177 178 179 -181 181 -183 -184 -185 -186 -187 -188 -189 -190 -191 -192 -193 231 -195 -196 217 197 -199 289 -201 -202 -203 203 204 -206 206 -208 -209 -210 -211 249 -213 213 214 215 -217 -218 -219 241 -221 221 -223 -224 -225 -226 -227 -228 228 275 -231 -232 -233 233 261 -236 263 -238 273 -240 -241 -242 -243 -244 -245 281 -247 -248 -249 -250 -251 -252 -253 -254 -255 288 256 -258 -259 -260 -261 -262 -263 -264 264 265 -267 267 -269 -270 270 -272 272 -274 274 -276 -277 -278 -279 -280 -281 -282 -283 -284 -285 -286 -287 -288 -289 -290 -291 -292 -293 293 -295 -296 -297 -298 -299 -300
leaf_value=-0.052164691584753856 0.054929319306673989 -0.058556746394840355 -0.058495948966684003 -0.021876808801190768 0.027253886936007679 0.19561624944117059 0.064579273308023363 -0.058490827911771452 -0.058650906793868411 0.11366138280097103 -0.027988253656883524 0.12968834173042035 0.080879960673886087 -0.019150967350626213 -0.040125127221932337 -0.022577039918531012 0.0053467532770960571 0.28794493803927351 0.11806056356087952 0.092266600924879288 0.13768241382560581 0.0018337873023314924 -0.058575812270920236 0.15485975621185891 0.09712253692268169 0.094091897183165046 0.1816333855395996 0.13401185944087782 0.020186524383705551 0.14152800829004158 -0.058604058046967528 -0.012153523190881534 0.060872365795381168 0.10661108050541257 -0.036513364275937772 0.0044914420313713257 0.035256248220868945 0.086558855004783372 0.10129539419823944 -0.058660761879952811 -0.048635237806738452 0.13080734558547788 0.017784218090360057 0.10384291665391343 -0.0043914004539295538 0.17339875763320045 -0.0048997977416784383 0.028661383126908718 0.080690204612362579 0.13037954668012144 -0.017793001612706135 -0.058783625249910154 0.10484568598052391 0.10809945357330603 0.1380296953722232 -0.053417078391155996 0.055655364920588625 0.040436577682545279 -0.058510589188068077 0.13347566996972943 0.087185862867854083 0.060303018999912916 -0.058419814027537577 -0.058422894874684307 -0.058924131920816337 0.14650703716416924 -0.014549532770580763 0.074904974098461169 0.063747793276760584 0.067087875610921235 0.016438253021753019 -0.015811829714327475 0.10114716560909674 -0.058728258931154666 0.048567847282980844 -0.01853636430310408 0.051490249295775274 0.058269620584515791 0.07571193464516475 0.012626634182427413 0.083272766730203493 0.19955238325753946 0.040966189738667169 -0.049841737702678704 -0.0021675645888682765 0.097936096703168871 -0.018764482917119081 0.079331812696417314 0.10581749288449759 0.017766597936523708 -0.020284942588704287 -0.041518855357962223 0.1177587482450983 -0.040932323538922448 0.24088704941211422 0.10894354378554094 -0.04649895230708849 0.079143773734732567 -0.05850073504235085 0.058886506731812061 -0.054012375326375678 0.088817063777733421 -0.049736116874931798 0.034732753911638568 -0.027799526330976754 -0.052618644712703222 0.0098101521887193482 0.10928383729913199 0.029331530098804542 0.071573542220882996 0.08387673328273533 -0.017998204440994803 0.072359480877676338 -0.05224910836416663 0.020189510536238908 0.070255364822606678 -0.03493758364280309 -0.048726641339773467 -0.02533476711589466 -0.028050355275851285 0.088561318743184639 -0.018020128060285349 0.21638088499317498 0.031176038417551722 -0.024660704521162466 0.13341580403636233 -0.038913090401000744 0.053842387152745252 0.10661069373148363 -0.010293805389439211 0.088369984130893864 -0.045849156732599587 -0.03912571541672389 0.13667216496210496 0.021066422317789303 0.10305009985350028 -0.058473666437134419 0.0030991641624680006 0.014202882444524365 0.054246557180634793 0.045528920041674657 -0.024215357560591511 0.097727815847093599 -0.058526809704823581 0.047044179650446799 0.030865722859197406 -0.052468546214944414 0.077058171832876957 0.10054506841409704 -0.0038037983570888348 -0.058235973043520406 -0.055309241305568316 -0.019394876829662698 0.18627460409183563 -0.019057845479201446 0.063372276339813655 0.11077325374544696 -0.0075064031913618075 -0.045813887739710804 0.093680107183517713 -0.031442121675209329 -0.058289446602572882 -0.058292813003859661 0.08338461850214586 0.059273329159411303 0.018573901892934796 -0.040765836586851387 -0.03984435471765925 0.01829821687387281 0.046180776858786257 -0.058342105878949585 0.04284178469926838 0.004893601809082198 0.068265142375623006 -0.058436489087155125 0.025414830782200117 0.05581548917210321 -0.058381407012557465 0.061035606843114543 -0.042296797825839755 0.022627720238140546 -0.04138896162714828 0.023050123583635878 0.06329383493951192 -0.04894708460057573 0.021038693354965068 -0.046837525178180919 0.011195108984223056 -0.058523388909418189 0.14612874810459781 -0.047908308759198159 -0.044970336373640341 0.079845920574709836 0.029099403544238962 -0.051637829207360965 0.0083534098772186371 -0.058693472907735245 0.095612713711487496 -0.058804854054395519 0.16742614516855148 0.22758902722080443 0.0031762057189088306 0.043784287810174967 0.016872619494390551 0.023695652750619505 -0.043828020188909085 -0.051585574647564261 0.086024168866803558 -0.058474363826886727 0.039097755629597893 -0.058339846601860271 -0.044976282586170237 0.06843897854326117 -0.058393720406570732 0.05156390572533362 -0.058450110988849571 -0.011971658857437298 0.020491561675863988 -0.05826210362875333 0.037732553742742876 0.021704845534266951 -0.049802483307174406 0.058777778292473819 0.046779568882867578 -0.0018209277302668029 -0.058400238079183701 -0.058251959660345201 0.012972508235349995 -0.021823475258631101 -0.044720648012413718 0.0030609389955006407 0.015030928861803598 -0.058412746279454843 -0.011609290699192637 0.055103366359680633 -0.050602061335635697 -0.039227990796220427 -0.058316939147750491 -0.0583767793873817 0.0011971525209047277 -0.0016543192519622549 -0.014541848017439851 -0.058702548114307557 0.0013427094312855558 -0.058470163028199629 -0.058495597578920248 0.020284898730085311 0.0035223227582458412 -0.041227779656067116 -0.016896757814173761 0.0017462430789990002 0.0013387764981784729 -0.058573216269110599 0.014523490997312778 -0.05334552452668765 -0.045978212397705498 0.020291919101746689 -0.058470134800463397 -0.037859435089174283 -4.5830810684897826e-05 -0.058604238588212801 -0.058591466880857757 0.041454534078067165 0.012860237701619752 -0.0011738308769194807 -0.058485469952971374 0.042454097130835283 -0.058242208644063459 -0.058595202134815498 -0.058333742255390911 -0.058359334399730636 0.043497846683897542 -0.040438227266574034 8.0715127681608344e-05 -0.058530599491668472 -0.058360804719540693 -0.058375447558709395 0.017176233039313434 -0.058824148022357164 0.051942400182292826 0.0024915794534944445 -0.01795885463474552 0.031291309929958218 -0.058552420881049297 0.020308094091315981 -0.058446097863762606 -0.019440083388256556 -0.023191409065871454 -0.017991021323779288 -0.019765545922434805 -0.018553049612629904 -0.054380802180981971 0.00066687713867196927 -0.05858304333068326 -0.017147045808526457 0.27939451412701954 -0.053261662699624429 0.0015317377951380099 -0.018318814221625693
leaf_weight=58.297981679439545 4.8348301798105267 5.7254153192043287 3.0953017920255679 2.697579622268675 4.0503916740417498 5.2633617371320707 3.219603359699251 2.8470334410667437 5.0110702514648429 3.4750584810972276 4.8527450114488584 2.9089777991175634 3.5648100078105909 3.7541247382760066 2.7237147912383106 2.8009043484926215 4.6586925014853495 5.1707661598920804 3.6665910929441434 2.6386472210288048 3.290190875530242 4.134624280035494 4.235875502228736 2.7997966706752804 3.8330967575311661 3.5932362154126158 4.5594934523105612 4.1424479708075523 2.53299806267023 4.7391494438052169 2.4987100064754486 3.2046742588281614 2.5097144246101362 3.0146647468209249 4.5180123224854523 3.1829218119382841 2.6591252982616416 2.7437501698732376 2.5016014426946667 4.8975690677762058 5.0756744891405159 4.4798144698143005 3.269275888800621 3.3746039941906991 3.6770053580403355 2.5815320461988431 4.6492657065391541 2.8491392433643341 5.0115476250648481 4.4897320494055739 4.8940800577402115 2.7858607843518239 3.3565550819039345 2.6939705163240495 2.7754817381501189 10.244122952222826 4.3608000054955509 2.5212387964129475 2.9759897068142891 2.8556557744741431 3.0793157294392577 2.9364649131894094 3.5730687752366066 4.3089018017053595 4.3530432283878309 3.4025606513023376 4.5302968546748161 4.1197105497121802 3.2670141234993935 3.5726538300514248 2.6592634618282336 4.6621388718485814 2.5035688504576674 4.7930790111422521 2.7935628816485396 2.4962101280689231 2.7141559273004532 2.9954315945506087 2.9798548817634583 4.2173773795366305 2.8126770853996277 3.276583194732666 3.0115221142768851 5.7325091212987891 3.5360756143927565 2.5507030412554741 3.7612644881010038 2.5344816744327545 4.2378821074962616 3.9205568060278893 2.6130910366773668 2.9030816927552223 2.8292246311903 2.7923978343605986 2.8210827186703682 4.163719691336154 4.1916750818490964 4.7103224471211433 2.4797347187995911 3.8213071227073696 10.878321781754492 4.3953660726547232 5.6290251389145833 3.7492144927382451 3.2474607005715361 8.5296088457107597 2.9147152528166798 2.9697090163826942 3.4068950936198226 4.5987243950367001 4.2032731771469098 3.6761794835329056 4.9544261917471886 7.7007296085357693 2.5331579968333227 2.7070996537804595 4.234374947845942 5.0973733589053145 3.0039227306842795 3.2653282657265645 4.070831835269928 2.4726295992732048 3.9818398654460907 2.7801675796508816 2.9247909560799599 4.6748749911785126 2.5218006744980812 2.649689644575119 2.7157071381807327 4.1368257701396942 2.7133190780878067 3.9589461088180569 2.5901110395789164 2.5567117929458609 2.5088381469249716 2.7810658290982246 4.8253286331892005 2.4425120875239354 3.4245130047202093 3.0895595103502274 2.8801679760217667 2.899146743118763 2.553814321756362 3.7280628532171232 3.7817812189459801 3.9068036675453177 8.5507680401206105 2.5837052688002577 2.5125385001301757 4.5739188492298126 6.3107362389564532 16.515679553151134 2.5683439597487467 2.6530398279428473 3.8124042972922325 2.4631935879588109 2.6546727046370497 4.9130473732948303 15.937438555061815 3.612730383872985 3.7028955072164536 2.5597695335745838 7.07004611939192 2.4678456708788872 2.5394090414047241 2.5962141305208197 2.7790614366531372 2.6494541093707102 2.6042637974023819 3.3440758436918241 4.8950774818658829 2.468155309557913 3.145305223762989 3.1499237120151502 5.1811311319470397 2.9788607209920883 2.6221858933567992 5.3979202359914806 3.7598948255181304 3.0920577794313431 2.4672272801399213 5.8890711292624474 2.4560178443789482 2.4646611139178276 37.580038785934448 3.7814728021621704 4.1780603006482124 3.5687322020530701 2.9814208298921585 2.6741122901439667 4.6480323076248169 3.7074879035353652 2.5255570188164711 2.8536128848791122 14.525815822184084 2.9891910925507643 3.2634617015719405 2.5860191360116005 4.1841997876763344 2.6453210338950157 3.2963525652885437 2.4401909410953513 3.4126650616526595 3.9786530882120159 3.0332012474536887 3.4370208084583336 7.2850985750555983 3.1127266287803641 3.4663273915648452 3.5872475802898407 13.705391675233843 3.7663744539022446 2.7542941123247173 8.8489042297005671 3.6303915604948989 3.8301073536276817 3.2238787412643433 2.5247333049774161 17.634287133812908 3.1156061291694632 2.4917743578553262 11.590318672358988 3.8376664072275153 2.8496334180235863 4.3973152935504904 3.195548951625824 4.9810678884387016 2.7873147353529921 4.0898330137133581 3.6123834326863289 4.8190473541617385 3.392131119966507 2.953444533050062 3.1758044213056555 3.9489842653274536 12.491806343197824 2.5982522666454315 18.8127605766058 3.8073395267128944 2.506685197353363 2.6315047144889832 3.4249586164951316 3.6465333178639412 2.5021123439073554 7.668882340192793 3.0982032641768447 5.0576131641864777 2.428585484623909 2.824741892516613 3.6033761575818053 2.4875715225934982 2.5014850795269012 5.9832814112305632 3.4118670821189871 9.8532380908727628 4.0420226454734802 2.5301041826605797 2.7205801010131836 2.4438021630048752 2.5491817072033882 4.7517019361257553 4.7422261536121368 2.4984258711338043 3.4982998967170706 3.4853702783584577 6.8102406337857246 2.4764705374836913 3.7638996616005898 5.7444745749235153 3.6705810353159887 4.7813835367560378 2.9450662285089493 2.8018846213817596 2.5681039467453948 2.4872139766812325 6.4970851615071297 6.99444705992937 2.6366690024733535 7.1156282648444176 2.703927218914032 2.462960496544838 2.4698025360703468 2.7773017361760139 11.705868877470492 2.5293351411819449 7.281666561961174 2.5705728456377983 4.2044138610363007 2.4706564769148818 2.5543482825160027 2.4977086037397385 12.423405058681963 2.5249440893530846 2.6202596127986908 2.4320160448551178 3.2318835407495499 9.5425420477986318 2.4953254833817482 2.4865422248840332
leaf_count=483 38 46 25 21 31 36 24 23 40 27 38 22 27 29 22 23 36 37 28 20 24 33 34 21 29 28 34 32 20 37 20 25 20 23 36 26 21 21 20 39 41 35 26 26 29 20 37 22 39 35 39 22 26 21 20 84 34 20 24 22 24 23 29 35 34 26 36 33 26 28 21 37 20 38 22 20 21 24 24 34 22 24 24 46 28 20 30 20 32 31 21 23 22 22 20 32 34 37 20 30 87 34 45 30 26 69 23 23 27 36 33 29 39 61 20 21 34 41 24 26 32 20 29 22 23 36 20 20 21 33 21 32 21 20 20 22 39 20 27 24 23 23 20 30 30 31 70 21 20 37 52 135 21 21 31 20 21 40 130 29 30 21 58 20 20 21 22 21 21 27 40 20 25 25 42 24 21 44 30 25 20 48 20 20 309 31 33 28 24 20 37 30 20 23 117 24 26 20 33 20 23 20 27 32 24 28 59 25 28 29 112 31 22 72 29 31 26 20 145 25 20 94 31 23 35 26 41 22 33 29 37 27 24 25 31 100 21 154 31 20 21 28 29 20 62 25 40 20 22 29 20 20 48 27 80 33 20 22 20 20 38 38 20 28 28 55 20 31 46 30 39 24 23 21 20 53 57 21 56 21 20 20 22 94 20 59 21 33 20 20 20 101 20 21 20 22 77 20 20
internal_value=0 0.206857 0.641706 1.00925 1.35065 2.09312 2.44592 0.395059 -0.208158 0.0974753 2.07968 2.29911 2.60346 0.817587 -0.0850638 -0.526738 2.99269 3.59638 2.36514 1.43073 4.57947 0.327492 -0.131815 0.658384 0.544473 1.29778 1.94981 1.21457 1.073 1.49152 0.875099 0.470861 1.36325 0.935117 0.302817 -0.0371541 0.0648675 0.233441 0.247182 0.330168 -0.433962 1.1202 1.66248 0.405237 -0.285228 0.31753 1.00499 1.94928 0.617952 1.25411 0.640651 0.967882 0.443101 0.325597 4.25102 -0.338899 0.73354 1.02948 0.0605602 1.28882 0.674201 0.315181 -0.173195 0.0614812 0.0279009 1.90948 0.914208 0.487336 8.8245e-05 -0.162692 0.064348 0.178021 0.569434 0.139175 -0.354718 1.04583 1.32213 -0.237545 0.425283 -0.503135 2.35472 2.91684 -0.494154 -0.186053 -0.0330678 0.79563 -0.29394 0.250265 1.34849 -0.486213 -0.16109 0.446371 0.97862 0.405057 4.61657 0.651341 0.966644 0.39965 -0.172431 -0.253008 -0.226211 0.431129 -0.0230279 -0.273226 -0.235483 -0.393066 -0.264091 0.753601 -0.0796336 -0.1595 0.0532967 0.782353 0.653904 -0.115728 0.330495 -0.0921759 -0.364791 -0.126698 0.616152 0.872 0.457483 0.965731 3.26516 -0.577962 0.498598 2.06645 0.762007 0.172231 0.185974 0.720725 0.86181 -0.0205796 0.286874 0.55217 0.190227 0.766857 -0.32177 -0.624548 -0.385749 0.10801 0.108919 0.305308 0.128991 0.405672 0.0145788 -0.339258 -0.401302 -0.0590563 -0.228182 0.663872 -0.462824 -0.405622 -0.224659 0.108246 1.30397 -0.193337 0.398719 -0.0789433 -0.523998 -0.207634 0.606959 -0.587808 -0.311533 0.302485 0.249857 -0.686434 0.051866 -0.40985 -0.538627 -0.646676 -0.249314 -0.592329 -0.148686 -0.385816 -0.230093 0.432708 -0.366706 -0.254881 -0.358986 0.288103 -0.512144 -0.187622 -0.369218 0.323508 -0.837331 -0.36239 -0.265287 -0.521896 -0.463664 3.76312 -0.474585 -0.0887556 0.128294 -0.413198 -0.654566 -0.471529 -0.485211 0.190487 -0.529344 2.59788 5.28895 -0.998827 -0.451139 -0.38519 -0.468842 -0.527918 -0.26977 0.0757246 -0.319509 -0.00895483 -0.768525 -0.264085 -0.519135 -0.362074 -0.678619 -0.0983125 0.501511 -0.583321 -0.709919 -0.610466 -0.677777 -0.466444 -0.154913 0.205767 -0.687811 -0.540082 -0.761323 -0.476727 -0.646424 -0.320909 -0.50724 0.853855 -0.58604 -0.306558 0.105277 -0.658154 -0.0940163 -0.885142 -0.421221 -0.729908 -0.770449 -1.02303 -0.62868 -0.854475 -0.624645 -0.367181 -0.132146 -0.62459 -0.243854 -0.994243 -0.618175 -0.606785 -0.684803 -0.529298 -0.711948 -0.779355 -0.409317 -0.513392 -0.149432 -0.580644 -0.748232 -0.794952 0.226624 -0.752891 -0.518203 -0.781676 -0.814996 -0.365624 -0.856697 -0.906296 -0.673793 -0.423291 0.0515083 -1.04112 -0.57512 -0.884921 -0.807007 -0.637744 -0.848772 1.51196 -0.489836 -0.972031 1.08427 -0.951343 -0.718786 -0.965274 -0.958663 -0.827362 -0.925155 -0.880128 -0.840347 -0.970594 -0.896142 -0.590138 -0.788882 5.22895 -0.923453 -0.395522 -0.804306
internal_weight=0 930.614 454.448 271.256 180.746 101.715 83.5459 79.031 476.166 183.192 69.4541 60.7683 50.0677 50.1566 367.519 369.801 41.3314 21.0662 20.2652 9.94266 11.7573 90.5092 351.415 53.9629 8.68584 30.6753 14.9955 10.436 22.2158 16.8581 10.7006 18.1694 18.0939 16.1042 35.869 160.977 137.158 7.79164 76.6513 72.4154 309.063 10.4467 7.74909 69.545 67.6131 17.4035 10.0799 5.43067 45.7195 14.3954 9.90563 12.119 8.6439 31.3241 14.0918 28.8744 37.1888 25.8301 11.3588 13.3805 15.6798 12.0866 9.00724 19.4814 32.3562 7.76336 10.5248 12.6658 8.54606 26.6959 21.7984 28.8225 16.6151 11.4076 12.2074 15.2941 12.7979 274.764 7.51015 264.759 9.30886 6.08926 50.2096 18.2257 25.4223 6.08678 19.3355 9.8298 8.28827 8.71364 36.5463 9.86693 6.96385 18.9797 11.3163 18.0667 13.0657 8.902 5.00097 271.768 260.898 17.4144 13.0191 243.483 232.605 115.659 90.3922 6.21717 116.946 105.463 57.007 10.7291 11.4827 46.2779 16.5775 11.9788 29.7004 21.9997 16.1873 13.1834 9.80879 6.54346 10.3225 47.1981 7.75962 7.38903 8.7363 5.17149 12.4932 6.85253 5.89624 44.3037 21.9239 17.9649 15.4082 8.25134 22.3798 108.647 26.6794 10.1265 5.47028 5.40886 16.9023 12.6679 10.1141 84.175 177.397 27.0299 24.4462 7.08646 150.367 135.143 67.7991 32.0998 6.46544 25.6344 12.7515 10.0968 35.6993 19.7619 7.31563 67.344 30.389 7.48363 6.29353 12.4462 6.52828 48.4559 6.33233 21.1148 10.8707 17.3598 8.80901 80.2682 51.0678 8.72704 42.3408 37.1596 34.5374 6.85195 22.9054 13.2648 5.01579 7.37569 48.7851 11.2051 9.88116 9.19776 5.64068 6.65595 7.15687 17.5545 13.847 7.92929 44.539 30.0131 45.049 5.84948 9.27171 5.28397 8.46712 60.7382 59.8621 54.851 51.4384 48.4052 23.3514 16.0663 12.9536 9.48723 25.0538 7.74503 27.6855 22.2876 16.3094 7.4605 5.97817 27.233 87.3616 66.3024 63.1868 31.294 19.7037 6.52581 16.5529 6.34085 7.42358 15.866 13.3742 7.0369 13.3765 5.91769 39.1996 17.308 9.39 29.2004 5.57711 31.8928 8.02472 6.81559 7.52658 21.0592 7.32354 25.2669 23.8184 13.6797 10.5815 5.52389 5.35774 17.3088 5.44102 5.28735 24.7082 18.725 15.3131 12.8829 6.57213 7.63363 4.91103 5.04789 9.41384 7.91803 5.7031 26.2857 13.7939 10.2956 36.955 6.24037 9.50574 30.7146 14.1989 9.41753 5.74695 23.8681 5.05532 10.5869 21.8915 14.8971 12.2604 5.2075 5.89998 10.1387 5.31178 22.7648 11.0589 9.85001 9.64062 8.55746 12.3239 6.73855 6.07078 15.2243 10.8706 5.1452 5.27905 6.05297 12.1556 5.14478 5.46253
internal_count=10386 7374 3562 2108 1392 763 622 629 3812 1454 524 457 374 396 2927 3012 307 154 153 76 84 716 2800 425 67 239 115 81 174 132 83 141 141 127 284 1280 1088 61 607 573 2509 82 61 548 540 137 79 42 361 113 78 95 68 248 98 233 294 203 91 105 124 96 72 157 254 60 83 102 69 212 173 228 131 90 97 120 100 2193 60 2154 70 46 403 145 202 48 154 78 63 69 291 78 55 150 78 143 103 71 40 2169 2082 137 103 1945 1858 929 726 49 929 838 452 85 91 367 130 94 237 176 128 104 78 52 77 379 61 57 67 40 99 54 47 355 175 143 123 66 180 885 213 80 44 43 135 101 81 677 1443 219 198 57 1224 1100 550 260 52 208 103 82 290 160 59 550 248 61 49 101 52 386 51 172 88 141 71 646 412 70 342 300 279 55 187 108 41 60 401 92 78 73 45 49 57 141 111 64 358 241 359 46 73 40 60 503 484 444 417 393 189 130 105 77 204 63 224 180 132 60 48 219 711 538 513 253 159 52 133 51 61 128 108 56 104 47 313 138 75 234 45 260 65 55 61 173 58 203 192 110 85 45 42 141 44 42 199 151 124 105 53 62 40 40 75 63 45 211 111 83 302 51 76 251 116 77 47 195 41 86 175 118 97 41 48 82 42 183 89 80 79 67 100 53 49 124 87 41 43 42 98 41 44
shrinkage=0.05


Tree=2
num_leaves=300
num_cat=0
split_feature=8 21 9 23 2 1 22 13 24 27 28 2 1 27 12 20 2 28 2 1 6 1 6 2 12 13 28 22 23 13 23 6 29 13 2 24 21 13 6 28 24 21 23 8 28 23 23 24 2 1 8 27 8 1 23 13 12 15 6 8 8 2 2 24 9 1 12 27 12 8 2 1 13 13 13 8 8 15 6 9 15 6 6 2 12 2 9 13 1 1 15 28 12 2 8 6 1 13 2 20 9 2 15 6 6 13 6 28 2 12 12 15 1 27 8 27 8 1 15 9 13 27 8 20 20 15 20 9 13 2 20 28 21 15 1 21 13 27 6 2 12 12 12 8 2 22 20 28 27 23 2 1 28 12 6 2 15 6 13 6 6 15 15 2 1 1 12 15 15 8 23 21 13 6 6 13 12 2 2 21 12 8 2 28 13 2 6 6 15 20 1 13 1 15 8 12 2 28 22 15 6 15 15 2 6 15 28 12 28 28 28 20 6 13 15 15 13 2 2 12 2 15 13 15 2 23 12 27 6 1 2 23 27 15 9 12 23 20 6 1 12 9 15 8 15 28 6 23 28 28 12 20 1 1 24 1 6 23 9 1 12 6 23 9 23 2 23 15 2 15 6 21 27 20 6 27 28 28 6 28 28 28 28 2 12 13 9 6 12 22 15 1 6 9 28 24 2 15 6
split_gain=105.911 154.85 71.0814 58.3477 56.2662 60.6078 45.3285 50.6442 44.9391 44.9188 22.9785 22.5533 21.763 21.1423 19.6377 15.3075 27.5727 15.2808 14.8308 13.8306 13.5848 18.3016 15.8457 12.6631 12.446 14.448 11.654 10.4435 10.412 10.3513 10.1671 9.75589 17.437 15.9186 8.97851 8.37416 8.2636 7.98461 7.52006 11.3773 7.32585 7.27126 8.721 13.4105 9.66273 7.23633 7.16962 8.90454 10.5661 12.1495 8.09197 7.76073 12.0476 7.50396 7.08278 7.08274 11.495 9.16189 7.02498 7.00225 8.61128 6.96279 6.86 6.8152 6.80697 13.3078 6.56309 6.3947 6.12667 8.89259 8.28904 7.98731 7.57365 6.09047 7.25895 5.88881 11.8027 5.59883 8.55225 5.59131 5.48894 5.46867 14.0261 5.40409 5.30895 5.79476 5.30818 5.21911 5.19583 14.1386 5.18207 9.19196 5.17784 5.1737 5.16992 5.07039 5.05697 4.94209 8.83484 4.89154 4.88078 7.97633 7.27059 4.86876 6.04324 4.86035 4.84222 6.65235 5.17492 5.1125 4.83744 4.69385 4.60692 4.56286 4.5398 4.46979 4.29914 4.2717 4.25034 4.2226 6.01634 4.2023 4.18552 4.13948 4.06148 4.20689 4.10217 4.05268 8.89237 5.7937 8.81979 18.0945 6.57852 5.89005 5.0186 4.72302 13.7927 4.58942 4.28843 8.95395 4.18123 4.07005 4.04923 3.94561 8.08422 3.91956 5.77449 4.93963 3.7655 3.73485 3.72944 7.12754 4.68096 6.32849 5.5955 11.3882 5.03514 3.8861 3.72631 6.39582 5.99622 3.86078 3.71836 3.62814 3.57986 3.50365 4.1712 3.43238 3.40206 4.41171 4.12975 4.62355 6.37552 3.37022 3.36655 3.35856 4.03968 5.99577 8.03424 4.03359 6.00351 3.66004 3.30417 3.29518 3.66436 4.36062 3.15376 3.12787 6.6733 3.05584 3.05223 3.04471 3.03997 3.00986 3.42486 3.44109 2.97177 4.12913 3.65938 3.33148 2.96564 2.95788 5.57597 6.64983 2.8756 2.78437 4.80553 2.66954 2.66507 3.74974 4.25349 5.42142 3.66719 2.6129 4.67567 5.67863 3.03591 2.58359 2.57599 2.54067 2.52958 2.53676 2.50883 2.46689 2.46347 2.46132 2.45768 2.43805 2.33975 3.70532 3.18685 2.3062 2.27237 2.24322 2.24148 2.39926 2.23819 2.2349 2.28923 2.15566 2.10398 2.10224 2.09136 5.27324 9.61095 3.54512 2.08588 2.0725 2.03823 5.20438 7.64101 2.02664 2.025 1.96823 3.19361 2.29749 2.41179 2.07724 2.54883 1.95076 1.94998 1.93783 1.92605 1.9169 1.84936 1.84895 3.71317 1.80706 1.76095 1.74129 1.62906 1.57851 1.56303 1.52555 3.13563 1.46959 1.43232 1.31639 1.26956 1.20564 1.19081 1.17763 2.1002 1.1031 1.06037 1.04893 1.02359 1.75087 1.01316 1.16178 1.01064 1.00373 0.998118 0.993903 0.970505 0.968209 1.94258 0.92352 0.911458
threshold=12.005782960000001 8.9704119915000025 1.0000000180025095e-35 62.023761530000009 2.3436773800000004 7.2772304405000012 5.7455052880000013 1.9733121245000003 6.4465212440000004 9.5602372530000022 26.369864840000002 12.580120925000001 4.4366712300000009 13.854495515000002 1.1188235295000004 5.8625212535000015 3.8689700510000002 75.084750555000014 9.6565228965000021 5.6050558580000009 1.2146018725000003 4.6276626380000012 1.2868595490000001 10.188364275000001 1.4387500000000002 1.3708333335000003 25.411427730000003 1.0000000180025095e-35 1.0000000180025095e-35 1.8248081845000004 12.058503625000002 1.7476375735000003 1.0000000180025095e-35 2.3982758620000006 8.5261027425000027 6.0711935880000008 58.65779409000001 1.8530403555000003 7.6830093565000004 47.160775320000006 5.6672817480000006 13.698972240000002 1.0000000180025095e-35 32.749544860000007 57.750000000000007 19.324432260000005 17.873412905000002 12.108207900000002 3.4159295280000008 5.6850139035000007 5.938242508500001 8.8389349075000023 5.1760507205000001 5.2726219280000004 18.560092300000004 2.2714987715000006 1.8153409090000003 354.65400000000005 1.8793603180000003 23.882426140000003 29.915815155000004 2.6887933725000006 4.7897561250000011 23.596107155000002 11.515061630000002 10.830714230000002 1.7475490195000003 4.7657000690000011 1.5322916665000001 42.386868435000004 6.1630285205000002 9.7023079315000018 2.4592379265000006 2.1589105340000008 2.2958333335000005 49.484281080000009 45.104408590000006 331.06150000000008 3.8446321305000004 6.3481279145000009 354.05900000000003 1.9177547515000002 1.7493315825000002 2.7256964780000001 1.7215762275000002 10.563240105 12.322638195000001 2.0801282050000007 4.9508859425000002 4.6895582580000008 523.40800000000013 73.634942265000021 1.9148550725000002 2.0956744020000007 45.935585735000011 0.9077673715000002 6.2726219280000004 2.2192192190000006 3.5490027380000004 36.192505300000008 23.250327500000004 11.356926245000002 481.43700000000007 0.36928447300000006 0.56747229250000009 2.5979411750000003 2.6517933185000007 44.374461450000005 4.1661147675000008 1.8541019960000003 1.5681974740000002 263.61250000000001 4.7257980800000006 18.682419435000003 44.877672430000011 18.132377435000006 17.804602900000003 3.4051745345000004 263.61250000000001 12.373752785000002 2.3721417067500004 14.20295585 12.0422089 6.5758191855000012 23.949333305000003 320.14450000000005 12.078476670000002 6.250380551500001 1.8202020200000002 7.1430161333000006 18.230814750000004 50.515791725000007 80.809719205000007 216.06300000000002 13.660156820000003 103.48634800000001 2.4264069265000003 22.807895955000003 7.6505805820000008 10.188364275000001 1.8532998570000003 1.8759615385000001 1.5950797800000003 23.281523795000002 2.8416345025000003 18.213580760000003 5.5682780110000012 53.802356775000007 9.5602372530000022 12.058503625000002 3.2536905260000002 6.2751305675000006 69.742719730000019 1.5464478630000003 7.3863781055000013 8.6484466410000014 410.2050000000001 8.1578362620000018 2.1026315790000005 1.5053176830000001 1.1789180110000002 264.22950000000009 218.02700000000002 3.6918717225000006 5.6850139035000007 11.473981870000001 1.6050847460000004 235.61750000000004 136.12000000000003 6.0002099000000007 12.137560660000002 7.709229725000001 2.2480769230000006 2.6517933185000007 1.5053176830000001 2.3557438795000007 1.7309018569000003 15.855337080000002 13.973470175000001 27.444223875000002 1.7038183695000002 101.10410275000001 3.0490119435000005 44.251662885000009 2.4158805035000004 3.4696427035000004 4.6432091265000013 2.3382633925000005 232.17200000000003 5.7305984180000005 32.440526795000004 2.3861642740000004 7.2477097900000009 146.09200000000001 24.213873900000007 1.7257053290000002 2.8029883085000002 28.730786165000005 12.137560660000002 120.07600000000001 2.6417159785000006 138.09050000000002 136.06150000000005 3.3359471600000004 1.8644634565000002 138.09050000000002 20.369591715000002 1.8153409090000003 47.142790640000008 54.916343210000008 54.462794570000007 12.078476670000002 3.9339317220000001 2.3070719605000005 165.80550000000002 139.08850000000004 2.1081871345000005 7.086299426000001 13.868156295 1.8729838710000002 2.1944456805000003 97.07350000000001 2.4701426025000006 803.31650000000013 9.4934625055000019 12.058503625000002 1.5823643410000001 14.912335140000001 1.0921385530000001 4.2961120765000009 3.3651523105000005 29.206502280000006 9.5025630230000022 194.10150000000002 4.8033725520000017 2.1396103895000005 18.893609865000005 5.7305984180000005 1.2280141940000002 5.938846486500001 2.4833333335000005 12.342197575000002 182.09050000000005 6.0589304680000007 216.10600000000002 42.200850340000009 2.9365758985000006 1.0000000180025095e-35 44.762780200000009 41.666488135000002 1.9358270420000003 13.502883170000002 9.1267369165000023 6.3180237865000004 6.0711935880000008 5.189958926500001 1.2146018725000003 35.081258945000009 12.342197575000002 16.094330030000005 1.9284962410000002 1.9858436620000004 80.029329090000019 11.241381685000002 5.7353156105000016 4.0648516910000003 18.893609865000005 127.54650000000001 3.2789417875000004 118.075 1.8644634565000002 127.64659740000002 13.468210645000001 5.9798734375000011 0.13690844150000003 6.2623940055000009 49.992176520000008 39.674143495000003 0.22414425250000003 22.503102560000006 17.705366375000004 27.338221845000003 24.312556215000004 15.192838370000002 1.6553639850000001 2.4939024390000006 45.963029475000006 11.630406000000002 1.7363455810000004 105.79013935000002 168.00450000000004 8.0481866055000015 1.7439800230000002 17.526131635000002 57.349985580000009 6.4465212440000004 1.6902718345000001 70.061500000000009 4.2803758555000009
decision_type=2 2 2 2 2 2 2 2 2 2 2 2 2 2 2 2 2 2 2 2 2 2 2 2 2 2 2 2 2 2 2 2 2 2 2 2 2 2 2 2 2 2 2 2 2 2 2 2 2 2 2 2 2 2 2 2 2 2 2 2 2 2 2 2 2 2 2 2 2 2 2 2 2 2 2 2 2 2 2 2 2 2 2 2 2 2 2 2 2 2 2 2 2 2 2 2 2 2 2 2 2 2 2 2 2 2 2 2 2 2 2 2 2 2 2 2 2 2 2 2 2 2 2 2 2 2 2 2 2 2 2 2 2 2 2 2 2 2 2 2 2 2 2 2 2 2 2 2 2 2 2 2 2 2 2 2 2 2 2 2 2 2 2 2 2 2 2 2 2 2 2 2 2 2 2 2 2 2 2 2 2 2 2 2 2 2 2 2 2 2 2 2 2 2 2 2 2 2 2 2 2 2 2 2 2 2 2 2 2 2 2 2 2 2 2 2 2 2 2 2 2 2 2 2 2 2 2 2 2 2 2 2 2 2 2 2 2 2 2 2 2 2 2 2 2 2 2 2 2 2 2 2 2 2 2 2 2 2 2 2 2 2 2 2 2 2 2 2 2 2 2 2 2 2 2 2 2 2 2 2 2 2 2 2 2 2 2 2 2 2 2 2 2 2 2 2 2 2 2
left_child=3 2 4 12 73 6 7 24 9 10 -9 26 117 31 -5 17 20 59 40 -15 21 30 -22 -20 25 -6 205 36 119 298 83 32 -11 277 158 112 46 -31 64 -40 75 81 93 55 -45 116 47 48 67 53 293 52 62 -50 66 57 -57 -44 61 87 -61 -12 -51 114 165 -66 84 174 217 167 71 94 186 220 103 76 77 78 79 -18 291 82 96 122 85 -46 -52 207 89 -69 91 -68 -62 -43 200 148 189 98 -63 -92 101 -41 -103 -75 -105 290 107 -33 -109 -110 -48 -36 -8 -13 204 -25 149 236 233 120 -24 -116 -17 -98 125 -120 -127 143 -129 130 132 -132 183 -134 263 136 -135 -136 224 -140 -133 -137 275 227 -145 -113 147 -147 240 -30 -146 -152 187 271 155 156 -155 259 159 160 -29 241 -21 182 -90 -16 -167 -70 169 196 171 172 264 -53 -14 218 177 178 -177 180 -180 219 -10 184 185 -130 -72 188 -153 193 223 -141 222 194 195 -28 226 198 199 -198 -71 202 268 -204 -42 -3 -207 -4 -189 210 211 -210 -213 216 215 -215 228 -39 -115 286 221 278 -81 -179 -139 -93 -119 -95 229 -191 -230 -206 237 -83 -38 246 273 238 -89 -114 -76 292 245 248 -245 247 261 -203 249 260 -251 253 -194 255 -255 256 -112 258 -256 -156 -244 -236 -67 -131 -171 -262 -267 280 279 -173 -27 -154 -186 295 -275 -26 -169 -34 -2 -160 -228 282 -249 -182 -225 -23 -178 -288 289 -220 -99 -58 -161 -49 -250 -1 -297 -276 -7
right_child=1 11 15 14 5 29 35 8 163 13 58 113 27 19 38 16 18 -19 23 162 22 285 28 115 142 270 41 34 45 37 -32 106 33 -35 111 -37 234 68 39 100 63 42 43 44 54 -47 110 50 49 51 86 173 -54 -55 -56 56 80 -59 -60 60 92 97 -64 -65 65 262 90 88 69 70 72 -73 -74 74 95 -77 -78 -79 -80 192 -82 118 -84 -85 -86 -87 -88 232 164 -91 99 225 -94 127 -96 -97 123 105 -100 -101 -102 102 -104 104 -106 -107 -108 108 109 -111 251 145 239 175 121 -117 -118 168 124 -121 -122 -123 -124 -125 -126 126 -128 128 129 134 131 140 133 135 137 141 -138 138 139 191 -142 -143 -144 144 150 146 -148 -149 -150 -151 151 152 153 154 157 -157 -158 -159 201 161 -162 -163 -164 -165 -166 166 -168 276 -170 170 -172 269 -174 -175 -176 176 181 190 179 -181 283 -183 -184 -185 272 -187 -188 208 -190 213 -192 -193 252 -195 -196 -197 197 -199 -200 -201 -202 242 203 -205 231 206 -208 -209 209 -211 -212 212 -214 214 -216 -217 -218 -219 288 -221 -222 -223 -224 284 -226 -227 267 -229 230 -231 -232 -233 -234 -235 235 -237 -238 -239 -240 -241 -242 -243 243 244 -246 -247 -248 281 294 250 -252 -253 -254 254 257 -257 -258 -259 -260 -261 265 -263 -264 -265 -266 266 -268 -269 -270 -271 -272 -273 -274 274 297 -277 -278 -279 -280 -281 -282 -283 -284 -285 -286 -287 287 -289 -290 -291 -292 -293 -294 -295 -296 296 -298 -299 -300
leaf_value=-0.051337519584046643 -0.04082723326865588 -0.054254893508067448 0.050295906229450238 0.1332681505786453 -0.014343718241738291 -0.058823169479911279 0.027085304628020609 0.037707283291480043 0.019689654628894868 -0.0032854297845238793 0.11869157628769554 0.026068530045373395 -0.050552427836039394 0.11805930337164368 -0.049419469359979137 0.079655744681415383 0.056309696181004787 0.1017854184949329 0.1299120530685898 -0.04602153762633978 0.1512966352878814 -0.058613131338686356 0.072758464695482181 -0.010081874511764318 -0.001707533952384878 0.088879682510303926 0.015157505025596558 -0.020764270131329619 0.033701169380049127 0.11169293274926957 -0.039443718501238581 0.17245432774164635 0.046865852606610331 0.21415335696365925 0.064599526732161933 0.073262161044465299 -0.058194790179093285 0.0072800041795267889 0.13999424619216214 -0.059447646204920074 0.0095568291256217033 0.065069076159123537 0.15957737184866791 -0.050863913846860898 0.059098926615059812 0.082723448904735361 0.033707809119237694 -0.058394958226803177 0.053522716734618808 0.042077919727828809 -0.025760530094368475 0.020787539540444572 -0.017914843726790204 0.17047651559170099 -0.038872101686539276 -0.043775186457760809 0.059879699463290137 0.034081586061962245 0.12149652568196107 0.072393437713888648 -0.058770326590044733 0.12547314987423763 0.14803192258500095 0.039013638354323893 0.11496474724816695 -0.04075755861867035 0.088128506461072897 -0.019342935272111582 0.034338267013509623 0.10559802180981735 0.15139085027387264 -0.04458182412340559 0.030281934600443934 -0.0025254002991661612 -0.058628606407469225 -0.058494656904778022 0.11425384116669851 -0.058179321294087531 0.082801140348500196 0.045128134352496067 0.12511276177236538 -0.010624550365167311 0.079557184196016859 0.11168590474865865 -0.039695579962025981 -0.021446211595802678 0.063327586792274224 -0.0038640390856866701 -0.036317940581591372 0.11483806980174907 0.036870665422595407 0.019932562459232767 0.021177854600248354 -0.05839183331766791 -0.0094588688768336357 0.056920756921910134 0.066835170452066425 0.26015147687546364 0.21294557135569675 0.13140065188710201 0.090126947962224868 0.088879232115759779 -0.020173224864398983 0.13003260248644444 0.02775537456061429 0.17468661021821041 0.18784024444682057 0.15472062352538538 0.11487223468337818 0.030601608038219444 -0.041876719856148298 -0.058738116300178833 -0.058921539879211782 -0.0048331320310491732 0.048538194755617409 0.069270766762368471 0.056202299865970154 -0.0016712865263320545 0.041485039909402305 0.048797353215882647 0.16707030871482065 -0.038055117412726762 0.0062823275548855619 -0.017538849675150431 -0.04922270894787923 -0.048219474848902807 0.021204268458792398 0.097133712137205896 -0.016818063876906215 -0.011170156141066506 0.15908708530662652 0.044962580425959769 0.094742826468997426 0.12584111965602376 0.056996555499976245 -0.058375292790366379 -0.037965023470127549 0.0026460841594925424 0.079196835706071611 0.013938717473200685 -0.039336071169188212 0.018827474993113696 0.035692539225355056 0.073338994305114064 -0.058620278236212589 0.029656519495167701 0.054571508878178493 -0.058556687964761892 0.027558075544701667 -0.038943007908850275 0.049859359429444444 -0.043250172014744293 -0.049037017803235119 -0.032489615055407886 -0.00025526678565944487 0.11387963525153388 0.052910330376281359 0.041347507718137 -0.016700619703618521 -0.023963623837362325 0.080502704277945245 0.017656252711552353 0.029662870587266701 0.048881135360697665 0.037198588116772208 0.050763454296912758 -0.038653433715626503 -0.058477741483810158 -0.053980904399133556 0.022335425911719525 -0.058374548290611207 -0.00042481311699279014 0.075792963156805948 -0.058557604895414853 0.016015378197585729 -0.04687307658368102 -0.058069304336728925 -0.00076811392877814202 -0.0074092852986931135 -0.02070157277135708 0.060854629649106907 0.018199056083110152 -0.058967497928296891 -0.058529146800508226 -0.0079368756372624593 0.066973379345984727 0.078760860772020935 -0.052990008805724222 0.056506849690903263 0.021205782841414611 0.019391170261190353 -0.058433189308574655 -0.058734588790420386 -0.058454037083277954 0.024239575443193426 -0.051050280030536313 0.053845265095150453 -0.058233547733750016 -0.041388409575886159 -0.019244131155264688 0.0362155908562624 -0.0090395294270991799 0.079242129033737507 -0.020497627928627641 -0.049192171329161954 0.040848601314375572 -0.041666770392134164 -0.020269679617548549 -0.058351100168010317 -0.043668467706893484 0.052970392575221195 0.05020434323686751 -0.026231275838938736 0.050552009483934748 0.063960858081012137 -0.038951481944618054 -0.049202761556060598 -0.058743806252809477 -0.054302941673647132 -0.0055840944804840678 0.016153107592500337 -0.058307868167204416 -0.022358693662072989 -0.018120313549366128 -0.058552919567993793 -0.042796480738867743 -0.016863194399118524 -0.0010028705874184267 0.05340990507042262 -0.058300760609076997 -0.02110525031326415 -0.0075753323394415041 -0.051576368317631544 -0.058415510048285296 -0.015390155930708811 -0.058380009213212875 0.0011045207933654154 0.017820798402408761 -0.047316319141813418 -0.003063754839617103 -0.004411964294329526 0.0025991352560738069 -0.053776968905704062 0.081134457658313175 -0.043619468045874105 0.0073262799805703417 -0.042083729326738852 -0.058186035830092755 -0.054604658151550779 0.046977966658391428 -0.05839540662803 -0.058600017981479305 -0.0036257049436282159 0.041626209102763878 0.0011147480810805707 -0.047010561851211004 0.016939389220938985 0.022162129743280995 -0.058086808682268037 -0.058395324920742987 -0.05832666259943288 0.04250242037161267 0.019779480667550066 -0.058329540655223514 -0.038452623276171383 0.038022357982406614 -0.042622326870195515 -0.0096831893460822584 -0.0059253225828421402 -0.058137554832912358 0.14263097271322261 -0.0016774154669040491 -0.058453290352909998 0.018254347501032966 -0.015915784732501503 -0.048147372937678505 -0.0097742217091426262 0.093545309510365784 0.00072533912947879561 -0.058274929817314081 -0.053755746920402872 -0.056309528181997172 0.0038727548395383602 0.10640393835409903 -0.053882868446442078 -0.018985084632809839 -0.015049395492910464 -0.057973011624467712 -0.018099215809158933 -0.019219319180650937 0.22588476327990215 0.015929769332420279 -0.058448419167855085 -0.023125583681368526 -0.022001471385525741 -0.050911691035491535 -0.0071807327382274692 -0.051596107517736384 -0.01961079637347906
leaf_weight=68.735451214015484 2.8855833411216754 12.568258404731752 2.7540394440293303 4.8988792896270743 3.3258628100156802 3.5450534746050826 4.0518050640821439 3.0982122719287863 2.5430782139301282 4.4259780272841462 3.0705684646964135 3.5345296114683142 6.5980077087879199 2.8142414018511754 5.3949687927961367 3.9548624753952044 3.4670053273439541 2.7891969829797736 3.6968834325671178 3.8540566191077232 4.9749794527888325 4.9858049303293219 3.7539054378867167 5.0880793780088425 2.6336303502321226 2.6939376518130302 2.7164075449109095 2.6666563823819187 2.6970274895429593 2.6317288652062407 2.6095265448093405 4.4994273483753231 2.8156711608171463 2.9086480438709259 3.2336048483848598 3.407449096441268 6.5148723348975208 3.0259199589490882 3.0023967921733847 2.6609195843338949 2.9202992096543339 2.8332418799400321 3.1942199468612698 6.4736034348607054 5.0728254169225711 4.2207928523421279 4.3352794349193564 6.9880723208189028 2.6675282567739513 2.9792904779314977 3.0632187947630873 2.5156968086957923 3.6983887627720833 2.8229468464851379 5.0858970507979384 3.2993220165371877 2.5274746343493462 2.6700131520628929 4.3792504593729964 4.1772623509168616 3.7775850594043714 5.0774610117077845 3.1353668123483658 4.0848186388611785 3.4400417953729612 2.7190256789326668 3.7373753711581212 3.8267177045345289 2.6809457316994685 3.020601339638235 3.0889476463198644 3.5282650887966147 4.4799729287624359 2.6647853627800959 5.0008037313818914 2.718756675720214 2.8804166764020911 2.8913632407784453 3.8875414654612532 2.8346324414014799 2.7043609917163849 3.0939428359270087 4.6834397688508025 4.6603929176926613 5.210663065314292 3.9889703318476677 3.6816310212016106 4.5749470666050973 4.5281284973025322 4.0314346104860306 2.6036011800169936 3.1736454591155052 4.3657718002796173 6.3784384503960592 3.0398589372634888 2.5843027383089057 3.5773243829607955 3.8781534284353238 6.6902388334274292 2.8848318234086037 2.6727166995406142 3.6965736821293831 2.605825237929821 2.9043781831860542 2.8729226365685463 4.0219320729374877 3.4126340150833121 3.0058885067701322 3.9747458770871162 3.2891196310520172 3.0947567671537426 2.5176869705319396 4.8506314009428024 3.7470973879098883 3.2628053873777381 2.7250618413090706 3.0263359174132347 3.530696026980876 4.494773335754874 3.6788118332624435 3.0770941078662872 2.4554432779550552 3.8219019547104836 2.4487535133957863 5.4119237437844268 4.9090397506952268 3.755791462957859 2.5624883621931067 3.5316279754042679 3.1519190594553965 2.9777522012591344 3.3776492550969124 2.5984954684972754 2.7045462727546674 3.0086177513003376 3.0531972348690033 2.4484674707055092 2.4563577398657825 3.2633939981460554 2.7550619840621948 2.6057895198464394 3.8723248094320297 3.1727442815899849 3.0284174904227248 3.7451014891266814 2.8371488526463491 4.4120535627007484 3.6014348492026329 2.8951517194509506 5.1439352631568909 5.0445587188005439 3.2501346394419661 5.3043168708682087 3.8402800261974352 2.5547608658671361 3.7562400475144386 3.1349738538265228 2.5003576204180717 2.4106232598423976 2.9126847088336962 3.2352336198091507 3.9245137795805922 2.803219698369503 2.7701689973473549 2.6105827391147614 2.7284190729260445 2.498687632381916 2.9602653011679649 11.737768121063707 2.4741659089922923 2.8164242208003989 2.5853084698319426 4.0816068798303604 2.859542228281498 2.6670545935630798 4.4419991225004187 14.572534449398526 3.4644581228494706 2.941126272082327 2.6642507016658774 2.9358905330300331 2.6057574301958075 2.8108664229512215 4.0818240568041793 2.9385301545262337 2.7709856107831001 2.8958360180258751 8.6853087171912176 3.4624258130788803 2.5035961791873032 2.5879426524043074 3.0756434500217438 4.2821074873209 6.6475328579545012 3.6209392100572577 7.071596622467041 3.9988525956869108 3.6273379996418944 2.9915634915232658 2.5553723722696304 3.142351359128952 3.0185753256082526 2.8982040286064139 3.9470948651432991 21.70320308953524 2.511076018214224 5.9343394488096237 2.6108387634158134 4.6336651593446749 10.114231660962103 2.6805220022797576 3.2190472111105919 3.0617423877120018 2.7337188497185689 3.2485177293419838 5.0382972732186317 5.2691087499260894 2.903449721634388 26.965420752763752 3.7668504118919364 3.3269563540816298 5.5925558805465698 2.6782966256141663 2.5042527243494979 4.9743742123246193 3.0827135145664215 2.4163581132888856 2.607081338763237 3.123586431145668 3.5338634178042412 2.6540527865290642 3.931985840201377 14.851458691060541 11.896965898573397 3.4754122346639615 3.3040899634361258 2.5294713750481597 2.616350829601287 8.9824229031801206 2.6824000552296638 2.7865537106990814 2.4581634774804106 11.423344828188425 2.8629725798964492 3.3505895361304283 3.0468079522252074 3.0649568066000938 3.1292028948664656 13.791312716901304 4.7353073731064788 2.7021114528179169 3.4781984686851493 2.7294914200901985 2.9920566082000724 3.3729309290647489 8.7951307967305166 3.9902559518814087 2.4789747223258018 3.9439890459179878 3.314649261534214 2.4389310926198942 2.4747598096728325 2.5425416380167007 6.8112232238054276 2.5312547236680984 2.5912965089082718 3.1777545362710953 3.0750863328576079 3.7834708318114272 2.6432343497872353 2.9567264318466187 2.6326717361807823 3.1973273307085037 2.6212220266461363 2.3754525333642942 4.82381771504879 3.0804767236113548 3.2578433379530907 5.0644851848483086 6.304491400718689 23.073171123862267 28.827384613454342 2.4158133268356323 2.4288540184497833 12.028500497341154 2.5107988342642784 4.6499206051230413 4.8576292395591736 2.5025540292263022 2.5859908536076537 4.8336654007434845 2.6729628369212151 7.5046011805534363 2.7970247268676758 2.7352315559983245 7.1705278232693654 3.9319731444120407 7.6667434275150299 2.5464193224906921
leaf_count=585 24 104 22 34 25 28 31 24 20 33 22 28 55 21 43 30 27 21 28 30 37 40 27 39 21 20 22 22 21 20 21 31 21 20 25 27 54 24 22 20 23 23 24 52 39 32 35 57 21 24 25 20 30 21 41 26 20 20 30 32 30 34 24 32 26 21 29 31 21 22 24 28 35 21 40 22 22 24 31 20 20 24 36 34 41 31 29 37 37 32 20 25 34 52 24 20 28 25 40 22 20 27 21 22 22 27 23 20 27 23 26 20 38 31 26 21 23 29 36 27 22 20 30 20 44 40 30 20 27 25 23 27 20 21 23 25 20 20 26 22 21 31 25 24 30 23 35 29 23 42 39 26 43 31 20 29 25 20 20 24 26 31 21 21 21 21 20 24 97 20 23 21 32 23 21 37 122 28 24 22 24 21 22 33 23 21 22 69 27 20 22 25 34 54 29 59 32 30 25 21 24 24 23 32 177 20 48 21 38 82 21 26 24 21 25 40 42 23 227 30 26 46 20 21 40 24 20 21 25 29 21 32 122 97 28 27 21 21 73 21 23 20 95 23 27 25 25 26 114 38 22 28 22 24 28 72 33 20 33 27 20 20 20 56 21 21 26 25 30 22 21 21 26 22 20 39 25 24 41 52 193 242 20 20 101 20 39 41 21 22 29 21 61 22 22 61 33 64 20
internal_value=0 0.212726 0.67417 -0.380341 1.08002 1.33367 1.71261 1.94729 2.28421 2.52284 3.35435 -0.193319 -0.485257 1.81308 0.793659 0.221421 0.402588 -0.240662 0.0250845 0.502621 0.958638 0.369695 1.3929 1.07339 0.499772 1.36679 -0.0658165 -0.306744 1.07552 0.36671 1.00568 2.20599 1.55886 2.35937 -0.482334 0.0871869 -0.0828788 0.549601 0.523675 1.06432 -0.15574 -0.0173899 0.0813485 0.412717 0.104662 0.543234 0.0337629 0.242185 0.473013 0.998229 -0.385376 0.537372 1.06642 2.2731 0.313127 1.15837 0.692327 2.04877 3.60649 -0.371008 0.280593 3.79336 1.92814 -0.440691 0.114116 0.769864 0.499535 0.0253636 0.432485 0.6059 0.929564 0.387589 1.58891 -0.00747155 0.342785 0.229542 0.37787 0.136612 0.325723 0.00232664 1.34671 -0.252805 -0.0691499 1.38221 0.0103836 0.472865 0.457352 -0.591621 0.42889 0.989908 0.950467 0.521725 -0.318179 -0.038072 0.878032 -0.11849 -0.21265 3.97126 3.50407 1.73115 0.616497 0.262839 0.875796 1.06768 1.58345 4.403 2.68322 2.43515 1.99092 1.53428 -0.317424 0.210854 -0.318141 -0.595682 -0.586208 0.351894 0.111637 -0.765613 -0.574949 1.83968 2.30484 0.227092 0.871925 0.65098 -0.255225 0.0446721 -0.362552 -0.0619149 0.113173 0.0458687 0.29304 1.16745 0.0418722 0.529059 -0.290646 0.23523 0.960164 0.00394124 -0.202884 0.257602 0.16501 -0.304165 -0.232372 -0.207338 -0.13502 -0.0506569 0.210171 -0.393714 -0.422559 -0.279117 -0.199755 -0.148586 -0.235968 0.0839625 0.395821 0.873807 0.117855 -0.21704 -0.569325 -0.200579 0.694943 -0.515179 -0.283053 0.0485753 -0.188668 -0.423072 0.160399 -0.254904 -0.585704 -0.492797 -0.0605787 0.157194 0.588279 -0.428456 -0.627802 -0.634295 -0.501267 -0.274487 0.197178 0.656613 1.00004 -0.769337 -0.43212 -0.390956 -0.135113 0.400428 2.32495 -0.457165 0.164116 -0.32071 -0.627623 -0.484736 -0.308779 -0.61889 -0.346132 -0.65352 -0.656372 -0.256439 0.0886827 0.506981 1.40443 -0.645711 -0.290859 0.434616 -0.749071 -0.786707 -0.342649 0.319098 -0.585903 -0.412302 -0.0692821 -0.346481 0.258874 -0.107919 0.271718 -0.149393 -0.352811 -0.501001 -0.881207 -0.875386 -0.458205 -0.650135 0.246832 -0.773641 -0.76645 -0.219522 -0.820519 -0.834817 -0.0712989 -0.506624 0.383603 -0.856178 -0.749102 -0.971041 -0.689508 -0.438634 -0.905968 -0.489767 -0.653066 -0.780628 -0.784565 -0.779843 -0.721772 -0.584608 0.277248 -0.890722 -0.171464 -0.975242 -0.707447 -0.538495 0.173889 -0.451149 -0.745634 -0.363691 -0.0717025 -0.598823 -0.175034 -0.347889 -0.615925 -0.661777 -0.808385 0.173764 -0.230086 -0.868206 -0.168105 -0.436577 -0.12798 -0.917807 -0.688191 -0.592018 2.3401 -0.66656 -0.685208 -0.931346 -0.608892 -0.634939 -0.672828 1.4381 -0.287134 -0.935507 -1.00517 -1.04501 -0.622974 1.62954 -0.954407 -0.906814 -0.994853 -0.739601 -0.97292 -1.02466 4.82278 0.745799 -0.976129 -0.966267 -0.984173 -0.982492 -0.708486 -0.863121 -0.848624
internal_weight=0 826.452 386.837 473.711 203.983 165.404 118.834 103.842 84.2351 76.111 35.0495 439.615 434.85 41.0615 38.861 182.854 131.354 51.4999 78.2382 9.47152 53.1162 22.5433 30.5729 11.51 19.6067 8.97653 333.829 265.681 25.5979 46.5701 15.0467 31.59 13.4081 8.98216 148.894 14.9923 116.786 40.4786 33.9621 14.6384 66.7282 312.815 220.382 58.3825 41.3141 15.0881 97.9522 61.4706 44.9407 20.6788 16.5299 15.1883 9.81305 5.49048 34.8405 17.0684 11.2041 5.86423 31.9513 48.7107 12.3206 27.572 6.11466 38.3586 19.3237 8.70161 29.7546 24.2619 37.8469 31.9175 23.1958 12.7311 10.4648 38.5785 21.7089 28.3696 25.6509 22.7704 19.8791 15.9915 7.9048 92.4332 58.8707 12.4372 14.2725 9.0618 6.74485 36.3901 14.9969 7.85815 15.4822 9.99373 8.14336 162 9.20281 13.2668 54.1873 24.5015 11.7677 5.48843 11.636 8.96332 6.3024 8.44209 5.7773 12.7338 18.1818 14.7692 10.2698 7.26387 36.4816 16.6019 11.5848 105.786 34.2737 7.81314 10.8673 169.169 33.5624 10.5098 6.831 5.71825 7.77676 6.02608 18.5715 13.1596 8.66483 159.167 72.2176 69.6551 40.1585 8.96119 31.1973 14.677 29.4966 12.0785 5.15301 19.5334 16.5248 9.0941 5.98344 6.92552 10.6302 86.9489 77.9634 13.3683 10.8506 6.43858 10.6825 7.84096 74.935 71.1899 66.1453 27.0383 19.1013 10.7315 6.97525 8.36977 132.292 22.7019 5.90189 16.8 6.65728 8.12411 7.13871 10.6221 5.22711 8.72169 74.1382 62.4004 17.132 14.3156 9.08703 5.37524 9.26506 102.251 66.45 35.9973 15.4121 10.9701 8.30587 30.4527 5.35394 16.5203 12.4385 6.30261 5.98478 39.1071 6.71256 48.1612 20.5852 5.83071 12.5245 20.0565 13.4089 9.788 45.2684 13.1731 9.54579 6.55422 6.16295 109.591 19.3439 6.8453 28.5555 21.0137 8.44542 5.36488 32.3945 23.7092 13.595 10.9145 6.28079 28.1047 11.0205 7.77202 17.0842 5.92937 35.8011 27.8469 16.8696 13.5426 5.51293 17.9972 7.43073 6.25636 32.0953 8.98552 11.8151 6.03746 5.77764 25.6352 31.0252 14.9909 18.8341 12.3192 95.0308 16.1737 13.5574 7.53303 7.78736 12.8754 90.2466 49.8089 6.21356 40.4378 9.01513 37.391 43.5953 27.0687 7.43742 32.1463 7.0116 28.6681 12.788 15.8801 7.08501 9.79589 7.31692 5.86941 19.6313 5.95017 5.26157 9.96314 5.00542 8.20798 5.76905 28.5646 12.4986 5.22854 5.65066 7.93699 6.13586 92.5014 12.6634 7.45745 6.04074 6.07351 7.95007 8.71511 25.4895 34.3724 5.54502 5.36474 14.5328 7.4966 24.0801 9.50755 32.054 29.5514 8.71182 5.20044 10.4173 9.7851 16.5265 79.838 11.1025 10.0422 6.09147
internal_count=10386 6510 2967 3876 1528 1220 856 739 588 525 231 3543 3581 294 295 1439 1026 413 620 72 406 175 231 88 151 66 2662 2164 194 364 115 222 98 65 1218 117 946 316 261 110 532 2490 1748 455 324 118 792 493 360 163 133 121 78 42 272 131 87 44 207 392 96 177 48 310 151 67 231 197 296 249 179 98 81 308 171 222 200 178 154 123 61 742 471 94 111 70 54 296 121 63 120 78 64 1293 70 106 435 155 74 42 88 68 48 65 44 81 124 101 70 50 299 132 90 881 278 60 86 1417 271 76 49 46 60 48 150 106 70 1270 575 555 318 71 247 117 237 97 41 156 133 73 48 56 85 695 622 107 87 52 86 63 598 568 529 216 152 85 56 67 1086 184 48 136 51 63 58 84 41 70 611 514 139 116 73 43 76 853 552 299 127 90 68 253 42 130 97 48 46 313 53 387 172 47 96 164 110 81 375 108 78 53 46 902 157 55 232 172 68 43 260 191 109 88 50 223 86 61 137 47 301 232 137 111 40 150 60 49 267 73 95 49 46 209 253 121 154 100 806 131 110 59 63 105 745 408 50 337 73 312 358 222 60 264 56 236 105 131 59 81 61 47 162 48 41 81 41 67 47 238 102 43 41 64 49 785 106 60 49 45 65 72 213 288 46 44 122 60 202 80 270 249 54 41 85 79 136 679 94 84 48
shrinkage=0.05


Tree=3
num_leaves=300
num_cat=0
split_feature=8 21 14 7 17 7 20 13 24 14 17 7 5 15 14 0 8 13 24 14 9 8 20 14 17 17 15 5 13 18 5 24 7 20 24 8 17 18 14 5 8 8 15 14 20 18 20 20 10 10 14 15 18 8 14 15 15 13 8 17 13 20 15 7 14 17 18 9 0 13 7 7 5 10 18 15 5 18 0 18 8 13 0 20 24 13 14 9 14 0 18 18 9 14 7 5 17 5 10 20 18 17 10 13 17 9 9 17 7 13 17 15 8 15 24 7 7 24 7 24 7 18 17 15 5 14 18 0 15 8 17 13 0 0 0 18 13 8 15 17 15 13 9 17 20 20 18 13 20 0 0 13 9 15 7 17 14 17 5 18 7 8 0 17 24 13 20 9 8 13 5 10 17 0 0 13 18 7 18 14 8 10 13 8 5 17 5 0 10 18 5 17 0 17 9 0 13 14 5 10 9 17 9 20 17 15 5 8 17 9 15 5 10 15 15 0 13 18 5 7 18 0 13 13 17 18 9 5 5 24 24 5 0 0 21 24 8 9 20 5 21 15 10 18 8 14 10 9 18 5 0 8 18 5 17 15 18 24 18 8 9 9 5 15 18 13 13 18 17 14 5 13 14 18 18 29 8 0 13 10 21 21 17 7 7 15 14 13 8 7 7 13 9 5 5 17 0 18 10
split_gain=96.0193 136.363 73.2154 55.5126 42.7154 28.3551 26.4022 25.0382 24.9422 23.6619 19.4739 26.5577 36.4309 19.2448 17.9992 17.9058 13.554 13.0991 12.6454 15.0357 11.3628 10.3114 12.2933 10.0485 10.6279 9.64226 9.59651 9.59 9.73755 8.42094 8.33493 9.13591 8.77553 9.23866 8.43552 7.97937 8.52864 7.80669 13.7409 7.63439 8.5584 8.14889 8.02083 7.54767 7.14014 10.1927 7.12118 8.54252 7.5122 6.99245 7.26099 6.6678 6.66259 6.57358 6.52805 9.06741 6.48505 6.30352 6.15685 13.7045 7.00283 6.09326 9.58304 7.79613 6.06731 5.94832 7.5655 7.61609 5.92429 5.94759 5.65861 6.29422 6.98993 6.44385 5.44381 7.33817 9.06353 11.4162 11.2375 6.92086 6.14613 5.90082 5.44621 5.39906 5.38714 7.05608 8.23334 5.22267 6.99691 5.19121 5.13358 5.09649 7.26065 4.88201 4.83421 4.73187 9.40218 5.91352 8.31991 9.17051 6.15549 4.80849 4.7856 4.54273 5.40825 9.77311 7.3428 7.0836 5.41857 5.69126 5.0692 4.88574 4.48726 4.47058 4.43177 5.17586 8.93849 4.3713 5.49545 4.59878 4.34085 4.30407 8.61737 12.0924 4.2821 4.64874 4.22861 5.1131 9.16942 6.60598 4.73622 6.59974 4.1679 4.14836 10.58 4.70739 9.42269 4.13596 5.60173 6.57227 5.38992 4.08528 5.93879 9.1322 4.0076 5.02416 3.9988 3.86 7.57477 3.79964 6.18518 3.74418 3.70167 3.64282 3.59089 3.58913 3.57641 7.98019 5.2878 6.11021 6.42659 3.65891 3.54641 5.96431 5.23244 4.074 3.87378 3.52745 3.50595 4.95404 3.50381 3.33625 3.2668 3.17766 3.17601 3.12482 3.1078 4.21472 3.09942 3.2038 3.09801 5.77963 5.45239 4.58618 3.86464 3.04085 3.01705 2.97315 8.37523 5.59521 3.736 4.7919 3.26422 2.89433 2.88017 2.86398 2.81014 2.67036 10.4353 3.50153 2.86848 2.92023 2.62263 4.24028 2.50043 2.45779 2.37564 7.41549 5.34301 4.73564 3.49502 2.32554 2.20938 2.19613 4.35822 3.05621 4.56083 2.48087 2.37206 2.80525 2.69858 2.17289 4.0655 2.15862 2.12705 3.88634 2.11404 2.55818 5.67983 2.25934 2.22686 2.1338 2.06785 2.31603 2.38589 2.0641 2.02579 2.02497 3.03901 1.98666 3.25465 2.59729 2.45685 2.1344 1.96342 1.96076 6.7774 2.34158 1.93428 1.9115 3.22598 1.9041 1.90234 1.88317 1.88023 4.02201 1.87571 2.05458 2.46366 1.81746 1.77842 3.47008 1.74027 1.68775 1.6404 1.63637 2.01804 1.60625 1.52165 1.44084 1.42522 1.41918 1.29288 1.27474 1.17719 1.17042 1.14549 3.31979 4.06709 1.60189 2.39287 3.91357 1.30087 1.13156 2.06761 1.54872 1.10509 1.10183 1.09661 1.08685 2.72412 1.07825 1.06247 0.991629 0.98005 0.970048 5.51743 1.75062 1.17989
