tree
version=v3
num_class=1
num_tree_per_iteration=1
label_index=0
max_feature_idx=31
objective=binary sigmoid:1
feature_names=id BertzCT Chi1 Chi1n Chi1v Chi2n Chi2v Chi3v Chi4n EState_VSA1 EState_VSA2 ExactMolWt FpDensityMorgan1 FpDensityMorgan2 FpDensityMorgan3 HallKierAlpha HeavyAtomMolWt Kappa3 MaxAbsEStateIndex MinEStateIndex NumHeteroatoms PEOE_VSA10 PEOE_VSA14 PEOE_VSA6 PEOE_VSA7 PEOE_VSA8 SMR_VSA10 SMR_VSA5 SlogP_VSA3 VSA_EState9 fr_COO fr_COO2
feature_infos=[0:14835] [0:4069.9597800000001] [0:69.551167280000001] [0:50.174587760000001] [0:53.431953749999998] [0:32.19536806] [0:34.579312880000003] [0:22.589275570000002] [0:15.62066735] [0:363.70595409999999] [0:99.936429000000004] [1.0072764519999999:2237.3184900000001] [-666:3] [-666:3.2000000000000002] [-666:3.3999999999999999] [-7.7300000000000004:0.81999999999999995] [0:2035.133] [-104.04000000000001:1512.2422309999999] [0:14.76985872] [-6.3275141909999997:6] [0:42] [0:97.663462199999998] [0:482.43422270000002] [0:375.4251476] [0:211.50127889999999] [0:100.34841609999999] [0:80.742293309999994] [0:492.72973910000002] [0:115.4061569] [-5.4305555559999998:384.45051910000001] [0:8] [0:8]
tree_sizes=30570 31411 31419 31422 31388 31413 31462 31342 31420 31422 31433 31385 31502 31484 31425 31400 31507 31482 31431 31522 31480 31479 31505 31493 31489

Tree=0
num_leaves=300
num_cat=0
split_feature=30 8 24 10 3 6 12 6 29 9 23 23 23 0 18 23 9 27 29 12 29 6 12 6 10 0 9 3 0 9 9 6 8 26 9 27 0 8 8 18 26 0 8 18 8 3 30 3 8 9 9 12 8 0 6 13 8 26 27 18 8 26 13 24 3 26 29 24 10 20 0 6 13 27 12 6 18 6 0 12 18 3 6 29 8 27 12 10 12 6 6 18 0 0 8 24 8 3 8 6 29 27 24 12 8 8 12 13 6 10 0 10 12 29 29 12 23 0 0 12 0 3 9 8 13 27 9 10 29 22 8 18 6 22 27 18 6 18 9 6 6 13 9 26 24 24 27 29 9 3 29 18 0 8 26 24 10 0 0 8 0 27 9 10 0 13 27 18 3 12 13 10 27 0 9 18 18 18 6 29 23 13 0 0 23 18 22 18 20 29 20 12 12 22 12 10 0 26 12 13 9 9 3 13 18 8 0 18 3 6 27 6 6 0 24 8 3 8 3 29 6 23 26 8 26 18 0 27 6 27 23 26 13 27 18 23 29 29 13 26 29 12 6 3 26 18 3 8 13 22 8 13 13 18 27 27 10 0 9 23 6 29 12 20 0 13 0 24 6 24 12 3 3 0 3 6 13 3 18 24 0 20 20 18 26 10 0 8 8 3 0 12 27 29 27 9 22 29 3
split_gain=72.0682 53.6898 19.6439 14.9421 13.5535 9.45833 12.321 10.8736 9.17196 10.0465 8.03676 8.029 7.75355 10.4766 7.62507 16.1122 8.72187 7.35712 12.8431 8.7234 7.29425 12.2192 8.85552 8.40445 7.9182 8.91771 7.4134 6.9416 11.1358 12.2696 8.41741 9.25552 8.26695 10.76 9.59762 9.32456 10.1253 8.60797 8.05141 9.18617 9.64971 13.0138 9.31995 7.78134 7.68001 15.6903 9.02704 11.0564 12.9259 9.87018 9.82483 7.32145 6.6977 6.63741 7.48347 6.61845 6.49899 6.47261 6.41575 7.16713 7.90684 8.80422 7.14604 6.70542 6.82879 6.3633 6.28553 6.1732 8.54768 7.3786 6.07264 6.07031 9.68042 8.87803 7.30072 6.06374 5.88519 5.75522 6.61367 5.73036 5.66758 7.12036 7.96639 7.01837 7.79496 6.28246 5.49438 5.94031 5.40299 5.29092 21.7512 7.85416 5.21569 5.13609 9.97456 9.67938 9.08407 10.0287 8.57476 8.01273 13.168 12.5385 7.14379 7.0306 8.96757 10.6695 10.7819 11.1543 10.4389 8.8347 7.75192 6.48528 8.63453 6.17359 6.12619 8.51128 5.55284 5.43026 7.85662 6.04708 11.7361 5.10643 10.2468 5.10266 5.01737 4.99051 4.9368 4.85268 6.30569 6.67262 5.27949 5.18332 9.44633 4.85151 4.81657 5.07203 4.80964 8.16161 4.80555 4.80238 4.78245 4.70928 8.43609 4.97699 4.67508 4.643 7.73567 14.8973 11.7408 8.70109 5.83528 6.26814 4.64162 4.60997 5.78191 4.50648 4.42359 4.39111 7.53652 4.33777 4.31849 4.63272 8.04994 6.74853 6.73968 6.67552 5.58893 6.66971 5.30947 5.29326 5.70252 5.05957 7.35605 5.3312 10.3551 11.1769 4.71201 15.0191 5.96237 7.17606 12.5848 9.89536 9.57536 5.42821 6.20759 4.29808 5.7801 4.22153 4.1445 7.02154 4.10913 3.96877 3.95384 4.20727 3.92613 3.91303 3.89853 5.42938 3.87447 3.84754 8.82734 6.55016 7.59396 3.76914 3.74187 12.3767 3.95642 4.80244 3.74163 3.74095 4.94304 3.73929 5.51081 3.68369 3.64435 5.62017 5.48102 4.26059 7.73875 3.64007 3.62252 4.15681 4.02939 3.59153 3.54207 3.49756 4.57584 4.64453 3.48728 3.48691 3.82729 5.57344 4.18443 3.4826 3.6811 3.5276 4.419 3.9608 6.5435 6.89946 5.77623 3.48023 3.45999 7.23235 3.41328 3.36746 3.34873 7.27016 3.57105 3.31764 5.12067 4.84792 7.78205 3.25834 3.25834 3.25703 3.82955 3.20101 3.02286 2.97658 2.9643 2.95198 2.85745 2.84438 2.84117 5.7711 6.05421 2.79717 2.72305 2.71716 2.70509 2.93453 2.68828 2.67952 2.59774 2.58407 2.53858 2.51902 2.47966 2.4599 2.40484 2.39303 2.31393 4.46339 3.72539 3.33928 4.13073 3.25139 3.2476 2.65266 2.26683 2.86998 2.24913 4.45131 2.2197 2.20981 2.19423 2.10207 3.40823
threshold=1.0000000180025095e-35 4.4024080800000016 60.502946540000003 53.471854060000005 1.5429192590000003 0.62703604650000011 1.5941176470000002 0.93052811200000007 114.58946770000001 90.094197460000018 26.344316130000003 26.344316130000003 66.58443001000002 8560.0000000000018 12.730058550000001 33.016595540000004 5.1760507205000001 115.56122720000002 121.05489050000001 0.88675213700000011 61.864063990000012 3.6907974715000003 0.80243902450000015 3.6418890090000002 12.736360150000001 3736.5000000000005 47.175443565000002 3.6728049650000005 591.00000000000011 11.881848175000002 29.379836135000001 3.2432775820000006 0.56077605550000009 13.760939630000001 36.883176470000002 24.794688180000005 9591.5000000000018 0.85336648450000008 0.99025624900000009 10.487721800000001 24.029043350000006 13628.500000000002 6.5043794490000009 10.373768450000002 1.7697146720000003 6.5169800035000014 1.5000000000000002 13.91428091 2.6031572710000002 52.303251335000006 80.337079230000015 1.5823643410000001 2.0965582690000004 2161.5000000000005 2.8892911045000003 1.8541019960000003 2.5066451070000002 11.716770260000002 65.968420745000017 12.070190105000002 2.4787095285 27.291160445000006 1.8956442830000002 13.596016610000001 5.7348486925000008 11.938452410000002 27.806099470000003 12.235642620000002 16.957844025000004 4.5000000000000009 6854.0000000000009 6.7226198370000008 1.9272077375000003 36.85738983000001 1.3623737375000002 9.0035389430000006 10.814442600500001 13.038095195000002 2627.5000000000005 1.0062912300000002 12.754693255000001 15.675625610000003 9.9383754755000009 108.23284455000001 5.2769383695000007 91.001001560000006 0.95227272750000014 11.200739370000003 1.2290209790000002 1.1271088645000003 1.0513253265000002 9.0914358680000031 6391.5000000000009 4702.5000000000009 0.93181144300000007 19.324432260000005 0.88651007950000016 1.8645139665000003 0.45833162100000008 1.0928322835000002 24.013797240000006 12.174936895000002 6.7513364420000004 1.4359722220000002 0.78949633450000012 0.6093567470000002 1.2290209790000002 1.9365362485000002 2.1198769220000004 5.9125428875000008 10745.500000000002 12.158070340000002 1.5358974360000002 35.675694445000005 37.221631110000011 1.5527777780000003 5.9921365575000012 5936.0000000000009 8530.5000000000018 1.6306818180000002 9591.5000000000018 9.4978453535000025 6.0589304680000007 0.79236037200000009 1.7363455810000004 12.977841150000001 17.478295550000002 5.5870776705000011 34.762800000000006 8.9704119915000025 2.2810194700000004 10.246965205 4.5649308640000008 5.798461563500001 24.887718350000004 10.886882205000001 4.1364298530000001 11.094781430000003 89.20828068500002 4.0011841380000011 8.3604579175000016 2.2290209790000004 24.037122900000004 23.584264820000005 93.914827335000012 80.979452535000021 57.170698990000012 48.026116900000012 11.217301065000003 8.4384810715000018 42.355254630000012 12.176857065000002 3940.5000000000005 0.39116059000000009 16.578388340000004 6.7513364420000004 5.5682780110000012 4305.5000000000009 3064.5000000000005 0.84600638950000018 483.50000000000006 6.0589304680000007 1.0000000180025095e-35 17.592819725000002 11987.500000000002 1.5345238095000002 25.521428820000004 10.73933622 4.7254787945000007 1.6547619050000002 1.0662500000000004 12.977841150000001 17.827067295000003 11069.500000000002 38.654965005000001 9.637731481500003 9.9946022300000017 9.8170016880000013 1.6437134360000003 24.875000000000004 5.9921365575000012 2.0513157895000003 7417.5000000000009 7867.5000000000009 6.0798508785000012 9.5146064815000013 11.943815570000002 10.249708835000002 18.500000000000004 83.552685635000017 21.500000000000004 1.6547619050000002 0.96887096800000017 117.08201345000002 1.3623737375000002 6.4154584645000012 11718.500000000002 6.250380551500001 1.0506410255000003 1.9130602005000001 26.570181310000006 37.310841140000008 3.4806494050000008 1.7257053290000002 9.0914358680000031 0.83486617400000018 11069.500000000002 10.087874070000002 2.8411190705000005 4.5720291815000005 37.070821340000009 6.6682295775000009 7.4609179570000004 11302.500000000002 20.016838235000005 2.1346793770000003 6.0376648970000009 1.3346337415 4.8673800310000006 48.672820190000003 5.1119583000000004 11.873079030000001 18.900854095000003 1.1648794850000004 32.322658290000007 12.678187770000003 8213.0000000000018 109.11277280000002 1.9627535270000001 18.504661450000004 5.5682780110000012 11.867875035000003 2.0954545455000004 1.0000000180025095e-35 9.818097691500002 11.873079030000001 23.844375395000004 29.660230560000006 2.0954545455000004 11.716770260000002 27.338221845000003 1.5823643410000001 12.511786015 13.973470175000001 5.6442185430000009 10.170696335000001 10.801624405000002 3.4538313995000007 1.7475490195000003 11.933577050000002 0.89524096700000011 2.0801282050000007 1.8867521370000002 10.234513885000002 13.217035815000001 6.0589304680000007 6.1849831050000015 7708.0000000000009 18.330302520000004 1.0000000180025095e-35 2.1714065560000004 21.861670230000005 1.3717105265000002 28.500000000000004 5677.0000000000009 1.8956442830000002 3284.5000000000005 6.3329322450000012 2.5864753735000003 52.520865160000007 1.0434976670000002 4.3806612755000005 17.720472860000005 10080.500000000002 17.549067370000003 14.924520695000002 1.7228758170000003 2.5264341385000004 9.5536622870000016 13.596016610000001 6491.5000000000009 6.5000000000000009 13.500000000000002 11.483093385000002 10.781949825000003 17.151938045000005 3092.5000000000005 1.2400187215000003 1.1648794850000004 4.3815327090000009 10459.500000000002 1.2656862745000002 18.153471545000006 34.172453705000002 24.384802770000004 6.0589304680000007 23.053992490000002 53.24775463000001 9.9901541755000007
decision_type=2 2 2 2 2 2 2 2 2 2 2 2 2 2 2 2 2 2 2 2 2 2 2 2 2 2 2 2 2 2 2 2 2 2 2 2 2 2 2 2 2 2 2 2 2 2 2 2 2 2 2 2 2 2 2 2 2 2 2 2 2 2 2 2 2 2 2 2 2 2 2 2 2 2 2 2 2 2 2 2 2 2 2 2 2 2 2 2 2 2 2 2 2 2 2 2 2 2 2 2 2 2 2 2 2 2 2 2 2 2 2 2 2 2 2 2 2 2 2 2 2 2 2 2 2 2 2 2 2 2 2 2 2 2 2 2 2 2 2 2 2 2 2 2 2 2 2 2 2 2 2 2 2 2 2 2 2 2 2 2 2 2 2 2 2 2 2 2 2 2 2 2 2 2 2 2 2 2 2 2 2 2 2 2 2 2 2 2 2 2 2 2 2 2 2 2 2 2 2 2 2 2 2 2 2 2 2 2 2 2 2 2 2 2 2 2 2 2 2 2 2 2 2 2 2 2 2 2 2 2 2 2 2 2 2 2 2 2 2 2 2 2 2 2 2 2 2 2 2 2 2 2 2 2 2 2 2 2 2 2 2 2 2 2 2 2 2 2 2 2 2 2 2 2 2 2 2 2 2 2 2 2 2 2 2 2 2 2 2 2 2 2 2 2 2 2 2 2 2
left_child=1 4 5 11 125 6 -2 57 9 198 -4 80 20 -14 15 203 144 -16 -19 -20 21 23 26 89 58 77 -22 28 29 -9 31 53 55 34 35 36 -34 -36 76 43 65 42 44 51 -42 -46 47 48 -47 -48 -50 52 67 229 93 -32 66 -7 59 63 -61 62 188 64 -24 71 155 139 69 -69 -57 72 73 134 -74 136 249 78 296 -10 81 82 121 -83 -85 138 -66 -88 192 90 255 -92 224 95 98 96 97 191 99 100 102 -102 -95 104 105 108 -107 -108 110 159 -100 126 -113 153 -115 156 -111 -105 241 120 -120 -3 -123 228 -63 -1 152 130 129 -129 131 132 -94 -25 135 -41 137 -67 242 195 145 143 157 160 -17 146 149 269 -149 150 -58 220 -99 154 233 -23 277 158 260 -106 -91 168 163 164 165 279 167 176 204 170 -164 173 273 199 175 -175 177 178 -167 180 -180 182 -181 184 -178 -8 -187 -144 -62 -190 -18 -55 -27 263 -174 -40 -159 -198 -5 223 292 202 -202 -13 205 259 264 -208 -121 219 262 294 -213 297 217 216 -216 -130 -219 -133 -152 222 -222 -172 282 226 -192 -228 -122 230 231 232 -30 234 -101 236 261 238 239 -238 -240 -119 -84 -244 -166 -96 247 248 -60 250 251 252 -29 -168 -253 -6 -257 -76 -128 -162 -143 -235 270 -194 265 266 -206 -31 -35 -148 -211 -272 -81 -173 -227 -140 -11 -116 -59 -163 -191 -220 284 -284 285 287 -287 288 289 -68 -283 -292 293 -201 -138 -232 -26 298 -142
right_child=2 3 10 8 12 7 185 27 79 276 -12 14 13 -15 17 16 190 18 19 -21 22 56 24 133 25 88 -28 38 30 267 32 -33 33 268 37 -37 -38 -39 39 40 41 -43 -44 -45 45 46 49 -49 50 -51 -52 -53 -54 54 -56 70 140 278 246 60 61 124 -64 -65 86 75 92 68 -70 -71 -72 -73 74 -75 257 -77 -78 -79 -80 272 -82 83 85 84 -86 -87 87 -89 -90 141 91 -93 127 94 245 -97 -98 111 103 113 101 -103 -104 117 109 106 107 -109 -110 116 -112 112 -114 114 115 -117 -118 118 119 208 123 122 -124 -125 -126 -127 258 128 214 -131 -132 209 -134 -135 -136 -137 211 -139 275 -141 213 142 187 -145 -146 -147 147 148 -150 -151 151 -153 -154 -155 -156 -157 -158 196 -160 -161 161 162 169 -165 244 166 253 -169 -170 -171 171 172 194 174 -176 -177 183 -179 179 181 -182 -183 -184 -185 -186 186 -188 -189 189 280 225 -193 193 -195 -196 -197 197 -199 -200 200 201 -203 -204 -205 206 -207 207 -209 -210 210 -212 212 -214 -215 215 -217 -218 218 281 -221 221 -223 -224 -225 -226 274 227 -229 -230 -231 295 -233 -234 235 -236 -237 237 -239 240 -241 -242 -243 243 -245 -246 -247 -248 -249 -250 -251 -252 254 -254 -255 -256 256 -258 -259 -260 -261 -262 -263 -264 -265 -266 -267 -268 -269 -270 -271 271 -273 -274 -275 -276 -277 -278 -279 -280 -281 -282 290 283 -285 -286 286 -288 -289 -290 -291 291 -293 -294 -295 -296 -297 -298 -299 -300
leaf_value=1.4119252764769781 1.3876161764187445 1.3796685437056415 1.2493273672107545 1.3733104375351592 1.4261855704676261 1.4194067072711558 1.2803231347918558 1.3813962899476204 1.3129502585614359 1.2196792416983968 1.3467426367513582 1.3268167861635074 1.3857087445675997 1.2648252510013052 1.3674987311137028 1.29224458386151 1.4261855704676261 1.2139036328323531 1.3910223047243599 1.2856672326506662 1.3366790758484033 1.3345657280587828 1.3216508248999905 1.2870613451355732 1.4159296179591734 1.3629785150081255 1.4151421238641251 1.3695533747980562 1.3009869798459233 1.2989205953405163 1.4101702692532256 1.2803231347918556 1.2648252510013052 1.3405926828662191 1.3024629687783564 1.2028337158391027 1.3733104375351592 1.3981070516000402 1.4114590745580529 1.3648570463766772 1.4212129874332247 1.2601085037607027 1.4353019726973617 1.2803231347918556 1.2466320830732673 1.3910223047243599 1.4226506389907898 1.3806035593189478 1.2157486189978948 1.3319827474270243 1.3180206899580598 1.4198040889068111 1.4057821940486939 1.3467426367513582 1.4238220587784354 1.3910223047243599 1.3263979244394386 1.3888083213257099 1.417590105508161 1.2803231347918556 1.4153047032901995 1.3399303801401272 1.2958210185824062 1.3024629687783564 1.3356727197581078 1.4030147148003813 1.3733104375351592 1.3153183562543893 1.3733104375351592 1.2183315996296533 1.3024629687783564 1.4094721663797773 1.4159296179591734 1.261725674243195 1.314014186510444 1.3384401990064203 1.4233805236277073 1.3070436240859085 1.3113189023729568 1.408349131322491 1.4185475037346043 1.2856672326506662 1.4353019726973615 1.3216508248999905 1.4205420833730278 1.3356727197581078 1.408349131322491 1.3434626613459506 1.3507680611125401 1.4110865292746264 1.2380561789994449 1.3353156256615513 1.2877030794540225 1.4242320557041113 1.3578125537446086 1.2749790369330452 1.2803231347918556 1.4120551470115357 1.3481263763755145 1.3893823170216562 1.3549425752648772 1.236043466818854 1.3268167861635074 1.3024629687783564 1.3615025260756921 1.3384401990064203 1.1873358320485521 1.3061529411094399 1.3988363637784191 1.4194067072711558 1.2493273672107545 1.2803231347918556 1.3799523877311095 1.2932380379506478 1.376262415400026 1.2944121200559926 1.3467426367513582 1.4353019726973617 1.2493273672107545 1.342314669954058 1.3733104375351592 1.2692532177986053 1.3813962899476204 1.4071240021690878 1.2601085037607027 1.365561495639884 1.3113189023729568 1.3085011053201294 1.4353019726973617 1.4008622309405825 1.3350215481702696 1.423962057728666 1.4057821940486939 1.3679198692601851 1.3893823170216562 1.2803231347918558 1.3897199615486835 1.3225900905842665 1.3319827474270243 1.3113189023729568 1.4246137769797405 1.3806035593189478 1.3177318198035295 1.4353019726973617 1.3623707548594766 1.4238220587784354 1.4212129874332247 1.2286635221566871 1.3578125537446086 1.4353019726973617 1.4353019726973615 1.3172228581026904 1.3553128950687134 1.416704512148701 1.3113189023729568 1.4057821940486939 1.349202618305414 1.4247591946085516 1.3284200155211505 1.2860630917513189 1.3750324246229981 1.3664224891838035 1.3280089310704728 1.4049139652649094 1.3599068623649533 1.4071240021690878 1.4114590745580531 1.2803231347918556 1.3319827474270243 1.337420601388621 1.4165166590118459 1.4126221427599706 1.300986979845923 1.3253169909579703 1.2989205953405163 1.4143588864939149 1.3005377658230086 1.2445587875828927 1.3648570463766772 1.3753101644758754 1.2331556623858322 1.4353019726973617 1.2648252510013052 1.4212129874332247 1.393035016904951 1.378946031640814 1.29224458386151 1.3910223047243599 1.3153183562543893 1.3578125537446086 1.3965572632209851 1.2745831778323926 1.4260495047627046 1.3578125537446086 1.3664224891838035 1.3409670278853145 1.4189884108125717 1.3467426367513582 1.2958210185824064 1.4201820860724341 1.3733104375351592 1.3953074338830376 1.2648252510013052 1.2521451642635819 1.3955638091318472 1.3199688840234967 1.3384401990064203 1.4035114418449501 1.4094721663797773 1.3507680611125403 1.4353019726973617 1.3268167861635074 1.4087341719135607 1.3609121305027188 1.3975022561350432 1.4269247382159829 1.3287540216373264 1.3319827474270243 1.4353019726973617 1.3679198692601851 1.4091083662907973 1.3361155164378378 1.3553128950687134 1.3688824707378591 1.3578125537446086 1.3733104375351592 1.2944121200559926 1.376262415400026 1.3041660329311644 1.4109915667513999 1.3733104375351592 1.3920520644446623 1.3707274569034009 1.376262415400026 1.3292638204462259 1.4353019726973617 1.2803231347918558 1.3955638091318472 1.4131621387108608 1.376262415400026 1.3441379504000053 1.3733104375351592 1.3319827474270243 1.418082101818972 1.4099993052842179 1.4162276541859147 1.4105053586324807 1.3085011053201294 1.3544434485727499 1.3975022561350432 1.4016109209787735 1.3485138234702783 1.2803231347918558 1.3485138234702783 1.4114590745580531 1.3507680611125401 1.4198040889068111 1.3753101644758754 1.37569472734909 1.4223870695385694 1.4353019726973617 1.4353019726973617 1.3268167861635074 1.383642360062193 1.4217073377933698 1.4236054566290215 1.3113189023729568 1.2380561789994449 1.3897199615486835 1.3578125537446086 1.3578125537446086 1.417590105508161 1.3467426367513582 1.3609121305027188 1.4353019726973617 1.393035016904951 1.2803231347918558 1.4353019726973617 1.3268167861635074 1.4218255520099263 1.4139255812621194 1.417590105508161 1.4229036656649212 1.3485138234702783 1.4248832272919494 1.408349131322491 1.3319827474270243 1.4211054379273915 1.3467426367513582 1.4353019726973617 1.3549425752648772 1.4123421448595088 1.4353019726973617 1.3507680611125401 1.4263608858951209 1.4242320557041113 1.3648570463766772 1.4353019726973617 1.3578125537446086
leaf_weight=57.749818325042725 6.2911813259124783 6.2911813259124747 5.6459319591522199 3.2262468338012713 5.4846196174621609 12.582362651824953 8.3882417678833026 3.7101838588714582 6.1298689842224103 3.71018385887146 3.387559175491333 3.2262468338012686 4.032808542251586 3.2262468338012695 5.1619949340820339 4.1941208839416486 5.4846196174621609 3.3875591754913321 3.3875591754913312 4.6780579090118408 3.5488715171813991 6.4524936676025373 4.8393702507019034 3.7101838588714591 5.161994934082033 4.8393702507019034 19.841418027877808 5.3233072757721001 4.8393702507019061 4.0328085422515869 5.9685566425323469 3.5488715171813956 6.4524936676025373 5.8072443008422834 5.6459319591522217 3.2262468338012704 3.2262468338012695 4.0328085422515869 4.1941208839416593 3.5488715171813983 3.5488715171813956 3.7101838588714591 3.5488715171813956 4.8393702507019034 3.7101838588714591 3.3875591754913357 7.9043047428131086 8.2269294261932355 3.8714962005615217 4.8393702507019043 5.9685566425323486 3.2262468338012686 3.3875591754913321 3.3875591754913321 4.355433225631713 3.387559175491333 5.9685566425323477 3.2262468338012686 5.6459319591522235 5.1619949340820304 5.0006825923919775 4.1941208839416495 3.2262468338012686 3.3875591754913321 4.51674556732178 7.7429924011230451 3.2262468338012713 5.000682592391966 3.2262468338012686 3.2262468338012695 4.5167455673217773 5.8072443008422843 7.7429924011230495 4.032808542251586 3.7101838588714582 5.1619949340820304 8.388241767883299 4.6780579090118399 3.2262468338012686 3.71018385887146 5.9685566425323477 4.6780579090118399 8.7108664512634331 4.8393702507019025 3.387559175491333 4.5167455673217765 18.550919294357303 4.355433225631713 5.3233072757720938 10.323989868164061 3.5488715171813947 5.0006825923919678 3.3875591754913321 4.51674556732178 3.2262468338012686 4.6780579090118399 4.1941208839416495 12.904987335205083 5.161994934082033 4.3554332256317121 4.3554332256317121 4.5167455673217773 3.2262468338012695 3.3875591754913321 3.3875591754913357 5.1619949340820295 4.0328085422515869 3.8714962005615234 5.4846196174621573 6.2911813259124738 3.2262468338012695 4.1941208839416486 4.5167455673217773 3.8714962005615261 3.3875591754913348 3.5488715171813956 4.5167455673217773 5.1619949340820295 3.2262468338012722 3.2262468338012678 3.2262468338012678 4.5167455673217756 3.71018385887146 3.5488715171813965 3.71018385887146 6.4524936676025382 3.2262468338012686 3.5488715171813956 15.647297143936155 4.3554332256317139 5.4846196174621573 13.227612018585207 3.387559175491333 3.71018385887146 4.3554332256317139 3.5488715171813965 5.4846196174621644 5.3233072757720947 3.3875591754913321 4.0328085422515869 4.6780579090118426 5.4846196174621564 4.678057909011839 4.032808542251586 5.4846196174621582 4.355433225631713 3.5488715171813947 3.8714962005615234 3.2262468338012695 6.2911813259124747 3.7101838588714662 3.3875591754913321 5.0006825923919669 8.0656170845031721 3.2262468338012686 3.387559175491333 5.8072443008422852 23.712914228439331 4.6780579090118399 4.3554332256317139 5.8072443008422869 4.3554332256317121 4.1941208839416495 8.2269294261932355 5.9685566425323469 3.5488715171814027 4.1941208839416486 4.8393702507019034 3.8714962005615225 6.1298689842224112 31.939843654632568 6.6138060092926043 4.8393702507019025 5.000682592391974 4.032808542251586 11.937113285064695 3.7101838588714582 4.1941208839416495 3.5488715171813991 5.000682592391966 3.71018385887146 3.2262468338012686 3.2262468338012695 3.5488715171813965 3.5488715171813965 3.5488715171813956 4.1941208839416504 3.387559175491333 5.000682592391966 3.2262468338012695 5.161994934082033 4.3554332256317139 21.615853786468513 3.2262468338012686 4.3554332256317139 3.71018385887146 6.1298689842224103 4.5167455673217773 3.2262468338012695 6.6138060092926043 3.2262468338012678 5.0006825923919678 3.2262468338012695 3.5488715171813965 6.2911813259124774 6.9364306926727286 5.1619949340820295 6.2911813259124756 5.8072443008422852 5.3233072757721009 3.3875591754913321 3.2262468338012678 5.6459319591522217 4.032808542251586 6.6138060092926043 5.9685566425323477 5.1619949340820312 3.3875591754913357 7.904304742813113 3.7101838588714591 11.453176259994512 4.032808542251586 5.0006825923919669 4.5167455673217765 3.2262468338012686 3.2262468338012686 3.5488715171813965 3.387559175491333 4.1941208839416504 8.2269294261932355 4.0328085422515851 6.9364306926727286 3.8714962005615234 3.3875591754913312 6.1298689842224121 3.3875591754913321 4.1941208839416531 12.582362651824949 6.7751183509826642 3.387559175491333 5.4846196174621582 4.0328085422515869 3.3875591754913321 8.710866451263426 7.9043047428131104 10.485302209854124 8.0656170845031721 3.5488715171813956 3.71018385887146 13.227612018585203 7.420367717742919 4.0328085422515851 4.5167455673217773 4.0328085422515869 4.1941208839416504 5.323307275772093 3.2262468338012695 5.0006825923919678 4.1941208839416504 7.7429924011230469 4.5167455673217773 5.6459319591522217 3.2262468338012686 4.8393702507019034 18.389606952667236 8.5495541095733625 3.2262468338012695 3.5488715171813965 5.4846196174621582 3.2262468338012695 3.2262468338012678 5.6459319591522217 3.387559175491333 4.0328085422515869 3.5488715171813965 3.5488715171813965 3.2262468338012695 3.8714962005615234 3.2262468338012695 3.71018385887146 4.6780579090118408 11.291863918304445 4.0328085422515851 4.0328085422515869 38.392337322235107 3.7101838588714591 3.387559175491333 21.131916761398315 3.387559175491333 3.71018385887146 4.3554332256317121 4.3554332256317139 5.6459319591522208 3.5488715171813965 16.776483535766602 4.5167455673217773 3.5488715171813965 6.775118350982666 3.2262468338012695
leaf_count=358 39 39 35 20 34 78 52 23 38 23 21 20 25 20 32 26 34 21 21 29 22 40 30 23 32 30 123 33 30 25 37 22 40 36 35 20 20 25 26 22 22 23 22 30 23 21 49 51 24 30 37 20 21 21 27 21 37 20 35 32 31 26 20 21 28 48 20 31 20 20 28 36 48 25 23 32 52 29 20 23 37 29 54 30 21 28 115 27 33 64 22 31 21 28 20 29 26 80 32 27 27 28 20 21 21 32 25 24 34 39 20 26 28 24 21 22 28 32 20 20 20 28 23 22 23 40 20 22 97 27 34 82 21 23 27 22 34 33 21 25 29 34 29 25 34 27 22 24 20 39 23 21 31 50 20 21 36 147 29 27 36 27 26 51 37 22 26 30 24 38 198 41 30 31 25 74 23 26 22 31 23 20 20 22 22 22 26 21 31 20 32 27 134 20 27 23 38 28 20 41 20 31 20 22 39 43 32 39 36 33 21 20 35 25 41 37 32 21 49 23 71 25 31 28 20 20 22 21 26 51 25 43 24 21 38 21 26 78 42 21 34 25 21 54 49 65 50 22 23 82 46 25 28 25 26 33 20 31 26 48 28 35 20 30 114 53 20 22 34 20 20 35 21 25 22 22 20 24 20 23 29 70 25 25 238 23 21 131 21 23 27 27 35 22 104 28 22 42 20
internal_value=0 0.15836 -0.271633 -0.396551 0.249777 -0.249884 -0.887275 -0.225477 -1.07594 -1.65942 -1.73544 -0.249632 0.216103 -0.812945 -0.522722 -0.290223 -0.00989513 -1.09381 -1.54055 -0.854273 0.225025 0.272257 0.0405616 0.150705 -0.050216 0.243863 0.612148 -0.250455 -0.337925 -1.31478 -0.305239 -0.241123 -0.694268 -0.960544 -1.35906 -1.92363 -1.43286 -0.606307 -0.110374 -0.211389 -0.0938825 -0.450301 -0.301904 -0.669446 -0.435046 -0.566738 -0.354831 -0.750798 -1.31694 0.311796 -1.89695 -0.479657 -0.65112 -0.221218 -0.275659 -0.0440578 0.423076 0.517947 -0.233036 -0.37867 -0.705727 -0.502987 -0.166214 -0.0649325 0.0756003 0.105448 0.510266 -0.841447 -1.36592 -1.90691 -0.644261 -0.203627 -0.374621 -0.942094 0.159471 0.341799 0.255631 -0.371581 -0.0031457 -0.485347 -0.0107614 -0.103673 0.0777379 -0.761285 -0.205185 0.354562 0.268868 0.467631 0.500506 0.17232 -0.296349 -1.55372 0.546726 -0.298354 -0.225904 -0.582616 -0.443171 -0.302333 -0.286891 -0.0962985 -0.732697 -1.56436 0.220247 -0.530047 -0.790962 -1.1594 -1.80787 -2.54196 -0.54864 -0.25592 -1.25006 -0.0686549 -0.812945 0.0250887 -0.454989 -0.191023 0.328193 -0.198615 -0.0727476 -0.382448 -0.789463 -0.537427 -1.05605 -0.296349 -1.40334 0.692712 0.187343 0.413291 0.578421 -0.264721 0.173587 0.287629 -0.517747 -0.902788 -0.492801 -1.0008 0.461577 -0.0476174 0.532608 -0.338235 0.172495 0.203535 0.465411 0.150501 -0.812945 0.0308286 -0.0496859 -0.692806 -1.70525 0.174235 -0.0281163 0.165869 0.471564 0.172715 0.075088 -0.270943 0.181981 0.621289 0.163478 -1.07124 0.134498 0.110015 0.0299897 -0.212493 -0.310186 -0.459034 -0.594385 -0.74169 0.326334 0.199932 0.250906 0.29678 -0.15775 0.40327 -0.034077 0.308807 -0.598256 -0.825545 -0.498495 -0.723877 -1.50174 -0.230865 -0.812945 -0.041906 -0.537427 -1.35021 -0.812945 -0.482324 0.0806266 -0.218859 0.309198 -1.32954 0.645111 0.781765 -0.812945 0.114819 0.816879 0.314174 -0.761285 0.547207 0.263042 -0.405489 -1.07124 -1.69854 0.390821 0.0331337 0.543772 0.0310712 0.257147 0.432184 0.148164 0.67528 0.126321 0.612148 0.681448 0.295388 -0.105279 0.827381 0.614351 0.781123 0.34423 0.17957 0.402575 0.759702 0.732121 0.0877867 -0.234357 -0.76489 -0.768024 0.204826 0.0136088 -0.280372 -0.812945 0.150966 -0.367878 0.272278 0.192106 0.0197771 -0.258549 -0.988808 0.193058 0.709654 0.772885 0.426886 0.316358 0.597059 0.252038 -0.0638806 0.398384 0.0910982 -0.119791 -0.407048 -0.880695 0.159471 0.159471 0.469638 0.0837879 -0.468548 -0.498495 0.589244 0.653521 0.810643 -0.0667506 0.913242 0.704842 0.423196 -0.112476 -2.04398 -0.16351 0.367846 0.126321 0.464456 0.126321 0.4081 0.663044 -0.188224 -2.49489 0.702404 -0.296349 0.385558 0.367846 0.787607 0.771152 0.261575 0.824567 0.604992 -0.0145692 0.744791 0.284822 0.676774 0.603528 0.220247 0.747386 0.466245 0.894068 0.551649 0.449846 0.844704 0.494359
internal_weight=0 1058.37 617.02 149.698 908.672 607.986 22.4224 585.564 26.6165 13.3889 9.03349 123.081 844.47 7.25906 57.4272 40.812 34.0369 16.6152 11.4532 8.06562 837.211 666.543 170.668 369.083 147.278 56.4593 23.3903 566.529 348.757 11.2919 337.465 289.717 47.7485 33.8756 22.5837 12.905 9.67874 9.67874 217.772 170.668 135.825 48.7163 45.0061 34.8435 41.4573 37.9084 34.1982 21.4545 13.2276 12.7437 9.84005 30.0041 26.7778 286.168 253.744 13.8729 297.46 19.0349 90.8188 69.8482 34.1982 29.0362 21.1319 35.65 32.2625 87.1087 220.675 23.3903 11.4532 8.22693 7.9043 37.7471 31.9398 15.486 16.4539 49.3616 47.1032 16.6152 11.9371 13.2276 65.6541 59.6856 46.7806 12.905 8.22693 32.2625 27.4231 22.9064 39.8441 361.662 22.5837 8.54955 210.835 249.389 198.737 50.6521 45.974 41.7799 185.025 103.724 16.6152 8.87218 7.74299 81.3014 45.4901 26.9392 13.0663 7.9043 13.8729 18.5509 8.38824 34.0369 8.71087 87.1087 20.4867 16.6152 10.8079 35.8113 32.4238 23.229 14.1955 14.5181 8.22693 10.9692 7.9043 64.2023 25.326 122.597 72.5906 7.9043 50.0068 44.5222 6.77512 7.42037 11.4532 7.09774 44.1996 13.0663 27.7457 11.9371 76.7847 339.079 57.1046 281.974 9.67874 58.0724 53.717 13.8729 7.09774 39.8441 33.553 27.5844 17.9057 66.622 58.5564 9.84005 13.0663 49.039 14.6794 7.74299 277.941 267.617 195.349 80.4949 72.2679 58.3951 50.3295 42.1025 72.2679 114.854 108.725 104.53 19.8414 84.689 20.9706 16.9378 37.2632 26.4552 22.2611 18.7122 7.25906 11.4532 8.22693 10.8079 7.25906 16.1312 7.74299 8.06562 17.9057 12.905 24.3582 7.74299 34.5208 29.6815 9.1948 7.9043 34.3595 10.6466 6.45249 63.7184 27.2618 11.4532 6.45249 6.77512 68.3964 20.4867 47.9098 11.4532 9.03349 37.7471 20.8093 31.1333 8.87218 18.7122 64.6862 17.7444 11.7758 46.9419 31.2946 16.9378 24.1969 20.4867 16.4539 36.4566 88.2379 18.8735 12.0984 6.93643 7.42037 32.4238 24.1969 15.6473 8.71087 55.3301 10.4853 44.8448 41.4573 32.4238 19.8414 7.58168 12.2597 9.1948 20.8093 12.0984 13.8729 13.7115 20.9706 12.905 9.35612 38.715 25.4873 18.067 9.84005 8.22693 8.22693 14.0342 8.54955 8.71087 7.42037 13.5502 10.0014 9.03349 17.4217 26.4552 36.4566 18.067 9.51743 7.58168 11.2919 6.77512 14.1955 8.87218 7.09774 10.6466 6.77512 6.93643 6.93643 7.25906 6.45249 8.06562 7.9043 27.907 85.0116 8.06562 76.946 38.5536 7.09774 31.4559 10.324 6.93643 20.0027 8.71087 15.8086 10.1627 22.2611 8.54955 8.71087 14.6794 7.9043
internal_count=10386 6561 3825 928 5633 3769 139 3630 165 83 56 763 5235 45 356 253 211 103 71 50 5190 4132 1058 2288 913 350 145 3512 2162 70 2092 1796 296 210 140 80 60 60 1350 1058 842 302 279 216 257 235 212 133 82 79 61 186 166 1774 1573 86 1844 118 563 433 212 180 131 221 200 540 1368 145 71 51 49 234 198 96 102 306 292 103 74 82 407 370 290 80 51 200 170 142 247 2242 140 53 1307 1546 1232 314 285 259 1147 643 103 55 48 504 282 167 81 49 86 115 52 211 54 540 127 103 67 222 201 144 88 90 51 68 49 398 157 760 450 49 310 276 42 46 71 44 274 81 172 74 476 2102 354 1748 60 360 333 86 44 247 208 171 111 413 363 61 81 304 91 48 1723 1659 1211 499 448 362 312 261 448 712 674 648 123 525 130 105 231 164 138 116 45 71 51 67 45 100 48 50 111 80 151 48 214 184 57 49 213 66 40 395 169 71 40 42 424 127 297 71 56 234 129 193 55 116 401 110 73 291 194 105 150 127 102 226 547 117 75 43 46 201 150 97 54 343 65 278 257 201 123 47 76 57 129 75 86 85 130 80 58 240 158 112 61 51 51 87 53 54 46 84 62 56 108 164 226 112 59 47 70 42 88 55 44 66 42 43 43 45 40 50 49 173 527 50 477 239 44 195 64 43 124 54 98 63 138 53 54 91 49
shrinkage=1


Tree=1
num_leaves=300
num_cat=0
split_feature=31 28 24 5 24 1 16 10 18 18 12 23 18 28 28 25 14 15 18 11 23 12 12 7 7 7 5 5 15 1 18 23 11 16 23 12 5 1 15 18 18 10 10 25 14 18 18 18 9 15 18 12 5 18 1 18 11 23 9 14 18 5 15 24 1 12 5 7 18 15 14 12 10 9 10 18 7 5 31 1 23 12 14 12 24 1 1 10 10 14 5 7 25 11 11 11 1 18 18 14 5 5 5 14 1 14 15 18 5 1 12 5 25 1 25 23 16 16 18 15 18 14 7 15 9 15 18 1 9 1 18 14 16 5 1 24 10 14 12 12 14 7 24 5 23 14 18 1 10 10 9 10 5 15 25 11 11 7 16 22 7 11 1 15 9 16 18 5 24 15 5 10 12 5 10 12 14 5 11 12 5 12 24 12 18 11 14 18 1 1 15 11 15 1 28 25 14 15 9 10 5 1 18 11 15 1 11 15 15 18 18 18 28 7 12 10 9 9 9 9 9 5 16 5 1 18 22 23 12 12 1 22 23 18 14 22 7 25 14 15 10 18 11 15 11 12 18 10 9 5 5 5 5 5 14 18 12 5 16 1 28 11 24 12 11 18 10 15 7 1 10 14 11 10 14 18 28 28 1 15 7 7 1 11 10 18 14 10 14 15 16 18 1 9 28 5 12 15 15
split_gain=63.7287 45.9404 16.6135 14.0254 11.0517 11.8628 12.6569 10.4613 9.76292 11.1697 15.7439 9.28271 10.348 9.13711 8.47181 10.8164 15.645 8.92083 7.55235 7.39597 7.69812 7.2808 10.4004 7.17087 17.2478 14.2521 6.99382 6.78119 9.02196 7.55963 9.95494 6.29662 5.90161 5.73884 5.69484 6.28049 11.5032 6.28603 12.6415 7.32332 8.4126 5.67488 8.41331 7.1871 5.89185 5.52538 5.4895 5.33747 5.43504 5.91178 7.5405 8.08688 7.22893 6.49866 10.0955 5.30911 18.684 10.8663 11.0804 5.50741 6.40905 13.6627 10.8541 7.49666 5.2046 14.0474 10.6782 10.4936 9.11542 7.55081 9.72994 7.94003 10.4259 8.4896 10.8356 7.31445 7.06505 11.4693 6.7338 7.44593 7.31103 8.85588 9.76267 6.97695 6.9082 6.88573 10.237 9.81156 10.2873 6.556 6.48467 9.76738 10.893 9.61662 8.92705 9.85634 6.99356 6.18295 8.30296 7.56099 6.43314 11.0058 7.04022 6.05092 5.63887 6.84978 5.55906 7.2177 7.77949 5.41097 5.30853 9.36203 5.11563 16.4686 7.37826 6.8653 5.11418 5.09886 5.08227 4.96806 4.95372 4.89438 4.85686 4.79799 5.0503 4.7638 5.1534 4.761 6.61402 4.69616 4.682 4.65943 4.58374 4.27623 5.86336 4.2757 4.2503 4.14644 6.79734 10.2343 6.05341 6.11048 4.08889 5.1455 7.28954 4.24722 4.04326 12.7684 12.4564 4.38095 4.01551 3.97024 3.92173 3.84693 7.26515 3.93904 6.38907 4.34396 4.30005 4.02448 7.42483 4.62102 7.158 6.5026 3.83685 3.8244 3.80367 6.0223 10.1579 8.22844 7.64394 9.74188 4.14498 3.79786 3.86835 3.79188 12.3881 6.71391 9.37245 7.0538 9.00065 6.80399 4.60608 3.74887 3.74799 3.86954 4.33459 3.72808 4.88476 3.67361 4.64992 6.1364 5.99291 3.65586 3.65382 3.53597 5.67795 3.4608 3.45575 3.45254 3.43426 3.37242 4.68026 7.30846 3.32475 3.31249 3.26799 3.26683 3.70808 3.18989 3.6779 5.56607 4.4444 3.76523 3.18051 3.1017 7.22762 7.60182 8.27637 6.57283 8.22598 6.5433 9.08101 4.10038 3.08639 3.88751 3.94985 3.03345 3.0371 3.60289 4.63647 4.22862 4.42366 5.22213 3.53705 3.40148 3.34083 3.00151 6.84871 4.39186 4.27437 6.55871 4.26589 4.47976 4.15683 2.95395 2.8908 5.11985 3.1923 2.86049 6.03902 3.16203 4.04458 3.76521 4.61967 3.35177 3.02711 3.58106 2.85523 2.84795 2.7899 2.75379 2.7001 2.6896 2.68611 2.61281 2.99011 2.60055 3.83691 2.58222 2.54388 2.52208 2.50058 2.69071 3.29409 2.93282 2.89012 2.46951 2.39973 2.39419 2.33314 15.6121 5.91382 2.76539 3.07861 2.33107 2.32302 2.27446 2.2321 2.21795 2.12286 2.11474 4.39192 3.3066 3.34882 2.76064 2.10439 2.10162 6.13411
threshold=1.0000000180025095e-35 50.610980870000006 60.502946540000003 1.0148982460000002 30.628562520000003 179.87712380000002 356.68700000000007 53.471854060000005 11.050768025000002 12.252602355000002 0.93387978150000006 26.344316130000003 12.621609750000003 52.744572335000008 11.887211335000002 12.108207900000002 2.9128787885000005 -0.11499999999999998 9.9946022300000017 1032.3683500000004 101.21740270000002 0.94281045750000014 0.8268365820000001 1.0490590458500002 1.0996752710000002 0.71344838200000005 8.4480968585000031 11.684474090000002 -2.4749999999999996 2088.2399320000009 12.679165240000001 26.344316130000003 124.98492900000001 262.49900000000008 20.519753810000005 1.5941176470000002 1.9758014050000001 145.56057670000004 -0.27999999999999997 10.087646680000001 9.186574074000001 18.294364380000001 11.310871030000003 14.870369110000002 2.2480769230000006 5.4294409235000005 10.483187470000003 11.098239730000001 24.501599460000005 -1.2949999999999997 11.817259355000003 0.93095238100000011 5.7925600460000011 11.519325720000003 710.84237385000017 10.557645030000002 299.15715330000006 83.936633100000009 12.602488200000002 1.6936114730000003 10.265694205000001 6.0956496410000005 -1.3149999999999997 35.081258945000009 91.683227285000015 1.5941176470000002 0.59908375450000007 0.16631516000000002 9.1187962965000029 -1.095 2.8535714285000005 1.4309523810000002 18.611625625000002 23.079931875000003 5.7129860410000015 10.267285525000002 0.4016535180000001 1.1292100270000003 1.5000000000000002 182.17633010000003 5.9921365575000012 1.3623737375000002 2.2386440680000006 1.2845238095000002 18.124870695000002 253.01287325000004 306.31202500000006 11.225584460000002 17.317572935000005 2.3304597700000005 2.7190134230000003 1.5125235710000002 5.5493267105000017 259.10943955000005 174.52161965000002 194.56609795000003 212.93133455000003 10.087874070000002 9.9993807090000022 2.2714987715000006 3.2099169370000005 2.7598649645000006 2.5127744570000003 2.4511904760000003 224.36726875000002 2.2283904620000006 -0.94499999999999984 10.100042045 1.6399494825000003 170.62141310000001 1.8819444445000002 1.0513253265000002 19.348641135000005 1159.1321970000001 24.636227635000004 5.9921365575000012 78.052000000000007 829.31150000000014 9.8530342970000024 -1.6549999999999996 9.9306824770000013 1.8313008130000001 7.6925961700000007 -0.55499999999999994 30.393805885000003 -4.0999999999999988 12.669452755 87.498583905000018 30.674829500000005 715.70491555000012 10.501873270000003 2.2192192190000006 70.061500000000009 6.3337329230000003 346.29674570000003 12.162857720000002 6.4154584645000012 2.3879928315000005 1.0291356105000002 1.0491935485000001 2.4701426025000006 11.716720875000002 5.9179394875000009 12.392091670000001 31.680552940000002 2.3489130435000005 11.982519485000003 568.73250625000014 17.526131635000002 12.223308590000002 11.943815570000002 11.966646835000001 1.1457838170000001 -1.7399999999999998 23.390113625000001 180.07168485000003 224.07409020000003 1.5598709015000003 206.11650000000003 14.786028880000002 2.5830177900000004 197.04536250000004 305.4822109000001 -1.1049999999999998 6.0589304680000007 144.06150000000005 11.930556135000002 6.478115841000001 6.3329322450000012 -1.5349999999999999 7.8165967941500005 11.139471595000002 1.0776772250000002 2.3924328650000004 11.200739370000003 1.2981481480000003 1.9028324155000003 1.6036204545000003 131.05565205000002 1.5683229810000003 1.9231933440000002 1.7735042735000002 12.058503625000002 1.1324561400000002 7.6840277780000008 60.044938815000002 2.3304597700000005 10.230271635000003 253.01287325000004 218.47931380000003 -0.74499999999999988 193.05302040000001 -0.57499999999999984 527.12328750000017 4.6509556195000004 6.0711935880000008 1.8044117645000004 -0.94499999999999984 82.780860575000005 5.8625212535000015 2.5127744570000003 856.2414966 12.184946680000001 554.7543859000001 -0.57499999999999984 233.28105010000002 606.07936135000011 -2.4749999999999996 -2.4849999999999999 12.393181065000002 12.740244385000002 12.652391065000002 40.04397319000001 10.732718485000001 0.96613418100000004 5.9125428875000008 45.006015260000005 40.634209375000005 43.287284525000011 29.379836135000001 20.282087690000004 4.3937584170000008 298.06900000000007 2.7631962895000002 862.29684165000015 11.503603585000002 109.08720995000002 25.533835440000001 1.5823643410000001 1.3550420170000002 289.89593500000007 17.825990970000003 6.7513364420000004 10.501873270000003 2.2826923075000001 25.682484710000004 3.0829475645000004 6.4465212440000004 2.7445652175000004 -1.2649999999999999 12.205999675000003 10.367879310000001 119.03851340000001 -1.7649999999999999 158.03837340000004 2.3666666665000005 11.142201875000001 5.8625212535000015 5.1760507205000001 4.5191953405000005 3.3812246580000003 1.8119543620000003 2.0440220785000007 2.3516100455000006 2.0845238095000007 8.8656363380000034 1.3550420170000002 2.6362319430000007 520.15500000000009 615.01070425000012 50.610980870000006 203.06880780000003 79.739534075000009 1.2462121210000003 114.03731075 11.644689573500001 12.158070340000002 -0.24999999999999997 2.2327951750000001 231.13213645000002 12.342197575000002 2.1167945440000007 74.030491400000002 6.0541039490000008 2.1975609755000005 9.5241356430000028 4.7607000690000012 11.887211335000002 796.44288455000014 -0.47499999999999992 2.9844604000000001 2.8402560430000006 540.18627230000004 348.04643130000005 22.694338190000007 11.650133535000002 2.3675438600000005 5.800553862000001 2.4084821430000005 -1.3049999999999999 450.64550000000003 11.172993895000001 427.65164860000004 48.723823050000007 18.119229305000005 4.5429998400000011 1.3994444445000001 -1.0449999999999997 -0.6349999999999999
decision_type=2 2 2 2 2 2 2 2 2 2 2 2 2 2 2 2 2 2 2 2 2 2 2 2 2 2 2 2 2 2 2 2 2 2 2 2 2 2 2 2 2 2 2 2 2 2 2 2 2 2 2 2 2 2 2 2 2 2 2 2 2 2 2 2 2 2 2 2 2 2 2 2 2 2 2 2 2 2 2 2 2 2 2 2 2 2 2 2 2 2 2 2 2 2 2 2 2 2 2 2 2 2 2 2 2 2 2 2 2 2 2 2 2 2 2 2 2 2 2 2 2 2 2 2 2 2 2 2 2 2 2 2 2 2 2 2 2 2 2 2 2 2 2 2 2 2 2 2 2 2 2 2 2 2 2 2 2 2 2 2 2 2 2 2 2 2 2 2 2 2 2 2 2 2 2 2 2 2 2 2 2 2 2 2 2 2 2 2 2 2 2 2 2 2 2 2 2 2 2 2 2 2 2 2 2 2 2 2 2 2 2 2 2 2 2 2 2 2 2 2 2 2 2 2 2 2 2 2 2 2 2 2 2 2 2 2 2 2 2 2 2 2 2 2 2 2 2 2 2 2 2 2 2 2 2 2 2 2 2 2 2 2 2 2 2 2 2 2 2 2 2 2 2 2 2 2 2 2 2 2 2 2 2 2 2 2 2 2 2 2 2 2 2 2 2 2 2 2 2
left_child=1 3 14 184 5 23 18 19 55 33 277 12 -12 27 17 16 21 64 41 122 -21 22 -16 25 -25 32 47 -9 29 30 -29 -4 116 119 35 37 -37 127 39 40 -39 42 43 45 270 -7 -41 129 -49 121 53 -52 -53 54 -51 57 -57 58 59 -6 61 63 -63 -61 65 131 67 132 -66 71 90 75 73 237 103 97 89 110 79 263 81 82 -81 84 -84 -82 136 -88 -89 164 91 92 96 94 -92 -96 123 98 99 195 101 102 109 -75 105 -80 -94 108 -108 -99 111 -78 113 115 -114 133 -5 125 -79 -10 -120 -50 -3 124 175 -116 260 -26 -129 -8 -97 152 245 134 -17 -93 -87 142 -139 -140 141 -141 145 286 -145 -124 153 148 -148 -149 -133 -136 -2 200 155 157 158 183 159 160 161 162 163 -157 -68 -38 285 168 287 172 198 -172 206 -40 -175 176 -71 178 181 180 -179 264 -181 -155 -1 186 194 188 -111 190 191 -23 -192 249 -186 196 -70 201 -171 -100 -20 -28 203 -203 -109 -191 258 208 -146 -204 211 213 -213 -211 -209 216 217 219 -219 220 221 -158 -223 -218 225 280 -227 228 229 231 -231 232 233 234 -207 -233 -232 240 239 -239 242 244 -73 -244 -242 -67 -202 -248 -249 250 251 255 -253 -254 -255 -47 -256 -258 -169 -65 -127 -161 -62 -77 -177 -235 -267 -221 -269 -163 -44 -166 -187 274 275 276 -274 -11 -58 -276 281 282 -217 284 -282 290 -144 -168 -54 -106 -123 293 -293 294 -225 -294 -154 -35 -299
right_child=2 7 31 4 8 6 26 13 9 10 11 -13 -14 -15 15 112 -18 -19 146 20 -22 189 -24 24 34 -27 197 28 -30 -31 -32 -33 -34 297 -36 36 165 38 173 46 -42 -43 44 -45 -46 193 -48 48 49 50 51 52 288 -55 -56 56 278 -59 -60 60 262 62 -64 259 68 66 76 -69 69 70 -72 72 -74 74 -76 78 77 118 104 80 85 -83 83 -85 -86 86 87 88 -90 -91 93 135 106 -95 95 130 -98 100 199 -101 -102 -103 -104 -105 289 -107 107 204 -110 187 -112 -113 114 -115 117 -117 -118 -119 120 -121 -122 166 137 -125 -126 126 -128 128 -130 -131 -132 150 -134 -135 151 -137 -138 138 139 140 -142 -143 143 144 207 -147 147 149 -150 -151 -152 -153 296 154 -156 156 215 -159 -160 261 -162 269 -164 -165 271 -167 167 169 -170 170 171 -173 -174 174 -176 177 -178 179 -180 182 -182 -183 -184 -185 185 272 -188 -189 -190 205 192 -193 -194 -195 -196 -197 -198 -199 -200 -201 246 202 209 -205 -206 227 -208 214 -210 210 -212 212 -214 -215 -216 224 223 218 -220 267 -222 222 -224 291 -226 226 -228 -229 -230 230 236 235 -234 265 -236 -237 -238 238 -240 -241 241 -243 243 -245 -246 -247 247 248 -250 -251 -252 252 253 254 256 -257 257 -259 -260 -261 -262 -263 -264 -265 -266 266 -268 268 -270 -271 -272 -273 273 -275 279 -277 -278 -279 -280 -281 283 -283 -284 -285 -286 -287 -288 -289 -290 -291 -292 292 295 -295 -296 -297 -298 298 -300
leaf_value=0.047005895166491431 0.047565855730472006 -0.058215543681574888 -0.10890593130708803 -0.051113918560711305 0.062541883282902708 0.052931990697936707 -0.0065856595899850233 -0.12887615033590719 0.034497125628037327 0.062619361503194915 -0.068008994772549902 -0.11458048063656326 0.030525689728951134 0.0055334993175212635 0.026882660375158591 0.034237064677083512 -0.096723556869106345 -0.074546913253326949 -0.0044559552863225943 -0.091180663316647259 -0.00059878613747351794 0.039370710755105086 -0.080502373218940229 -0.10991689915080441 -0.021292190671211075 0.032690795042213387 0.052142261139250946 -0.038902185170353459 0.013980248996634706 -0.014904594576154853 -0.13493808172044586 -0.024209510524277621 -0.060717605325250772 0.049618266893290443 -0.053626524107865718 -0.08313015719073702 0.047850578502081804 -0.063345406280627944 -0.017494485369751987 -0.10152717055584848 0.025707845913260748 -0.041302305749597867 0.020123559609161287 -0.067000588878418407 0.045867482563499498 0.0031006684491564009 -0.024569010418841467 -0.054555279541478277 -0.055938855240783181 0.031839529851831333 0.010386610297279513 -0.13594460094581368 -0.015156224753844153 0.043874600661523003 -0.093342795296081985 -0.12687173853916361 -0.024345675479853154 -0.097146737318171791 -0.093932900527847585 -0.049817195976350481 0.007016885655308204 -0.11598351754978715 -0.012089263468492397 0.050006138549700846 -0.089585687631268271 -0.030161559103188785 -0.035605473665035851 -0.13120520957248119 -0.053304579513224794 -0.063548911035378242 0.050261754852426947 -0.028945351519190143 -0.078346922105968581 -0.022962267144593932 0.019930835894846163 -0.014714143652433679 -0.14605729902644685 0.039677647014536008 0.012103275632434175 -0.083034490471941613 -0.065786733774380976 -0.099622711443561662 0.0034294983314422638 0.036438381200581231 -0.086801287275743155 0.0015825364176108585 -0.089615493963789691 0.052318037589057759 -0.054275390377478833 0.050330986134736334 -0.011809867670662553 0.042799589129363713 -0.046222539309688837 0.0031509251536150696 -0.14743769382676231 -0.1028302235351005 -0.099208155287956942 -0.08350212413384997 -0.0076992724966419611 -0.10461392791068445 -0.10953908080121955 0.026375421191524379 -0.099956966845277773 -0.11332287849304945 0.020502622691731309 -0.073786868793808566 0.012560744558258553 0.050831948143374023 -0.069663627213549267 0.04739070305296212 -0.011476289623344453 -0.037737672608610134 0.051770844064595811 -0.13350980383707897 0.017831781831866702 -0.081646210412431752 0.0099342659671879472 0.02370171186724267 -0.063528559039791807 -0.043940130117468813 0.016138293306871419 -0.02176368053486586 -0.0087063934711000164 0.019984435792015268 -0.086738733202308307 -0.041914249121455374 0.0022607393824114973 0.04135373902016462 -0.030704166378102523 0.054946238586349408 -0.024722879878936385 0.026026418027300616 0.012923339190699948 0.04740584038637162 -0.0078188911640839683 -0.024671355532185191 0.062737872845161052 0.037129064523290199 -0.10883000414039815 -0.0042733532720292391 0.036989936044077271 -0.083593704037631 -0.064540416247801408 0.062613869622715895 0.00058607508517015991 0.040782715251561817 -0.11881387340843974 -0.0043747877937139806 0.016518183014800285 0.05576659066505936 -0.043566016512487156 -0.083340438173293077 -0.019052261014718463 -0.01888196211923994 -0.038131144312171406 0.062360172387966754 0.053029322262353566 0.056519436047115526 -0.049700235201889993 0.010991875783053605 -0.066392439882434859 -0.0049675358313554675 -0.07136779387222035 -0.024910122971357768 -0.0064685922061186165 -0.027014838187858509 -0.027419446952023602 -0.0048587907250851343 -0.10275481968998071 0.048490111658988339 -0.12304499079836545 4.4696014717685126e-05 0.056332186581377688 0.04084932178160533 -0.011625108562270369 0.018503573421723856 0.051911250522166365 -0.15709480282489241 0.049379132868542543 -0.070269320461644233 -0.050733613031636787 -0.096839242133715198 0.0083961257490375845 0.032893987309821925 0.004663751318817958 0.05620982621102795 0.03992262436846164 -0.052224943983238806 -0.030344620451623429 0.062862245305978656 -0.082153316156838185 -0.03998729704981812 0.0059572555597311901 0.04085291053404453 -0.063338456531706708 -0.058325843064033323 0.028008036731046113 0.049364904945287509 -0.021252573069820958 0.045574035960167576 0.052479226618283928 0.033931217990469963 0.062401265116388688 -0.057434648702116946 -0.0066511744736138523 -0.04008544241366202 -0.023157339201883412 -0.020429085320207496 -0.075047717488212706 0.043195790402905498 0.04585751611874974 -0.076310430323547909 -0.00029620123869444795 -0.018082591125408123 0.047712821494061176 0.0443224264918477 -0.021844631410748008 -0.099655529704817378 0.0017951147703454224 0.049097133383660799 -0.070182981787564019 -0.061480335585489702 0.047027764942598194 0.037254745033611529 -0.010138347912157042 0.059788462690980496 -0.00017190861384145433 0.062649189671779501 0.062363247733315919 -0.061339554714606809 0.0271946119158776 -0.048426804622358127 -0.019898647785073015 0.056438883742350433 0.032655603930584802 0.017215980419842784 -0.03136904598505235 0.051030376003508765 -0.064047657121514834 -0.020760681829999503 -0.014416972782100971 -0.059521858524297692 -0.011621766706292086 0.037730984832907266 0.051360072765939763 -0.089411863216721912 -0.031085326179795359 0.00081274369140478119 0.053018998129614296 0.030843654639931994 -0.07061665849764491 0.043201007814090725 -0.043010250522971381 -0.040095203564450572 0.038507803837453336 -0.064982026931844655 0.030676345086088005 -0.043931484221275297 0.052774411267580194 -0.0023358321231539128 -0.10195687786630542 0.062321473139049927 0.062758571156606296 0.040799384890320034 -0.045147199854659092 -0.01557992619783366 0.049763539141630508 0.048892784442426715 -0.021149239860328704 0.045058346106220837 -0.035999934271592336 0.048572900191682464 0.04648462358879224 0.049581722680465824 -0.041317725558581084 0.062436803998726489 -0.01862420467527048 0.0069562780453802237 0.031900910981065282 0.013053473373193226 0.053632006414021785 -0.067046881857862062 -0.027856811079539124 -0.00023797791629387449 0.0003193799487098783 0.044742409435835746 -0.010368670626942664 0.031610197842937504 -0.073754031560805441 0.06262845099292362 0.029701115381121575 -0.02872421838816679 0.0020198291680173851 0.06239862865152556 -0.011750731866080609 0.054494495109006537 0.033615842849444487 -0.031875140887857589 0.045075737709739196
leaf_weight=26.327838823199272 16.670693665742878 4.5435466617345801 6.0609275847673398 4.35857722163201 3.5239791423082343 5.1454182863235465 5.7811834812164289 3.3746099770069184 3.5465591698884964 4.4996233582496661 6.0972057282924634 3.9393397420644751 4.7327721267938614 6.0787387341260901 4.190518990159033 3.5267938971519524 3.4416740387678137 6.1837483942508689 4.4788213521242133 5.8214273303747159 3.9283025562763214 8.5614859461784381 4.8811681717634201 4.0524683445692053 5.3505487143993404 36.906769573688507 4.8035059720277777 4.8750261664390617 4.0823078751563981 4.4762206822633734 6.0438149124383926 3.4398219287395477 5.6674173325300208 15.507566466927527 5.5691091567277899 6.1664998829364759 3.4737920463085175 4.3623371720314008 6.2465586662292543 5.4803613871335966 6.7640073597431183 5.7756096571683875 4.6892894208431262 3.8573887944221488 20.975529879331589 3.3634601533412924 4.0146790444850922 5.9691463112831107 3.3740494996309272 3.2353727519512194 3.8371695876121512 3.2677690833806974 3.2141976952552795 5.4041962772607803 3.2070747017860413 4.7399305701255781 4.5785888135433197 3.4341948926448813 3.1962424963712683 3.5532618165016201 4.4967629462480527 4.7480536252260208 5.3426219373941404 7.9934245198965055 4.2583298087120047 5.8681847453117388 6.1070818901062038 3.3389955610036841 3.4379520118236595 4.7412328124046237 4.0272978991270056 3.2642764002084723 3.8953552544116965 3.4780196994543058 5.830368846654892 3.2286677062511426 3.3402282297611254 6.5638200491666776 7.9031944870948809 5.8068123310804429 4.2673796117305782 5.5373573005199423 5.0436564236879331 5.7541313022375098 3.661024883389473 4.8879076540470141 4.2577239125967017 4.8295767009258253 4.2600837200880051 8.2760937064886075 4.6917002052068772 7.4728154093027097 6.4017843604087856 5.8568598777055731 4.9806913882493955 3.3107680827379227 4.928143396973609 4.7729852348566153 6.3670206964015943 3.2795652598142615 3.471909672021865 5.4971426129341117 5.8158746361732474 3.9645485877990723 9.4868572801351529 3.2866284400224686 6.9662699252367037 8.3976339995861071 4.9001480340957642 3.2428692132234556 4.0405016243457785 4.9522933065891266 4.5325397253036526 3.8109045922756186 3.3576178997755077 3.4528485834598532 16.113069981336594 5.1405829042196265 3.5625582784414291 4.6861857026815397 4.3142296373844147 3.5513440519571322 6.9857239127159145 3.4685713499784532 5.3277131021022788 3.8026348501443845 3.2872284054756165 21.427850082516674 3.7403842210769644 6.6882349997758865 4.5627849698066711 4.0667696297168714 3.9721901118755332 3.2428512126207343 3.545109823346138 3.4239479750394821 6.7848718017339706 3.8907980173826244 3.7796722799539593 5.9711179137229902 3.8795884996652594 4.0918028503656387 4.7097691148519534 4.3366455137729671 3.2216505408287048 11.426972582936285 3.5776509046554592 5.2024367451667768 3.2403123527765274 7.2448501735925674 4.2275310754776001 3.4182558655738831 4.2624728083610526 4.3038402646780041 4.9659555852413169 3.649863749742507 5.3864837437868145 17.017383068799973 3.5567303448915473 5.802836671471594 3.8727026879787436 3.698332041501998 3.7264295369386664 5.141049847006804 5.0452727079391462 3.3517969250679016 3.3081943690776807 3.7025196403264946 3.617146372795105 3.5365182459354454 3.2296821027994156 3.2002846896648407 7.8870744705200186 13.880058482289316 4.701862469315528 3.3913008570671099 4.5551420301198959 3.6312596648931486 3.7267811447381964 3.7532415241003028 4.3982364386320114 3.7541766911745071 3.690545454621315 18.628160461783409 5.2107734829187375 8.2302929461002332 4.4515370428562155 6.069395422935485 5.3631155490875244 4.5501825213432303 3.4425293803215027 3.4046993553638449 4.3918733149766913 4.625378966331481 3.181341141462326 4.115493729710578 5.7171348184347153 7.5485116839408866 3.5683056116104126 5.8225021511316299 25.148640379309654 3.5068548470735532 3.4983435571193722 5.8232969045639038 3.5911780595779375 3.401960730552676 4.6627697348594657 3.5944059789180738 3.2607140094041824 7.7178255915641838 5.9506352394819251 3.2354506254196158 4.7401567697525024 3.7126757502555847 3.270528107881546 19.297936797142036 3.5485023111104956 3.3874146938323957 4.9451783150434494 11.287140056490896 4.146608665585517 4.8323695659637433 3.2083841562271118 25.813482597470287 4.1359731405973426 19.658119872212414 3.1926500201225272 3.698868826031684 3.3351583033800116 3.2248007208108893 7.060833200812338 3.5906050354242316 4.2269384711980811 16.713024124503139 3.2848009169101715 4.381862074136734 3.7172672748565674 4.330113783478736 3.933688908815383 4.1934201270341864 5.1812999099493009 4.0815174877643576 5.3678106516599575 32.063027560710914 4.4775358140468597 3.2790514677762985 3.2034830451011684 4.0374888181686392 10.657630264759062 4.7614516317844382 3.7444638907909384 5.2300008386373547 5.1953758597373989 4.3738091439008739 8.2443374842405301 3.9084081202745438 3.1637868136167517 3.2714418023824692 5.1217130422592163 3.8507326394319534 3.9384833574295044 4.7533749639987946 4.203151598572731 6.7296858280897141 3.2421051263809204 3.1998315006494513 3.8659537881612778 3.6751612275838879 4.1780775338411331 8.5271488130092603 3.5457143932580948 3.5425716936588287 3.1651081591844612 7.898045450448989 3.3690909296274185 4.7818924337625504 3.6932273358106613 3.5762800127267838 3.2369756996631622 5.0739703476428968 17.269862070679672 4.6318544745445243 3.3270663172006598 3.9877830147743216 3.2114671617746344 8.460636228322981 3.4131992012262344 3.2203398644924164 3.2871783673763275 4.6591478735208502 4.5980225503444672 3.8366234451532355 4.139540418982504 11.295521959662436 4.0304276496171942 6.3529834598302841 3.4169365465641022 3.702078402042388 8.6197029650211352
leaf_count=167 104 28 35 26 22 32 36 20 22 28 37 24 30 37 26 22 21 38 28 35 24 53 30 25 33 231 30 29 25 27 36 21 35 97 34 38 22 27 39 34 42 36 29 24 131 21 25 37 21 20 24 20 20 34 20 29 28 21 20 22 28 29 33 50 26 35 38 20 21 29 25 20 24 21 36 20 20 41 49 35 26 34 31 36 22 30 26 30 26 52 29 46 39 36 30 20 30 29 39 20 21 34 35 24 59 20 43 52 30 20 25 30 28 23 21 21 100 32 22 29 27 22 43 21 32 23 20 135 23 42 28 25 24 20 22 21 42 24 23 37 24 25 29 27 20 71 22 32 20 45 26 21 26 27 31 23 34 107 22 36 24 23 23 32 31 21 20 23 22 22 20 20 49 87 29 21 28 22 23 23 27 23 23 117 33 52 28 37 33 28 21 21 27 29 20 25 35 47 22 36 158 22 22 36 22 21 29 22 20 48 37 20 29 23 20 121 22 21 31 71 26 30 20 162 26 124 20 23 21 20 44 22 26 105 20 27 23 27 24 26 32 25 33 199 28 20 20 25 67 30 23 33 32 27 51 24 20 20 32 24 24 30 26 41 20 20 24 23 26 53 22 22 20 50 21 30 23 22 20 32 109 29 21 25 20 53 21 20 20 29 29 24 26 71 25 40 21 23 54
internal_value=0 0.150965 -0.252573 0.222003 0.18607 0.230345 0.296045 -0.463527 -0.101508 0.18385 -0.363248 -0.977114 -0.498974 -0.978963 -0.232253 -0.0216147 0.160808 -0.297808 0.385086 -0.277421 -1.09368 0.235055 -0.617952 -0.00970533 -0.17815 0.253684 0.0553421 -1.26881 -1.04207 -1.39253 -1.8412 -1.56482 -0.311277 0.530434 -0.0915447 -0.0301331 -0.672636 0.0797472 -0.155968 -0.734663 -0.18415 0.134217 0.197173 -0.0204856 0.635945 0.0720125 -1.37976 -0.0873018 -0.166889 -0.105924 -0.514499 -1.02238 -1.50554 0.0688168 -0.609534 -0.396943 -0.971 -0.234399 -0.0909701 0.0605437 -0.0621476 -0.315106 -1.21951 0.277595 -0.281829 -0.0784063 -0.343123 -1.04134 -0.337242 -0.319971 -0.523068 -0.216298 0.0307092 0.108341 -0.622218 -0.351691 -0.112113 -0.461189 -0.169399 -0.339745 -0.48359 -0.871702 -0.565469 -0.125616 -0.690397 -0.141654 0.0585943 -0.539584 0.0472103 0.29475 -0.5756 -0.458066 -0.575107 -1.0465 -1.41685 -1.84778 -0.850069 -0.613334 -0.271351 -0.732635 -0.900437 -0.754801 -1.03381 -1.42192 0.267957 -0.26248 -0.0970253 0.125022 -0.427864 -0.74514 -1.16942 -1.62738 -0.428787 -0.78948 -0.114004 -0.372437 -0.0612676 -0.38081 0.143674 -0.203008 -0.397878 0.0539723 -0.164338 -0.732851 -0.821703 -0.686275 -1.00379 0.430785 0.612897 0.528365 -1.15133 0.458441 -0.638512 -0.0555168 -0.365773 0.431981 0.742589 -0.0953234 -0.454301 -0.717069 -0.321405 -0.730535 0.0801321 -0.176722 0.12591 0.440134 0.454921 0.0100809 -1.08992 0.612601 -0.188885 -0.897835 0.678937 0.481875 0.435762 0.458181 0.406909 0.747597 0.0587783 0.154369 -0.0403107 0.161212 -0.265879 0.226466 -0.10617 0.221738 0.118141 -0.0326585 -0.71083 0.164441 -0.44567 -1.23563 0.550783 0.324668 0.55143 -0.696598 -0.139489 -0.87164 -0.372879 -1.3266 -1.97669 -0.860975 -0.625358 0.463535 0.635751 0.472398 0.000805932 -0.444327 -0.0210548 0.322937 -0.0562858 0.335825 -0.655191 -0.0297601 -0.4223 -0.396625 -0.0505355 0.362803 0.269255 0.35495 0.744257 0.253146 0.153806 -0.461873 0.672264 0.432953 0.214026 -0.240057 -0.749174 0.352882 0.229384 0.0184891 -0.622655 0.465846 0.240689 0.488293 0.374998 0.0733469 -0.788944 0.269051 -0.17252 0.207681 -0.363679 0.605243 0.638077 0.68471 1.02822 0.374075 0.319894 0.265315 -0.174819 0.409769 0.560687 0.693696 -0.0870435 -0.246959 0.139931 0.2533 -0.189504 0.31421 0.354632 -0.127612 0.517458 0.61307 0.321504 -1.02803 0.830965 0.523792 0.773506 -0.116308 -0.202516 -0.0792497 0.0664367 -0.105587 0.100178 -0.669834 0.368956 -0.145033 0.571847 0.659778 -1.44925 0.682103 0.678942 0.456019 -0.25212 0.913246 0.403438 0.674482 0.232581 0.5985 -0.0808264 0.324731 0.639664 0.497146 0.302681 0.647602 0.228468 0.759398 -0.0210001 -0.172853 0.53296 0.331732 0.674166 0.757113 0.905452 0.527183 -0.835559 0.0339639 -0.89568 0.687545 0.145474 0.671912 0.341067 0.787147 0.612731 0.675841 0.087646 0.747408 0.439117
internal_weight=0 1052.42 623.023 943.366 867.983 752.178 590.55 109.057 115.805 58.9073 22.8452 14.7693 10.83 28.9307 613.522 145.622 100.566 467.901 431.083 80.1259 9.74973 97.1244 9.07169 161.628 98.5823 63.0458 159.467 22.852 19.4774 15.3951 10.9188 9.50075 26.1391 36.0621 94.5298 88.9607 12.9921 75.9686 45.4499 20.6214 11.1263 93.8709 88.0953 58.8847 29.2105 55.0273 9.49504 108.93 96.4607 90.4916 25.453 13.6063 9.76915 11.8466 6.44245 56.8979 12.5555 44.3424 40.9082 37.712 34.188 25.4881 10.0907 15.3974 461.717 98.8475 66.2031 16.4584 362.869 358.611 121.192 237.419 84.061 80.1656 13.2729 153.358 49.7447 26.7736 90.3847 65.0489 55.0905 25.803 20.2656 14.4588 8.70468 29.2875 25.0202 13.3474 9.08966 22.971 117.165 93.7622 82.8655 23.4028 17.5459 12.8542 52.6084 62.973 28.7397 16.5501 34.2333 30.7614 25.2642 7.44257 25.3358 11.1898 30.257 23.8552 11.8664 19.4484 12.333 8.29252 45.0559 20.9968 24.0591 17.1859 20.4716 19.5265 14.4406 8.23274 7.87679 65.0386 70.3761 47.6803 44.2117 14.386 11.0283 30.5188 25.1682 12.4694 7.87355 32.6444 13.1194 13.733 10.4902 10.8968 11.6728 65.8326 21.613 17.7222 13.9425 10.0629 44.2196 25.8069 17.6839 18.4127 337.212 19.2653 6.81796 12.4473 8.2943 6.96337 24.3501 317.946 270.42 265.454 225.505 39.9494 42.7285 39.1717 28.6155 24.7428 12.5173 8.79091 14.6949 6.82559 61.6646 45.0545 10.1457 34.9089 13.5348 6.42997 21.3741 24.8285 18.5819 38.884 9.29637 29.5876 14.1144 15.4733 8.0295 10.3876 7.44379 22.932 75.3831 49.0553 12.8437 14.6754 8.60598 88.0527 19.8006 11.9662 7.8344 49.8819 8.39211 13.2706 9.15509 50.5373 7.10482 12.1895 47.5261 42.9887 38.1852 9.33015 11.9888 68.2521 13.487 13.3473 6.48236 28.8551 25.3567 19.4061 7.97561 11.4305 6.86493 182.777 104.064 45.0468 8.33259 36.7142 17.5738 13.4272 8.04075 59.0171 78.7127 74.5767 22.8508 63.7019 60.003 56.6679 14.0029 42.665 34.6925 30.4656 6.68676 7.97247 10.7781 66.8927 12.4572 8.52353 54.4355 13.7404 40.6951 37.4308 9.65884 9.14724 43.0472 17.8986 14.6951 45.2565 40.4951 36.7506 29.4788 24.2488 19.0534 7.27187 14.6796 6.43523 8.82423 11.8442 7.74112 10.5562 8.69991 9.95835 6.63341 23.7788 7.06579 19.1404 7.85324 12.2255 8.235 8.58784 36.2116 27.9813 20.0833 11.6402 6.85834 8.0759 7.81556 8.44306 51.726 27.2569 22.625 24.4691 20.4813 16.61 8.12297 6.52853 6.50138 14.146 8.14937 55.4686 14.3291 41.1394 29.8439 10.4925 7.67941 27.8293 12.3218
internal_count=10386 6554 3832 5887 5411 4693 3687 667 718 366 141 91 67 174 3776 900 623 2876 2696 493 59 602 56 1006 614 392 991 137 117 92 65 56 161 225 589 555 81 474 283 128 69 584 548 366 182 342 59 677 599 562 158 84 60 74 40 352 77 275 254 234 212 158 62 96 2838 609 407 99 2229 2203 743 1460 519 495 81 941 308 165 556 399 338 158 124 89 53 180 154 82 56 143 718 575 508 143 107 78 322 385 176 101 209 188 154 45 157 69 186 147 73 119 75 50 277 129 148 106 126 120 90 51 49 404 434 292 271 88 67 191 158 78 48 202 79 85 65 67 72 406 133 109 86 62 273 159 109 114 2112 119 42 77 51 43 151 1993 1695 1664 1413 251 266 244 178 154 78 55 91 43 383 279 62 217 84 40 133 155 116 239 57 182 87 95 49 64 46 144 476 309 81 90 53 546 122 74 48 310 53 81 56 314 44 75 298 267 237 58 74 424 84 82 40 179 157 120 49 71 42 1147 652 282 52 230 110 84 50 370 495 469 144 396 373 352 87 265 216 190 41 49 67 414 77 53 337 85 252 232 60 55 270 112 92 281 251 228 183 150 118 45 91 40 55 74 47 66 54 61 41 149 44 120 49 76 51 53 228 176 126 73 43 50 48 53 325 171 142 154 129 104 50 40 40 88 51 348 90 258 187 66 47 174 77
shrinkage=0.05


Tree=2
num_leaves=300
num_cat=0
split_feature=31 28 7 27 0 19 27 21 19 13 10 27 18 11 28 27 21 4 0 4 21 0 13 7 13 11 7 6 6 0 6 0 4 4 18 6 4 6 7 27 18 7 4 11 28 19 26 11 13 28 10 26 7 7 0 27 0 0 6 11 25 19 26 28 4 0 7 21 4 22 18 4 25 27 4 10 6 22 19 11 0 18 0 4 7 7 13 26 10 20 13 7 0 21 19 10 25 4 6 6 7 13 0 0 20 0 0 7 18 21 4 7 0 0 19 27 27 11 11 11 4 7 0 20 13 6 7 11 13 27 18 0 13 13 4 4 20 18 0 19 18 18 19 7 21 11 11 19 27 27 6 7 18 19 22 10 13 7 10 10 0 11 4 13 11 7 13 27 11 4 21 7 26 13 6 6 6 27 27 10 0 11 4 25 18 11 21 18 18 21 10 10 10 0 25 18 4 4 7 6 21 19 19 19 18 25 7 0 4 27 10 13 27 11 18 13 4 4 27 26 19 0 0 27 13 13 10 18 0 4 4 11 18 18 18 4 4 4 11 18 19 19 19 10 4 6 4 18 6 18 13 13 4 10 21 19 11 4 0 7 13 19 10 27 4 18 7 6 6 18 10 6 28 19 18 7 19 13 7 6 19 26 6 4 0 18 11 13 19 18 7 26 0 19 0 22 27 26 20
split_gain=57.3012 41.3281 12.1005 9.05413 10.8762 8.50158 9.05333 10.0564 8.35573 12.0639 8.30292 12.2568 8.27616 9.31914 8.18937 12.2299 14.1031 11.3228 14.4624 14.8829 11.2906 7.5819 7.30355 7.24562 7.15137 10.499 7.10382 6.85308 6.80763 10.2078 7.60013 6.78619 6.66091 9.57441 6.60454 6.64815 8.36905 6.55999 8.33842 11.5072 6.55566 6.48752 10.5498 6.50871 6.45458 6.22396 6.14051 5.90411 8.74752 8.37593 6.15547 5.72398 5.68226 8.45037 5.59425 5.57894 5.47966 5.48125 6.01283 5.44184 5.30596 5.28252 5.25202 5.20541 5.1125 4.91024 4.78189 6.21554 5.19868 6.6543 4.71442 4.64696 6.35777 7.41885 4.81571 12.9438 7.97021 4.93404 6.0762 4.98822 8.11535 5.55356 9.71265 4.89848 10.8478 6.50285 4.72745 4.7062 5.31593 4.58942 4.50125 11.1865 4.49499 5.96008 5.63961 9.39241 5.52013 5.72996 5.84205 8.63864 11.039 7.41283 5.61448 5.47975 4.66542 4.39945 5.34476 4.37694 4.36717 4.19664 4.29925 4.18682 5.53888 4.45111 7.3588 6.18706 11.9375 6.13605 5.47454 5.64639 14.6057 8.23144 7.7323 5.30636 6.63646 5.54803 4.96362 7.61655 7.85676 4.64742 4.12598 8.04537 6.46066 4.11492 4.98066 4.11126 5.74861 4.06519 6.55575 4.01425 4.22308 4.47716 7.17607 4.15107 3.9436 5.39262 5.97925 4.58025 7.81649 5.09421 4.94571 7.68869 7.25988 5.57167 3.91252 5.60837 3.7913 3.78791 3.76015 4.91419 3.75615 4.13002 4.40049 3.743 4.15748 11.4788 6.3965 5.93609 7.43987 5.87207 9.45852 5.30302 5.16497 4.89699 4.84996 11.8479 4.90696 3.95823 10.3625 7.18138 3.68311 3.67406 6.89261 3.566 4.44604 3.55504 4.2922 3.55432 3.54759 8.45918 3.54363 3.461 4.45901 4.90224 3.45217 3.44414 5.45657 3.39346 6.14475 3.84735 4.63594 8.19427 9.40029 4.76092 4.63621 3.55985 5.62485 9.87506 7.16436 5.25977 4.71437 3.51527 3.49165 7.44113 4.53948 5.98734 5.42201 9.95773 4.43335 5.05815 3.39247 3.38259 3.38163 3.37045 3.3245 5.166 3.32359 3.32312 3.31768 3.22446 3.2102 3.20442 4.38472 3.19807 5.28007 6.6259 3.16976 3.15266 3.15257 5.25727 3.10904 12.1878 7.41166 5.85706 3.06421 3.48393 4.89128 6.9344 5.46878 5.15715 4.72093 4.20034 3.77443 3.04645 3.00945 2.95644 2.94119 2.93109 7.03397 2.89243 2.881 3.02643 2.87708 2.81528 2.75826 2.75574 2.73802 2.96663 2.68415 3.76058 2.67838 2.63598 3.8142 3.95567 2.61925 3.59327 3.34689 2.6005 2.59612 2.56335 2.55199 2.54522 2.54308 2.51242 2.49536 2.49321 5.72096 3.00308 2.44592 2.59411 2.8746 2.40526 2.40013 2.34818 2.30596 2.28936 2.28829 2.25974 2.20399
threshold=1.0000000180025095e-35 50.610980870000006 0.27012337200000008 65.968420745000017 8384.5000000000018 -5.5839745904999996 63.529880925000008 42.026264735000005 -0.95084722219999984 2.2182539680000004 53.77935642500001 115.56122720000002 12.070190105000002 589.07662170000015 11.887211335000002 45.855122290000004 12.078476670000002 9.1641895860000009 12505.500000000002 9.9041360805000007 12.580105105000003 836.50000000000011 2.0954545455000004 7.3173315630000006 1.7257053290000002 324.18545505000003 8.1578202730000005 1.5124779840000002 18.213925485000004 6659.0000000000009 14.522645170000002 2329.5000000000005 2.2859247740000002 2.1820567100000003 11.252288635000001 3.2668646850000003 7.2454864060000004 4.1364298530000001 1.9770322470000001 25.617889045000002 9.4475148148000017 2.5888055385000004 4.6004547695000015 196.05047770000002 9.2241904580000025 -5.5757516934999991 11.484254345000002 389.51273205000007 2.4120370370000006 42.120231675000007 6.5084886355000009 17.726522880000001 5.2448669555000009 6.9424399400000008 807.00000000000011 12.977841150000001 11266.500000000002 13860.000000000002 1.8763894090000004 1032.3683500000004 18.701231950000004 -5.575940104999999 35.359146700000004 4.7607000690000012 7.4563849315000015 1711.0000000000002 10.732718485000001 42.839441555000008 15.473777275000002 158.27026545000004 10.625380255000001 3.6697864590000004 6.2057220760000007 31.184447025000001 3.5536787520000002 5.5682780110000012 2.7190134230000003 17.825990970000003 -1.0489311694999996 108.55513935 7769.5000000000009 9.5146064815000013 12771.000000000002 1.9675718085 0.66957355350000014 0.35779663450000004 1.8867521370000002 11.716770260000002 6.4154584645000012 7.5000000000000009 2.0954545455000004 0.30181356750000005 3513.5000000000005 29.748333230000004 -4.5582756594999987 5.7129860410000015 12.996640810000001 3.3924380655000004 3.6907974715000003 3.4061207325000002 2.2707375035000004 2.1519230770000006 4895.0000000000009 1333.5000000000002 16.500000000000004 13411.500000000002 10874.000000000002 2.5032797120000003 10.443458040000001 5.7511827200000001 1.7701804780000001 0.36928447300000006 13954.500000000002 13101.000000000002 -0.29393236999999994 77.990293180000023 49.437650685000008 286.07101615000005 341.63945985000004 126.0047775 2.6221645900000006 0.84538593250000005 2938.5000000000005 2.5000000000000004 1.8202020200000002 1.8241430265 1.0490590458500002 138.02660870000003 1.9130602005000001 107.03556110000001 10.520036520000003 9697.5000000000018 1.9272077375000003 1.2873015875000002 12.837884115000001 7.9945683560000012 5.5000000000000009 10.731703355000002 9399.5000000000018 -1.0703472219999999 10.484580970000001 9.7236111110000021 -0.98237268549999979 1.1912814220000003 24.171625835000004 459.06945490000004 584.7952921000001 -2.3615740739999995 60.143544875000011 65.968420745000017 8.0201528930000006 7.7177502470000006 12.089682700000003 -5.4738391144999996 8.9704119915000025 11.139471595000002 1.7257053290000002 0.80201798650000011 11.505478130000002 5.9387303075000011 3676.5000000000005 342.60083560000004 7.8772216870000014 1.4359722220000002 177.95103020000002 1.5423341455000001 1.8153409090000003 12.576788580000001 232.06454915000003 6.8142129045000006 6.250380551500001 2.9893768700000005 5.7431873935000004 1.9083916085000001 2.2481028100000002 2.6052921710000003 2.8677597090000004 8.317089591000002 25.617889045000002 11.505478130000002 10219.500000000002 222.06045150000003 3.9715182745000006 6.136431839500001 12.354627230000002 185.53595890000003 6.250380551500001 12.651468575000001 11.669456440000003 5.7680492765000002 12.158070340000002 12.223308590000002 5.7511827200000001 5290.5000000000009 11.798053575000003 10.318979415000003 2.9251830340000002 2.2602220610000003 0.80201798650000011 1.4574204405000002 5.7680492765000002 -1.5938888884999998 -1.4296322274999997 -2.1644444444999995 10.731703355000002 6.0541039490000008 1.1260072490000002 7088.0000000000009 2.8655218700000007 12.576788580000001 12.158070340000002 1.9828078820000001 6.5758191855000012 180.04754105000004 10.029555935000003 1.9272077375000003 3.2416342560000007 3.0425083175000003 13.819738405000001 11.938452410000002 -0.13002306949999998 7417.5000000000009 4863.5000000000009 25.380446120000006 1.5669154230000002 1.7343137255000003 11.966646835000001 12.710530360000002 5707.5000000000009 2.8655218700000007 3.2794870960000004 154.60262085000002 10.234513885000002 9.6428703705000007 9.9103472220000004 1.8214856270000002 21.148025025000003 10.143746215000002 180.5818854 10.863218624000002 -1.0458629114999998 -0.9600730274999999 -1.1631944444999998 12.158070340000002 4.5794211665000004 4.5649308640000008 7.8772216870000014 11.098239730000001 6.0326382705000006 11.509922915000002 2.0532388665000005 1.5250626570000001 5.8038357755000005 6.5084886355000009 5.9745102790000013 -5.2700387004999989 584.26363380000009 2.3687973410000005 6491.5000000000009 11.784484690000001 2.1961538460000005 -1.6367361109999998 11.319195240000001 12.252771395000002 5.4304272075000011 12.682839995000002 1.0869058520000003 2.4276560525000002 2.4276560525000002 9.9306824770000013 6.5084886355000009 2.5989925615000007 4.7607000690000012 -4.5032600309999991 12.642181565000003 11.849886760000002 -5.5762659179999989 1.7215762275000002 1.1260072490000002 2.7631962895000002 0.12632716050000004 11.625628780000001 0.62703604650000011 1.7605883535000002 7966.5000000000009 8.003472222000001 60.044938815000002 2.1213235295000001 -4.8800466279999988 11.644689573500001 3.8664539715000008 5.7431873935000004 483.50000000000006 -0.86657879849999986 7542.5000000000009 11.759150695000002 61.771033810000013 21.473983550000003 3.5000000000000004
decision_type=2 2 2 2 2 2 2 2 2 2 2 2 2 2 2 2 2 2 2 2 2 2 2 2 2 2 2 2 2 2 2 2 2 2 2 2 2 2 2 2 2 2 2 2 2 2 2 2 2 2 2 2 2 2 2 2 2 2 2 2 2 2 2 2 2 2 2 2 2 2 2 2 2 2 2 2 2 2 2 2 2 2 2 2 2 2 2 2 2 2 2 2 2 2 2 2 2 2 2 2 2 2 2 2 2 2 2 2 2 2 2 2 2 2 2 2 2 2 2 2 2 2 2 2 2 2 2 2 2 2 2 2 2 2 2 2 2 2 2 2 2 2 2 2 2 2 2 2 2 2 2 2 2 2 2 2 2 2 2 2 2 2 2 2 2 2 2 2 2 2 2 2 2 2 2 2 2 2 2 2 2 2 2 2 2 2 2 2 2 2 2 2 2 2 2 2 2 2 2 2 2 2 2 2 2 2 2 2 2 2 2 2 2 2 2 2 2 2 2 2 2 2 2 2 2 2 2 2 2 2 2 2 2 2 2 2 2 2 2 2 2 2 2 2 2 2 2 2 2 2 2 2 2 2 2 2 2 2 2 2 2 2 2 2 2 2 2 2 2 2 2 2 2 2 2 2 2 2 2 2 2 2 2 2 2 2 2 2 2 2 2 2 2 2 2 2 2 2 2
left_child=1 2 55 4 28 6 7 12 32 23 59 259 -4 -14 15 20 24 37 19 -19 21 22 27 34 -17 -26 -25 -2 29 30 -3 139 33 40 54 63 -37 38 46 89 -7 42 43 44 -22 187 -16 48 50 64 92 137 -21 -54 268 285 238 58 -58 105 160 -61 107 -36 -49 -32 67 68 69 144 284 74 73 158 77 -76 -77 79 -79 80 86 82 282 85 87 -81 -33 88 -85 -40 91 -88 94 96 255 103 97 102 99 101 -101 181 -94 108 244 106 222 -39 -96 110 -92 -56 113 115 -115 116 118 -118 119 122 121 -121 -113 180 -125 -126 -122 128 -128 -117 191 132 -132 -28 -135 -38 237 -48 -139 143 141 -141 -143 157 145 154 -147 149 -149 150 -146 152 -152 -154 -66 -156 -20 -23 159 -73 161 162 223 -129 173 172 167 -167 -169 170 171 177 -166 174 -165 -176 -177 179 -179 280 -124 182 185 -55 -185 186 -99 -6 260 -190 -191 192 -74 -194 -8 196 -29 198 -86 -199 203 278 -203 -201 205 206 207 -204 -208 -209 230 -200 214 218 -205 216 217 221 -214 229 -119 -216 236 271 -224 -226 297 -13 -217 -220 -210 232 -175 283 235 -235 -5 -137 257 -240 242 -242 270 -243 -100 252 247 250 249 -249 -247 -248 264 -231 -87 -34 -70 258 -11 -12 -162 -262 -114 -257 -246 -238 -230 -268 -10 -270 -207 -52 -273 -274 -186 276 -276 -30 -202 -104 -168 -193 -82 -83 -53 -1 287 -287 -109 -290 -291 -116 -24 -80 -172 -288 -189 -153 -233
right_child=14 3 5 10 45 8 194 -9 9 56 11 227 13 -15 17 16 -18 18 156 52 41 31 292 26 25 -27 133 195 277 -31 65 71 47 -35 35 36 135 62 39 -41 -42 -43 -44 -45 -46 -47 51 49 -50 -51 60 70 53 183 111 -57 57 -59 -60 61 -62 -63 -64 -65 66 -67 -68 -69 256 -71 -72 72 130 -75 75 76 -78 78 293 83 81 233 -84 84 197 254 90 -89 -90 -91 109 -93 93 -95 95 -97 -98 98 104 100 -102 -103 279 -105 -106 -107 -108 288 -110 -111 -112 112 262 114 291 129 117 220 -120 120 126 -123 123 124 125 -127 127 163 -130 -131 131 -133 -134 134 -136 136 -138 138 -140 140 -142 142 -144 -145 147 146 -148 148 -150 -151 151 226 153 -155 155 -157 -158 -159 -160 -161 188 -163 -164 164 165 166 169 168 -170 -171 294 -173 -174 231 175 176 -178 178 -180 -181 -182 -183 -184 184 274 -187 -188 296 189 190 -192 281 193 -195 -196 -197 -198 199 211 200 201 202 204 212 -206 240 208 209 210 -211 -212 -213 213 -215 215 228 -218 -219 219 -221 -222 -223 224 -225 225 -227 -228 -229 266 253 -232 298 -234 234 -236 -237 265 -239 239 -241 241 243 -244 -245 245 246 251 248 -250 -251 -252 -253 -254 -255 -256 263 -258 -259 -260 -261 261 -263 -264 -265 -266 -267 267 -269 269 -271 -272 272 273 -275 275 -277 -278 -279 -280 -281 -282 -283 -284 -285 -286 286 295 -289 289 290 -292 -293 -294 -295 -296 -297 -298 -299 -300
leaf_value=0.048381125688583757 -0.078494973362720433 0.021406864025082666 -0.0020849706238762981 -0.034903162486324933 0.029262389752497932 -0.044654403642881375 -0.013443324818264726 0.036898607729756193 0.062226317444200353 -0.026204075224548862 -0.12482070876097551 0.020180862649907455 -0.11954153676182006 -0.027167897309914292 -0.047386329743107067 -0.020454632991566541 0.034681570801967106 -0.10242271885817444 -0.052629892765458097 0.062364242159337828 -0.1094201108818381 0.025936271472995032 -0.053661395397733097 -0.070905286169955895 -0.053172798702713367 -0.15225199023663871 0.030902924237262666 0.019716090687293443 -0.014536945322605233 -0.11265356233267224 -0.098614371524190517 0.020068661664427209 -0.00080726831552167973 -0.091338121926859153 0.013914094020862239 0.048644784825391717 -0.034440802994184082 -0.021181266298794143 -0.042389432845453219 -0.10535719883843089 0.050266258845184701 -0.0036382434195580769 -0.14303415818899343 0.0060226821806322155 -0.022843007705697253 0.048541127242701626 0.035238174092177804 -0.049462597027145651 -0.04234095325853364 0.048762323303226579 -0.026414264294496698 -0.013371227801523614 -0.069875255490205637 0.038058016751818108 -0.053784725609434009 -0.017946778139193275 -0.07152786636400793 0.049116265999015155 0.010098179930700711 -0.09191844651789044 -0.018646327917429342 -0.016015598535677088 -0.02260974534198144 -0.069657742792946412 0.035444619276792093 -0.02574034720641101 -0.041561364728429383 0.04972212275883129 0.0034318710467554263 -0.058230788578502828 0.021025122001037039 0.025719309355107984 -0.0084942243078469006 -0.053737615286108112 -0.10539383403818653 0.028305631768287848 -0.06777564416184359 -0.1020798798184675 0.0041553182315231833 0.0018090318004454313 -0.019533262801706159 0.062346517462632527 -0.086872764783146872 -0.053135102764616506 -0.092961275315855338 -0.045886775661629457 0.0029185730691947006 0.043932281457938205 0.034220295489680488 0.021521458954588919 -0.063114071064586205 -0.10847206527503213 -0.031545960935455579 0.043011875943461557 0.033019771746319197 -0.064821494702632584 0.062434073755192179 -0.058269602072134621 -0.031771859376519322 -0.11143414088105141 0.0016561612850242158 -0.072409965773513718 0.048996635376563742 0.045245089104684125 -0.0449767674543348 -0.065107702208151999 0.037065317233702065 0.0016242109680855721 -0.042606042901333165 0.017095297234928086 0.007205257871827634 -0.047392510423931861 0.049532025969503263 -0.070261185698339626 -0.025053854040800662 0.045423861310776761 -0.003019234654740638 -0.043644581942858841 0.061917825939221939 -0.13291031208043913 0.036361184883888488 -0.028446840663059376 0.062409434685050204 -0.056802785593630847 0.048562311564669516 -0.030424431155781737 -0.0052289858960256931 0.033871408472287361 -0.10255089943669374 -0.0075842559857161223 -0.061376876575833961 0.043179411448937603 0.015585495751316396 0.0040008311499070918 -0.05619575682352386 0.050333049536572784 -0.040321703472524451 0.031218975450468891 -0.060937043593776087 -0.036900961620455218 -0.054867182641974849 -0.035633355951773964 0.045125367486313565 0.044826224881762376 0.040060873571830836 0.036765143304384011 -0.017953240060757571 0.009539814997789834 -0.091344373352117564 0.031941089078900739 0.0049466485569926305 0.062645249627663088 -0.019051984079932124 -0.092833447038077152 0.011688743986979905 -0.056124148483733344 -0.12480393314324428 -0.032389383341154959 0.048223065270501519 -0.034083822352304324 0.045149015402942819 0.0537594165263241 -0.047972673442026229 0.036240052144013511 -0.11777449507864138 0.043597768980571223 -0.077023925359836223 -0.068222920457199646 0.03489412783279431 -0.07734155532441804 0.052802361690738459 0.031430230761449442 -0.031835255427293603 0.02114525201601597 -0.088465335762847555 0.049619421638912801 -0.03022349493202639 -0.10007116560642992 0.0070536869672063879 0.046489825473053359 0.001659957501205969 -0.033778941682130796 0.055532815830785814 -0.046875542077342972 0.040389974746287409 0.037409781489183093 0.0047236763345780532 -0.058064763551001146 -0.045727820194708911 0.0026574918986972812 0.061960557375828666 0.032546365711198365 -0.013281571812197249 -0.088875163917433789 0.052663464678280196 0.031116204533127845 -0.069726801145025205 0.035000998640642038 -0.057510873619376207 -0.061591086047662585 -0.020912706215528692 -0.10955743797426663 -0.12169064451510384 -0.061659613806032909 -0.069960087543378 -0.060534759773495553 0.048429059018464039 -0.074538450568805453 -0.040494210449578551 0.00063026357630238151 -0.079423071868895537 0.009736397339562157 0.03754788779103465 -0.06281489622655935 0.019425928944400379 -0.0282786084999079 0.016763790267149564 -0.11854720018085024 0.0451396430830611 -0.037352423978145317 -0.1123237587687259 -0.046321368618299302 -0.074705258908060831 0.061939695795026839 0.014193225100534668 -0.064418732704987103 -0.017850793562637853 -0.041921093354477579 -0.013905853915118213 0.024935985311741606 0.013975109922001636 0.062318964675369397 -0.047834217775494181 -0.058308452851775751 0.052954162506087123 0.023245574258103412 0.050301973945043259 -0.0051640317110652756 -0.030511053478270007 0.049484218948077058 -0.095490617788087109 -0.034256733901887826 0.04173883691006694 0.050507158685847521 0.035765880425837004 0.021855870917286059 -0.015654182401613852 -0.056053987435983867 -0.091780954600331074 0.031881234171867515 -0.04283024902389302 0.051085339019546962 0.04543780004735351 -0.039636245668009475 -0.111112829144701 0.013402576989687137 0.062328369187374444 0.05155292129303557 0.062063744670069157 -0.072983052912264756 -0.020285799896426215 0.046581895117603606 0.0032371034967234426 0.059296057976717366 -0.021418802711948369 -0.011095056608010577 0.062905648299535696 0.0029709243578730634 -0.023545021157205789 0.048639294293346493 0.0018483370776117517 0.061923539663639865 0.026433264555346305 -0.042266096141021892 0.0040099056853432477 0.035961905526439401 -0.058593291288497863 0.048106189158470009 0.027444470783002391 -0.00040912965766797801 -0.014184466756695156 -0.02962169149336813 0.034752200328929804 0.014309178096721468 -0.075188727419432055 -0.02932470843772815 0.054116442267328729 0.031326609703966633 0.053939030909158914 0.049848928799006799 -0.0091893244299221799 0.027195561659348527 -0.11312503387473227 -0.045389572652100002 0.0061044377814746913 0.015125029984220897 0.0011028375487054146 0.0068422248188726069 0.021938947312582197
leaf_weight=26.366323500871658 3.8909288793802288 6.0211981385946372 5.4183647483587363 3.5778292715549522 4.4322092235088366 3.2526641488075239 3.2685341835021955 3.8717946410179129 4.7247967720031721 4.5000972449779493 4.9976099729537982 3.4792457520961744 6.0084960460662824 5.004475861787796 4.5063598006963721 4.1651442646980312 3.5531628280878058 3.9263140857219687 3.8671676516532889 3.3266869336366645 4.6097821742296272 6.7860993593931216 3.3984909504652014 6.3231647759676006 5.9675831049680692 4.8441770970821381 4.697290942072871 3.4519625157117826 3.2328156977891913 3.9762321263551703 3.3846588730812055 5.8961050510406521 3.1660091280937221 3.5672717392444611 4.1265628188848487 21.951220810413361 5.1453959792852428 3.5656522810459128 5.2181346267461759 4.1476720273494712 4.1269584596157074 6.0078279227018347 3.3828899413347235 4.3446557521820059 4.0390501618385315 10.508761897683142 23.742538407444957 4.4389811754226676 5.6973239183425894 10.974065467715262 4.4929520785808696 3.2725590318441373 4.4952636063098899 6.0243579447269466 3.8618615567684165 4.9678073674440375 3.7209632098674756 3.7928816676139823 5.7309165745973587 4.8042917549610138 5.5177333056926718 4.38399690389633 5.2451910376548758 3.3972094804048538 3.6848454475402823 7.2904490530490875 5.2519647628068915 8.0131752341985685 3.375202924013136 4.5414319932460776 4.8096203505992889 13.393371909856805 6.2688290178775814 3.4248962551355353 5.3076447546482077 5.8046435266733152 3.4360707998275757 3.3226512372493735 4.2447411864995948 4.0850436389446241 3.5868300646543485 7.912837967276575 3.3260698318481436 3.4412124603986767 4.1564704924821845 3.6593283265829086 4.1389638632535952 10.645061150193213 3.5260888487100601 6.0841363668441772 5.5207533240318281 4.9488659799098969 3.1902741640806225 13.039343506097792 3.4422335028648439 3.5296706259250632 4.4564621299505225 4.1401420682668775 3.7033642232418051 4.5845202058553678 4.0766303986310959 3.3149584084749213 15.022011682391168 11.797677695751188 3.7128977030515662 3.4982643425464621 5.8260283917188636 4.118045061826705 4.2857262939214706 6.5305736511945716 3.5851560086011887 4.0739303231239345 7.7788234651088697 6.3760442584753028 4.5487673431634885 11.664475560188295 3.8175066411495191 3.2776815593242645 3.4129882752895346 3.3122859746217719 7.7266860008239737 4.3786028772592545 10.645430937409403 3.3529037386178961 7.1761556565761548 3.2210280299186707 4.3973962515592557 6.9963570386171332 3.9245752841234207 6.4056429713964453 5.6133935451507586 7.535160928964614 5.302809476852417 7.5925920307636243 6.2771208584308624 8.3632452934980375 3.3933788239955893 4.7866472750902158 3.233414426445961 4.9833933413028779 3.8077773600816718 4.0594518929719952 8.5323273241519875 11.144307836890219 4.4579567760229031 25.368501260876659 6.2157986611127845 3.7902704626321855 3.8911319822072983 9.846925422549246 6.1182038187980714 3.6913335770368558 4.2594263404607684 6.4086298644542765 5.9025828689336759 6.3066406846046448 3.4364743679761887 4.7197492718696594 10.328162029385565 4.6200999915599814 61.876552298665047 5.8495419621467581 3.1713545173406592 3.818427279591563 3.3125098943710318 10.718756064772608 3.2196020334959083 3.4277925342321387 3.5720618963241577 3.5656839162111273 5.2298391014337522 3.205987036228179 3.7025172114372253 8.4010414332151431 4.943758696317671 3.9493454694747925 3.7529775500297546 6.1194327324628812 3.5770749598741531 3.1595804244279861 3.258755534887313 4.6648678034543982 7.1815641671419135 4.9853868931531933 4.3311336934566524 3.9863638430833808 7.7964392453432083 3.2969685047864914 4.1556434929370871 4.1667017489671689 6.370254784822464 3.3433752655982962 3.272202864289282 6.2241866588592529 4.9896857291460037 4.7123289108276367 3.3697120994329453 3.5811467468738547 3.3113282322883588 3.9975224882364264 4.1490773856639853 3.7452595531940309 4.3214759230613842 4.79941102862358 5.9948561340570441 3.6329938620328903 3.4272464364767101 3.9850178807973844 5.7801485657691938 5.5940189361572266 3.8452424705028525 4.7040354311466217 11.922875210642816 3.5520903021097174 3.4357276856899279 3.8172448277473441 4.2947107851505271 3.5626288950443268 5.662440553307535 6.4552756547927848 3.9831263720989227 4.5431345403194427 3.6242147535085669 3.2597750872373572 5.1544908583164197 3.5149956345558167 4.9700810611248016 5.656021773815155 3.2519000172615042 3.9302338659763336 5.0844135284423828 5.5350746959447852 3.1742475628852835 4.1135612130165082 5.1487204432487479 6.312307745218277 4.0289604067802429 3.6873021572828284 4.3013961017131788 3.9307445585727692 4.3917258232831946 4.1043693423271161 7.1136596649885195 4.0478972941637039 3.7797480225563067 18.527859270572669 3.1972931176424018 3.3705140352249128 3.234284520149231 3.2995950728654861 3.3271363675594321 8.976112484931944 15.103214949369429 3.412638247013092 3.4222755134105682 4.0968203395605114 5.6988141536712646 23.662055984139442 4.5280792266130447 5.8303861171007156 3.6325738579034805 3.1677891761064521 5.9025990068912506 18.128384053707123 4.7696953564882278 3.3449215292930603 5.3671914488077146 3.3554111421108246 3.4912622570991516 3.7340973913669586 3.2686129361391068 3.5705800354480735 5.617925301194199 3.3417183607816598 5.0800734162330645 3.7915516495704642 3.6826113164424861 3.3981994837522507 8.3839179128408414 3.1813967525959006 3.2431878447532654 3.2436719387769699 5.4135647714138031 4.1491886675357819 3.2574460357427597 5.4427439421415347 12.860905453562738 3.2653795778751373 17.630502477288253 4.0736109018325788 4.1749040186405182 4.270487368106842 3.3893536329269409 5.4777038842439643 5.3458751738071442 5.3225761502981177 3.2399882823228836 3.5675274133682251 8.6760421544313413
leaf_count=172 24 37 34 22 27 20 20 24 30 28 28 21 36 31 27 25 22 24 23 21 27 42 20 38 35 28 29 21 20 24 20 37 20 22 26 139 32 22 32 25 26 37 20 26 24 65 148 27 35 69 28 20 27 37 24 31 23 24 36 28 34 26 32 21 23 44 32 51 21 28 30 82 38 21 31 36 21 20 26 25 21 50 20 21 25 22 25 66 22 38 33 30 20 83 22 22 28 26 23 28 25 20 95 75 23 21 36 26 27 40 22 25 49 39 28 73 24 20 22 20 49 27 67 21 45 20 27 44 24 40 34 46 33 46 38 53 21 30 20 30 23 25 53 69 28 160 39 24 24 62 39 23 26 39 37 39 20 29 64 28 395 37 20 24 20 68 20 21 22 22 33 20 23 52 30 25 23 37 22 20 20 29 45 30 26 25 49 20 26 26 41 21 20 37 31 29 20 22 20 24 25 22 26 29 36 22 21 24 35 34 23 29 74 21 21 23 26 21 35 39 24 27 22 21 32 21 31 33 20 24 31 35 20 25 32 39 25 23 27 25 26 25 44 25 24 117 20 21 20 21 21 57 97 21 20 26 36 151 29 34 23 20 37 116 30 20 33 21 22 24 20 23 36 21 31 24 22 21 51 20 20 20 34 26 20 34 83 21 111 26 26 27 20 32 34 34 20 22 55
internal_value=0 0.144879 0.213093 -0.43352 -0.111541 0.183841 -0.352802 -0.71187 0.201869 0.089601 -0.687996 -1.21846 -1.0535 -1.55131 -0.237251 -0.30095 -1.09748 -0.0323612 -0.43868 -0.200448 -0.268873 -0.233451 -0.802671 0.0153633 -1.5224 -1.9513 -0.502654 -0.422289 -0.530332 -0.813133 -0.470211 -0.203024 0.289411 -0.481647 0.0593041 0.390081 0.543331 0.154898 -0.0441801 -0.682516 0.168575 -0.961595 -1.28767 -0.878133 -1.37976 0.420841 0.162973 0.307496 0.381406 0.13635 0.403255 0.279097 0.00269962 -0.125127 -0.00874219 0.654574 0.525868 -0.0332034 -0.440718 -0.434399 0.584532 -1.11406 0.478379 -0.476422 0.0654239 -0.976917 0.10277 0.14361 0.0827884 0.0188754 -0.330802 -0.247019 -0.0200267 0.315431 -0.302124 -0.863288 -0.148425 -0.273417 -0.87415 -0.244536 -0.0158708 0.280939 -0.277248 -0.32493 -0.287022 -0.968569 -0.403241 0.460445 -0.178506 -0.15971 -0.59512 -1.15481 0.297233 0.213483 0.562825 0.204771 0.153502 0.117652 0.0290682 -0.28089 -1.1641 -0.0347991 0.592779 0.476144 0.193324 -0.242659 -0.115166 0.623809 -0.178407 -0.269835 -0.708562 -0.0431956 -0.0256728 -0.065133 -0.586779 -0.0252361 -0.0810553 -1.08677 -0.0153338 -0.0410921 -0.130675 -1.46874 0.338342 0.527819 0.0873282 0.481847 -0.04945 -0.0998926 -1.0225 0.532662 -0.281188 0.0688059 -0.479811 -0.190888 -0.464856 0.0853529 0.34328 0.496838 -0.118704 0.16817 -0.142582 0.0642731 0.381793 0.461536 0.0734525 0.280856 0.519931 -0.119624 -0.831292 0.00656716 -0.179426 -0.330094 -0.769464 -1.2675 -0.194227 -0.466796 -1.73178 0.0402167 0.483425 0.20762 0.63142 0.323454 0.135971 -0.0305013 -0.078286 -0.244422 -0.0891327 0.404212 -0.312035 -0.327537 -0.196191 -0.562475 -1.44832 0.163146 -0.262911 -0.561146 0.214315 -0.760135 -1.21105 -0.305748 0.963429 0.133925 0.297366 0.0799154 -0.107735 -0.0694439 -0.342504 -0.106056 0.739668 0.293684 0.770199 -0.570101 -0.824453 -1.25655 0.529979 -0.0351487 -0.489323 -0.363568 -0.872552 -0.324801 -0.348293 -0.514582 -0.650903 -0.169846 -0.561593 -0.4759 -0.700318 -1.17894 -0.333494 -0.61282 -0.636865 -0.360899 -0.110358 0.115513 -0.326978 -0.189464 -0.623945 -0.980881 0.270779 -0.023411 -1.62641 -0.360207 -0.329825 0.307246 -0.689818 -0.353591 0.273015 -0.365381 0.246241 0.335771 -0.300072 0.435181 0.0445855 0.529901 0.230534 -0.178637 0.0742806 0.667034 0.706815 0.153714 -0.205193 -0.566842 0.118492 0.156633 0.250243 0.298774 0.132182 -0.0743975 -0.76851 -0.251077 0.240165 0.67113 0.608204 -0.101486 -1.54816 0.88794 0.80842 0.846098 0.361332 -1.93817 0.83508 0.217259 0.591179 1.01673 0.0772561 0.449024 0.505031 0.796999 0.658449 0.275203 -0.6198 0.128864 0.364497 0.0162031 0.137255 -0.0940786 -0.445995 0.351316 0.228714 0.80724 -0.909791 0.0386567 0.262368 0.916445 -0.884169 0.749113 0.534871 -0.131633 0.748314 0.862222 0.399346 0.00493046 -1.66706 -0.475173 0.583944 0.854061 -0.574777 0.704392 0.75333
internal_weight=0 1047.47 936.966 110.503 48.7815 878.74 28.5614 20.3031 850.179 372.487 61.7213 19.9633 16.4313 11.013 627.483 478.67 18.5301 148.813 46.947 39.6434 460.14 437.755 22.2128 318.32 14.9769 10.8118 24.8902 15.4249 27.3036 20.6725 16.6963 415.543 477.692 10.9469 293.429 50.0643 42.5405 101.866 63.0585 15.4499 7.37962 22.3842 16.3764 12.9935 8.64883 21.4779 47.6086 466.745 325.972 140.773 320.274 43.1022 35.7171 32.3904 243.365 58.2257 54.1671 13.2448 9.45188 41.758 118.191 9.18829 38.8079 7.52377 129.799 10.6751 125.36 120.108 112.095 103.021 11.3396 371.509 72.5702 31.7665 298.939 14.5484 9.24071 284.391 13.0451 271.346 70.5835 39.9631 12.3265 200.762 189.596 11.1666 30.6204 17.6124 6.9673 11.3023 24.7243 9.08783 202.083 153.637 48.4465 23.0553 140.597 136.141 114.747 39.7455 8.66115 31.0843 21.3937 19.5256 75.0017 32.5697 29.0714 33.5627 7.72796 15.6365 9.10591 231.415 227.553 213.872 15.1953 198.676 180.606 11.0783 169.528 166.115 134.387 7.69089 31.7282 27.6543 13.7501 10.3972 126.696 118.969 8.32197 18.0701 40.8036 18.4514 10.9162 18.567 13.8697 20.5893 15.4439 31.7626 8.02006 44.0331 21.3829 17.5752 12.5918 22.6502 98.4799 47.4784 31.5843 51.0015 7.6814 43.3201 33.4732 29.0152 16.7863 10.6681 15.8941 12.2092 7.30364 11.5058 28.3416 18.0135 112.673 29.3038 23.4543 110.647 103.651 61.3999 54.3849 17.7186 6.99985 36.6663 33.1006 22.5249 7.01503 42.2509 16.4645 12.6461 7.70232 19.3189 9.69651 9.62237 13.9042 27.7694 23.1045 27.8951 21.8708 15.9229 11.9366 10.9692 83.3695 14.6926 10.537 22.3523 15.7652 9.49639 8.25822 11.534 6.82167 171.983 12.1718 159.812 156.23 80.8699 68.3369 75.3604 64.5917 58.5968 32.0376 13.9005 18.1371 9.57904 14.7098 8.01536 71.3629 34.9356 36.4274 31.6279 15.8362 11.5415 31.3835 19.4606 7.26081 7.97886 23.2454 20.283 12.2937 8.66949 12.2289 9.13527 15.7917 13.0053 10.8646 25.7864 11.5753 27.6366 15.5746 10.4259 10.9517 12.0505 40.9224 8.23214 26.5593 12.544 14.0153 8.15227 71.2888 67.5855 43.9328 31.7594 9.90439 6.67011 21.855 12.1734 23.6527 7.34287 7.0816 25.3912 9.07402 32.6902 9.02818 10.828 68.6769 6.80036 13.6814 22.2252 8.54944 7.37388 11.9745 8.7226 11.9502 7.22536 6.90161 17.0232 12.5302 8.95964 16.8854 12.5542 8.76268 6.63102 12.533 18.2034 6.46279 6.58705 9.00039 12.062 6.53001 53.2579 26.8916 8.70812 29.9971 25.879 8.24851 8.81925 6.78784 9.72245 10.5757 18.1835 6.53696 7.25886 14.2111
internal_count=10386 6554 5887 667 298 5512 176 125 5336 2327 369 116 101 67 3832 2914 110 918 285 242 2804 2670 134 1984 88 63 151 94 166 125 101 2536 3009 68 1833 315 268 633 390 95 46 134 97 77 51 132 295 2941 2061 880 2026 268 218 197 1518 375 343 83 59 253 751 54 243 47 811 64 784 752 701 644 70 2265 444 195 1821 88 57 1733 78 1655 434 247 75 1221 1154 67 187 109 43 70 150 55 1275 967 308 146 884 856 721 247 53 194 135 124 474 199 178 211 49 95 55 1442 1418 1332 94 1238 1125 68 1057 1035 837 47 198 173 86 65 790 741 51 113 249 113 67 113 84 129 97 198 50 271 131 108 78 140 616 298 199 318 48 270 208 180 104 65 99 76 43 71 174 110 717 186 149 690 646 382 339 111 43 228 206 139 43 264 102 78 48 119 59 60 87 174 145 170 133 100 75 67 531 93 67 136 95 57 51 70 41 1045 74 971 949 490 414 459 392 356 194 84 110 58 89 49 435 214 221 192 95 69 193 119 44 48 142 129 75 53 76 54 97 80 66 162 72 172 96 64 67 76 260 52 162 76 86 50 451 428 277 200 62 42 138 77 151 45 42 162 57 208 57 62 438 43 86 142 54 45 74 54 76 46 42 108 80 57 103 77 53 41 76 115 40 41 55 76 40 344 172 55 189 163 52 55 40 58 67 117 40 45 90
shrinkage=0.05


Tree=3
num_leaves=300
num_cat=0
split_feature=31 10 27 29 15 29 7 5 4 17 29 11 10 14 11 10 14 12 17 18 14 4 17 2 29 2 27 11 11 5 7 7 4 2 15 14 15 18 18 15 5 17 29 21 18 15 15 17 5 12 26 26 11 14 4 29 12 7 6 7 12 26 18 5 14 18 27 29 14 11 21 7 4 18 14 21 4 4 27 14 14 18 27 7 7 17 18 4 2 10 17 18 6 7 15 10 29 11 14 11 5 2 5 6 5 4 17 12 17 10 27 26 26 7 7 11 5 29 14 27 29 14 2 15 14 17 12 2 4 29 27 15 7 11 18 18 18 21 29 18 14 14 17 2 12 11 14 17 15 17 17 2 11 14 17 17 29 17 18 2 18 4 5 6 29 18 18 6 6 6 15 15 18 14 17 5 27 15 17 15 12 10 10 4 7 21 17 7 17 27 4 10 17 12 14 21 17 10 29 5 14 18 14 18 4 14 2 14 29 11 11 2 29 14 2 29 29 15 5 10 27 4 21 11 17 29 18 26 21 4 2 26 27 10 6 11 11 2 15 7 7 7 5 7 14 14 15 18 4 7 29 14 15 10 18 2 4 10 11 15 12 10 2 14 29 29 2 11 4 17 4 6 14 2 5 17 18 6 26 2 15 11 21 21 15 15 17 29 29 2 17 6 7 29 17 17 4 29 26
split_gain=51.5739 36.5848 12.781 12.6929 8.75586 11.0181 8.4554 9.86409 7.88165 9.22257 10.0873 11.4439 8.81272 7.68087 7.20489 7.17854 7.54773 6.71829 5.4931 7.29765 8.18212 6.50798 5.48322 6.16417 14.6732 5.79342 5.46591 7.66717 9.06873 7.03657 6.5572 7.94874 6.01535 12.2153 10.2596 8.33275 5.80127 5.40993 7.75456 5.28169 8.51783 13.5384 11.6585 6.98599 9.38009 6.67539 6.57208 11.8525 14.0707 9.45213 13.4133 8.85711 8.78048 8.40458 8.02401 8.30764 9.32186 8.97313 7.47236 15.8256 7.46617 6.99658 6.46749 6.20089 7.66039 6.159 7.73755 6.12789 7.28366 7.61655 6.09085 5.35595 9.13311 7.66356 5.34852 5.27843 5.01844 6.34678 7.79845 6.83853 10.6179 4.97585 6.78218 5.89115 8.40702 5.24731 9.24193 7.33866 11.457 13.8718 6.82798 6.24229 5.68634 5.67985 5.53562 5.3157 9.28227 4.97549 11.7482 8.20878 6.91392 9.17638 5.0593 12.2642 6.71274 6.59904 6.54427 8.80334 10.8056 7.2065 5.83701 4.97489 5.51231 5.28242 6.42765 6.15625 4.96308 4.95705 4.88844 4.91574 11.4182 4.83399 4.82578 4.81322 6.10284 4.80181 4.72171 6.04006 5.67805 4.72058 7.95705 5.38961 4.65579 4.65243 4.64523 6.99916 5.58708 6.22397 6.15908 4.62729 7.29554 4.61692 4.70732 4.46483 4.44669 4.44555 4.41649 4.3937 4.3789 6.75573 6.52372 7.6244 4.35521 4.96338 4.3333 5.89387 5.58266 4.35641 4.32778 4.32589 6.83955 6.34147 6.45737 8.65891 4.325 4.26811 4.10788 4.22548 8.35462 5.40557 5.03417 7.02464 5.40738 5.75275 4.05595 4.05233 5.40309 3.97462 6.8166 5.6066 7.92001 3.95937 3.94332 4.79598 5.4 8.50129 6.98326 10.5885 3.87672 3.85474 4.51491 3.84308 3.81433 5.03666 3.77506 4.42773 7.0569 3.75911 4.21264 3.75297 3.71913 3.70025 3.62561 3.58954 3.63807 3.57814 3.9893 4.48761 4.4596 5.88885 4.42496 3.51694 3.48488 5.47163 3.46464 3.49759 5.15748 6.37937 3.45838 3.44023 3.40376 3.36456 3.36259 3.33453 5.28325 3.30031 3.26736 5.8378 5.17051 4.07093 3.29745 3.24487 6.77755 3.22964 3.22411 3.18927 3.15638 3.15035 3.13398 3.41702 6.26059 3.09012 3.49005 8.2231 3.04813 3.03709 3.00905 2.97559 2.91282 3.63717 3.00579 2.90613 2.88999 3.46422 2.88535 2.80356 3.20603 2.7873 2.77417 4.15092 2.75449 7.40102 6.71828 4.59592 2.72424 3.29499 3.42731 11.0911 8.11964 2.78925 2.71512 2.70981 2.64289 2.61915 2.59841 2.50775 2.49975 2.49656 2.46107 2.45017 5.01007 3.04499 2.40592 8.47453 3.20283 5.52986 4.77221 4.21165 2.82691 3.09983 2.42092 2.38036 3.42906 3.21778 2.36259 2.66868 2.94788 8.56816 2.29282
