tree
version=v3
num_class=1
num_tree_per_iteration=1
label_index=0
max_feature_idx=27
objective=binary sigmoid:1
feature_names=BertzCT Chi1 Chi1n Chi1v Chi2n Chi2v Chi3v Chi4n EState_VSA1 EState_VSA2 ExactMolWt HallKierAlpha HeavyAtomMolWt Kappa3 MaxAbsEStateIndex MinEStateIndex NumHeteroatoms PEOE_VSA10 PEOE_VSA14 PEOE_VSA6 PEOE_VSA7 PEOE_VSA8 SMR_VSA10 SMR_VSA5 SlogP_VSA3 VSA_EState9 fr_COO fr_COO2
feature_infos=[0:4069.9597800000001] [0:69.551167280000001] [0:36.841399840000001] [0:39.901993320000003] [0:27.761176710000001] [0:29.948379630000002] [0:22.880836290000001] [0:16.072809700000001] [0:363.70595409999999] [0:99.936429000000004] [1.0072764519999999:2237.3184900000001] [-7.7300000000000004:0.81000000000000005] [0:2035.133] [-104.04000000000001:1512.2422309999999] [0:15.63025112] [-6.3275141909999997:6] [0:42] [0:97.663462199999998] [0:482.43422270000002] [0:375.4251476] [0:211.50127889999999] [0:100.34841609999999] [0:80.742293309999994] [0:492.72973910000002] [0:115.4061569] [-5.4305555559999998:384.45051910000001] [0:8] [0:8]
tree_sizes=31148 31380 31376 31310 31411 31455 31368 31422 31458 31416 31460 31459 31423 31408 31452 31377 31371 31484 31521 31434 31406 31513 31370 31504

Tree=0
num_leaves=300
num_cat=0
split_feature=8 18 6 3 8 18 18 12 20 20 9 13 23 26 6 8 0 3 6 9 10 22 10 18 6 22 6 0 20 22 22 13 18 20 24 0 3 0 23 13 10 6 22 9 13 23 0 0 6 8 10 18 0 10 12 13 10 24 13 23 3 22 18 22 6 6 9 10 22 13 3 6 0 10 6 0 8 23 3 8 23 13 18 13 0 6 22 23 6 13 3 10 12 0 13 18 0 22 3 3 24 13 13 3 12 0 13 22 18 3 6 13 6 10 9 13 12 23 3 6 23 6 24 3 3 8 13 23 23 23 13 10 3 12 12 3 0 22 24 13 12 3 10 6 23 23 12 8 0 22 0 23 9 0 9 8 8 20 0 18 24 9 8 8 8 12 20 6 10 13 12 8 3 24 0 0 3 12 9 13 9 13 3 23 13 20 6 6 0 3 23 10 23 3 3 13 0 6 18 22 9 0 13 8 12 24 12 20 23 0 6 3 6 13 0 3 10 20 0 22 9 13 3 13 8 18 3 13 20 10 0 3 0 0 24 24 3 0 10 10 0 24 12 13 13 13 9 12 6 10 22 8 18 13 22 10 0 23 13 6 20 22 13 6 22 8 3 6 0 0 13 23 6 13 3 12 3 13 6 6 20 13 6 13 0 0 6 20 6 9 3 13 13 23 0 3 9 0 6
split_gain=278.141 78.2949 61.7384 31.9442 26.9638 17.0414 16.5399 11.5988 11.2326 11.0662 10.9946 10.31 10.0692 9.91206 9.48567 9.91805 9.16225 12.7032 15.0284 8.75058 10.4436 8.99438 8.65498 8.581 8.25756 10.579 7.93338 7.66539 7.4639 7.36249 7.94864 8.45785 6.85015 9.50011 6.70975 8.16315 7.873 9.38608 6.07089 5.87057 7.85987 6.43617 6.38297 9.00376 5.76459 10.296 9.13387 8.97343 10.3767 14.9453 7.49193 7.41467 7.6947 10.4401 14.1254 9.39161 7.35484 7.63896 6.39767 8.04701 6.33495 6.32371 5.94578 6.46273 5.9298 11.9149 5.72707 7.74507 7.25653 6.4077 5.70146 5.649 5.6364 7.19265 8.40603 5.59038 5.64146 5.49309 5.54306 12.0102 5.69321 10.2326 10.4751 9.18259 8.15515 8.03898 6.99851 7.3159 6.61668 5.64974 5.57037 5.50816 5.41122 5.40773 12.9686 5.39751 5.35968 5.32544 5.31786 7.276 6.37348 7.18219 6.13674 5.87631 5.24735 5.24491 5.24423 5.18398 5.12245 4.97394 4.94468 4.94395 6.27812 5.94409 5.39618 4.88696 4.87622 10.3044 6.83206 8.64121 6.41497 6.39439 8.46444 7.24983 6.06931 5.90724 5.81882 6.57342 5.10729 4.92968 4.82036 9.3842 8.36455 6.2826 8.11755 4.80443 5.07652 5.51188 4.80439 4.79392 6.90755 7.01376 4.95429 6.14335 5.91144 9.44897 4.79167 4.75505 8.15718 4.71654 4.71085 4.63192 4.57215 4.56117 4.53808 8.46228 4.44425 4.56164 7.32792 4.95779 4.31699 4.31541 4.24914 4.23506 5.67897 4.20034 10.113 8.41634 4.5502 5.85148 8.30973 8.13494 5.60648 4.17893 4.17321 4.13246 5.69449 4.11309 4.09631 10.8962 3.952 3.91662 4.40984 4.74933 3.90448 4.2129 7.61736 4.77303 4.8222 4.46516 4.76559 3.83976 3.83105 3.80599 5.62744 7.60794 4.40713 3.8017 6.76425 3.79108 8.21918 5.023 3.75464 3.69136 3.6787 3.67743 3.64246 3.58123 3.57943 3.53684 6.11194 3.5398 4.25501 4.28667 5.00591 3.50685 3.47045 5.21278 3.44043 4.04213 9.64772 5.87552 4.35838 3.43742 4.55307 3.42731 3.4241 3.42252 3.37925 3.33273 5.4314 3.33014 3.32345 4.60102 3.26534 6.8511 4.9422 3.49069 3.2518 3.19919 3.17335 3.16683 3.14703 3.13926 9.61893 3.50681 3.13418 3.11167 3.09917 3.01305 3.19526 3.00688 3.25813 2.98038 4.27891 2.95877 2.93418 5.77216 3.96988 3.58988 8.01258 2.93331 7.0382 2.92688 4.08471 3.26681 2.89895 2.89583 2.85768 2.80917 2.75273 2.73343 2.69282 2.68203 3.52595 2.64775 2.60649 2.54544 6.08594 8.76945 5.50004 3.35898 2.90891 2.52948 2.51843 2.44807 2.39139 2.38415 2.36562 2.35705 2.3002 2.29651 2.28795 2.84062 3.35616 3.59915 3.23112 2.50667 2.28058
threshold=37.779629480000004 13.504066935000003 7.7401946965000006 4.0476839185000015 12.384763750000003 26.958322800000001 105.48399970000001 471.20700000000005 23.767379220000006 6.084632526500001 12.342197575000002 17.064457525000005 92.598997955000016 1.0000000180025095e-35 7.6505897395000009 39.027742040000007 417.15233255000004 10.562058970000001 4.9211812275000009 62.652272860000004 838.61423305000005 12.276537910000002 459.06945490000004 13.921300350000001 1.4808531905000002 11.701574590000002 11.222290430000003 265.18091455000007 18.477060750000003 23.482854910000004 11.701574590000002 2.1224551740000006 14.786028880000002 13.596016610000001 31.683575605000005 1148.8463895000002 12.919738870000002 1220.0165505000002 97.028932985000026 4.2587552115000014 103.05276385000001 1.019385736 13.921300350000001 5.9387303075000011 3.2990947190000006 49.437650685000008 878.96263280000005 497.06535925000009 6.7243617770000013 88.764922735000013 254.57188185000004 119.05298570000001 846.21089035000011 300.11678165000006 318.66200000000009 5.157350923500001 379.10819805000006 23.029198300000004 6.2496508345000015 67.645976585000014 12.631871840000001 20.515681065000003 51.086640820000007 32.617079325000006 3.2405942690000002 2.8512434690000004 5.2651336995000007 290.62833780000005 32.628780740000003 3.0652380755000004 7.7133362065000011 0.17773011900000002 346.29674570000003 206.02954530000002 2.5757885970000003 452.74750840000007 29.855464535000003 70.746270690000017 3.1282072725000005 6.5395514150000009 25.306333840000004 3.5566595960000003 86.402017975000021 7.2333160050000016 220.15571415000002 1.4808531905000002 17.015744385000005 18.679865150000001 5.0794634395000005 3.0652380755000004 1.5559902260000003 313.12000425000002 264.66850000000005 1749.8389795000001 10.246707110000001 17.825990970000003 168.15696585000003 32.628780740000003 7.0676380345000007 8.4489579365000012 4.7607000690000012 2.7484033665000003 3.3383517940000007 5.7415701840000013 200.08150000000003 391.25765235000006 10.556515795000001 23.183576560000002 152.95439975000002 3.5680175160000007 1.7476375735000003 1.7202384895000002 1.0359819515000004 114.04513575000001 5.9387303075000011 3.6945173885000004 110.07350000000001 18.597691620000003 2.8640216560000007 1.1325444805000002 13.058608200000002 1.7210264135000004 4.6509556195000004 3.8462143580000006 2.9762438020000004 5.514920601500001 1.3929420255000002 6.7653095825000014 12.205999675000003 6.0589304680000007 6.8840859315000005 822.26936100000012 15.189491655000001 580.14100000000019 523.40800000000013 1.2946113175000002 72.55479818000002 17.762985225000005 18.649032695000006 2.0272529730000004 291.16200000000009 9.054660387000002 285.11684175000005 3.7099530635000004 18.679865150000001 25.380446120000006 244.18450000000004 26.898517105000003 234.52896095000003 10.258563720000001 340.57118785000006 36.561236615000006 11.060415065000003 221.76549000000003 4.7989977845000009 18.078844730000004 18.330302520000004 1.0000000180025095e-35 332.8103734500001 7.709229725000001 14.20295585 11.46727699 18.790651920000006 82.780860575000005 77.127037015000028 107.05600000000003 6.5618460450000011 0.49439609050000005 162.08264660000003 2.2077828140000002 168.00450000000004 24.144610250000003 3.3651523105000005 9.5602372530000022 243.09838275000004 197.25318785000002 2.9497255275000005 256.18500000000006 5.5613591935000013 3.4884236490000005 11.966646835000001 1.7387578025000001 3.5579744805000004 6.5758191855000012 13.223457555000001 6.0711935880000008 11.85997822 11.347455895000001 1814.0013147500001 21.634824635000005 147.91336300000003 264.60485900000009 57.336156255000013 7.0802299435000009 9.6586944665000019 4.2351286165000008 634.30435960000011 0.92968408100000011 34.814682650000009 12.219523650000001 6.4153584645000006 347.02181285000006 1.4604316775000001 88.097278910000014 122.52350000000001 13.817966720000003 496.37050000000005 23.944606495000006 24.450200220000003 129.83758305000003 0.6168601600000001 3.5536787520000002 1.3144683680000002 4.2807414370000005 293.33243270000008 8.569146378500001 260.03038730000009 23.767379220000006 133.58413280000005 6.3481279145000009 6.250380551500001 0.65212810500000007 2.2602220610000003 2.1948947500000004 17.949388630000005 111.99107415000002 3.2106037545000006 1.2915378845000003 11.378360770000002 342.60083560000004 633.32610855000019 5.8295223825000013 237.17866075000003 176.73187675000003 9.5025630230000022 13.817966720000003 6.1787498360000006 395.60213225000001 548.00889710000013 308.04312035000004 231.13213645000002 4.7607000690000012 835.90150000000006 2.1975982455000005 2.4514530695000007 2.1840045335000005 6.4153584645000006 136.12000000000003 1.9770322470000001 146.03189100000003 11.902672440000002 23.437129780000003 80.683026600000019 1.7298502705000003 6.250380551500001 174.07966795000002 1979.7228845000002 112.01303340000001 14.618164215000002 14.296384650000002 26.341199630000002 5.8625212535000015 1.8448697600000001 0.14658241150000004 6.0589304680000007 17.678804490000005 21.634824635000005 1.7493315805000003 430.73150435000008 1123.3198099500003 6.564777567000001 71.965949980000019 5.6410578530000004 2.9290530530000005 5.8715807670000002 128.04500000000004 5.8038357755000005 6.6076313260000008 7.3478943385000006 4.0743871560000011 67.84212263500001 3.4216966830000004 4.7241788810000012 2.4607143795000002 591.07035545000019 212.73326165000003 11.1880483 28.810407745000003 2.5757885970000003 11.966646835000001 2.5778996105000003 1.0746182810000002 -65.539999999999992 6.1901880960000009 51.377443750000005 0.91107906700000008 5.7680492765000002 43.107789145000005 0.83589506150000015
decision_type=2 2 2 2 2 2 2 2 2 2 2 2 2 2 2 2 2 2 2 2 2 2 2 2 2 2 2 2 2 2 2 2 2 2 2 2 2 2 2 2 2 2 2 2 2 2 2 2 2 2 2 2 2 2 2 2 2 2 2 2 2 2 2 2 2 2 2 2 2 2 2 2 2 2 2 2 2 2 2 2 2 2 2 2 2 2 2 2 2 2 2 2 2 2 2 2 2 2 2 2 2 2 2 2 2 2 2 2 2 2 2 2 2 2 2 2 2 2 2 2 2 2 2 2 2 2 2 2 2 2 2 2 2 2 2 2 2 2 2 2 2 2 2 2 2 2 2 2 2 2 2 2 2 2 2 2 2 2 2 2 2 2 2 2 2 2 2 2 2 2 2 2 2 2 2 2 2 2 2 2 2 2 2 2 2 2 2 2 2 2 2 2 2 2 2 2 2 2 2 2 2 2 2 2 2 2 2 2 2 2 2 2 2 2 2 2 2 2 2 2 2 2 2 2 2 2 2 2 2 2 2 2 2 2 2 2 2 2 2 2 2 2 2 2 2 2 2 2 2 2 2 2 2 2 2 2 2 2 2 2 2 2 2 2 2 2 2 2 2 2 2 2 2 2 2 2 2 2 2 2 2 2 2 2 2 2 2 2 2 2 2 2 2 2 2 2 2 2 2
left_child=1 3 9 13 7 19 12 22 11 14 92 26 23 28 15 178 105 18 75 20 21 206 29 147 25 71 38 205 39 30 31 139 66 203 180 97 -37 -38 93 107 149 298 43 -43 46 51 50 -47 56 60 -29 52 53 95 138 -54 70 -58 -59 -60 -50 64 63 193 65 273 -11 -68 69 -69 -49 -15 73 -33 -75 76 -18 78 79 90 84 89 83 91 85 109 87 267 -85 96 202 -83 -8 94 192 146 -82 238 100 102 103 -102 -100 -77 -74 156 -22 116 -53 -80 -87 112 113 -27 -114 -103 117 120 129 125 128 124 126 -124 -121 -120 -123 161 218 291 132 133 -39 134 -132 -113 -137 165 -55 140 142 -142 143 144 150 -146 -46 148 -3 -41 -5 152 -57 -98 -126 253 -6 159 -159 173 174 -128 207 164 -35 166 167 -138 175 -170 171 172 -171 -158 285 247 -177 216 191 -180 -23 204 183 -183 -108 186 266 188 -187 -189 256 -2 -7 -56 195 -195 -197 198 -92 201 -201 223 -25 272 -30 -17 -4 209 -148 -73 -211 212 213 214 227 -71 217 -106 219 222 221 -221 292 232 -225 -12 -172 -212 -228 239 -231 -89 233 246 241 236 237 -236 -36 -66 -202 276 -188 245 -245 -179 -26 249 -149 275 -251 252 -88 -156 -255 -226 257 258 -191 260 -258 -131 -263 -81 -265 -266 -186 -86 -152 -51 -14 -9 -34 -52 -275 -167 -32 278 279 281 282 -246 -281 -203 -279 -161 -135 -147 -210 -107 -229 -118 -1 294 295 -294 -297 -295 -42
right_child=2 6 5 4 16 8 10 271 -10 32 225 -13 270 24 -16 27 17 -19 -20 -21 106 34 -24 77 199 111 -28 44 181 -31 234 72 33 163 35 36 37 130 -40 40 41 42 -44 -45 45 47 -48 48 49 269 61 108 55 54 62 151 57 58 59 -61 -62 -63 -64 -65 229 -67 67 68 -70 215 -72 162 104 74 -76 98 -78 -79 80 263 81 82 -84 88 86 110 251 231 -90 -91 197 -93 -94 -95 -96 -97 153 -99 99 -101 101 115 -104 -105 177 289 184 -109 -110 -111 -112 135 114 -115 -116 -117 118 -119 119 121 -122 122 123 -125 154 -127 127 -129 -130 261 131 -133 -134 286 -136 136 137 -139 -140 -141 141 -143 -144 -145 145 287 208 248 -150 -151 268 -153 -154 -155 155 -157 157 158 -160 160 -162 -163 -164 -165 -166 168 -168 -169 169 170 226 -173 -174 -175 -176 176 -178 243 179 -181 -182 182 -184 -185 185 187 242 189 -190 190 -192 -193 -194 194 -196 196 -198 -199 -200 200 240 283 -204 -205 -206 -207 -208 -209 288 210 211 -213 -214 -215 -216 -217 -218 -219 -220 220 -222 -223 -224 224 255 -227 228 290 -230 230 -232 -233 -234 -235 235 -237 -238 -239 -240 -241 -242 -243 -244 244 277 -247 -248 -249 -250 250 -252 -253 -254 254 -256 -257 259 -259 -260 -261 -262 262 -264 264 265 -267 -268 -269 -270 -271 -272 -273 -274 274 -276 -277 -278 284 -280 280 -282 -283 -284 -285 -286 -287 -288 -289 -290 -291 -292 -293 293 297 -296 296 -298 -299 -300
leaf_value=-0.83281281274773011 -0.7155750251214803 -0.75958157467002629 -0.79019482652988449 -0.85152192723772546 -0.74466410024679042 -0.77236798131851425 -0.8006875041918321 -0.80672079384745188 -0.82223496724761735 -0.74133963451818352 -0.72311663719100505 -0.67263400946030816 -0.76793536034703846 -0.79176069806872107 -0.68814818286047363 -0.74035460763563332 -0.76995894818184263 -0.81772503311966227 -0.68260740664612873 -0.71696021917506647 -0.75297526456830755 -0.76405681699699712 -0.74065181402260971 -0.71208433610644306 -0.85240141552571669 -0.80135050305508693 -0.79226440499729778 -0.71474390868932858 -0.80731749282438137 -0.74841752929521743 -0.78941652351649827 -0.80284225049741054 -0.78621992185437628 -0.69479711431768731 -0.82054864405194716 -0.82378638458763387 -0.69618230837127348 -0.70052895178080266 -0.68901543478967542 -0.85206991609408922 -0.75862685630693927 -0.74466410024679042 -0.83885729589065172 -0.81738678806006559 -0.74780886512520228 -0.71379406133829804 -0.68648594999617019 -0.77957099039716249 -0.73302847019666639 -0.7155750251214803 -0.79206851896951791 -0.66155245703161858 -0.64854367809359181 -0.77093810358578019 -0.76128642888982478 -0.76934573974705345 -0.83849982645746812 -0.74151933536837844 -0.8269648981623019 -0.74931835226683996 -0.81447788054753467 -0.81447788054753467 -0.78941652351649827 -0.79120662044728651 -0.75592438739207168 -0.85044255524791801 -0.74065181402260971 -0.77151555420861506 -0.74466410024679042 -0.86102040074803077 -0.69812158004629421 -0.82727203653338532 -0.74867638647097112 -0.68901543478967531 -0.77569244704712115 -0.71781264628496566 -0.69725968152406281 -0.8161109514317626 -0.796378011580675 -0.83572555281297856 -0.75524194574690318 -0.6788974956156546 -0.83774914064778272 -0.8116571217475046 -0.79120662044728651 -0.67678959162106678 -0.77236798131851425 -0.79453108617589341 -0.73302847019666628 -0.86102040074803077 -0.75524194574690318 -0.75629973029691444 -0.72948719148575902 -0.71781264628496566 -0.83885729589065172 -0.76343124548892594 -0.85171189670793157 -0.85044255524791801 -0.695869522617238 -0.8003127657039053 -0.83652433748461175 -0.73302847019666628 -0.76621156330257567 -0.79453108617589341 -0.82869920616435289 -0.84311943144014767 -0.83516344508108853 -0.7502048764611351 -0.73302847019666628 -0.73690701354670773 -0.74113815174675279 -0.74972306983380088 -0.8212889810646804 -0.85417591248325198 -0.76405681699699712 -0.80284225049741054 -0.81738678806006559 -0.7235084092465649 -0.79755332774735421 -0.77528417932606419 -0.84215181147755935 -0.72804177160375605 -0.82334312249048625 -0.75524194574690318 -0.83681829024377274 -0.71936925231173809 -0.77375317537210053 -0.74000984822674076 -0.7524211869468731 -0.82546708670598512 -0.81626797747832291 -0.73454616107276949 -0.79120662044728651 -0.83849982645746812 -0.73884628522172835 -0.84048693595369428 -0.85044255524791801 -0.74466410024679042 -0.83099296836061387 -0.85240141552571669 -0.75178795537951937 -0.8194645791404449 -0.83774914064778272 -0.76405681699699712 -0.72948719148575902 -0.79019482652988449 -0.72974662582355443 -0.8006875041918321 -0.67485031994604605 -0.78879924871277807 -0.77639763674712869 -0.68648594999617019 -0.70886216163102411 -0.78655236842723697 -0.807901220084421 -0.75670095891933253 -0.77639763674712869 -0.83140243334771502 -0.76648090659077295 -0.74972306983380088 -0.8003127657039053 -0.83608690778347927 -0.77724386438713766 -0.68119702724611375 -0.76793536034703846 -0.80801364163079903 -0.70975721009641823 -0.76128642888982467 -0.82777574346196214 -0.73960513065977995 -0.83416894678620601 -0.69479711431768731 -0.81669419103327257 -0.82328322220708794 -0.78046603886255661 -0.74867638647097112 -0.82054864405194716 -0.78697548224724145 -0.68119702724611375 -0.79120662044728651 -0.70277583206634386 -0.81447788054753456 -0.83849982645746812 -0.75361458490073197 -0.78554604366614511 -0.80096553597319708 -0.77957099039716249 -0.84356695567284468 -0.73302847019666628 -0.78077467626441677 -0.85090246157400995 -0.651579059845798 -0.71141944296072168 -0.74841752929521754 -0.76581979124701594 -0.65238151709063419 -0.71088323881094639 -0.75958157467002629 -0.83040032166875699 -0.83293439717876583 -0.74466410024679042 -0.76995894818184263 -0.76959759321134191 -0.81447788054753467 -0.84733142421847307 -0.7863225288213086 -0.85090246157400984 -0.86102040074803077 -0.72139284014654237 -0.76256506955467351 -0.86102040074803077 -0.78554604366614511 -0.84600668455432237 -0.76995894818184263 -0.76793536034703846 -0.81011451927873812 -0.84162768399782406 -0.76934573974705345 -0.82777574346196214 -0.76128642888982467 -0.71293056374645203 -0.82999205394770004 -0.7666774543956737 -0.85697322507842244 -0.79682382116113948 -0.66709323324596337 -0.76343124548892594 -0.84215181147755935 -0.81870901874757973 -0.80284225049741054 -0.72948719148575902 -0.73302847019666628 -0.83409497583865289 -0.7769852948304683 -0.79120662044728651 -0.84033483621447691 -0.82928686424769249 -0.73302847019666628 -0.76916016351020944 -0.70975721009641823 -0.80284225049741054 -0.84957551873151538 -0.72311663719100516 -0.72139284014654226 -0.83416894678620612 -0.84938477069790674 -0.79755332774735421 -0.82839713892525313 -0.74466410024679042 -0.75759257808026148 -0.81447788054753467 -0.78123322326146594 -0.71657809667752548 -0.86102040074803077 -0.80284225049741054 -0.83666675645707356 -0.82427630585290224 -0.75112833916352595 -0.84078452239998902 -0.83252498021711474 -0.74466410024679042 -0.76554856443932073 -0.84078452239998902 -0.77204205330590581 -0.83831673235754489 -0.79665308557713188 -0.83309488862773307 -0.84215181147755935 -0.82029569557259663 -0.66155245703161869 -0.71912247330749368 -0.84459362891256151 -0.74133963451818352 -0.73831739294672272 -0.79120662044728651 -0.84938477069790674 -0.83986470974780525 -0.83516344508108853 -0.82892211095458512 -0.74466410024679042 -0.71141944296072168 -0.78077467626441666 -0.80284225049741054 -0.82054864405194716 -0.79183557342296895 -0.69812158004629421 -0.79314589212230724 -0.83986470974780525 -0.67817478567465295 -0.79453108617589341 -0.81129548600391099 -0.85183437702424869 -0.7884866030329718 -0.80284225049741054 -0.7651975650411269 -0.84647586318537571 -0.79120662044728651 -0.85090246157400984 -0.70975721009641823
leaf_weight=7.0902907401323239 5.1565750837326068 8.3794345110654849 4.941717788577078 10.528007462620733 6.8754334449768058 4.5120031982660347 5.8011469691991824 6.4457188546657589 5.1565750837326041 7.5200053304433814 5.8011469691991788 4.5120031982660285 4.2971459031105033 18.048012793064117 7.5200053304433814 5.8011469691991833 4.941717788577078 9.2388636916875821 6.4457188546657553 4.5120031982660285 6.0160042643547049 5.1565750837326032 6.2308615595102301 5.3714323788881284 5.8011469691991824 8.3794345110654849 9.4537209868431074 7.5200053304433814 8.3794345110654849 6.6605761498212805 5.5862896740436572 6.8754334449768093 6.0160042643547076 4.5120031982660276 4.9417177885770824 5.3714323788881293 5.1565750837326041 6.2308615595102292 4.9417177885770789 5.5862896740436536 5.3714323788881284 11.172579348087316 4.5120031982660285 6.8754334449768058 7.9497199207544318 10.528007462620733 4.2971459031105033 4.2971459031105024 4.2971459031105059 5.1565750837326032 5.8011469691991868 6.016004264354704 4.9417177885770824 6.6605761498212797 6.0160042643547085 7.0902907401323336 6.6605761498212841 7.9497199207544353 8.8091491013765317 5.3714323788881293 5.3714323788881302 6.4457188546657553 5.5862896740436545 4.2971459031105033 6.6605761498212841 4.7268604934215537 6.2308615595102337 5.5862896740436616 4.2971459031105033 6.6605761498212797 4.2971459031105042 99.264070361852646 6.2308615595102301 4.941717788577078 6.4457188546657562 5.5862896740436572 5.8011469691991806 12.246865823864935 7.7348626255989092 9.8834355771541578 4.7268604934215572 4.9417177885770851 4.2971459031105033 7.0902907401323301 4.2971459031105059 5.1565750837326032 4.5120031982660311 4.5120031982660276 4.2971459031105042 4.9417177885770789 4.7268604934215572 4.2971459031105042 4.9417177885770798 8.3794345110654813 4.5120031982660285 6.6605761498212805 5.3714323788881284 4.7268604934215537 6.6605761498212832 4.9417177885770789 8.1645772159099597 4.2971459031105024 5.8011469691991806 4.5120031982660294 7.7348626255989092 5.5862896740436536 7.7348626255989066 4.5120031982660285 4.2971459031105042 6.4457188546657562 7.0902907401323318 4.9417177885770789 8.8091491013765353 14.610296070575712 7.7348626255989066 6.0160042643547058 6.8754334449768093 4.7268604934215537 4.7268604934215528 8.1645772159099561 7.9497199207544318 6.0160042643547085 22.56001599133015 4.7268604934215537 26.857161894440651 4.9417177885770798 5.1565750837326068 5.3714323788881293 6.4457188546657553 15.469725251197817 5.5862896740436581 9.8834355771541578 4.2971459031105042 6.6605761498212797 8.5942918062210065 7.3051480352878562 4.7268604934215528 4.7268604934215537 6.6605761498212814 5.8011469691991797 10.528007462620737 6.0160042643547049 15.040010660886763 7.7348626255989066 4.9417177885770789 4.941717788577078 8.3794345110654849 5.8011469691991788 4.2971459031105033 6.230861559510231 4.7268604934215572 5.1565750837326041 5.5862896740436554 5.3714323788881302 19.766871154308319 6.2308615595102301 11.817151233553888 11.817151233553888 6.8754334449768058 4.9417177885770815 4.9417177885770789 6.0160042643547058 5.3714323788881293 4.7268604934215537 6.4457188546657562 38.674313127994537 4.2971459031105033 6.0160042643547058 7.5200053304433814 4.9417177885770815 5.5862896740436581 4.5120031982660285 4.5120031982660294 7.9497199207544318 5.5862896740436545 6.2308615595102292 4.9417177885770798 4.7268604934215528 4.7268604934215528 4.2971459031105042 5.3714323788881302 7.520005330443384 6.6605761498212805 5.5862896740436554 7.9497199207544345 6.6605761498212797 4.2971459031105024 8.5942918062210065 4.2971459031105042 6.2308615595102328 4.9417177885770789 4.2971459031105042 6.0160042643547058 6.6605761498212877 4.7268604934215537 6.2308615595102292 6.6605761498212814 8.3794345110654813 8.1645772159099561 12.461723119020464 5.1565750837326032 4.941717788577078 6.0160042643547058 4.2971459031105033 18.262870088219643 17.403440907597542 4.9417177885770798 5.8011469691991797 4.2971459031105068 5.5862896740436545 5.5862896740436545 7.9497199207544318 13.321152299642561 4.9417177885770789 4.2971459031105033 6.8754334449768066 7.7348626255989066 7.0902907401323318 9.0240063965320569 6.0160042643547076 4.7268604934215537 6.4457188546657562 7.9497199207544318 24.708588942885399 6.2308615595102337 5.156575083732605 6.6605761498212797 7.9497199207544318 4.7268604934215546 5.1565750837326032 4.9417177885770798 4.2971459031105042 25.99773271381855 7.7348626255989066 6.445718854665758 9.6685782819986326 4.7268604934215537 4.2971459031105042 8.1645772159099561 8.5942918062210065 4.2971459031105042 13.106295004487036 5.8011469691991806 5.3714323788881293 5.5862896740436572 4.2971459031105042 4.7268604934215546 22.989730581641197 4.2971459031105042 5.8011469691991788 4.2971459031105042 7.5200053304433814 6.230861559510231 8.1645772159099561 5.1565750837326041 18.477727383375168 8.1645772159099597 7.7348626255989066 4.9417177885770798 10.528007462620733 5.1565750837326041 8.3794345110654813 4.9417177885770789 7.3051480352878597 8.8091491013765353 10.098292872309683 5.3714323788881302 7.9497199207544327 17.188583612442017 4.5120031982660294 8.8091491013765317 18.262870088219643 7.5200053304433823 11.817151233553888 4.2971459031105033 4.2971459031105033 4.7268604934215546 5.8011469691991788 6.2308615595102301 4.2971459031105024 6.0160042643547049 6.230861559510231 4.2971459031105042 4.9417177885770798 7.9497199207544327 4.2971459031105042 5.156575083732605 4.7268604934215546 12.03200852870941 4.5120031982660294 25.138303533196449 16.329154431819916 16.544011726975452 6.016004264354704 7.3051480352878562 6.8754334449768049 4.2971459031105042 4.9417177885770798 4.2971459031105042
leaf_count=33 24 39 23 49 32 21 27 30 24 35 27 21 20 84 35 27 23 43 30 21 28 24 29 25 27 39 44 35 39 31 26 32 28 21 23 25 24 29 23 26 25 52 21 32 37 49 20 20 20 24 27 28 23 31 28 33 31 37 41 25 25 30 26 20 31 22 29 26 20 31 20 462 29 23 30 26 27 57 36 46 22 23 20 33 20 24 21 21 20 23 22 20 23 39 21 31 25 22 31 23 38 20 27 21 36 26 36 21 20 30 33 23 41 68 36 28 32 22 22 38 37 28 105 22 125 23 24 25 30 72 26 46 20 31 40 34 22 22 31 27 49 28 70 36 23 23 39 27 20 29 22 24 26 25 92 29 55 55 32 23 23 28 25 22 30 180 20 28 35 23 26 21 21 37 26 29 23 22 22 20 25 35 31 26 37 31 20 40 20 29 23 20 28 31 22 29 31 39 38 58 24 23 28 20 85 81 23 27 20 26 26 37 62 23 20 32 36 33 42 28 22 30 37 115 29 24 31 37 22 24 23 20 121 36 30 45 22 20 38 40 20 61 27 25 26 20 22 107 20 27 20 35 29 38 24 86 38 36 23 49 24 39 23 34 41 47 25 37 80 21 41 85 35 55 20 20 22 27 29 20 28 29 20 23 37 20 24 22 56 21 117 76 77 28 34 32 20 23 20
internal_value=0 -0.222632 0.559858 -0.317972 -0.0945383 0.174963 0.291724 -0.273588 0.714554 0.8125 1.12595 0.884317 0.212311 -0.424116 0.893296 0.865949 0.252615 0.506517 0.666704 0.0494364 0.0183061 0.257891 -0.211703 0.160404 -0.513505 -0.443371 0.713836 0.82017 -0.302682 -0.240128 -0.267928 -0.179827 0.455178 0.782999 0.362529 0.257287 0.442205 0.562221 0.978283 -0.251442 0.0892276 0.345022 0.0524693 0.318427 0.868708 0.957927 0.623423 0.642022 0.48465 1.07936 0.531394 1.12666 1.05418 0.926373 0.638857 1.57503 0.177041 -0.0652929 0.217294 -0.18528 0.200223 0.410501 0.934727 1.08932 0.52632 0.196887 0.15957 -0.0381104 -0.301734 -0.565607 0.98886 -0.603474 0.0102622 0.516591 1.00423 0.50228 1.15176 0.0915894 0.13572 -0.0874353 0.273843 0.00121052 0.431153 0.727059 0.461835 0.891424 0.173095 -0.21982 0.126067 -0.523771 0.351963 1.46782 0.407079 0.765755 0.407079 1.31758 -0.226416 -0.333115 0.350532 0.786314 0.0851307 -0.263999 1.19349 0.723964 -0.0929462 0.00814305 -0.200081 -0.302012 1.9391 0.378871 1.48491 -0.278384 -0.594597 -0.93265 -0.124836 0.290723 -0.318437 -0.14767 -0.416159 -0.296662 -0.2148 -0.367556 -0.0904446 -0.465135 -0.553365 0.613935 0.362753 0.0564989 -0.14161 -0.723789 0.420007 0.245434 1.01498 -0.0698857 0.378871 -0.199115 -0.230508 -0.189655 -0.253525 -0.402262 -0.343159 0.237833 -0.480809 -0.341252 -0.477016 0.0511655 1.48491 0.74078 1.1486 -0.608394 -0.714873 1.23699 0.911947 -0.616857 -0.653728 -0.437299 0.112156 0.0223732 -0.384679 0.214838 0.568966 -0.380564 -0.655516 1.35068 1.00939 -0.225331 0.2741 -0.244516 -0.285092 0.00145697 0.193759 0.765098 0.237833 -0.13929 0.838778 -0.411427 0.156465 -0.159108 1.57605 1.09414 1.10997 -0.678913 -0.341649 -0.00493681 -0.255491 -0.197312 0.167961 -0.324516 0.279315 -0.442056 -0.322507 2.03607 1.01498 1.25211 1.42854 1.66526 2.11364 0.0497828 -0.291059 -0.737357 -0.359504 -0.817318 0.916412 0.283713 -0.929142 0.269175 -0.645187 -0.681694 1.70218 -0.655929 -0.491673 -0.572916 -0.654417 -0.515423 -0.616857 -0.937483 -0.523771 -0.240469 -0.205081 -0.137622 0.290723 -0.17069 -0.258282 -0.888853 -1.07014 1.83073 -0.27633 -0.730627 0.0382514 0.872504 0.426884 0.47519 -0.686444 -0.359504 -0.63086 -0.380564 0.0321531 0.407079 -0.00493681 1.16749 0.343612 -0.899528 0.822991 -0.0238094 0.0710458 -0.568098 -0.789729 -0.494847 0.228831 -0.361721 0.129804 0.626103 0.965589 -0.638617 -1.00421 -0.766602 -0.215047 0.0791657 -0.380564 -0.448297 -0.103387 -0.447358 -0.103387 -0.484986 -0.310134 -0.555505 -0.328593 -0.71974 -0.450764 1.9585 1.06325 -0.928489 0.540058 0.507465 0.717362 -0.477229 -0.484986 -0.0755842 0.0763821 0.285993 0.804059 -0.354526 0.290723 -0.13929 -0.436504 1.25134 -0.608394 -0.523771 1.97483 -0.662409 -0.608394 -1.06677 -0.361721 -0.280184 -0.141152 -0.300079 -0.738583 -0.724543 1.02765
internal_weight=0 1596.6 634.903 1346.94 433.797 251.598 249.664 286.19 47.4835 383.305 21.7006 42.3269 227.964 913.144 312.617 305.097 147.607 72.4069 63.168 204.114 199.602 95.1818 261.481 214.857 525.971 400.494 37.8149 286.62 387.173 255.25 248.59 200.032 70.6881 33.5177 85.2983 74.7703 56.9372 51.5658 28.3612 340.764 44.0457 32.2286 22.56 18.048 263.415 193.157 70.2583 67.2503 56.7223 19.3372 65.9612 125.906 115.593 92.8184 53.4995 22.7749 37.3852 28.7909 22.1303 14.1806 9.66858 58.4412 40.1783 34.592 51.9955 26.6423 37.1703 29.6503 23.4194 19.1223 8.59429 203.255 107.858 18.2629 11.3874 56.7223 10.7429 192.082 179.836 68.7543 111.081 45.3349 24.9234 20.6263 65.7463 26.4274 39.3189 21.056 11.3874 20.4114 32.6583 9.23886 10.7429 23.4194 15.04 39.3189 15.4697 17.8332 45.9795 17.4034 28.576 18.4777 12.4617 10.0983 89.5955 75.2001 104.421 296.718 10.3132 14.1806 12.2469 197.239 39.5337 22.9897 16.544 10.3132 292.206 106.354 185.852 133.856 101.628 124.188 49.8469 27.2869 74.3406 9.66858 22.56 16.544 93.6778 51.9955 46.4092 35.8812 10.528 25.9977 14.1806 157.705 152.764 145.458 13.3212 92.1738 86.3726 16.544 69.8286 54.7886 47.0537 14.6103 32.6583 22.7749 12.6766 11.8172 32.4435 17.8332 12.6766 10.7429 66.176 39.3189 65.1018 58.2263 18.6926 39.5337 19.7669 11.1726 185.207 15.6846 10.9577 140.732 15.04 10.7429 125.692 38.4595 30.9395 13.9657 9.45372 19.7669 14.8252 87.2321 11.1726 83.3646 18.4777 9.02401 10.528 46.4092 19.7669 13.1063 98.4046 90.6698 23.4194 67.2503 10.9577 56.2926 47.6983 9.45372 10.528 30.2949 24.2789 19.552 12.8914 21.2709 12.8914 125.477 21.9154 103.561 11.3874 17.8332 26.6423 23.2046 9.88344 179.836 24.7086 174.034 74.7703 69.184 61.2343 47.9132 42.9715 13.536 22.56 14.8252 87.2321 78.2081 17.1886 12.4617 61.0195 93.6778 49.4172 10.9577 16.9737 38.6743 11.3874 25.3532 10.0983 8.80915 44.2606 18.2629 48.5577 25.1383 15.4697 10.7429 13.1063 15.2549 9.45372 23.4194 10.0983 60.8046 51.7806 9.02401 10.528 76.0595 10.0983 53.0698 10.0983 18.2629 10.7429 33.088 13.3212 24.7086 42.7566 18.9074 11.1726 23.8492 13.3212 28.7909 13.3212 36.096 26.2126 18.9074 13.3212 12.2469 21.9154 9.66858 13.1063 24.7086 13.536 21.9154 16.1143 42.9715 10.3132 46.4092 32.6583 26.4274 14.6103 11.8172 8.59429 9.88344 13.7509 9.23886 11.8172 9.66858 16.3292 10.0983 33.088 23.2046 53.0698 45.9795 35.0217 27.7166 11.1726 10.9577 9.66858
internal_count=10386 7431 2955 6269 2019 1171 1162 1332 221 1784 101 197 1061 4250 1455 1420 687 337 294 950 929 443 1217 1000 2448 1864 176 1334 1802 1188 1157 931 329 156 397 348 265 240 132 1586 205 150 105 84 1226 899 327 313 264 90 307 586 538 432 249 106 174 134 103 66 45 272 187 161 242 124 173 138 109 89 40 946 502 85 53 264 50 894 837 320 517 211 116 96 306 123 183 98 53 95 152 43 50 109 70 183 72 83 214 81 133 86 58 47 417 350 486 1381 48 66 57 918 184 107 77 48 1360 495 865 623 473 578 232 127 346 45 105 77 436 242 216 167 49 121 66 734 711 677 62 429 402 77 325 255 219 68 152 106 59 55 151 83 59 50 308 183 303 271 87 184 92 52 862 73 51 655 70 50 585 179 144 65 44 92 69 406 52 388 86 42 49 216 92 61 458 422 109 313 51 262 222 44 49 141 113 91 60 99 60 584 102 482 53 83 124 108 46 837 115 810 348 322 285 223 200 63 105 69 406 364 80 58 284 436 230 51 79 180 53 118 47 41 206 85 226 117 72 50 61 71 44 109 47 283 241 42 49 354 47 247 47 85 50 154 62 115 199 88 52 111 62 134 62 168 122 88 62 57 102 45 61 115 63 102 75 200 48 216 152 123 68 55 40 46 64 43 55 45 76 47 154 108 247 214 163 129 52 51 45
shrinkage=1


Tree=1
num_leaves=300
num_cat=0
split_feature=16 20 26 15 9 14 5 13 15 1 3 9 22 15 13 1 3 1 2 16 14 22 11 25 14 25 15 13 5 19 13 25 14 3 3 22 5 22 16 15 22 25 13 22 9 20 9 25 25 25 25 14 11 3 2 16 22 14 16 25 11 14 25 3 1 5 5 16 14 15 13 2 13 15 22 5 3 9 5 14 15 14 26 14 25 13 13 22 9 9 16 14 22 1 13 22 11 5 14 11 9 20 22 22 20 14 25 5 15 16 11 3 2 13 11 16 15 5 3 15 11 13 19 15 15 22 19 19 11 16 1 19 14 3 13 5 5 13 2 9 9 3 16 3 25 2 13 25 20 9 13 2 15 14 5 14 13 19 14 15 3 1 3 19 2 2 20 9 9 14 14 11 16 14 14 9 2 25 13 13 11 14 13 1 11 11 25 5 11 11 13 5 15 1 15 15 1 25 19 11 15 20 15 14 13 1 20 20 13 13 9 16 13 15 9 13 3 20 14 2 16 2 5 1 20 14 1 20 11 11 15 15 5 3 1 3 11 25 1 19 1 9 16 15 13 22 11 15 15 13 15 15 22 2 22 2 22 19 25 1 14 13 3 1 15 13 14 22 20 3 13 5 11 13 15 15 15 14 2 1 2 11 16 15 2 1 9 1 2 16 13 14 11 14 9 3 25 5 13
split_gain=310 45.9487 22.4623 22.2671 17.901 17.3548 16.6562 12.8676 12.7671 11.748 11.2881 9.46211 9.1142 8.94758 8.85748 8.75719 8.53596 8.68352 8.48976 11.3091 8.34801 8.17267 8.44884 7.99048 8.13939 7.97163 8.44065 12.4418 7.94864 7.77818 7.72867 7.69999 7.55908 9.35715 7.10328 8.27027 6.92451 6.27733 6.109 7.58462 5.98466 5.87201 5.82968 6.10645 6.89318 9.87262 6.62127 5.9358 8.68517 6.11363 5.94411 5.76407 10.1073 12.192 9.78787 9.07908 7.69231 7.04952 6.44264 6.36235 9.75352 5.80174 8.60386 6.48665 5.90919 5.71932 9.4716 5.63965 5.60397 8.53092 6.3939 6.32695 6.18835 7.15301 6.04749 5.55238 5.44601 5.35004 6.75701 5.25946 25.4148 10.8072 7.24398 7.21503 6.59242 7.38746 6.22888 7.24242 6.60319 7.99047 6.26092 5.32293 5.22843 5.03693 8.08252 6.57503 7.4801 5.42476 4.96264 4.81919 4.98081 4.79656 6.50101 7.50697 4.78727 4.93462 7.31407 6.1035 4.76389 4.7489 5.14859 4.66827 6.43607 6.59279 4.64975 7.38649 7.81343 6.91459 6.90636 4.6459 4.60468 5.10448 8.72439 4.85258 6.9826 5.80347 5.48717 5.63611 6.08596 6.77892 7.71652 4.59634 4.57252 4.54724 8.04717 4.47337 8.95528 7.46409 4.45829 6.09687 4.31221 4.27464 6.81352 5.10464 4.27312 9.50716 4.49625 4.27232 5.62029 7.51867 6.97911 5.23439 4.79715 4.25679 4.23207 4.23067 5.18261 4.23021 4.22626 7.63325 6.58133 4.832 5.56926 5.46339 4.19431 4.26607 7.86814 5.42613 4.12392 7.15216 7.04669 8.25872 5.45938 4.87085 8.24104 6.02524 4.11429 4.10997 4.09769 5.76767 4.09755 7.21275 4.06255 4.01365 7.86354 7.09848 4.05738 3.96583 3.95838 3.92288 3.8877 5.37297 9.54518 3.88259 3.86243 3.78522 4.85566 9.83826 6.12094 4.12723 4.16098 3.75119 3.74717 3.7202 10.0251 4.19853 3.6806 3.67882 3.66318 3.61973 3.5597 3.54521 3.49359 4.28569 5.07981 7.52299 3.5529 5.70063 5.3695 4.4282 5.20019 4.64399 3.74798 6.23158 7.86 4.33972 4.22986 3.69512 3.4521 5.31028 3.43748 4.69503 3.26146 3.22767 3.19737 3.16483 3.15753 3.74349 5.22725 3.62592 3.14248 3.13397 6.47016 8.37571 5.02828 4.25745 3.11086 3.05624 5.8628 3.03917 3.60683 3.0302 3.01884 3.01288 3.01015 3.00937 3.00765 2.90844 2.89712 2.87646 3.17563 7.90958 3.26262 3.32965 2.91851 2.84139 2.84098 2.83074 2.81336 2.77984 2.71361 2.6867 2.67794 2.67106 2.87901 5.2425 4.61784 3.52904 2.83675 4.71204 4.63594 2.66227 2.65501 3.75561 3.41092 2.65242 2.62804 2.59339 2.56345 2.52945 2.84987 2.51341 3.92064 3.24827 4.40159 2.50607 2.4937 2.49088 2.48226
threshold=7.5000000000000009 6.084632526500001 1.0000000180025095e-35 -0.38032786649999994 41.450949755000003 10.786595860000002 2.7210771315000004 5.4149962965000009 -1.4380266774999997 7.0113261315000006 22.045636220000002 60.294879105000007 17.055953435000003 -0.38533564799999992 18.650939330000003 2.4571067810000007 9.8664342070000028 11.170431295000002 7.0748819160000007 5.5000000000000009 11.386754060000001 11.701574590000002 -0.47499999999999992 22.503102560000006 9.6168059100000018 44.507940955000002 -4.7875381309999989 5.0497554335000006 2.4597167955000003 20.519753810000005 5.1348118240000007 16.416666665000005 12.284192110000001 16.942010755000002 6.1528744180000006 12.276537910000002 18.320189930000002 20.016133905000004 8.5000000000000018 -1.5691267519999996 18.394321195000003 18.190416670000005 3.8717200970000003 23.125770930000005 5.5490809410000006 11.378360770000002 12.903610640000002 26.85044779 31.947349080000006 21.645115740000005 28.704150005000006 11.537852900000003 -0.49499999999999994 7.6766743915000015 5.3151197015000013 18.500000000000004 27.471525245000006 11.600082345000002 22.500000000000004 73.939642530000015 -0.034999999999999996 10.515094875000001 51.239004630000004 6.3171089905000013 7.1992508970000015 8.4197156995000011 7.080561910000001 4.5000000000000009 10.632763000000002 -4.7086894374999995 3.1996740475000003 5.7619278115000006 6.7723896785000006 -4.7678155849999992 19.428472555000003 5.8209535100000007 2.8421103945000001 11.060415065000003 3.4137711140000007 11.918197970000003 -5.0756488434999989 11.816615715000003 1.0000000180025095e-35 11.220702275000003 98.813831770000021 5.9633993945000006 2.7022663760000003 7.709229725000001 5.8625212535000015 12.514549490000002 9.5000000000000018 10.502525040000002 16.926985470000002 8.4237747140000021 2.5014757455000005 5.6885648365000003 -1.1049999999999998 2.6194516735000004 9.7260995370000014 -0.69499999999999984 5.9387303075000011 19.637857440000001 41.969413350000004 30.739817705000004 1.0000000180025095e-35 10.102720380000003 26.017897770000005 1.6437134360000003 0.078026219500000008 20.500000000000004 -1.5649999999999997 8.4420448610000012 6.1466421765000012 3.6296017245000001 -1.7049999999999998 14.500000000000002 -5.168894773499999 10.491538990000002 8.0218362245000012 -4.5330909594999991 -0.98499999999999988 2.1224551740000006 25.533835440000001 -0.16699144949999997 -0.29363002549999995 5.8625212535000015 30.087709000000004 13.418789335000001 -0.56499999999999984 3.5000000000000004 4.9800805955000014 5.9921365575000012 8.9496767525000021 2.8405035735000004 5.9579193475000007 11.431899520000002 10.334160705 7.2333160050000016 2.9329515155000005 5.9387303075000011 5.9387303075000011 5.2413488835000015 9.5000000000000018 5.8324299540000011 37.750000000000007 3.8444315625000005 1.2946632655000003 44.321588305000013 18.477060750000003 11.310871030000003 2.7656205370000007 5.1390231800000015 -1.0877631679999997 12.326829215000002 9.1283427750000019 7.8843211450000004 2.0272529730000004 6.7513364420000004 12.651232295000002 -5.5837549039999992 18.873724960000001 24.938361140000005 20.584252065000005 25.533835440000001 1.0466716720000002 4.269330987500001 12.058503625000002 13.037687786500003 35.261744915000008 12.551963650000001 12.652289095000002 -2.8049999999999993 28.500000000000004 12.690999610000002 12.739544947500002 47.442731910000006 7.2673271520000009 24.875000000000004 -1.0000000180025095e-35 -20.809999999999995 -1.4849999999999997 10.242259350000001 1.8484545360000002 5.548930265000001 -1.3849999999999996 -1.595 38.583333335000006 4.6633725164500008 -1.9899999999999998 -0.05025974049999999 1.6361433460000001 3.4560528595000002 -0.083472221999999985 4.7045070220000005 -4.5049884259999997 -5.5706344539999995 26.563917365000005 118.6689228 36.813903865000007 -2.5749999999999997 -5.5773206469999996 23.944606495000006 0.20153167150000004 12.129122185000002 6.7242484915000009 14.105215090000003 36.769160105000005 34.875096790000008 7.6590261565000013 5.9300000000000006 11.060415065000003 2.5000000000000004 1.6639302255000004 -1.7976851854999998 5.9125428875000008 3.4400000000000008 2.1646160360000004 6.5618460450000011 9.8558912040000006 2.3117521040000004 4.5000000000000009 2.8029883085000002 2.8164053065000005 4.7045070220000005 6.5618460450000011 10.143835485000002 5.5281628840000012 6.2418351775000014 -1.325 -2.4149999999999996 -1.1100694584999997 -1.2630972539999998 12.145579425000003 3.6355387080000003 22.736999650000005 4.3001989150000011 -1.3149999999999997 29.416666665000005 5.2342228755000013 11.877905550000003 8.6540099070000007 11.060415065000003 10.500000000000002 -1.3013074349999998 2.6649784090000002 17.762985225000005 -1.2249999999999999 -1.1848642604999997 -1.0521845454999996 1.8377470015000001 -1.1058358334999998 -1.0815294309999997 6.0364776705000009 10.169858330000002 13.623250985 7.1023789205000005 11.867875035000003 6.0711935880000008 54.229220020000007 5.7191446840000006 10.302920370000002 3.4706573365000009 2.8382824630000005 5.5281628840000012 -0.95930413849999996 2.3068778890000003 10.482777775000001 10.258563720000001 12.058503625000002 7.0802299435000009 1.5801569270000002 8.2331766275000025 -0.24999999999999997 1.4379088125000001 -1.5424925914999998 -1.0815294309999997 -1.2962127279999998 10.233541665000002 1.8193991020000002 4.6041158820000012 3.4159295280000008 -1.8149999999999997 6.5000000000000009 -1.8063657409999998 3.8444315625000005 15.382729935000002 6.5584466480000012 6.4940887100000007 2.5363783625000003 5.5000000000000009 1.8846035345000003 10.477215850000002 -1.325 10.205378640000001 5.9387303075000011 5.8295223825000013 37.190209685000006 3.3167911090000004 1.9182100935000002
decision_type=2 2 2 2 2 2 2 2 2 2 2 2 2 2 2 2 2 2 2 2 2 2 2 2 2 2 2 2 2 2 2 2 2 2 2 2 2 2 2 2 2 2 2 2 2 2 2 2 2 2 2 2 2 2 2 2 2 2 2 2 2 2 2 2 2 2 2 2 2 2 2 2 2 2 2 2 2 2 2 2 2 2 2 2 2 2 2 2 2 2 2 2 2 2 2 2 2 2 2 2 2 2 2 2 2 2 2 2 2 2 2 2 2 2 2 2 2 2 2 2 2 2 2 2 2 2 2 2 2 2 2 2 2 2 2 2 2 2 2 2 2 2 2 2 2 2 2 2 2 2 2 2 2 2 2 2 2 2 2 2 2 2 2 2 2 2 2 2 2 2 2 2 2 2 2 2 2 2 2 2 2 2 2 2 2 2 2 2 2 2 2 2 2 2 2 2 2 2 2 2 2 2 2 2 2 2 2 2 2 2 2 2 2 2 2 2 2 2 2 2 2 2 2 2 2 2 2 2 2 2 2 2 2 2 2 2 2 2 2 2 2 2 2 2 2 2 2 2 2 2 2 2 2 2 2 2 2 2 2 2 2 2 2 2 2 2 2 2 2 2 2 2 2 2 2 2 2 2 2 2 2 2 2 2 2 2 2 2 2 2 2 2 2 2 2 2 2 2 2
left_child=2 4 3 7 6 21 38 13 25 -10 79 195 120 15 36 31 17 28 30 65 111 22 164 24 -23 26 27 296 -7 133 42 -1 51 37 77 -36 158 253 39 -2 147 -33 43 44 119 47 67 49 50 -46 -49 52 55 61 -53 56 68 -56 114 60 272 63 254 64 -54 66 182 144 99 72 -71 -72 73 74 -70 -37 -50 78 235 80 92 82 86 91 101 -86 90 -88 -89 206 -82 -84 -3 94 95 96 -78 -96 -98 100 240 102 103 109 105 107 233 -14 -106 110 153 112 113 -11 117 118 176 255 -116 -17 121 190 180 124 268 -126 127 128 155 178 -131 -69 177 -9 140 136 -39 -138 -136 -140 -135 -80 -143 -144 145 146 -47 289 149 150 -149 -151 -150 -81 -118 -125 -157 183 159 -6 -161 162 163 -160 -4 201 -167 -168 234 -170 171 -171 -173 175 -175 -172 -117 -121 179 -130 181 257 -20 184 185 -25 -187 -64 -185 208 191 236 -193 -44 -73 196 -12 198 -198 200 -199 259 -108 205 -205 -178 -90 -183 209 -29 -35 -182 247 214 215 -214 217 218 230 -218 221 251 223 224 225 227 -225 -222 229 285 231 -215 -137 -107 -87 -28 -5 239 -239 -238 -27 244 -243 -244 -22 -246 -241 288 -249 250 -159 -221 297 -34 -63 -59 -251 -123 -31 260 298 262 -262 264 -264 -129 -265 -141 -122 -128 -97 -271 -55 278 -275 276 -276 -277 -134 -280 -281 -85 283 -190 -284 -103 -148 -261 -186 290 -30 292 293 -285 -295 -66 -8 -48 -166
right_child=1 10 5 12 14 16 8 29 9 20 11 -13 104 -15 -16 18 -18 -19 19 -21 241 23 -24 157 -26 32 34 189 40 258 -32 41 33 210 35 75 -38 135 -40 -41 -42 -43 193 -45 45 46 252 48 76 -51 -52 54 53 59 57 -57 -58 58 -60 -61 -62 62 187 -65 295 -67 -68 131 69 70 71 194 -74 -75 -76 -77 93 -79 141 84 81 -83 83 281 85 168 87 88 89 -91 -92 -93 -94 -95 97 270 98 -99 -100 -101 -102 228 -104 -105 108 106 202 -109 -110 -111 -112 -113 -114 -115 115 116 154 -119 -120 132 123 122 -124 126 125 -127 269 265 129 130 -132 -133 273 134 138 232 137 -139 139 267 -142 142 143 -145 -146 -147 286 148 152 151 -152 -153 -154 -155 -156 156 -158 249 161 160 -162 -163 -164 -165 165 166 167 -169 169 170 173 172 -174 174 -176 -177 203 -179 -180 -181 211 207 -184 188 212 186 -188 -189 282 -191 -192 192 -194 -195 -196 -197 197 199 -200 -201 -202 -203 -204 204 -206 -207 -208 -209 -210 -211 -212 -213 213 216 -216 -217 219 -219 -220 220 222 -223 -224 226 -226 -227 -228 -229 -230 -231 -232 -233 -234 -235 -236 -237 237 238 -240 246 -242 242 243 -245 245 -247 -248 248 -250 256 -252 -253 -254 -255 -256 -257 -258 -259 -260 287 261 -263 263 266 -266 -267 -268 -269 -270 271 -272 -273 -274 274 275 277 -278 -279 279 280 -282 -283 284 291 -286 -287 -288 -289 -290 -291 -292 -293 -294 294 -296 -297 -298 -299 -300
leaf_value=0.0793201555481685 -0.013461713830032538 0.064313516892650233 0.0072466318343269685 -0.041332469339143293 -0.062508690600514921 0.057170901805589036 -0.0041065461589650659 0.067760809106736944 0.089938985841380881 -0.040108252005585751 -0.052968833634429113 0.05701899335739672 0.08867009760529608 0.053840447807741734 0.074041547692840631 0.023558180749423657 -0.050457542544343259 0.060381806727105317 -0.040904148228748348 0.077557945605017553 0.0036263602172862232 -0.030043123359673119 0.020496476549535136 -0.019077120988613725 0.053819661020818567 -0.043464403636928078 -0.013391400561178525 0.03433653312818391 -0.049048597342382864 0.014025651837363987 -0.064604039154756043 -0.037737989656600225 0.0096410916133805539 0.040998473239415439 0.017381426140244707 0.13284748795199705 -0.042202566275716585 0.0070323951703991361 -0.036280807444178997 0.063647240923808121 0.047168028760009126 0.042991694735726324 -0.0045754470310405962 0.047205636609415659 0.018358036382267615 -0.057026251623119056 -0.0013477879949332283 0.012551270469848441 -0.042986847146300501 -0.040998109553329498 0.086955308671711196 0.0044296054568977727 0.11259657139647 0.0028924098455431996 0.12207194011812775 -0.020717643346709391 0.081984748371132482 0.036886192857375669 0.11872438255191882 0.071888228016719652 0.055839018078828254 -0.0021979097288106035 0.12046206170923204 0.12327144025519483 0.026545025053856065 -0.025418308673489549 0.073022027658732364 -0.012458655222950844 0.025028264626389737 0.058588899838287439 -0.043839322114818266 0.054286782664551218 0.0070118033803721128 0.11888287486205076 0.090134889220991915 0.056914381630779914 0.074793134408275466 -0.0066567883274699568 0.075343099616161438 0.013593998131434621 0.010728820085047705 0.071523761869043162 -0.01743798678399168 -0.015148640367087428 0.07695967599162562 0.069477115227887701 -0.037746781919001562 0.057098770471866567 -0.041408876842207495 0.042106683137201867 0.090071674417454867 0.054453011111063744 0.13402651996844356 -0.031232123683411855 0.0223212441191236 -0.051193765059907997 -0.022822667821421436 0.09976352183711848 0.043366174081577114 0.051266666282627195 0.041442555334701307 -0.039978675654983073 -0.040956027193694539 0.069719824499087729 -0.061768476502528348 -0.0055910006688573016 0.0041190055780438162 0.0074261850492514103 0.0028038741717905887 -0.030922292534533876 0.033821133163268471 -0.05257194373132628 0.038271777874916695 0.023001508371035165 0.049524292268560928 0.099022706203832633 -0.012007421213605256 0.073166053975601955 0.10631358127100564 -0.025459050883365988 -0.051535065514165736 0.020140844282363651 -0.043161838373309731 0.048329472841256466 0.0052690614594188357 0.072739041162085211 0.032934971837642588 -0.062986553056523717 -0.031391880466683966 0.065168140471336664 -0.018719373276649954 0.047593015290767302 -0.045981139763433633 0.020251631249600322 0.0093657215138488875 -0.029179361176039881 0.099059336486452945 0.017919129754483416 0.10960200547573627 0.064312256203617205 -0.043033793383605891 -0.0071890072582717589 0.089459015340662904 0.022166279511460201 -0.046510060103268476 0.052581071253655555 0.023248526946842884 0.027826271498676433 -0.062969012400780122 0.014396068811783123 -0.061286863672048934 0.089006968399504033 0.0028845095143927367 -0.049725797686956529 0.051560076951037294 0.018192333967918316 -0.044264048606721999 0.02113115556155843 -0.011614243192916651 0.059806999172228238 -0.010920001527325075 0.056411016335486022 -0.03955302647553343 0.060553731818984852 -0.027570920752783692 0.048017160023227756 -0.001604799839594378 -0.063944081896643981 -0.051318976304812886 0.090707548706982499 -0.052963071950947883 0.052276241423950057 -0.014284207499159563 0.06824074850827988 -0.017646012893583442 0.017716104808791149 0.040689788031643435 0.0438475187337376 -0.036910114201821213 0.023767224201839254 -0.053384662553199839 0.015872268542484084 0.020143524778237387 0.015099951150525535 -0.062191772366223669 0.010408761325425168 0.066060518374917235 0.053023063482449485 0.0053570910079284544 0.0020696390764250324 -0.043281647349755092 -0.04883071408999199 0.048347750700689807 0.045838457191040204 -0.00085673256485055752 0.019740044527394515 -0.017236236529582543 0.021935015241270839 0.059792617544796582 -0.048274135010002085 -0.035659103972621189 -0.065976328420982375 0.061100408699957268 0.079368226792410734 -0.020895343877550016 0.1090299673532031 0.014820437720269279 -0.032952140510052866 0.01257947037403624 0.097862368295680902 0.095459187529439674 -0.0041737047078576842 -0.052960147875843959 -0.036246329648931312 0.053694962130462445 0.02820588750278373 -0.053200954147235226 0.042823862163928451 0.030950143477844885 -0.040690097740617243 0.064689015975206043 -0.057070972398357234 0.033671541347977486 -0.05214361374845821 -0.051995754385616148 -0.010431971372751475 -0.0019500237094226545 0.005163454646612756 0.011771426403907692 -0.060823436850591633 -0.061955880805285468 0.02451860673232413 0.029889278991625575 -0.061148043944861154 0.014045048269502317 0.036628253517638848 -0.059136244230340321 0.044258143840500697 -0.023472875382958006 0.0065810402084389612 0.0095183740117072858 -0.020228706240078852 -0.016432509516546324 0.070429918989337689 0.097772260782890322 0.030768638257762906 -0.04412464233895317 0.03391323728167598 -0.037731275730446635 -0.072103491648363008 -0.041708528680550194 0.014813842831367311 -0.058854150081100079 -0.038261780259151904 0.051780359819834587 -0.01826762471712266 -0.033816655874513539 0.078289547304830037 -0.037540356324926 -0.054914725589487547 -0.0015090792421946538 0.03101877765831236 -0.072014591620334814 -0.041063122728124297 -0.027778196843846515 -0.019242311035004039 0.013516800627729815 0.0083043278553944534 -0.0016687993798757393 -0.037869630747980776 -0.0041199615233758159 0.014373289811306478 -0.051290483505720401 -0.047932116045136718 -0.025856654602173929 -0.023661479319686526 0.043761329594090376 -0.072077503341483648 0.031881286671407418 -0.061695192142816324 0.0032872127919016006 -0.065284487699423063 -0.029710523402149344 -0.050095814628846685 0.02024904461478487 0.0078909748263453292 -0.029650563873673326 -0.016300846148102913 -0.023359233248709102 -0.061896771521014637 0.0047568497105246162 -0.054889169420359013 -0.048350703268448064 0.038832223460273874 -0.024151528162675396 0.06942056330816139 -0.052191204168387434 -0.046677299298058521 -0.039366248027482315
leaf_weight=5.5879466384649268 8.4044065624475461 6.5275322347879392 6.8751783668994895 30.829973965883251 4.9308890402317074 5.7806862443685523 4.3328471928834897 8.1769200861453992 5.204788625240325 10.730960860848436 10.258676990866659 4.585836485028266 4.3247235417366046 6.6958551257848731 4.3876195996999732 5.1763687729835501 6.8339034020900717 7.1182279735803595 4.7183986902236992 6.2925047576427451 4.5488935708999625 4.7070109844207746 8.0901543945074064 9.3848313838243502 7.5088010877370834 6.711537033319475 7.5482633709907514 4.6084702312946302 4.2736721038818342 5.1723622381687147 6.2175666093826285 4.2902448475360853 7.8184997588396055 6.1015525460243207 4.9708430022001258 5.0658029764890653 8.1686995774507505 9.9585452079773003 9.6387809216976148 5.1391189694404629 4.980774760246276 4.7422795593738556 7.3182512968778592 4.5601019561290732 7.1146725863218334 6.5965734571218553 6.3661505132913607 4.7037989199161512 5.1168639361858359 11.116469487547873 6.2523290663957596 7.6549417227506629 5.9002757221460405 4.5729423612356186 4.8381074517965308 7.590045601129531 8.3285077661275846 4.5417427271604556 4.4016428142786017 5.4802786707878104 6.5521495491266259 6.3064026236534136 4.3733865916728956 8.1083484590053541 5.4718247801065436 10.659693151712416 5.8200353682041159 5.8003294467926008 8.0850477963686007 7.5812290459871354 5.0174086838960674 5.4619412571191797 4.3448254764080039 5.9484649151563618 6.3821492940187463 4.5876764804124832 5.4062682986259381 8.2415264248847944 11.08586721122265 6.9155077487230283 4.7626938968896848 6.9121428877115241 6.3865957856178301 4.3158098310232162 4.9871021062135688 5.2352370172739011 7.1046883463859549 8.0397118031978625 8.0967000126838702 8.2305537462234479 5.2020911872386932 4.3140002191066742 4.5743821114301682 6.0158434212207785 4.7298751771450025 4.7030036598443976 7.05165131390096 4.3328386545181274 4.7324991524219513 5.2122836560010901 4.3479081690311423 4.5310844182968184 6.2477127015590659 5.230509638786315 4.6968015730380994 6.6793054491281527 6.474172428250311 4.9665341973304749 7.2892401963472366 7.1215620189905158 15.395580857992174 4.7790567129850379 8.0474260896444303 6.735821694135665 8.5129839926958102 6.3552186340093604 6.5099634826183337 6.4887068122625342 14.426226407289503 4.2654065787792188 4.7204359173774737 4.3010612577199954 17.22992430627346 4.9501124769449261 8.3504120856523496 5.1545743793249121 7.0931632518768337 11.037025213241579 12.181030362844469 4.3328239470720273 7.4635017067193985 7.0706954300403595 5.5882556587457684 5.8677452951669711 6.0555028468370464 4.5416550636291486 8.0919073373079282 4.3622153699398032 4.3629522919654837 4.7369724810123426 4.9730505496263504 6.059146165847781 6.1222330480813962 5.2219371199607849 9.6215854585170728 5.1751978397369376 4.7019357383251172 4.4874776452779823 5.1464736014604568 5.1592438369989377 4.3048565983772278 4.3182684630155563 5.9773797541856748 4.3075567781925201 4.3799334764480591 8.7998456656932813 5.3353298604488364 4.2742514312267303 4.9228919744491595 4.5202393680810955 12.076835304498671 7.337231144309043 4.512911617755889 5.6121561229228973 85.385498732328415 4.5386200994253185 8.4042576104402524 5.9704380035400382 4.7069066613912574 5.1871429681777981 7.6931484341621417 5.5934868901967985 6.8577090501785278 4.9570815116167051 6.3976540118455887 4.9589583426713943 4.3659440279006976 4.2910480797290802 47.857874229550362 7.757308140397071 5.3187570720911053 7.9179450273513776 6.4512882232666016 5.1351143568754187 10.364040702581411 6.6321756243705732 6.4703253954648972 4.3466087430715561 5.1356309205293647 7.9847613126039532 43.349881514906883 4.262808695435524 6.2050725221633893 7.9874094873666763 7.5857420116662952 5.9724992811679831 4.5071172565221769 5.8043004870414734 6.0286102145910263 14.513312250375753 6.8217955976724571 8.845853462815283 5.2046476453542709 5.2272820323705655 4.7664213478565216 4.6316029280424118 4.5433105975389472 7.5245348662137985 5.2222633361816397 4.367639422416687 5.9035217463970184 11.733722403645514 5.1276268213987368 8.3165291547775322 4.7382474094629279 6.4408004581928253 10.453335031867026 5.6084215790033332 5.3282940983772269 4.7097479850053787 6.1983049809932762 13.200273409485815 4.7078887224197379 12.211113244295122 4.9081147611141196 7.2608308345079413 6.3956511616706839 4.4998349547386169 6.4787631034851065 8.376238152384758 4.8928322196006802 5.1457580327987662 4.8138319998979568 4.2955397218465805 5.1708519458770752 5.4424644708633423 7.660210460424433 4.7086121439933759 7.2114790827035904 6.999222621321679 4.8002583384513855 7.560907423496249 4.3618977516889554 7.6293064057826996 5.2434441745281202 4.3273953050374985 5.3270943313837025 4.2464251518249503 8.7175310999155027 7.6487655937671688 4.9027184247970563 5.145655497908594 11.27076134085655 5.6577708572149277 4.374285876750946 5.4303649365901947 15.573025122284887 4.3005677461624146 5.7538914382457733 23.349663287401203 8.4995324909687024 6.7920455634593955 8.2748938351869548 4.8678901344537717 6.7864463627338454 5.5934924036264411 4.6728885322809219 4.307467445731163 7.0570061206817627 4.2956114262342435 8.7710941880941373 5.7620070278644562 4.5488370656967163 24.697610676288601 5.3520947098731995 10.252667099237451 4.2922438681125623 5.9467697292566291 5.7578490823507336 4.6927034854888898 6.6116233915090561 6.8513046354055387 9.3825439512729627 4.4841603636741629 5.3728532493114463 8.0081053972244245 4.6895805448293686 5.3433871716260901 7.2038048505783072 4.8881702423095694 5.8022205978631973 17.423662006855011 16.799707949161533 4.4907032847404462 7.2558813989162445 9.0364236682653409 7.138734444975853 5.7841811329126358 93.385476291179657
leaf_count=26 39 30 32 145 23 27 20 38 24 50 48 21 20 31 20 24 32 33 22 29 21 22 38 44 35 31 35 21 20 24 29 20 36 28 23 23 38 46 45 24 23 22 34 21 33 31 30 22 24 52 29 35 27 21 22 35 38 21 20 25 30 29 20 37 25 50 27 27 37 35 23 25 20 27 29 21 25 38 51 32 22 32 30 20 23 24 33 37 38 38 24 20 21 28 22 22 33 20 22 24 20 21 29 24 22 31 30 23 34 33 71 22 37 31 39 29 30 30 66 20 22 20 81 23 39 24 33 52 57 20 35 33 26 27 28 21 37 20 20 22 23 28 28 24 45 24 22 21 24 24 20 20 28 20 20 41 25 20 23 21 56 34 21 26 402 21 39 28 22 24 36 26 32 23 30 23 20 20 224 36 25 37 30 24 49 31 30 20 24 37 204 20 29 37 35 28 21 27 28 68 32 42 24 24 22 21 21 35 24 20 27 55 24 39 22 30 49 26 25 22 29 62 22 57 23 34 30 21 30 39 23 24 22 20 24 25 36 22 34 33 22 35 20 35 24 20 25 20 41 36 23 24 53 26 20 25 73 20 27 110 40 32 39 23 32 26 22 20 33 20 41 27 21 116 25 48 20 28 27 22 31 32 44 21 25 37 22 25 34 23 27 82 79 21 34 41 33 27 440
internal_value=0 0.482988 -0.287917 -0.168577 0.649835 -0.422466 0.710501 0.007502 0.751028 0.354029 0.151899 -0.238593 -0.339159 -0.0668329 0.116321 -0.0916395 0.0517353 0.168225 -0.129195 0.341184 0.236471 -0.478123 -0.597647 -0.361932 0.430111 0.818957 0.570717 0.164918 0.0339925 0.482021 -0.19057 0.663741 0.898394 0.570744 0.782961 1.3956 0.00136788 0.362493 -0.117115 0.315949 -0.0959919 0.0929384 -0.163597 -0.201973 -0.224303 -0.0923904 -0.375374 0.14474 0.292625 -0.356689 1.10023 0.973727 0.856725 1.14262 1.17158 0.630778 0.730175 1.26925 1.19839 0.510298 0.186016 1.42177 0.999902 1.70877 1.40815 0.0658162 0.42607 -0.145247 0.624201 0.805238 0.401015 0.0775556 1.22392 1.45455 1.075 1.93523 0.118653 0.602769 0.748984 0.255617 0.448936 0.239279 0.117922 -0.355887 0.132076 0.372288 0.343263 0.149659 0.371963 0.0753405 1.04299 0.230905 1.86075 0.228097 0.357226 0.112015 0.521971 1.18692 0.0751737 0.191138 -0.0830203 -0.0721858 0.12786 0.279679 0.0889328 0.29114 0.0394333 0.904842 -0.449984 0.106872 0.300923 -0.144402 0.0254942 -0.315417 1.12995 1.26072 0.979618 0.659847 1.70477 -0.447571 -0.395699 -0.507443 -0.265932 -0.271813 0.12965 0.620419 -0.34844 -0.426935 -0.336173 -0.457783 0.241855 0.410614 -0.505746 0.693448 0.514882 0.605095 0.847537 1.41278 0.899474 1.22112 -0.175592 1.02153 0.712371 1.16966 -0.377651 -0.126442 -0.50777 -0.212697 0.00873716 0.34994 -0.316097 0.967825 -0.551655 -0.214179 0.271191 0.170983 -0.107637 -0.39574 0.158632 -0.157712 0.166852 0.462862 0.13844 0.536611 -0.626554 -0.645833 -0.187518 -0.54994 0.269757 0.14204 0.274099 0.753997 0.312339 -0.0784922 0.396983 -0.505211 1.28399 0.185962 -0.579518 -0.198628 -0.01551 0.250409 -0.112896 -0.352301 -0.27048 0.282319 0.757818 1.73692 -0.545588 0.602156 -0.6283 -0.487758 0.17548 0.434671 0.444542 -0.355903 -0.44944 -0.283359 0.536803 -0.601752 -0.183654 -0.679667 0.590254 1.05092 0.630965 1.51738 -0.423958 -0.15836 0.917513 1.30494 1.35559 -0.390457 -0.350257 -0.276341 0.201793 -0.155408 -0.347882 -0.0500691 -0.264747 -0.457349 -0.365755 -0.753624 -0.172116 -0.268098 0.0815592 0.388054 -0.697814 0.793029 -0.402394 -0.599965 -0.52129 -0.260397 0.0242839 -0.546719 0.838651 0.151287 -0.598422 -0.377896 0.0656376 -0.642423 -0.427426 0.579127 0.31987 0.77666 0.93813 1.34954 -0.306651 -0.653579 -0.285273 -0.736013 -0.248808 -0.234213 -0.804319 -0.209401 0.398179 0.137038 -0.928551 0.984271 -0.262592 -0.656785 -0.617722 -0.362615 -0.564312 -0.748843 -1.04164 -0.965473 -0.286619 0.752763 -0.433107 0.179303 -0.411012 -0.158793 -0.482549 -0.58661 -0.714497 -0.481179 0.102541 -0.828697 -0.301248 -0.0987164 -0.473772 -0.918165 -0.607461 -0.707551 -0.230377 -0.188138 -0.0633244 -0.954476 -0.925365 -0.647657 -0.361293 -0.790478 -0.628373 -0.277861 -0.00145852 1.065 -0.68059 -0.458539 -0.67465
internal_weight=0 831.783 1398.91 741.351 553.072 657.557 496.602 364.797 473.42 69.1699 278.712 58.4921 376.553 315.39 56.4695 308.695 69.0714 62.2375 294.074 33.9419 63.9651 588.485 290.082 298.403 12.2158 404.25 98.0005 33.6547 55.1192 49.4069 260.132 14.6205 306.25 57.2495 64.3458 14.6243 52.0819 45.2444 23.1823 13.5435 49.3385 9.03252 253.915 238.609 234.049 147.124 67.077 80.0472 61.8161 18.2311 10.9561 249 156.469 69.0718 92.5311 87.3973 79.8073 84.8761 80.038 21.1542 15.6739 47.9176 19.4007 28.5169 20.4085 27.6494 16.9897 43.6559 71.4788 50.4068 25.6463 18.0651 24.7605 20.4157 14.4672 9.65348 50.8599 49.7214 41.4799 220.219 85.8615 74.7596 67.8475 21.8677 134.358 61.7453 45.9797 36.015 28.9103 20.8706 9.96479 10.7006 11.1019 45.7431 39.7272 30.6645 17.1904 9.06271 11.7842 21.072 15.8597 72.6126 45.2184 38.9707 43.931 31.9449 22.6537 9.29126 11.986 33.7402 26.6186 30.2933 25.5142 17.4668 75.6364 59.1756 36.2364 16.4608 22.9392 86.9246 332.622 174.881 58.3265 157.742 25.2824 13.505 132.459 115.308 98.6778 79.5925 11.7963 12.871 81.7483 38.4806 30.3037 31.7682 22.4127 12.4541 19.4629 13.4074 10.8408 28.4892 17.4033 11.3442 30.7849 21.1633 15.9881 44.3578 29.3937 18.2698 8.79233 9.47751 11.1239 11.2231 10.8899 19.0853 14.1352 286.187 43.9132 21.528 16.5971 22.3852 15.048 10.535 281.992 275.117 18.9133 14.3747 56.7582 46.3521 41.6452 17.6383 12.4512 24.0068 11.3547 12.6521 25.3465 8.55645 67.7962 19.9383 41.0966 24.0441 11.1697 253.789 178.308 22.4873 13.1025 8.72 75.4803 22.1831 116.554 73.2045 10.4679 15.3057 13.0477 53.9063 47.9338 37.6751 10.5357 27.1394 12.6261 256.204 11.6788 18.9913 9.9937 8.99755 12.64 15.4425 14.1984 8.97611 12.0051 17.0525 155.821 125.289 16.3067 11.5684 108.983 29.2918 23.6834 79.6908 69.2374 23.0557 46.1817 41.4738 22.8671 17.959 18.6068 10.6981 27.3942 20.9154 18.3551 13.4623 9.35549 10.9748 10.4061 12.9907 62.7366 31.9066 11.9201 19.9865 11.5118 33.6718 19.5521 11.9912 14.1197 9.57084 12.3263 30.5318 12.964 32.3988 9.17697 9.8554 23.4211 13.4763 10.6807 9.97211 23.2218 8.60163 10.9263 247.358 218.665 39.8937 33.1017 24.6021 15.0613 16.6305 9.54078 9.04444 11.7774 17.1508 13.4741 10.0576 9.12178 73.1918 50.5414 25.8438 9.64434 16.1994 22.6504 17.0622 11.3043 11.1671 70.3451 55.5897 14.7554 12.5392 9.39152 28.6931 17.5678 14.9641 10.0759 50.4541 33.0305 16.2307 11.7466 14.5082 11.4716 12.1503 178.771
internal_count=10386 3838 6548 3463 2544 3085 2282 1701 2174 319 1294 273 1762 1472 262 1441 322 290 1373 158 295 2763 1365 1398 57 1855 451 155 257 229 1215 68 1404 263 296 67 242 208 108 63 230 42 1186 1115 1094 687 314 373 288 85 51 1141 717 316 424 401 366 389 367 97 72 219 89 130 93 129 79 204 328 231 118 83 113 93 66 44 237 229 191 1021 398 347 315 102 623 287 213 167 134 97 46 50 51 213 185 143 80 42 55 97 73 336 209 180 204 148 105 43 56 156 123 140 118 81 347 271 166 76 105 407 1558 821 273 737 118 63 619 539 461 372 55 60 383 178 140 146 103 57 90 62 50 131 80 52 144 99 75 207 137 85 41 44 52 52 50 89 66 1341 204 100 77 104 70 49 1327 1295 88 67 264 216 194 82 58 112 53 59 116 40 317 93 192 112 52 1189 835 105 61 40 354 102 548 344 49 71 60 252 224 176 49 127 59 1207 54 87 46 41 59 72 65 41 55 80 730 586 76 54 510 137 111 373 324 108 216 194 107 84 87 50 127 97 86 63 43 51 48 60 295 150 56 94 53 155 90 55 65 44 58 144 61 152 43 46 110 62 49 46 109 40 51 1165 1030 188 156 116 71 78 45 42 55 80 63 47 42 343 237 121 45 76 106 80 53 52 330 261 69 58 44 135 83 70 47 237 155 76 55 66 53 57 842
shrinkage=0.05


Tree=2
num_leaves=300
num_cat=0
split_feature=8 18 4 3 8 18 14 14 8 24 15 12 18 15 4 4 7 26 0 3 4 1 15 1 7 18 14 0 15 1 19 15 0 21 14 7 3 7 12 7 0 24 7 0 12 3 7 0 18 7 0 12 12 3 4 14 14 3 0 3 15 14 24 0 14 14 4 14 0 12 8 14 4 24 12 0 4 4 3 19 14 7 15 1 12 24 24 24 21 15 12 12 1 1 3 15 19 7 4 14 4 1 0 3 12 14 12 18 3 14 0 4 15 8 0 1 3 14 14 3 21 8 4 12 1 0 14 15 8 4 14 0 3 15 0 0 15 15 24 12 14 1 4 24 19 15 14 14 12 4 4 15 12 4 0 3 0 24 0 14 12 12 1 7 8 3 3 12 4 15 0 7 4 24 21 7 15 14 14 7 12 24 3 3 8 1 14 18 12 7 24 7 7 19 14 1 4 3 4 15 4 0 8 8 3 15 12 7 7 24 18 8 24 7 3 24 3 15 14 8 3 12 14 3 3 15 7 0 15 24 12 4 12 12 0 1 3 1 7 15 14 0 0 12 19 14 14 7 21 14 3 14 4 14 12 4 15 7 24 21 15 18 0 12 0 12 12 3 14 0 12 3 19 4 19 7 0 0 7 12 3 19 7 7 15 7 15 24 7 12 12 12 4 12 15 8 15 0 3
split_gain=224.171 65.045 47.2059 27.1918 22.3829 13.47 12.8592 11.7764 11.2503 11.0259 10.649 10.4574 9.64109 10.197 8.9893 8.85056 8.50169 8.30917 7.88922 11.0492 13.5875 11.3087 7.80093 7.72273 8.79944 7.14219 7.10001 9.48257 6.95155 8.70958 9.68785 7.33872 6.89793 6.88098 6.75125 7.98335 6.96342 7.65796 6.64618 6.9727 6.46574 9.89367 8.0697 7.07165 6.81382 6.65983 6.46073 6.19952 6.10358 5.97934 6.77152 6.69443 6.31651 6.57446 6.5058 6.42036 5.91776 5.70929 16.0575 5.62602 9.15353 5.47406 5.46589 5.36427 5.6443 5.29546 5.14185 6.10098 8.12335 6.51032 7.59243 5.41337 5.25561 7.93501 5.04845 5.81582 5.0403 5.30203 4.96534 5.48216 9.12108 13.2989 4.90982 8.06383 4.9042 5.76335 5.0145 4.90695 4.81873 4.78558 4.7615 6.73228 4.75533 6.90024 4.72285 4.68277 6.69162 6.34343 6.25911 6.88505 5.15195 7.45859 5.09157 4.6575 5.65335 4.65332 4.53404 6.61445 5.05692 4.53035 4.50038 4.49089 4.4676 6.32045 5.84973 7.25961 8.21531 7.50072 4.43775 4.32064 7.05331 8.76998 4.39047 5.48518 5.30913 5.11462 4.98096 8.37477 7.6432 5.51068 6.04195 4.62212 4.36054 4.29351 4.24036 4.19112 4.14302 4.1387 5.67854 4.0837 3.9972 5.08226 3.99058 4.28887 4.42457 5.31053 4.5276 7.62714 6.80574 3.97411 3.96738 3.92953 3.88795 5.5372 4.24666 5.30753 4.16915 7.26814 6.88543 4.46227 4.29871 4.21882 8.56244 5.35979 5.94565 4.03871 3.87919 7.09735 5.64869 5.15115 6.55139 5.16722 4.31794 3.75362 3.73944 3.7235 3.7207 3.70844 3.69139 3.69065 3.65584 5.20581 4.15946 4.20644 3.63875 3.63583 4.00891 3.61292 4.80349 4.24201 16.9485 5.11784 7.1481 5.82264 8.81249 10.2801 5.18221 4.68235 4.13503 4.46366 3.82358 3.75814 6.20095 3.59977 5.51876 3.58852 3.55413 3.51756 3.50225 8.33341 10.1263 6.50508 5.88245 3.41608 5.97588 6.57496 7.98324 4.64998 4.465 4.30413 4.15682 3.78383 3.40381 3.3972 5.30095 4.25165 5.52872 8.55802 4.5615 6.58392 3.4796 3.39255 5.90905 3.39234 3.29386 3.22116 3.22003 3.94984 6.32996 8.22011 4.49339 5.15508 3.15712 3.13186 3.1293 3.0529 3.0287 3.01653 3.00211 2.98903 9.35967 3.7232 6.10304 2.9712 2.92213 7.00068 2.91734 3.24017 2.84629 2.80036 2.79941 4.69649 2.78797 2.78409 3.32776 3.20865 2.76708 2.71908 2.69506 2.69343 5.8304 2.67756 3.21683 2.64615 6.02499 6.84432 4.8825 4.83336 4.41209 5.56702 4.00584 8.47025 6.03527 4.91477 4.43923 2.70237 2.5941 2.71906 2.58849 4.52938 3.0319 2.58649 2.57065 5.27353 2.57974 2.55115 2.53958 2.53694 2.47826
threshold=37.779629480000004 13.504066935000003 10.721245775000002 4.0476839185000015 12.384763750000003 105.48399970000001 12.082857000000002 11.769994125000002 95.508209275000013 36.755539285000005 -4.2456250389999992 471.20700000000005 127.64659740000002 -1.6709736394999999 16.568407925000002 12.245033355000002 2.5160718750000006 1.0000000180025095e-35 417.15233255000004 10.562058970000001 6.6987343475000012 7.1992508970000015 -1.9174326229999998 7.0113261315000006 2.1554830310000006 13.504066935000003 8.5549629630000013 86.115141795000014 0.32060185150000003 3.6917239065000005 32.570060120000008 -0.68052555749999988 43.107789145000005 18.093293740000004 9.9443711025000017 3.7038894940000007 4.2664700395000006 1.2220477520000002 393.65200000000004 5.5774239175000009 913.46530325000015 33.671890695000009 3.0751164120000003 1070.2835030000003 550.41200000000015 13.57837209 0.17780002050000002 86.926318775000013 17.825990970000003 0.86757879950000005 348.35074015000004 186.10600000000002 160.57550000000001 3.2889971695000004 2.8462575330000006 10.624369365000002 9.1222685185000021 27.882379335000003 2159.5314155000005 8.9216758525000017 -5.3954431089999995 10.363107210000001 18.119229305000005 221.76549000000003 10.93691246 11.098239730000001 2.6033214675000003 9.6250810185000031 112.8064624 122.06100000000002 12.005782960000001 9.2442361115000029 2.4793981160000005 9.5602372530000022 110.07350000000001 82.607762615000013 1.9887219380000001 1.6372741320000002 2.8179483690000002 12.137560660000002 9.0914358680000031 0.75403655250000012 -4.6684907119999997 20.493072765000004 303.58650000000006 31.683575605000005 27.032619990000004 18.392619755000002 5.4750961990000011 -5.5861801759999992 164.07800000000003 148.07900000000004 7.5281628840000012 8.3256985030000017 4.7897561250000011 -0.98699074049999991 23.786685290000005 0.84873345450000015 2.5127744570000003 9.9246689225000022 1.3397687980000004 3.7901148180000006 130.71367205000004 5.398626525000001 216.10600000000002 8.9086346135000021 191.52700000000002 7.709229725000001 5.0803654300000014 12.621609750000003 436.49231330000003 2.8165114270000005 -5.5919742499999989 94.654158850000016 1121.1768360000003 16.050690635000002 14.736052880000001 12.653987580000001 12.642902230000002 3.2543645390000004 5.5682780110000012 28.046522945000003 2.1515436340000007 151.79450000000003 5.0555836615000009 195.39896285000003 10.246692335000001 -1.3640647374999999 11.933735220000001 1.9335523805000003 9.9972582440000028 126.26273585000003 3.4740305195000007 -0.73882386399999989 1166.5449660000002 97.910850845000013 -5.4736773079999992 -5.285282840999999 31.683575605000005 184.08250000000001 10.372146090000003 7.5088758670000013 9.4547210560000021 11.288337650000001 5.9921365575000012 -0.36842592599999996 11.637408985000002 10.747222225000002 272.19450000000006 1.1292100270000003 3.0860215645000006 -1.3433278139999998 272.19450000000006 3.3018341010000003 281.45698810000005 5.8324299540000011 758.2139165000001 22.943290965000006 377.61083285000001 11.537852900000003 335.66800000000006 398.58400000000006 11.033490785000001 2.0585048685000005 45.006015260000005 8.569146378500001 4.6091746140000014 200.08150000000003 3.4560054320000004 -0.93357773349999984 587.26886905000003 1.5264656405000003 3.5117701160000006 48.730146160000011 12.162857720000002 1.1216234360000004 -0.91120849449999997 12.377522515000001 10.036272900000002 2.6492716295000007 168.10900000000001 4.6509556195000004 3.8739203610000001 3.1365000745000002 66.460994685000017 4.6041158820000012 10.372146090000003 13.921300350000001 122.52350000000001 0.40415646550000006 13.817966720000003 0.51601300950000006 0.82477721800000003 22.603921890000002 11.250470350000002 12.114445410000002 7.2369253370000006 3.1695323740000005 6.0606400930000008 -5.0664403684999995 5.2731434335000005 195.39896285000003 29.929630130000003 82.689763505000016 9.6586944665000019 -0.91120849449999997 172.10100000000003 6.6242533375000008 2.2622375850000007 14.281590540000002 5.829524343000001 29.927697025000004 10.399209240000001 1.0000000180025095e-35 2.0689323815000003 4.7607000690000012 0.72432818700000012 0.21342722500000003 8.5549629630000013 6.0589304680000007 1.0000000180025095e-35 96.086500000000015 11.307504905 9.1635751415000026 8.8089515705000014 -0.14564814799999998 2.2940123680000002 556.14375030000008 -0.50194907399999988 4.7607000690000012 290.20250000000004 2.6463535250000008 126.08250000000001 196.11900000000003 540.19292660000008 8.3600256185000017 2.9113965285000005 4.1086602365000013 0.27670332400000003 -0.93106056349999988 9.3238194445000016 130.71367205000004 1240.0260590000003 448.24250000000001 5.9921365575000012 10.433402780000002 10.143835485000002 1.0302507105000001 29.748333230000004 9.4469675925000018 1.2259522815000004 9.6045704860000018 1.0116183175000002 9.575231481500003 93.043500000000009 0.94338874400000006 -1.6296412069999999 0.99581303650000008 4.7607000690000012 6.338295403500001 -1.1391683199999998 11.938452410000002 269.58974190000009 28.012000000000004 2.3774437510000004 94.509500000000017 176.08350000000004 2.7256964780000001 10.302920370000002 201.88985680000002 185.56100000000004 9.7663008415000014 18.213580760000003 16.264367705000002 50.756026985000005 5.3894430935000006 1728.4898005000002 1846.1565235000003 5.5774239175000009 885.35500000000013 21.539686890000002 18.319493105000003 4.5458685440000011 4.5458685440000011 -5.5757426329999991 4.4024080800000016 -4.7843758094999993 13.854495515000002 0.5751010405000001 120.08900000000001 102.07400000000001 482.19200000000006 1.8142710850000003 125.08350000000002 -1.1755136584999997 12.384763750000003 -4.7393402449999993 237.17866075000003 1.9243738715000001
decision_type=2 2 2 2 2 2 2 2 2 2 2 2 2 2 2 2 2 2 2 2 2 2 2 2 2 2 2 2 2 2 2 2 2 2 2 2 2 2 2 2 2 2 2 2 2 2 2 2 2 2 2 2 2 2 2 2 2 2 2 2 2 2 2 2 2 2 2 2 2 2 2 2 2 2 2 2 2 2 2 2 2 2 2 2 2 2 2 2 2 2 2 2 2 2 2 2 2 2 2 2 2 2 2 2 2 2 2 2 2 2 2 2 2 2 2 2 2 2 2 2 2 2 2 2 2 2 2 2 2 2 2 2 2 2 2 2 2 2 2 2 2 2 2 2 2 2 2 2 2 2 2 2 2 2 2 2 2 2 2 2 2 2 2 2 2 2 2 2 2 2 2 2 2 2 2 2 2 2 2 2 2 2 2 2 2 2 2 2 2 2 2 2 2 2 2 2 2 2 2 2 2 2 2 2 2 2 2 2 2 2 2 2 2 2 2 2 2 2 2 2 2 2 2 2 2 2 2 2 2 2 2 2 2 2 2 2 2 2 2 2 2 2 2 2 2 2 2 2 2 2 2 2 2 2 2 2 2 2 2 2 2 2 2 2 2 2 2 2 2 2 2 2 2 2 2 2 2 2 2 2 2 2 2 2 2 2 2 2 2 2 2 2 2 2 2 2 2 2 2
left_child=1 3 6 17 11 26 7 12 57 -10 222 22 13 34 15 173 203 28 23 20 21 -20 -5 106 140 61 -3 32 29 46 31 47 56 -17 -2 36 -36 63 88 -40 59 43 -43 -42 48 -46 213 -31 134 50 51 95 176 -54 55 256 -28 58 82 -18 109 184 -12 -38 175 -14 67 71 -69 -70 -71 105 73 185 75 -48 77 263 288 80 81 -80 83 248 -9 86 87 -86 92 -39 91 -68 94 -94 139 96 97 98 99 100 101 102 149 104 -23 -49 107 -6 -108 -61 -105 -90 113 -44 -114 -116 118 -118 242 122 121 -121 123 125 -125 126 127 295 -129 130 -130 -128 -122 231 -45 -29 -91 -138 150 -24 141 -25 143 144 145 -95 147 148 268 249 -139 -107 153 -152 155 -155 157 158 -154 165 -159 162 163 296 -165 -158 172 168 -168 170 171 -169 -113 -11 -63 -65 -51 -50 -150 -67 182 -182 183 259 234 -72 -187 201 205 190 197 -191 269 196 200 -196 198 -190 199 -194 -195 -137 -203 204 -8 -189 246 -59 209 210 -112 212 -210 214 215 216 217 220 -217 -220 -1 -215 -7 224 225 228 227 235 229 -171 -231 232 236 -141 -15 -227 237 238 240 -240 -97 253 -117 -62 -96 -124 -100 258 -4 -19 -251 252 -252 -242 255 -255 -55 -258 -81 -82 261 -248 -83 -30 -265 -266 -57 -239 -146 -193 -271 -225 -273 274 276 277 -85 -276 279 280 281 -278 285 -282 -284 -283 -156 -288 290 -290 -33 -87 294 -294 -102 -101 -160 -127 -256
right_child=2 5 8 4 18 10 16 84 9 14 62 -13 65 25 -16 33 40 49 19 -21 -22 103 38 24 -26 -27 27 135 76 30 -32 78 -34 -35 35 -37 37 89 39 -41 41 42 112 44 45 -47 74 66 177 52 -52 -53 53 54 -56 266 -58 207 -60 60 243 174 -64 64 -66 179 90 68 69 70 72 -73 -74 -75 -76 -77 -78 -79 79 247 180 262 -84 273 85 291 -88 -89 111 136 -92 -93 93 142 244 133 -98 -99 206 119 292 -103 -104 110 -106 151 108 -109 -110 -111 208 166 114 -115 115 116 117 -119 -120 120 132 -123 245 124 -126 297 131 128 129 -131 -132 -133 -134 -135 -136 187 137 138 -140 233 -142 -143 -144 -145 146 -147 -148 -149 178 -151 152 -153 156 154 286 -157 159 160 161 -161 -162 -163 -164 164 -166 -167 167 169 -170 223 -172 -173 -174 -175 -176 -177 -178 -179 -180 -181 181 -183 -184 -185 -186 186 -188 188 189 191 -192 192 193 194 195 -197 -198 -199 -200 -201 -202 202 -204 -205 -206 -207 -208 -209 211 -211 -212 -213 -214 221 -216 218 -218 -219 219 -221 -222 -223 -224 271 -226 226 -228 -229 -230 230 -232 -233 -234 -235 -236 -237 -238 267 239 -241 241 -243 -244 -245 -246 -247 260 -249 -250 250 251 -253 -254 254 298 -257 257 -259 -260 -261 -262 -263 -264 264 265 -267 -268 -269 -270 270 -272 272 -274 -275 275 -277 278 -279 -280 -281 283 282 284 -285 -286 -287 287 -289 289 -291 -292 -293 293 -295 -296 -297 -298 -299 -300
leaf_value=0.00052656825509993547 0.087069009205873349 0.055477243227963761 0.068071081765038968 0.042850969636906988 -0.049649222021450536 -0.0094542315738216434 0.0047619006100419132 0.029330547443481254 -0.042389721704690901 0.022127511142311387 0.054863529619422417 -0.044091952750692887 0.033231126426937423 0.017730127993746649 0.096920206993412736 0.049065367652522937 0.054149709196273092 -0.054346128028123213 0.094429434723238503 -0.028342327880746095 0.10045618436849153 0.023372601333998003 0.024145252721726778 -0.019657651543727284 0.052691290420504903 0.054385920592016058 -0.017447677843527014 0.057697272230096991 -0.00028226826332250986 0.045919255493235375 0.054997279148928317 -0.026233730863865479 -0.029573389540840395 -0.027321389715895018 -0.00411001949356483 -0.018969611883695822 0.01480965556931322 0.07942204719133894 0.072420282910952566 -0.015191035251206013 0.098171178272899243 0.064334651214651414 -0.0046640738114630846 -0.030575664791504337 0.033287231162784009 0.10858211956144692 0.0060129740098183032 0.036165790443897415 0.06589265570967863 -0.05586205061000149 0.030039344202975 -0.071433986411635592 0.014625262394396103 -0.071692928144464665 -0.066535860548200362 -0.012181734083256984 0.058258508070971743 -0.071882292076587695 0.051155698079005191 -0.0010419054936376454 -0.0063726080671572738 0.0023848772149018919 0.12538350905458054 0.088972813428947417 0.033170163081678354 0.1187221328455037 -0.04122422236303476 -0.072007387482945259 0.050703346643666262 -0.04481593052045834 0.052710219241312806 0.068194081559150937 0.040284377941015442 -0.043231060066690363 -0.014110862444584657 0.080074242457172845 -0.056928089995580217 0.014627419129856545 0.088228712523780325 -0.056900798721014216 -0.036718261225465662 -0.031985547905413213 -0.049200514785856415 -0.041877029948349354 0.10209595022041539 0.065231459105453735 0.13462466907598633 0.045257162753523761 0.021466203685972067 0.0026573986895150488 -0.039676124483817118 0.040076541263365253 0.056359479027217656 0.00041000250015977137 -0.016134872778586037 0.01347604496629305 -0.064433536295853161 0.0318599894807962 -0.053629074331170395 -0.071225657526467326 -0.064035435145632688 0.03697191379720962 0.025595295265643914 0.071431617607153761 -0.046875878310964215 -0.036913840764230217 0.064589304127350047 0.027435177126789636 0.0057552016652907276 0.063327417329491403 0.053996997107182913 -0.048963531158610789 -0.051339257333880131 0.076715429892918185 0.067416894554275769 -0.033265584392777839 -0.009684548743733477 0.067359355921377803 -0.063252013788179226 -0.050535149618646913 0.076772171629746519 0.035228798585761563 -0.041990042031131714 0.061302972988337381 -0.010148627417480745 0.048103403081391119 -0.0027521488325636129 -0.043017345839670471 0.012576153584593911 -0.017859610771397222 0.077393170337587941 -0.051491446072807007 0.015207833036801947 -0.0046166230443020154 0.033487749299506535 -0.0024355138680275325 0.073800497280071861 -0.0047785859990896497 -0.014474305301622815 -0.059573693124426744 -0.028228915558060542 0.047266119667454622 0.045605498894391527 0.042875133383783764 -0.052086987109639687 -0.071785970955512771 -0.040075825883582848 0.047611663040298513 -0.013685533042445972 0.0087201116442007318 0.011904829157162195 0.021737894594570512 0.063732700600216019 0.059364301335245208 0.045177281112130596 -0.0053008551834864519 0.06075501787107615 0.024456723863614586 0.012325538646770221 0.084102295337291022 0.086579445713123301 0.050322022981876248 -0.063352965685240556 -0.010108387542299341 0.056933035671644351 0.00050741024895400034 -0.015349950661559404 0.018649101994157757 0.056034971118939306 0.020893052840445046 0.039954810744757194 -0.049107769834240152 -0.0016075358569782293 0.079360782431398255 -0.039245136959933119 0.038276938030832021 -0.013462066173238071 0.018429738277270315 0.047584075981350962 0.058957684139811263 0.03533813065501637 -0.037425162096589408 0.012731864728280314 -0.049197700996039116 -0.0043523941821768672 -0.038047590062531972 0.027952075978085994 -0.060164013216237849 0.044139937506338142 -0.027081411730524405 -0.019154717043038075 0.059921430348948201 0.046119498251957089 0.029485307540024649 0.11236599948109345 0.010198878911914261 0.040438678922644543 0.11275563902623338 -0.050914278372435666 -0.0049088612043793603 -0.034455585108132077 0.07226385868633893 0.0091858921967756923 0.02207291204089883 -0.057403898724484349 0.0013603540969826845 -0.070857821521690276 -0.014967528844704012 0.064248394983716095 0.083124352355129855 -0.027729726543493878 -0.036767612364214157 -0.015244179246975565 -0.061968230627167067 0.05243554708839409 -0.021941471502372013 -0.043308278912893718 -0.024795007690688289 0.061048588683763554 0.0067690415720727181 0.064322048102052928 -0.0053848563786816333 0.046326113414333063 -0.065382859607082053 0.022097930658620955 0.0089178798373049286 -0.039195050833203515 0.051840351292405273 -0.052663659244648137 -0.059314008568724513 -0.0036380140260776741 0.0052108499551658917 -0.051053718135038922 -0.0030685084780506422 0.078377975613707199 -0.051042870837007176 0.010691554961857096 -0.071391068526492352 -0.030274183222021606 0.064031007576922191 -0.058331761848112597 0.014748025758897091 0.024233197379751669 -0.052480952000581671 -0.072001305568347135 -0.0045983172908592336 0.03171478568808387 -0.0074702594714866804 0.014796526879004316 0.044253605485260569 0.016688624773760506 -0.050323609996078544 -0.05992068450790581 -0.047987969506576716 -0.015222701931410426 0.029288699492222233 -0.042800966130874071 -0.0029627999296767109 -0.0148649519629392 0.02057740342145847 -0.044369347638780622 -0.038017663779454286 0.016286068925085162 -0.06540441720265204 -0.015093016974749521 -0.061785127486649577 0.044977521202840848 -0.029125639160335972 -0.0024808241087432964 -0.012390714539347251 0.060466875899601306 0.0056276007825315543 -0.047068108943362746 -0.033741414178900725 0.028051604900319101 0.055975577439680013 -0.037461739067009475 -0.041962763045900749 -0.041248074137503976 0.052945689693639511 -0.063241292635909621 0.024913588626721543 -0.035944578697192135 -0.0083991138455676399 0.024686012315660338 0.075407095109399247 0.093986896339195825 0.048142241412893763 0.013073191365428147 -0.053451572522171045 -0.067704094258912093 0.014955626245284116 0.02259798162744877 -0.049002786256054948 -0.028313884484711623 -0.023272772837565004 -0.036076745182265328 0.0015029054166173605 -0.060590275087736581
leaf_weight=6.17937980592251 6.7444917261600486 8.1036088913679105 4.5801812112331373 6.8997180610895148 4.4566550999879855 6.1587192565202731 8.2718601077795046 7.7087157517671576 4.7877739965915671 4.6450417041778618 6.5816701501607877 24.013694822788239 5.5408551543951061 4.3684224635362607 5.5294368267059317 4.4345403462648383 5.0566350221633938 11.418886825442312 5.0410354584455481 9.1350950896739942 6.2524435818195334 5.6617884635925275 7.2491324841976228 7.5204234123229963 4.7619481384754172 8.5522613078355771 5.3912262469530088 4.9665695428848258 6.2174972146749488 5.0132134556770316 4.7033782452344886 6.5607116371393266 25.631770268082619 8.7958842515945417 9.350454241037367 6.3477301299571982 5.6561343073844901 5.8057091236114493 4.7914422154426557 4.3173096626996994 6.3756763041019431 7.9212985187768927 4.348018139600752 5.8471969068050402 5.5420336425304395 6.2473032772541046 4.4708365499973279 7.7737784534692826 9.9511324465274829 35.418359071016312 6.3664602488279334 6.7162167131900778 9.2699738293886167 4.2167487591505006 10.275134548544882 4.2081560492515546 4.9524886906147003 4.4352750033140165 13.647882372140883 5.4728520065546071 7.4140256494283641 20.315304726362232 4.7170309126377106 20.071382775902752 8.8166544139385206 6.1336677670478803 4.873911112546919 5.2971647530794135 4.4697775393724433 12.906587362289427 4.3517668545246186 4.2665775567293158 6.6382905840873709 10.252533018589018 4.2766290158033362 6.5112627595663071 13.499499037861822 8.0669210255146009 4.9600086808204678 17.035746946930892 4.2425211071968096 6.3112417906522733 6.2579417824745169 11.354166269302366 8.1933769732713753 6.0360033959150297 4.7400062978267661 7.0769959390163413 6.883653685450553 10.356386154890059 23.40415458381176 5.3319189250469208 5.8013668805360785 4.7528090476989746 4.4593577682971937 5.279743328690528 7.3207946866750708 6.7541650384664527 8.3994714766740852 4.1816006302833477 13.624765127897261 5.9533916413784018 5.1094111353158942 4.4381501078605643 5.7957485467195511 7.1720378100872075 8.6874965727329236 7.4100986570119858 6.3015413582324973 5.4610184729099274 7.4246060550212878 19.64826408028603 4.5482545495033255 5.2872612029314041 4.5953357666730907 4.9834441244602221 6.2795543670654279 6.357406809926033 5.159923627972602 7.1464686244726199 4.6899822354316694 5.1136714965105057 16.712235748767856 5.5879092514514905 4.8617459684610367 4.535018563270568 7.213022172451022 5.2565770894289114 8.2724456787109393 5.5258955061435691 6.3590997010469428 14.938749417662619 7.4372291564941406 16.421826869249344 4.6269175857305527 6.3177902251482037 6.6951535642147055 5.731395795941352 5.8900768458843222 4.1991291344165784 31.623647525906563 4.5551344454288483 4.2471016496419898 4.3117797076702109 7.600353151559835 5.4885919094085676 6.1834155917167655 8.3294349014759046 4.2619855254888517 6.7981974482536307 8.1232037842273694 4.7451561689376778 5.7622657716274253 8.5127500593662244 7.0835231989622107 5.0588763803243628 5.845264285802843 5.0582181066274625 4.6121569722890854 6.540656939148902 6.1954656094312668 4.4057113379240027 4.7884100079536429 5.4688776582479468 8.3665962666273099 5.3072905391454697 5.2960593998432142 4.925850450992586 5.8129730224609375 6.9945709705352739 7.5283793210983267 6.5624035000801086 6.3754625916481009 7.4748660176992416 7.3444362580776206 4.4194941520690909 6.0592389553785315 7.01791027188301 5.8089569211006165 4.4626318663358688 5.5589997768402082 4.406722754240036 4.6962306648492804 22.310988634824753 5.0224279612302771 4.2972187101840955 4.9524815529584885 4.2369273155927658 5.1387466788291949 9.8619433343410474 8.3820279240608198 8.2430623620748538 4.5832604616880408 4.3584902137517947 5.0798848718404752 4.7779656946659088 6.9925008565187445 4.816929891705513 4.5222239494323722 65.97956357896328 5.0436103045940399 8.4673646837472898 7.2171458005905142 6.766151785850524 6.280876249074935 5.3789803981780988 6.643550604581832 6.9983289390802383 5.0493743568658846 5.7142229825258246 7.7428934425115585 6.7530256509780875 4.3169428110122681 4.89033494889736 5.1778704673051825 4.9267349839210537 15.67661416530609 7.4174984395503989 7.0919509679079038 7.529912918806076 4.351545050740242 7.4641292840242386 4.919518768787384 7.9977238625288036 6.8563434928655616 4.287052497267732 9.1209351420402509 6.8357299268245688 18.351287633180618 8.0196283906698209 4.3169017732143393 5.8732714951038352 34.548922792077065 7.2290157824754715 4.5923512428998947 4.6904613226652145 5.470081463456153 8.1777374744415265 4.8395895212888718 4.4220933318138105 15.31227634847164 4.6315648108720771 4.5826850831508636 7.3179582953453064 5.7241203635931015 8.1068872362375242 5.2987644523382205 6.1726249307394019 6.2568160742521286 4.2802577465772655 6.7712705135345477 16.420236259698868 4.2198120802640915 6.3282920867204684 4.4260360598564139 5.4589528143405914 12.185037091374406 8.7828828245401365 5.2735749781131736 4.2881519943475723 5.6246262043714479 4.4360578507184982 5.6861109137535095 7.6275797635316875 14.991324841976168 4.8761693537235251 4.2615160048007965 7.1171186119318 4.2798400372266769 5.7955230474472028 5.2184217572212219 4.4806413352489463 8.1895479559898359 9.1225738823413831 4.9496171474456805 7.7511789947748175 8.4118869155645388 4.910487100481987 7.9341775476932517 4.3449359685182563 5.5351468920707729 5.6095229089260119 5.5203648805618188 15.595305949449537 6.662798285484322 5.0221515446901321 11.808950558304792 4.4542723745107642 4.6847680509090406 5.6378622651100159 13.42813293635845 4.4399217963218689 4.2321807593107206 6.5541328191757202 8.034812733531 8.2374015897512418 6.5709605813026482 8.20405165851116 9.4102146178483945
leaf_count=29 30 37 21 32 21 28 38 35 22 21 30 115 25 20 25 20 23 54 23 43 28 26 34 35 22 39 25 23 29 23 22 31 120 41 43 29 26 26 22 20 29 36 20 27 25 28 21 36 45 169 30 32 44 20 49 20 23 21 63 25 34 93 21 90 40 27 23 25 21 61 20 20 31 48 20 30 64 38 23 81 20 30 29 53 37 27 21 32 32 47 111 25 27 22 21 25 35 32 40 20 65 28 24 20 27 34 40 34 29 25 34 93 21 24 21 23 29 29 24 34 22 24 79 26 23 21 34 25 39 26 30 71 35 78 21 29 30 26 27 20 148 21 20 20 36 26 29 39 20 32 37 22 26 38 32 23 26 23 21 29 28 20 22 25 38 24 25 23 27 33 35 31 30 34 34 20 29 32 27 20 26 21 22 106 23 20 23 20 24 46 39 38 21 20 23 22 32 22 21 306 23 38 33 31 29 25 32 33 23 26 36 31 20 23 24 23 74 35 33 35 20 35 22 38 32 20 43 32 87 38 20 28 165 34 21 22 26 39 23 21 73 22 21 34 27 38 25 29 29 20 32 78 20 30 21 26 58 42 25 20 27 21 27 36 71 23 20 34 20 27 24 21 39 43 23 36 39 23 37 20 26 26 26 73 31 23 53 20 22 27 64 20 20 31 38 39 30 39 45
internal_value=0 -0.203608 0.495202 -0.291818 -0.0855647 0.262414 0.663372 0.778759 0.061117 0.564223 1.003 -0.25054 0.706783 0.66024 0.78315 0.531165 0.424268 -0.390909 0.228667 0.462156 0.608596 0.457456 -0.192032 0.00135308 -0.237022 0.255351 0.190191 0.156534 -0.27932 -0.22398 -0.32121 -0.349414 -0.313301 -0.0343654 0.757088 0.724403 0.760013 0.802035 -0.220731 0.617896 0.519986 0.643616 0.354239 0.986639 0.827902 1.46374 0.0493971 -0.169307 0.554752 -0.473764 -0.422708 -0.43842 -0.700836 -0.472766 -0.634253 -0.421613 0.375997 -0.0627234 -0.00462555 0.1189 -0.0710439 0.0844073 1.68609 1.1966 1.3495 1.45681 -0.21855 -0.0762968 -0.265101 -0.13507 -0.253423 0.342691 0.0186981 -0.200312 0.63953 0.998475 -0.607346 -0.435703 -0.521339 -0.404512 -0.238716 0.387267 -0.121689 -0.0741698 1.2992 1.47939 1.79399 1.51508 -0.252154 0.698469 -0.544972 0.0250086 -0.0684059 0.0896832 -0.402902 -0.422119 -0.345645 -0.31939 -0.344609 -0.287255 -0.495125 -0.323812 -0.438864 0.321069 -0.243246 0.121423 0.4315 -0.0302898 0.797097 0.622158 0.477097 -0.36003 0.194162 0.799842 0.0343038 0.185316 -0.0100014 0.581495 -0.517586 -0.140566 0.239604 -0.295265 -0.226418 -0.116274 0.561196 -0.213619 -0.335832 -0.115334 0.213561 0.49361 0.814933 -0.712421 0.780335 -0.572203 -0.0455158 0.247713 0.662245 0.709932 0.669091 -0.104199 -0.377687 0.111746 -0.019229 -0.0967616 -0.184858 -0.765628 -0.0217409 0.137492 -0.171664 -0.5362 0.716261 -0.271201 0.75709 0.98557 1.15004 0.705202 0.607774 0.463233 0.263381 1.02628 1.17314 0.0930572 -0.0419481 0.192531 0.608659 0.641686 -0.397173 -0.321424 0.440066 -0.398922 0.0740327 -0.401109 -0.747239 1.14851 -0.173381 1.59649 -0.993361 0.925267 0.4331 1.87105 -0.471995 0.0632615 -0.622095 -0.755594 0.594331 0.300432 -0.0542 0.222765 0.170025 0.214293 0.664647 0.150989 0.20763 0.101499 0.596333 1.25694 -0.0146167 1.54678 -0.0912972 -0.0318884 -0.0962958 0.602476 0.864777 -0.161179 -0.44137 -0.514966 -0.770571 -0.740913 0.362964 0.633271 0.245522 0.0127962 0.552204 -0.0779567 0.0231832 -0.0766793 -0.344797 0.11058 0.384502 0.661918 0.537757 -0.555651 0.306323 -0.498699 -0.392812 -0.484217 -0.163881 0.193741 -0.696182 -0.357189 -0.796628 -0.637171 -0.674896 -0.476613 0.976237 -0.448194 -0.52701 -0.580754 -0.465303 0.295058 -0.603801 -0.70499 -0.114412 -0.585529 -0.950747 -0.595529 -0.589771 -0.768101 0.746253 -0.648256 -0.490199 -0.704947 -0.254481 -0.818127 -0.609862 -0.243986 -0.674906 -0.522277 -0.939284 -0.158344 -0.325741 -0.00123141 -0.182147 -0.609963 -0.746618 -0.531057 0.331559 -1.03448 -0.684327 0.766128 0.442586 -0.854625 -0.56866 -0.160721 -0.110615 0.416396 -0.232754 -0.136333 -0.126515 -0.0287837 -0.119048 0.108488 0.424732 -0.455302 -0.0557315 0.975311 1.40862 1.62861 -0.871854 -0.465206 -1.08185 0.87847 -0.81705 -0.418182 -1.01568 -0.78838 -0.322292 0.361847 -0.921556
internal_weight=0 1582.3 646.657 1330.46 431.765 251.835 466.089 314.376 180.568 35.6675 22.3769 283.122 276.181 260.044 30.8798 25.3503 151.713 898.7 148.642 73.3253 64.1902 57.9378 259.109 75.3169 48.4612 50.1952 229.458 221.354 382.948 327.669 241.704 237.001 35.9755 13.2304 209.849 203.104 196.756 187.406 252.209 9.10875 130.394 99.6714 54.0632 45.6082 39.2325 11.7893 85.9647 115.747 27.4432 515.752 421.075 414.709 94.677 53.1994 43.9295 33.6543 10.3437 144.901 133.467 30.7225 25.6659 41.6429 11.2987 38.9637 33.3075 16.1372 110.733 77.1234 53.1658 47.8687 43.3989 23.9575 30.4923 23.854 15.2587 10.9821 55.279 41.7795 121.254 90.9429 62.461 16.9574 119.819 113.561 38.195 30.4863 20.0104 15.2704 243.1 148.442 33.61 10.2058 89.9264 61.0656 28.8608 407.992 270.275 262.954 256.2 225.797 93.4174 60.9715 55.0181 52.8968 11.4575 19.691 26.8558 11.8668 14.989 10.9339 41.4392 153.174 46.1419 9.63528 36.5066 31.9583 27.363 12.637 14.7261 132.38 24.3874 12.2601 107.993 83.1735 10.4497 72.7239 59.9848 37.833 25.414 20.1574 14.6315 22.1518 12.1272 137.718 10.4741 185.379 142.636 132.28 125.585 18.6773 43.6992 12.0756 55.2643 51.0172 46.7054 10.2414 36.464 30.2806 21.9511 49.9087 119.695 11.9172 113.963 45.0416 36.9184 13.5716 68.9219 51.2287 39.975 17.6932 11.2537 34.2127 29.807 25.0186 13.8355 11.1526 146.29 120.266 11.109 109.157 19.0166 11.4883 26.0237 12.1199 27.6597 24.4909 41.4776 16.969 10.0709 10.5963 45.5036 9.96572 35.5379 30.8417 13.9832 13.6015 9.2497 180.412 158.41 148.794 18.3377 130.456 120.595 101.337 19.26 9.85785 82.0775 9.95568 75.085 70.5628 9.4021 22.0023 15.6845 21.3189 14.5527 9.61591 30.4025 11.4336 37.0011 20.8817 15.1675 16.1193 9.36632 70.706 58.3515 53.1736 33.625 17.9484 19.5486 14.6219 10.5309 12.3545 11.0782 90.1408 69.4729 62.6166 24.9342 15.8132 37.6824 19.3311 12.3365 121.296 115.423 11.4281 8.96077 8.97751 80.8737 75.4036 60.1088 9.26168 50.8471 45.5673 9.56613 14.732 10.1835 24.8191 23.7589 28.4819 10.837 43.1105 31.6916 27.4113 10.9911 40.9358 25.6235 11.7872 25.1847 20.9679 22.3093 8.53067 15.3594 9.73482 11.9974 33.7126 27.4951 19.8675 8.46967 15.2949 11.8802 19.257 11.0139 20.6679 12.6702 102.724 93.6017 17.6113 75.9905 9.8601 64.6363 56.7021 52.3572 31.2267 22.8148 21.1305 12.1832 10.6317 23.3467 16.2632 30.3115 10.3226 19.9888 10.4759 32.4459 10.7863 21.6596 12.419 11.1831 12.7391 13.8363
internal_count=10386 7431 2955 6269 2019 1162 2117 1423 838 163 101 1332 1251 1179 141 116 694 4250 687 337 294 266 1217 350 226 230 1061 1024 1802 1541 1139 1117 168 61 949 919 890 847 1185 42 596 455 248 207 178 53 402 543 125 2448 1997 1967 451 253 209 160 48 675 621 141 118 191 51 176 150 72 520 361 249 224 203 112 142 111 71 51 261 197 574 430 295 80 558 529 172 137 90 69 1143 671 159 48 422 286 136 1935 1279 1244 1212 1067 442 288 260 243 53 92 124 55 69 50 190 721 212 44 168 147 126 58 68 625 115 58 510 393 49 344 284 179 120 95 69 105 57 656 48 856 645 598 568 88 204 56 259 239 219 48 171 142 103 236 541 56 515 203 166 61 312 233 182 79 51 156 136 114 63 50 689 566 52 514 89 54 123 55 127 110 198 77 47 47 215 47 168 146 64 63 43 833 733 688 85 603 557 468 88 45 380 46 348 327 43 100 71 98 67 45 145 54 170 96 70 74 43 331 273 249 158 84 91 68 49 58 50 425 327 295 117 74 178 91 58 578 550 54 41 42 385 359 286 44 242 217 44 68 48 117 113 135 50 204 150 130 52 195 122 56 120 100 106 40 73 46 57 159 130 94 40 73 56 89 51 98 60 479 436 82 354 46 301 264 244 145 106 99 57 49 105 73 144 49 95 47 154 51 103 59 51 60 66
shrinkage=0.05


Tree=3
num_leaves=300
num_cat=0
split_feature=16 6 5 18 18 23 14 8 0 6 16 6 8 23 22 8 8 17 6 6 9 9 8 14 5 0 7 9 23 17 17 22 7 14 14 7 6 14 2 6 23 8 23 23 8 14 19 0 7 9 17 7 9 0 9 14 0 14 5 8 8 8 7 2 0 9 0 23 26 9 7 7 5 8 5 18 0 0 18 9 9 6 7 18 23 14 5 2 6 14 0 14 9 23 9 14 5 6 17 17 17 6 7 23 22 16 19 8 5 8 26 14 22 2 8 17 5 22 0 0 2 17 5 5 0 14 17 0 0 9 14 0 14 7 14 5 19 7 0 23 8 0 16 14 8 7 14 2 2 17 23 7 14 5 6 7 26 9 14 19 6 7 0 2 5 7 7 9 0 0 0 17 9 14 14 14 2 0 9 22 22 2 17 2 6 0 22 6 6 0 6 6 23 7 5 14 9 6 6 16 2 8 17 7 5 14 8 2 6 22 22 23 9 7 17 6 16 16 18 6 7 19 7 18 2 5 9 19 7 0 14 7 5 0 9 9 7 0 2 2 23 0 5 2 7 7 5 6 6 17 8 17 7 0 16 5 2 23 22 5 16 2 0 9 23 14 2 8 0 0 26 23 14 14 2 6 0 0 5 7 5 14 5 6 0 7 9 6 14 19 19 0 7 7 2 5 6 0 7
split_gain=253.635 30.9089 26.1626 23.2314 17.9962 15.2485 13.8245 13.8603 12.6544 10.1442 9.3752 9.34001 8.89654 8.87593 10.2942 8.84008 10.4985 8.70937 8.56775 12.5376 10.3947 8.2847 8.18715 7.96767 7.56756 7.53716 7.5352 7.73182 10.6728 8.47392 7.6086 10.3003 7.45924 9.87764 9.1635 7.54453 7.32838 6.98324 6.94849 7.5434 6.33746 6.7955 11.51 6.36708 6.09488 11.2085 6.05853 6.19673 5.95258 5.90289 5.75662 10.1895 5.97807 5.70638 5.62032 5.55875 5.59649 5.51228 7.76471 8.90761 5.46866 5.46702 5.24142 5.15829 5.50115 5.05987 4.98413 4.92931 14.391 6.34357 5.41068 9.41809 8.24156 9.32838 5.84186 5.31464 5.43817 7.36429 5.26507 4.9172 9.38945 4.89295 4.89067 6.8872 8.50163 8.02821 9.69141 6.81568 6.13305 5.85792 6.61745 5.76208 4.82293 4.805 4.76565 4.74509 4.72412 4.85345 4.62234 6.94789 6.30371 4.6052 5.21319 4.58021 4.49898 4.41091 4.37696 4.43349 8.4834 4.34703 5.10205 9.23752 9.9417 5.95626 5.17755 8.32298 6.509 5.97859 5.42979 7.63837 4.76995 5.39236 4.30479 4.28236 10.7857 4.98085 4.85707 4.40476 6.02734 4.18832 4.62261 5.01685 4.16762 4.47609 4.16435 4.12157 4.11997 7.02411 4.98522 4.11826 5.89583 4.11312 5.87478 7.66705 8.24711 6.45817 5.06786 4.87819 4.10213 4.1013 5.50362 4.06474 4.06335 4.04135 4.01672 4.17947 5.22125 4.58892 6.39996 3.9997 4.25877 3.98366 3.98004 3.96491 7.75455 4.33559 8.51922 3.96291 5.54831 5.70164 3.90245 3.87293 4.295 5.54721 4.28238 9.06668 3.8466 10.5715 3.84092 3.7955 5.7538 3.75925 5.39278 4.80435 7.67389 7.38221 6.80487 5.24239 4.34518 4.2839 8.21663 4.8654 4.51939 4.15341 3.75168 4.22207 3.74371 3.74109 4.57775 4.09566 7.5555 14.0801 5.80686 5.34835 3.72761 3.7055 6.25502 3.69541 4.11831 3.68009 3.67066 3.64133 5.68972 4.40597 3.63353 3.62769 3.61352 3.58129 3.55115 3.49449 5.54454 3.46765 3.88593 3.43326 3.43294 6.57889 3.43182 3.41232 7.30364 4.87541 3.78807 3.36292 3.32773 3.31868 3.31621 3.25682 3.25121 7.04646 7.84848 7.01751 7.08633 5.79948 4.52063 4.44236 4.36696 4.0555 4.43249 4.46764 3.33477 3.11178 3.09311 3.06379 4.74236 3.74229 3.11852 4.48902 2.98632 2.96813 3.72234 3.55556 3.47128 3.17289 2.94176 2.89646 2.8595 4.44086 3.67938 3.34844 2.80806 8.44217 5.96465 4.76249 4.1865 4.92334 4.73067 8.95904 4.03198 4.27073 3.57385 3.43715 3.7346 2.9962 2.77922 2.72493 2.70468 2.67217 2.64392 2.61162 2.61079 2.55718 2.54629 3.21327 2.47735 2.43764 2.41936 2.39597 2.37523 5.08107 2.34538
