tree
version=v3
num_class=1
num_tree_per_iteration=1
label_index=0
max_feature_idx=27
objective=binary sigmoid:1
feature_names=BertzCT Chi1 Chi1n Chi1v Chi2n Chi2v Chi3v Chi4n EState_VSA1 EState_VSA2 ExactMolWt HallKierAlpha HeavyAtomMolWt Kappa3 MaxAbsEStateIndex MinEStateIndex NumHeteroatoms PEOE_VSA10 PEOE_VSA14 PEOE_VSA6 PEOE_VSA7 PEOE_VSA8 SMR_VSA10 SMR_VSA5 SlogP_VSA3 VSA_EState9 fr_COO fr_COO2
feature_infos=[0:4069.9597800000001] [0:69.551167280000001] [0:36.841399840000001] [0:39.901993320000003] [0:27.761176710000001] [0:29.948379630000002] [0:22.880836290000001] [0:16.072809700000001] [0:363.70595409999999] [0:99.936429000000004] [1.0072764519999999:2237.3184900000001] [-7.7300000000000004:0.81000000000000005] [0:2035.133] [-104.04000000000001:1512.2422309999999] [0:15.63025112] [-6.3275141909999997:6] [0:42] [0:97.663462199999998] [0:482.43422270000002] [0:375.4251476] [0:211.50127889999999] [0:100.34841609999999] [0:80.742293309999994] [0:492.72973910000002] [0:115.4061569] [-5.4305555559999998:384.45051910000001] [0:8] [0:8]
tree_sizes=30604 31467 31355 31333 31448 31462 31371 31428 31460 31503 31502

Tree=0
num_leaves=300
num_cat=0
split_feature=26 24 24 20 8 22 23 3 10 9 10 6 8 13 6 13 8 8 0 0 0 10 6 0 23 13 22 10 0 18 18 8 0 3 6 24 13 13 9 3 3 3 0 3 22 12 3 0 3 6 24 13 22 8 13 24 8 23 13 8 0 3 8 9 18 22 10 8 0 20 10 8 20 0 0 6 10 8 23 13 13 20 13 23 6 6 3 12 22 22 0 22 13 3 10 6 10 13 13 9 24 10 13 8 13 20 23 12 3 12 20 10 22 22 22 3 23 20 20 20 10 9 6 6 12 6 6 6 0 0 13 8 20 10 6 23 13 8 10 20 23 22 6 6 6 6 8 13 10 18 20 22 10 8 6 13 8 24 18 24 0 3 3 10 0 3 6 0 6 23 0 13 0 6 3 6 0 23 18 0 10 3 12 18 10 12 23 3 23 12 23 20 23 0 0 0 20 6 3 22 8 0 22 10 12 6 13 8 12 6 10 6 18 13 12 20 8 12 12 6 13 23 0 20 8 9 20 10 12 0 22 3 9 0 0 3 23 0 0 23 8 13 24 0 23 13 10 22 24 9 23 3 23 23 23 9 23 9 20 20 0 0 12 9 9 10 13 23 12 20 9 23 23 23 23 23 22 20 12 10 13 18 0 23 24 9 0 23 6 6 0 3 13 3 18 22 23 13 8
split_gain=102.791 53.1673 18.5967 17.8293 17.4365 12.1575 11.8205 11.6739 12.2349 11.238 10.5878 9.01625 8.6401 10.6011 15.1034 8.12546 7.86282 9.41943 7.76836 7.24905 7.17152 12.8522 7.06984 6.95524 6.53372 6.40461 10.7718 6.15992 8.82584 11.0334 6.08059 5.9045 8.03238 5.80574 11.3425 9.93616 5.72018 5.52087 9.93447 5.49854 7.37444 5.52294 5.38602 16.676 5.33218 5.26486 6.60957 11.2591 8.10653 5.49341 6.5572 5.72613 5.20363 5.1778 5.14991 8.5364 7.71233 6.04122 6.24018 6.76656 5.08068 10.0033 6.09928 5.59535 5.3778 6.18844 5.84889 13.0119 8.11678 6.5046 7.73576 5.48791 9.63662 5.27836 5.14505 4.90055 5.72859 9.4675 5.75539 7.04101 6.77044 6.5555 4.89872 6.46059 4.87402 11.3962 5.90086 8.90224 8.54069 4.86915 4.70198 4.61998 4.58586 4.54498 4.50365 8.16559 5.28509 5.0115 4.91939 4.50014 11.6864 4.48634 4.46964 4.45776 4.4446 10.7575 6.99547 5.79449 5.09262 5.39343 4.43389 8.7933 6.8096 4.25214 4.24998 8.4181 4.29171 4.24543 5.01133 4.18298 6.7292 7.01706 11.8886 5.27083 5.26262 4.13027 4.10898 13.9332 9.41392 8.03237 9.55238 10.1014 6.40948 4.88097 5.98624 7.60988 4.76625 6.1673 4.74031 7.95445 6.09479 6.23023 4.20107 4.77333 6.06602 6.29241 4.10499 5.33793 4.38375 5.42514 4.05583 4.03182 6.11347 4.63073 6.1927 4.03343 6.19717 5.91833 4.42832 4.00763 4.90932 3.82392 5.1857 8.30631 3.79683 3.60616 3.60019 3.51321 4.67904 3.49033 3.33924 9.17165 4.37417 4.22538 3.72971 3.32964 4.82299 9.38877 10.6845 5.00346 3.93233 5.2093 3.83855 3.36002 3.85227 7.14342 6.64638 3.26526 3.21274 4.21069 3.20712 3.19063 3.19063 3.1769 3.31559 3.487 3.35541 3.14024 5.20212 5.77158 3.09316 3.04215 3.03185 3.00662 2.9805 2.97576 2.92713 4.14743 4.99302 3.3803 2.97366 5.86724 5.43953 11.5212 3.33146 3.03023 2.92113 2.90028 4.23381 2.89014 2.88856 3.88393 2.87549 2.78126 2.76899 2.76899 2.75402 2.71611 2.65442 2.64229 2.6362 2.60969 2.65517 2.60882 2.60397 2.59626 3.49885 2.56099 6.2748 3.35589 2.55512 2.55395 2.54676 2.64834 4.78833 4.6154 3.21347 2.48833 5.27108 2.42862 2.38402 2.37342 2.35005 2.31446 4.17048 4.49637 2.27952 2.27814 2.45264 2.27018 3.87503 2.26834 2.26689 2.25733 3.386 2.25529 3.84464 2.21638 2.55337 2.1922 2.17343 4.14227 2.15449 5.27427 2.82678 2.54092 5.83947 2.11826 4.16405 4.01108 2.11644 3.15884 5.41515 4.02389 3.72893 3.37183 2.64821 2.3364 2.11346 2.33553 2.1117 2.07674 2.06494 2.05961 2.05469 2.00218 1.99813 1.98906 2.58489
threshold=1.0000000180025095e-35 48.730146160000011 13.854495515000002 32.238129800000003 90.094197460000018 23.695670005000004 45.510634330000009 1.2259522815000004 101.53968630000001 11.518644675000003 536.24132885000006 0.27860679800000004 96.669874550000017 17.064457525000005 11.992251075 2.9175656915000006 42.718535350000003 36.67326446500001 14.804820240000003 2070.5508640000003 268.04025985000004 389.51273205000007 11.222290430000003 56.240914015000008 63.37145330500001 5.4905376295000012 17.712104750000005 423.07540870000008 710.13766305000013 11.938452410000002 61.47873979500001 6.0002099000000007 61.969177820000006 5.0289541050000013 2.2487182600000004 13.817966720000003 1.6184078585000001 11.832063530000001 12.212128860000002 4.8741707880000016 9.7280174055000028 9.1635751415000026 62.639279755000011 1.5993337370000003 11.933577050000002 216.06300000000002 4.6091746140000014 373.74272115000002 5.128839396500001 2.6611452740000003 9.5602372530000022 1.7831606375000002 10.936084645000001 5.1760507205000001 4.3097675470000008 23.115105635000003 54.478284595000005 61.917972030000008 8.6012796600000012 102.01071345000001 306.31202500000006 4.0476839185000015 17.303784445000002 19.417462430000004 13.819738405000001 17.944627020000002 176.07610155000003 36.326843405000005 170.36652560000002 20.016838235000005 182.06847350000004 18.280836380000004 12.364427290000002 352.32719150000008 201.72389020000003 0.56077605550000009 132.03988320000002 17.732960800000004 12.457299295000002 1.4815340705000002 1.2393396530000003 1.0000000180025095e-35 2.9535828505000006 24.794688180000005 1.0547279095000002 1.0805927890000002 2.8179483690000002 126.97900000000001 6.1529559900000015 69.392811210000005 131.04761385000003 5.6442185430000009 10.138406085000002 2.3604084790000006 841.15198840000005 10.458813410000001 854.71820190000005 13.587512635000001 13.735532745000002 6.5584466480000012 4.7607000690000012 268.08010080000003 7.9102163637900009 7.6330210330000012 6.7632597815000013 12.748299520000002 83.221201690000015 580.14100000000019 16.283865400000003 413.62550000000005 6.5618460450000011 117.06058885000002 6.250380551500001 35.572155015000007 6.250380551500001 2.3056739995000002 12.683215630000001 69.744823470000014 45.445078715000008 24.191237760000003 153.04566710000003 12.708757390000001 1.2868595490000001 1.7371330950000001 162.09300000000005 1.5395947120000002 1.1815311760000002 1.2978705350000002 171.39429715000003 140.04253700000001 1.7244243700000002 12.005782960000001 18.893609865000005 146.08733495000004 1.3586348105000001 25.269971030000004 3.5370198545000004 12.005782960000001 136.55005400000002 1.0000000180025095e-35 13.420126085000001 11.701574590000002 1.9114133378500002 1.5474691360000004 1.5053176830000001 1.4328481155000001 24.465744980000004 2.1840045335000005 180.08426090000003 5.829524343000001 12.058503625000002 23.393959785000003 606.07936135000011 95.094183700000016 8.2348315635000002 6.7242484915000009 82.689763505000016 31.683575605000005 14.786028880000002 22.508872825000005 378.06593675000005 13.698773320000003 12.014982225000002 517.16235025000003 90.498942285000012 12.890231290000001 7.3676110985000003 429.17274270000001 2.5757885970000003 107.44544650000002 2088.2410955000005 21.462922645000003 1779.7817250000001 11.85997822 22.579962750000004 1.2868595490000001 195.39896285000003 25.269971030000004 14.786028880000002 207.65847430000002 186.00468855000003 3.5579744805000004 173.54050000000004 7.709229725000001 232.05725545000004 184.08250000000001 24.450200220000003 7.1190551080000004 19.417462430000004 212.14950000000002 36.561236615000006 79.739534075000009 71.156156100000018 287.27121925000006 256.63696185000009 204.28770035000002 12.058503625000002 1.5395947120000002 3.5490027380000004 5.6442185430000009 17.804602900000003 227.56866475000001 27.397786315000005 121.51281135000001 83.032000000000011 1.2296396165000003 6.564777567000001 5.1760507205000001 248.14900000000003 3.3105905820000001 349.05967605000006 4.4567046660000011 18.064806780000001 3.4513698320000006 320.14450000000005 18.124870695000002 108.4745597 263.61250000000001 292.11450000000008 1.017306008 1.7202384895000002 6.0589304680000007 118.45811190000002 15.807151160000002 32.610082200000008 6.4153584645000006 5.7353156105000016 152.05008375000003 83.032000000000011 201.05295275000003 10.936084645000001 6.9148451865000009 13.037687786500003 2000.4906195000001 195.97886055000001 3.3195792260000005 18.504661450000004 162.17015825000001 118.94498020000002 6.3243613970000014 32.837245350000011 5.4905376295000012 9.4521407320000019 51.377443750000005 1.0000000180025095e-35 1.7202384895000002 88.007164870000011 10.936084645000001 10.399209240000001 11.509698475000002 83.680224095000014 21.634824635000005 6.3243613970000014 19.479429820000004 19.166004645000005 5.9125428875000008 19.166004645000005 12.514549490000002 37.993247905000011 87.89150272000002 785.44634425000015 637.34889530000009 69.03100000000002 5.5870776705000011 6.5084886355000009 182.06847350000004 1.6713208560000001 12.683215630000001 156.09800000000004 12.748299520000002 11.310871030000003 18.914546855000001 24.570863110000001 19.166004645000005 12.683215630000001 12.457299295000002 17.433036550000001 6.0711935880000008 95.505500000000012 103.52826445000001 2.0243950010000007 20.548222670000005 364.01796405000005 24.887718350000004 22.508872825000005 11.506656695000002 281.45698810000005 24.627830345000003 0.5125833070000001 0.39050451500000005 897.2021560500001 2.8029883085000002 3.2303443450000002 10.562058970000001 26.958322800000001 17.597312815000006 6.4827890145000007 4.2807414370000005 24.563745590000003
decision_type=2 2 2 2 2 2 2 2 2 2 2 2 2 2 2 2 2 2 2 2 2 2 2 2 2 2 2 2 2 2 2 2 2 2 2 2 2 2 2 2 2 2 2 2 2 2 2 2 2 2 2 2 2 2 2 2 2 2 2 2 2 2 2 2 2 2 2 2 2 2 2 2 2 2 2 2 2 2 2 2 2 2 2 2 2 2 2 2 2 2 2 2 2 2 2 2 2 2 2 2 2 2 2 2 2 2 2 2 2 2 2 2 2 2 2 2 2 2 2 2 2 2 2 2 2 2 2 2 2 2 2 2 2 2 2 2 2 2 2 2 2 2 2 2 2 2 2 2 2 2 2 2 2 2 2 2 2 2 2 2 2 2 2 2 2 2 2 2 2 2 2 2 2 2 2 2 2 2 2 2 2 2 2 2 2 2 2 2 2 2 2 2 2 2 2 2 2 2 2 2 2 2 2 2 2 2 2 2 2 2 2 2 2 2 2 2 2 2 2 2 2 2 2 2 2 2 2 2 2 2 2 2 2 2 2 2 2 2 2 2 2 2 2 2 2 2 2 2 2 2 2 2 2 2 2 2 2 2 2 2 2 2 2 2 2 2 2 2 2 2 2 2 2 2 2 2 2 2 2 2 2 2 2 2 2 2 2 2 2 2 2 2 2 2 2 2 2 2 2
left_child=1 3 6 18 89 10 7 8 31 -8 16 23 13 14 22 39 17 25 -1 20 84 33 226 228 -11 52 -27 28 29 -23 42 262 -33 34 146 36 -36 102 225 -5 41 53 150 -44 -19 46 60 -48 -49 51 -51 -47 -4 101 113 224 -57 -58 -59 250 63 62 73 64 65 66 67 71 125 70 235 75 74 -62 93 203 77 78 79 80 -77 -81 -52 -84 86 -86 87 110 -89 94 -83 99 119 222 95 -3 97 -96 -97 100 259 -41 188 -90 108 106 202 -108 109 -29 200 112 220 -7 116 -116 -80 118 -103 120 121 123 -123 164 197 -68 128 129 132 -128 -131 -132 136 -129 269 142 138 -138 139 -78 141 -140 143 144 145 -136 147 -22 -149 -150 288 152 153 154 155 156 157 158 -111 160 -93 162 163 249 -87 -157 -158 168 -53 261 172 -172 251 -174 -175 182 177 178 180 229 181 -177 -126 -181 185 -185 -186 -55 231 -190 265 -42 -24 194 195 -72 -197 205 199 -199 242 -187 293 277 -25 -122 207 208 -191 -208 214 212 213 -212 215 240 -14 -210 -219 -130 221 -112 -73 -63 -56 -39 -6 -221 -9 -178 237 247 -233 -176 -121 -70 -237 238 -166 -240 -209 -85 243 263 245 -245 -246 248 -35 -153 -60 -98 -239 254 255 -118 -69 258 -162 -17 -261 -101 -2 -20 -265 266 -179 268 -145 -135 271 -38 273 274 275 295 -277 279 -279 -45 -242 283 -283 286 -284 -285 -282 -288 289 296 -259 -139 -18 -106 -204 -54 -13 298 -95
right_child=2 4 5 15 12 54 9 11 -10 24 -12 30 216 -15 -16 91 292 44 19 -21 21 27 192 204 -26 26 -28 104 -30 -31 -32 32 -34 37 35 -37 270 38 -40 40 191 -43 43 45 -46 49 47 48 -50 50 82 167 272 187 55 56 57 58 59 -61 61 223 -64 -65 -66 -67 68 256 69 -71 193 72 -74 -75 -76 76 126 -79 114 81 -82 90 83 241 85 92 -88 88 103 -91 -92 159 -94 297 96 98 170 -99 -100 169 -102 117 -104 -105 105 -107 107 -109 -110 151 111 -113 -114 -115 115 -117 253 -119 -120 234 124 122 -124 -125 175 -127 127 133 219 130 131 -133 -134 134 135 -137 137 291 140 -141 -142 -143 -144 267 -146 -147 -148 148 149 -151 -152 161 -154 -155 -156 165 166 -159 -160 -161 257 -163 -164 -165 230 -167 -168 -169 -170 -171 171 -173 173 174 233 176 179 190 -180 183 -182 -183 -184 184 186 201 -188 -189 189 206 -192 -193 -194 -195 -196 196 -198 198 -200 -201 -202 -203 294 -205 -206 -207 209 210 217 -211 211 -213 -214 -215 -216 -217 -218 218 -220 227 -222 -223 -224 -225 -226 -227 -228 -229 -230 -231 -232 232 -234 -235 -236 236 -238 252 239 -241 280 -243 -244 244 246 -247 -248 -249 -250 -251 -252 -253 -254 -255 -256 -257 -258 290 -260 260 -262 -263 -264 264 -266 -267 -268 -269 -270 -271 -272 -273 -274 -275 -276 276 -278 278 -280 -281 281 282 284 285 -286 -287 287 -289 -290 -291 -292 -293 -294 -295 -296 -297 -298 -299 -300
leaf_value=1.4196109904453795 1.3033931960105838 1.3506664497063434 1.3477236949187017 1.3085850562430659 1.3065083121500731 1.2804006721238763 1.2603312964352893 1.3869349470241623 1.4139056495305637 1.2940478475921156 1.3081335901358935 1.4294138034717445 1.3990717631520431 1.2488786635695195 1.3990717631520431 1.3444560905765799 1.3916548199627825 1.2878176153131367 1.4300294390724342 1.3364913049926581 1.4072455372789829 1.3836673426820405 1.2358990129883138 1.3858860863711355 1.3716861267609275 1.3979863568316635 1.2940478475921156 1.4328316424962628 1.4001066854575213 1.2717049456261227 1.4287395359090846 1.3858860863711355 1.3007972658943425 1.436328966149258 1.3397362176379597 1.2940478475921156 1.3345443574054774 1.3812710994978179 1.3081335901358935 1.4228059813576763 1.2878176153131367 1.431112957729648 1.274467117572468 1.4124222608927117 1.3678003270027288 1.3345443574054774 1.269493402727905 1.3081335901358935 1.4089610207377234 1.3085850562430659 1.4204984879210176 1.4118942751063577 1.4224539908334402 1.3656955188003712 1.3812710994978179 1.2935863489047839 1.4008169262553984 1.2940478475921156 1.3656955188003712 1.4279978415901586 1.370276571946679 1.416485455857263 1.2638551834709106 1.4279978415901586 1.3157737857957337 1.2952345585023972 1.3615966817747271 1.2691269184762004 1.4294138034717447 1.4435734222876055 1.3847976460708249 1.3956485586031535 1.3100684448809179 1.3033931960105836 1.3357424789975887 1.3100684448809181 1.3137769164755484 1.2705114145381957 1.4196109904453795 1.3545701040164804 1.406192028613733 1.2255152925233492 1.3019772341289975 1.4089610207377234 1.3051238160880776 1.3397362176379597 1.422171861023938 1.4020385404277471 1.2722420346156897 1.4124222608927117 1.3100684448809179 1.3501199381029243 1.4435734222876055 1.417614121125194 1.3623095229965783 1.4370835969970026 1.3694039903950013 1.281587383034158 1.3688106349398605 1.4271780741850297 1.2736579964972758 1.3545701040164806 1.4397275998931742 1.3545701040164806 1.3968466801952648 1.3330370431444341 1.3364913049926581 1.417614121125194 1.4435734222876055 1.4025850520311662 1.4320359551043114 1.4290845100109106 1.3129395196638576 1.3531345666250107 1.2736579964972758 1.3768209335842618 1.4076297745242665 1.3341233957650058 1.4234758988070288 1.3943873779798786 1.3812710994978179 1.2618583141507251 1.3836673426820405 1.3237612630764757 1.4355859450068635 1.2945896069207223 1.3708873790328533 1.3166612832713716 1.4283777338022914 1.3545701040164804 1.1943641311284554 1.3061418278983683 1.417614121125194 1.4435734222876055 1.3477236949187017 1.3072870911849452 1.4294138034717447 1.3189687767080305 1.2878176153131367 1.416485455857263 1.2618583141507254 1.3812710994978179 1.3189687767080305 1.3916548199627825 1.3019772341289975 1.4300294390724342 1.4312769112106738 1.4055842010743205 1.3224300168630188 1.4010945658400231 1.3397362176379597 1.3842378767735222 1.3146720647914933 1.4220898627049201 1.3117800471553627 1.3033931960105836 1.3791227435395494 1.4318182670442494 1.3357424789975887 1.3636986494801857 1.3937315640557755 1.3487655397814071 1.4368014306800199 1.3216775733510646 1.4113480829135774 1.3758535062117494 1.3137769164755482 1.4435734222876055 1.3444560905765799 1.3545701040164804 1.2969797216057526 1.3916548199627825 1.413620382484823 1.3267565670567538 1.4069249971171423 1.3690815146041639 1.3948997326080841 1.4158835010477 1.4186524931716904 1.403260154600096 1.2878176153131367 1.3028907579235691 1.3694039903950013 1.3323192744486994 1.2945896069207223 1.3716861267609275 1.3858860863711355 1.2952345585023972 1.3605036585678889 1.335221556566236 1.3636986494801857 1.3491759635152001 1.3033931960105836 1.3254138445828361 1.4152541846558839 1.3129395196638574 1.3758535062117494 1.3161368529448583 1.4223339940638142 1.4046344705439884 1.3656955188003712 1.4245012826580787 1.4137024456075704 1.4186524931716904 1.4373431900086266 1.4353757482363176 1.3477236949187017 1.4321418034270941 1.4328316424962628 1.4038059822090176 1.4152541846558839 1.4268853001117696 1.4143692084798927 1.2935863489047836 1.4397275998931742 1.3754302567362755 1.3397362176379597 1.3397362176379597 1.4098964910498826 1.4089610207377234 1.3501199381029243 1.3656955188003712 1.3477236949187017 1.356350170381903 1.4435734222876055 1.4435734222876055 1.3656955188003712 1.357639183956864 1.3249023312594388 1.4435734222876055 1.413620382484823 1.3688106349398605 1.4234758988070288 1.3501199381029243 1.4435734222876055 1.4220898627049201 1.363470435843593 1.4234758988070288 1.3019772341289975 1.3688106349398605 1.3842378767735222 1.3501199381029243 1.4435734222876055 1.3905501688494886 1.3716861267609275 1.3189687767080305 1.4210932027242802 1.4408879773397698 1.3623095229965783 1.4435734222876055 1.3100684448809179 1.3100684448809179 1.3694039903950013 1.3990717631520431 1.3033931960105836 1.3361556243741788 1.3249023312594388 1.3688106349398605 1.439185934767198 1.3597049108398147 1.4300294390724342 1.3812710994978179 1.2453387588655542 1.3623095229965783 1.4300294390724342 1.4435734222876055 1.3501199381029243 1.3688106349398605 1.4435734222876055 1.3898645233308922 1.413620382484823 1.4139056495305637 1.4223339940638142 1.3397362176379597 1.431112957729648 1.3314292412659881 1.417614121125194 1.3137769164755482 1.3812710994978179 1.3545701040164804 1.3656955188003712 1.3345443574054774 1.4435734222876055 1.4351994541706985 1.3791227435395494 1.3812710994978179 1.4168028929638687 1.3727753282083015 1.4300294390724344 1.3501199381029243 1.4196109904453795 1.3708873790328533 1.43295370817571 1.4405781183073272 1.3694039903950013 1.3832808518458757 1.3827906683463493 1.4435734222876055 1.3732320901055874
leaf_weight=35.472193762660027 3.2101532816886964 9.1489368528127688 4.1731992661952964 4.8152299225330344 4.0126916021108681 3.3706609457731229 5.457260578870776 3.5311686098575619 3.3706609457731238 4.0126916021108618 3.6916762739419928 3.5311686098575645 4.4942145943641645 5.1362452507019034 5.6177682429552069 3.531168609857561 3.8521839380264309 3.2101532816886884 14.766705095767977 5.1362452507019034 55.054128780961037 4.1731992661952955 3.8521839380264282 4.3337069302797309 8.3463985323905927 6.5808142274618131 4.0126916021108627 4.6547222584485999 6.901829555630683 4.6547222584486008 3.3706609457731238 4.33370693027973 7.7043678760528564 6.9018295556306857 6.2597988992929521 4.0126916021108618 3.2101532816886893 4.012691602110861 3.6916762739419937 4.815229922533045 3.5311686098575574 4.0126916021108618 5.6177682429552069 6.4203065633773857 5.9387835711240768 3.2101532816886929 5.4572605788707724 3.6916762739419919 4.3337069302797318 4.8152299225330379 4.3337069302797309 9.4699521809816378 9.4699521809816414 3.2101532816886893 3.2101532816886893 4.3337069302797344 8.1858908683061617 4.0126916021108618 4.4942145943641645 3.2101532816886902 5.4572605788707786 3.6916762739419928 4.1731992661952964 3.2101532816886893 6.259798899292945 3.3706609457731238 6.0992912352085096 4.0126916021108618 7.0623372197151211 4.4942145943641654 8.5069061964750379 6.2597988992929476 4.4942145943641654 6.4203065633773804 4.1731992661952964 3.3706609457731274 3.8521839380264344 4.3337069302797309 4.1731992661953035 3.3706609457731229 4.0126916021108627 3.2101532816886902 3.5311686098575574 4.3337069302797318 4.3337069302797309 4.3337069302797309 21.026503995060921 4.8152299225330335 3.2101532816886902 6.4203065633773795 3.3706609457731247 3.2101532816886929 3.5311686098575583 9.6304598450660723 3.6916762739419928 7.7043678760528547 3.3706609457731274 4.0126916021108627 4.0126916021108627 6.0992912352085096 3.5311686098575583 5.6177682429552096 13.001120790839193 3.3706609457731247 3.2101532816886929 4.9757375866174689 5.1362452507019025 3.8521839380264282 3.3706609457731238 6.0992912352085167 4.3337069302797371 6.901829555630683 4.9757375866174689 4.9757375866174698 3.5311686098575574 4.4942145943641663 4.1731992661952955 5.938783571124076 4.9757375866174698 6.0992912352085096 3.2101532816886929 3.8521839380264264 4.1731992661952972 4.1731992661952964 6.2597988992929441 3.6916762739419937 4.8152299225330379 4.3337069302797309 6.5808142274618175 4.4942145943641654 3.2101532816886884 5.4572605788707733 3.8521839380264273 3.2101532816886893 6.2597988992929512 5.1362452507019034 3.5311686098575583 3.2101532816886884 3.2101532816886884 3.6916762739419937 3.8521839380264282 4.0126916021108627 3.2101532816886893 5.7782759070396406 3.5311686098575583 3.6916762739419937 12.198582470417021 6.580814227461814 5.7782759070396406 3.5311686098575592 3.8521839380264273 3.37066094577313 4.6547222584485999 4.6547222584485999 4.1731992661952964 3.2101532816886893 4.654722258448599 8.5069061964750272 4.1731992661952972 6.259798899292945 4.0126916021108654 3.6916762739419928 7.3833525478839865 3.6916762739419937 4.6547222584486061 3.6916762739419937 3.8521839380264282 4.8152299225330344 3.5311686098575583 4.4942145943641654 5.4572605788707715 4.8152299225330353 8.3463985323905963 3.8521839380264273 5.4572605788707715 7.3833525478839928 5.1362452507019025 7.2228448837995547 4.0126916021108618 13.643151447176932 4.4942145943641654 4.9757375866174698 3.3706609457731247 4.4942145943641725 3.6916762739419919 4.1731992661952955 4.3337069302797318 3.3706609457731247 4.8152299225330344 3.6916762739419964 6.259798899292945 5.2967529147863388 3.2101532816886902 4.6547222584485999 3.5311686098575583 4.975737586617468 3.6916762739419937 3.5311686098575574 7.0623372197151184 3.8521839380264282 4.4942145943641654 7.864875540137291 11.717059478163717 4.0126916021108618 8.0253832042217237 12.198582470417021 4.1731992661952955 17.495335385203362 4.6547222584485999 7.5438602119684219 3.531168609857561 8.9884291887283307 5.1362452507019043 4.3337069302797318 13.001120790839193 5.1362452507019034 3.8521839380264282 3.3706609457731229 5.9387835711240768 5.7782759070396406 4.8152299225330344 4.4942145943641663 6.2597988992929459 4.0126916021108627 4.0126916021108627 3.2101532816886902 3.8521839380264282 4.6547222584486008 3.3706609457731247 6.0992912352085114 8.3463985323905927 4.012691602110861 4.9757375866174698 3.2101532816886902 4.8152299225330353 4.654722258448599 5.6177682429552078 4.975737586617468 3.5311686098575592 4.0126916021108627 6.7413218915462485 3.2101532816886902 4.8152299225330344 7.5438602119684237 4.1731992661952999 3.2101532816886902 15.569243416190146 18.618889033794403 3.6916762739419937 3.5311686098575592 3.3706609457731247 3.3706609457731247 3.3706609457731247 3.3706609457731238 3.2101532816886893 4.6547222584486008 3.3706609457731247 4.012691602110861 11.396044149994848 4.1731992661952972 3.6916762739419937 4.8152299225330353 3.5311686098575592 3.6916762739419928 3.6916762739419937 3.2101532816886893 3.2101532816886902 4.0126916021108618 4.0126916021108627 4.6547222584486008 8.3463985323905927 3.3706609457731247 14.124674439430235 3.3706609457731238 8.0253832042217237 4.0126916021108618 3.8521839380264282 3.8521839380264264 5.6177682429552078 5.6177682429552078 3.8521839380264309 3.2101532816886893 4.33370693027973 29.854425519704819 4.6547222584486008 3.2101532816886893 20.544981002807621 3.5311686098575583 3.6916762739419928 3.2101532816886893 4.1731992661952972 4.8152299225330353 14.124674439430235 16.692797064781189 3.3706609457731238 4.9757375866174689 6.5808142274618149 3.6916762739419928 4.9757375866174689
leaf_count=221 20 57 26 30 25 21 34 22 21 25 23 22 28 32 35 22 24 20 92 32 343 26 24 27 52 41 25 29 43 29 21 27 48 43 39 25 20 25 23 30 22 25 35 40 37 20 34 23 27 30 27 59 59 20 20 27 51 25 28 20 34 23 26 20 39 21 38 25 44 28 53 39 28 40 26 21 24 27 26 21 25 20 22 27 27 27 131 30 20 40 21 20 22 60 23 48 21 25 25 38 22 35 81 21 20 31 32 24 21 38 27 43 31 31 22 28 26 37 31 38 20 24 26 26 39 23 30 27 41 28 20 34 24 20 39 32 22 20 20 23 24 25 20 36 22 23 76 41 36 22 24 21 29 29 26 20 29 53 26 39 25 23 46 23 29 23 24 30 22 28 34 30 52 24 34 46 32 45 25 85 28 31 21 28 23 26 27 21 30 23 39 33 20 29 22 31 23 22 44 24 28 49 73 25 50 76 26 109 29 47 22 56 32 27 81 32 24 21 37 36 30 28 39 25 25 20 24 29 21 38 52 25 31 20 30 29 35 31 22 25 42 20 30 47 26 20 97 116 23 22 21 21 21 21 20 29 21 25 71 26 23 30 22 23 23 20 20 25 25 29 52 21 88 21 50 25 24 24 35 35 24 20 27 186 29 20 128 22 23 20 26 30 88 104 21 31 41 23 31
internal_value=0 0.189246 -0.325825 0.264661 -0.479295 -0.000578032 -0.419175 -0.388095 -1.0963 -1.21832 0.202248 -0.352111 -1.07032 -1.35758 -1.03634 -0.115839 0.270537 0.122357 0.314108 0.293882 0.301503 0.377812 -1.56233 0.31679 -0.690565 0.260878 -0.447829 0.124956 -0.465167 -1.12749 -0.383031 -1.41117 -0.991558 0.482774 0.291408 -0.296312 -0.0230404 0.57143 -0.122991 -0.437857 -0.318497 -0.0949058 -0.39394 -0.420263 -0.825419 -0.395421 -0.435728 -1.1221 -0.368535 -0.0577508 -0.429849 0.300145 0.405244 -0.252524 -0.439407 -0.270344 -0.523566 -0.295491 -0.670768 -0.283659 -0.407862 -0.853483 -1.30307 -0.37353 -0.387347 -0.368134 -0.352765 -0.42153 -0.064921 0.106997 -0.0134587 -0.379784 -0.0403082 -0.937675 0.136742 -0.449726 -0.512402 -0.79836 -0.662246 -1.11386 -0.373953 -1.66282 -0.111538 -0.464246 0.183741 0.0857355 0.342228 0.239924 -0.591419 -0.20331 -2.24368 0.115688 0.122392 0.277851 -0.283659 0.101129 -0.459795 -1.21481 0.653906 -0.166135 -0.557452 -0.0134587 0.605426 -1.33194 0.19844 0.434246 0.591921 -0.194979 0.0492265 -0.00553286 0.348227 -0.00255794 -0.359942 -1.14492 -0.378677 -0.991558 -0.127497 -0.260867 0.118556 0.100963 0.0635266 -0.267707 -1.11616 -0.0856344 0.17954 -0.893509 -0.391813 -0.556962 -0.178885 -1.30752 -1.71183 -2.32529 -0.48256 -0.274873 -0.174042 -0.348329 -0.637628 -0.133171 -0.95074 -0.339372 -1.36718 -0.825419 -0.158675 -0.0313696 -0.454572 -0.0550137 0.469539 0.377401 -0.133171 -0.574777 0.101129 -0.0754834 -0.238057 -0.120256 -0.234546 -0.0941709 0.0785757 0.399328 -0.111538 0.374254 0.542496 0.282178 0.472546 0.0241583 0.0474157 -0.777122 -0.6295 0.521658 0.251411 0.212953 -0.306233 -0.79297 -0.125121 0.101129 -0.266295 0.0693841 0.00971315 -0.244912 -0.713594 0.219696 -1.06276 -0.771477 0.628302 0.0471627 -0.173891 0.102059 -0.742349 -1.02803 0.570191 0.511849 0.246449 -1.12749 -2.28858 -0.365381 -0.197566 -0.379016 -0.825419 0.547912 0.212953 -0.373953 0.492722 0.503697 0.794061 -0.0417418 0.765853 0.861936 0.538443 0.574826 0.118556 0.0564862 0.633391 0.296326 -0.133171 -0.655889 0.697527 0.637077 -0.186421 0.391983 0.0697295 0.428464 0.00527883 0.34511 -0.186421 0.0831567 0.697527 0.559077 -0.910184 0.101129 -0.487344 0.806309 0.178341 0.832486 0.361292 0.0975786 0.701599 0.50139 0.180504 -0.0141907 -0.306233 -0.869605 0.676543 0.0583021 0.55521 0.491541 0.300395 -0.236491 0.592845 0.977469 0.590543 0.671769 -0.783036 -0.825419 0.41264 -0.371131 -0.57621 -0.221275 -1.72835 0.700352 0.926834 -0.064921 0.234145 0.518357 -2.16047 0.754713 0.303246 0.518357 0.292828 0.381991 0.638516 0.615587 0.313441 -0.116287 0.49868 0.361292 0.493149 0.310067 -0.147298 -0.189997 -0.543826 0.0883486 0.600779 0.650163 0.185628 0.743069 0.5838 0.979131 0.463595 0.586767 0.310913 0.12538 0.274034 -0.617744 0.861936 1.05035 0.455976 0.559077 0.361292 0.595511 0.429756
internal_weight=0 1054.54 612.497 947.637 106.898 136.592 475.905 458.089 22.1501 17.8164 93.4155 435.939 34.0276 25.6812 20.545 108.985 89.7238 71.7469 838.653 803.18 798.044 484.252 14.9272 19.2609 12.3591 62.598 10.5935 142.049 15.7298 8.82792 416.678 18.7794 12.0381 342.202 108.343 25.1997 21.187 233.86 10.9145 45.5842 40.7689 31.941 413.307 392.441 9.14894 386.823 345.573 13.4826 8.02538 41.2505 20.224 21.0265 52.0045 27.9283 43.1766 34.8302 27.6073 23.2736 15.0877 11.075 332.09 23.7551 16.0508 308.335 305.125 298.865 295.495 238.514 56.9802 47.1893 42.695 231.131 39.4849 11.8776 34.9907 191.646 166.125 49.2759 44.9421 17.3348 7.38335 9.95148 15.4087 11.075 313.792 193.893 119.899 98.8727 11.396 72.8705 6.58081 63.4005 189.56 30.8175 66.4502 20.866 45.5842 7.70437 11.7171 30.3359 14.9272 21.3475 222.945 6.58081 126.32 48.9548 43.9791 8.98843 77.3647 73.994 87.4767 25.5207 18.6189 8.3464 27.6073 8.02538 19.5819 16.5323 10.5935 186.028 175.114 45.4237 8.02538 37.3983 129.69 9.79097 116.85 65.8081 51.0414 17.9769 13.1616 8.66741 34.0276 47.8313 43.4976 35.6327 30.1754 11.5566 18.6189 7.54386 11.075 7.22284 30.4965 27.2863 13.4826 9.95148 83.143 70.9444 15.8903 9.30944 20.866 69.3393 47.6708 43.0161 38.3613 34.1881 27.2863 18.7794 10.2725 33.0646 26.8048 21.6685 17.9769 10.5935 33.2251 6.90183 8.50691 17.8164 13.0011 15.4087 37.8798 10.2725 27.6073 20.866 12.5196 99.8358 90.2053 40.7689 20.866 49.4364 16.8533 12.3591 9.63046 38.2008 24.5577 16.5323 8.02538 6.58081 209.944 171.743 19.903 8.82792 7.06234 25.3602 20.7055 17.1743 8.66741 29.8544 14.4457 7.38335 61.956 12.0381 34.9907 25.5207 12.3591 15.4087 166.928 155.211 17.6558 11.7171 137.555 21.9895 13.0011 7.86488 115.566 102.564 8.3464 13.9642 9.30944 17.0138 13.6432 8.82792 12.5196 7.70437 7.22284 7.22284 7.86488 10.433 6.90183 11.2355 28.8914 38.2008 8.98843 8.66741 10.9145 17.3348 10.2725 20.545 12.1986 7.54386 97.4282 7.54386 57.4617 52.6465 30.4965 10.754 19.7424 29.2124 10.5935 6.90183 7.86488 6.74132 8.3464 15.4087 12.0381 8.82792 7.38335 23.5946 15.4087 11.396 7.86488 10.9145 6.74132 22.1501 7.38335 13.6432 10.433 13.8037 9.79097 7.86488 14.9272 6.58081 47.8313 33.7066 30.3359 22.3106 7.86488 21.508 9.46995 12.0381 79.9328 73.1915 12.1986 60.9929 8.98843 33.0646 27.9283 24.0761 17.0138 13.3221 8.18589 8.02538 17.9769 19.903 15.0877 14.4457 10.112 18.2979 14.6062
internal_count=10386 6570 3816 5904 666 851 2965 2854 138 111 582 2716 212 160 128 679 559 447 5225 5004 4972 3017 93 120 77 390 66 885 98 55 2596 117 75 2132 675 157 132 1457 68 284 254 199 2575 2445 57 2410 2153 84 50 257 126 131 324 174 269 217 172 145 94 69 2069 148 100 1921 1901 1862 1841 1486 355 294 266 1440 246 74 218 1194 1035 307 280 108 46 62 96 69 1955 1208 747 616 71 454 41 395 1181 192 414 130 284 48 73 189 93 133 1389 41 787 305 274 56 482 461 545 159 116 52 172 50 122 103 66 1159 1091 283 50 233 808 61 728 410 318 112 82 54 212 298 271 222 188 72 116 47 69 45 190 170 84 62 518 442 99 58 130 432 297 268 239 213 170 117 64 206 167 135 112 66 207 43 53 111 81 96 236 64 172 130 78 622 562 254 130 308 105 77 60 238 153 103 50 41 1308 1070 124 55 44 158 129 107 54 186 90 46 386 75 218 159 77 96 1040 967 110 73 857 137 81 49 720 639 52 87 58 106 85 55 78 48 45 45 49 65 43 70 180 238 56 54 68 108 64 128 76 47 607 47 358 328 190 67 123 182 66 43 49 42 52 96 75 55 46 147 96 71 49 68 42 138 46 85 65 86 61 49 93 41 298 210 189 139 49 134 59 75 498 456 76 380 56 206 174 150 106 83 51 50 112 124 94 90 63 114 91
shrinkage=1


Tree=1
num_leaves=300
num_cat=0
split_feature=26 15 20 5 1 11 9 19 5 5 25 22 14 25 25 5 11 2 13 5 5 11 3 1 9 15 2 25 13 3 25 22 19 2 3 1 15 13 16 2 13 15 15 15 13 13 14 19 1 5 20 19 9 14 5 3 14 15 25 20 11 25 22 20 25 14 5 22 25 25 2 9 2 3 19 25 16 15 13 19 15 15 15 14 5 14 11 25 25 13 11 22 20 1 5 5 16 11 22 25 5 14 25 5 11 25 9 3 1 1 14 20 14 14 1 25 11 13 9 13 22 15 20 13 22 15 16 14 25 9 14 22 11 11 14 1 1 25 25 3 19 11 15 15 22 16 2 15 2 14 5 11 14 20 11 5 22 11 19 25 2 2 19 22 11 11 3 2 15 14 16 1 25 3 25 13 2 3 3 15 15 20 22 14 15 20 25 1 2 3 3 15 20 13 9 25 3 5 15 14 11 16 5 14 2 15 25 14 13 13 16 1 2 16 15 1 2 2 14 13 11 15 26 13 14 5 11 11 11 20 3 14 25 1 2 13 13 15 1 1 16 25 1 14 15 5 15 11 11 14 11 2 3 13 5 11 9 25 11 3 2 13 14 13 25 22 13 5 25 16 2 2 9 16 25 25 14 5 14 5 3 1 11 15 13 25 20 13 14 5 1 13 13 14 9 1 1 5 14
split_gain=92.2801 49.0185 19.5349 14.7753 13.6062 12.9836 20.3108 12.0454 12.5738 12.7581 11.5617 9.20389 9.11709 9.09217 19.2269 9.05898 8.86617 10.2803 8.86187 7.52774 8.21212 7.24172 9.33245 10.2514 12.2863 9.56816 9.18316 9.34258 8.97642 7.17265 8.29443 8.97361 10.9855 8.23317 7.04577 7.01201 6.90582 6.86162 8.12546 8.14387 20.5792 7.64356 7.44323 12.8699 7.10012 6.80396 6.53696 6.83269 6.52817 8.34524 6.31526 6.23121 6.13734 6.1132 5.97641 5.88362 5.87347 5.83112 5.71869 11.8231 11.4115 9.1136 5.6623 6.66815 5.58541 9.14223 5.46468 5.42805 5.77372 5.4273 5.42034 5.40367 5.38919 5.32129 5.10329 9.91291 5.09897 5.09425 4.99283 5.73423 4.98995 4.84138 8.10809 5.7109 5.46395 4.83126 4.79182 4.776 4.7556 15.352 10.2093 7.58475 4.78404 5.49574 5.87754 20.4543 8.0415 5.06921 4.63479 5.87513 4.6313 4.55783 4.54688 10.5065 10.7403 8.98635 8.54145 4.51268 4.504 4.46141 5.08457 4.44878 4.9098 7.94853 4.42862 5.04905 4.41604 4.41087 5.5088 4.39029 6.3374 6.81222 5.9497 4.32945 8.29721 7.42177 7.13281 6.46939 4.2475 4.14358 4.12785 4.10725 4.09157 4.06811 4.05503 6.2385 5.4635 5.83794 4.22458 4.07018 3.99217 5.22687 3.89889 12.4226 11.2797 7.61889 4.37901 5.1936 5.68074 4.99047 4.31039 7.81134 5.52396 4.81541 5.64304 3.70878 3.68039 3.64819 8.54371 5.7543 11.1935 7.21647 7.00297 5.51649 5.20116 6.78141 5.18473 6.05542 4.73786 5.68929 4.54887 4.98119 9.5503 4.53551 4.33865 4.23368 4.18568 3.6295 3.61499 3.51265 8.25376 6.85802 5.89301 6.03504 5.78464 5.82881 10.4712 4.71344 8.41727 6.29529 6.13454 6.35894 5.76954 9.71163 4.662 6.74699 4.44774 7.51072 3.47617 4.27611 3.47403 4.45381 3.46117 3.41545 3.41227 4.1751 8.41983 5.07495 3.76481 5.20533 5.26937 3.23033 5.57847 4.95319 6.53221 3.2204 7.17952 3.21183 3.20995 4.00288 3.20475 3.13567 3.2456 3.13286 3.12383 3.12114 3.11735 3.07485 3.03334 3.02414 3.01762 2.95521 4.25085 2.8674 2.84528 2.80879 5.05141 3.49879 3.94531 4.31403 2.79615 2.7785 3.7562 5.15068 2.76585 2.75887 4.99502 7.03023 4.88336 4.5377 9.03526 4.13042 5.91315 4.3377 4.31825 3.29585 4.09974 3.12778 3.03722 4.14889 7.07588 7.55141 3.64701 7.15185 4.69244 6.17841 3.67411 3.08527 3.01967 3.00362 2.71748 4.33056 2.69451 2.6375 2.55896 7.18382 2.54366 2.72504 2.52549 2.49122 5.14105 2.46079 2.41975 2.37281 3.8012 2.36924 2.36594 4.09461 2.32589 3.07129 2.32137 2.30365 2.28442 4.21029 2.26657 2.25118 3.34963 2.1241 5.15409
threshold=1.0000000180025095e-35 -5.5363892999999988 32.238129800000003 0.63099039050000016 2.6723208365000004 -2.4749999999999996 53.471854060000005 19.844437480000003 3.6661272065000001 3.3812246580000003 24.355254630000001 23.833570745000003 12.659045540000003 108.23284455000001 106.73018835000001 17.070955285000004 -0.57499999999999984 1.0497817765000004 5.5824468115000014 8.3832874895000007 5.6832825320000007 -0.044999999999999991 4.8741707880000016 7.3073486415000009 11.518644675000003 -0.9720505009999999 9.9510133460000016 84.469197495000017 1.2393396530000003 3.4806494050000008 38.184398860000009 11.484254345000002 5.9921365575000012 3.7331438860000001 21.396843675000003 6.2967646165000009 -5.5708382294999987 1.4815340705000002 3.5000000000000004 4.7254787945000007 7.3355549345000002 -1.1898140629999998 -5.5749706274999999 -5.5848390739999987 3.9336664975000004 2.3583169330000007 7.5998611695000013 34.710752835000001 7.3663251880000011 3.4318209765000005 6.3329322450000012 122.66210375000001 12.069866685000003 10.299810310000002 3.4789256910000002 4.5322488325000014 12.680371940000002 -1.0815294309999997 34.417875335000005 5.7353156105000016 -0.70499999999999985 36.242360170000005 13.760939630000001 18.124870695000002 58.871856570000013 11.679671740000002 9.1283427750000019 17.907757695000004 53.197447645000004 51.80444686500001 11.210536025000001 5.800553862000001 10.340327205000003 4.4512884760000011 53.449235520000009 115.90994910000002 29.500000000000004 -1.2324710824999998 14.681072710000002 44.722100335000007 -5.5757426329999991 -0.96743055599999994 -0.91248164249999986 10.092854305000001 1.9243694925000001 9.5198148150000019 -3.0249999999999995 46.81751357000001 61.392264220000008 3.2671174495000002 -0.90499999999999992 11.484254345000002 34.202410885000006 10.791786150000002 6.0925476285000011 6.9450331920000012 2.5000000000000004 -1.1049999999999998 17.433036550000001 31.503102560000006 3.0811178134500006 12.432111180000001 23.844375395000004 1.0781810310000004 -0.86499999999999988 27.583333335000003 12.429484650000001 4.7897561250000011 15.786040385000002 5.8978093675000007 10.381622105000002 18.560092300000004 11.331239825000003 10.363107210000001 5.6050558580000009 34.172453705000002 -1.5249999999999997 12.763574990000002 5.800553862000001 4.929604888500001 11.933577050000002 -1.0166279274999999 12.058503625000002 6.7632597815000013 27.508427470000004 -5.5891989464999989 28.500000000000004 12.153932615000002 91.291550140000012 11.663725610000002 9.4469675925000018 12.276537910000002 -4.3449999999999989 -2.3949999999999996 10.378758660000001 6.0834051080000009 5.439958926500001 43.182361115000006 51.80444686500001 4.7090744465000007 20.519753810000005 -1.4667532469999998 0.25196971850000011 0.31944433250000004 5.7634018465000008 1.5000000000000002 3.4828629360000005 0.20153167150000004 3.4349722910000007 9.9443711025000017 2.5151904575000006 -0.90499999999999992 9.9732870370000022 5.7353156105000016 -1.5349999999999999 13.705773290000002 44.196902555000001 -1.1049999999999998 17.962122975000003 24.750000000000004 1.8193991020000002 2.1740468275000002 6.0711935880000008 5.7634018465000008 -0.34499999999999992 -0.24999999999999997 3.2368459985000002 3.1487379815000005 -0.14355698149999999 9.4418750000000014 6.5000000000000009 4.6041158820000012 29.416666665000005 2.8077139160000004 33.994583333000008 2.5026530700000005 2.0929026680000002 3.1493387360000002 2.9329515155000005 -0.93040967599999991 -0.73882386399999989 18.124870695000002 11.625628780000001 10.220709545000002 -1.2994978359999998 12.748299520000002 28.704150005000006 3.3509536315000008 2.1646160360000004 1.8407460085000003 2.5639593495000006 -1.0699659044999998 6.5618460450000011 3.4216966830000004 5.5613591935000013 30.204630060000003 2.7392836260000002 1.4544554025 -1.5691267519999996 10.087874070000002 -1.5449999999999997 9.5000000000000018 2.4415093710000009 10.370016375000001 2.7669779335000002 0.17178949350000003 21.172453705000006 10.276481480000003 8.0518176055000001 6.5391941185000002 4.5000000000000009 5.7001422830000008 3.2789147080000007 5.5000000000000009 -1.5676166854999998 24.491437720000004 16.338269825000005 6.1425961880000015 8.690972222000001 3.4575610020000007 -0.69499999999999984 -5.5616225529999985 1.5000000000000002 3.2026382070000001 10.370016375000001 2.8462166925000005 -1.4249999999999996 -0.57499999999999984 -1.325 5.9179394875000009 1.6336304535000001 12.714713565000002 117.50499848000001 3.6723208365000004 12.533173735 2.9175656915000006 1.5212919710000004 -1.1793981484999998 4.1688649755000009 4.5375459735000012 4.5000000000000009 15.578125000000002 4.4519983825000002 8.9592937450000019 -0.7439333239999999 4.5650482475000009 0.0083388645000000011 -1.4249999999999996 -0.98499999999999988 10.351768395000002 -0.57499999999999984 4.8337950240000014 5.8295223825000013 3.4513698320000006 4.7757859045000011 -2.0949999999999993 29.697436990000003 42.200850340000009 -1.3749999999999998 9.5716871760000029 8.0111483220000022 6.1863133155000005 11.243749545000002 3.6525468425000005 53.18175320000001 27.397786315000005 3.0166132725000003 5.7518289145000008 56.677235795000009 9.5000000000000018 5.9847944520000009 6.5446277030000006 5.5870776705000011 3.5000000000000004 55.097130575000001 53.427681920000005 10.262048610000003 1.4574204405000002 12.278439730000001 1.7171343490000004 1.8214856270000002 9.5262581755000024 -3.0249999999999995 -0.3022439529999999 1.0758563995000003 79.286180560000005 79.739534075000009 3.6296017245000001 11.832211030000002 3.3822902600000004 5.548930265000001 2.6370049055000004 1.5212919710000004 10.763679750000001 11.966646835000001 25.893702940000004 21.940066130000002 2.2733091345000003 10.461944445000002
decision_type=2 2 2 2 2 2 2 2 2 2 2 2 2 2 2 2 2 2 2 2 2 2 2 2 2 2 2 2 2 2 2 2 2 2 2 2 2 2 2 2 2 2 2 2 2 2 2 2 2 2 2 2 2 2 2 2 2 2 2 2 2 2 2 2 2 2 2 2 2 2 2 2 2 2 2 2 2 2 2 2 2 2 2 2 2 2 2 2 2 2 2 2 2 2 2 2 2 2 2 2 2 2 2 2 2 2 2 2 2 2 2 2 2 2 2 2 2 2 2 2 2 2 2 2 2 2 2 2 2 2 2 2 2 2 2 2 2 2 2 2 2 2 2 2 2 2 2 2 2 2 2 2 2 2 2 2 2 2 2 2 2 2 2 2 2 2 2 2 2 2 2 2 2 2 2 2 2 2 2 2 2 2 2 2 2 2 2 2 2 2 2 2 2 2 2 2 2 2 2 2 2 2 2 2 2 2 2 2 2 2 2 2 2 2 2 2 2 2 2 2 2 2 2 2 2 2 2 2 2 2 2 2 2 2 2 2 2 2 2 2 2 2 2 2 2 2 2 2 2 2 2 2 2 2 2 2 2 2 2 2 2 2 2 2 2 2 2 2 2 2 2 2 2 2 2 2 2 2 2 2 2 2 2 2 2 2 2 2 2 2 2 2 2 2 2 2 2 2 2
left_child=1 5 21 10 77 6 13 8 9 29 16 19 64 14 34 -8 -2 130 71 20 62 22 23 46 25 -25 28 50 -24 58 98 32 33 -32 72 -4 76 -9 41 57 44 -39 43 -42 -41 -43 -3 107 49 -11 101 88 -21 -34 -50 -51 100 -40 102 69 61 203 111 224 226 -66 -29 68 134 109 108 -7 -1 -70 80 -76 231 -5 86 -80 123 83 -83 84 -63 -79 -17 -47 91 -90 200 92 -37 94 96 -96 -94 129 99 -31 -30 131 106 104 -104 -106 119 142 -52 177 -111 112 113 -10 115 179 -26 245 -119 120 121 -6 223 124 127 -125 295 -20 -74 -98 -18 -28 -67 -95 135 136 -33 -138 139 -136 141 -93 146 144 -144 -145 147 148 157 -150 151 152 -148 154 -152 -130 -68 218 159 164 -161 -162 166 -160 168 -166 167 170 227 -170 171 174 -173 176 175 -163 -167 178 235 181 276 184 183 -183 196 187 -187 189 273 -186 192 -192 193 -190 -193 -196 197 -105 199 -168 201 285 -200 -61 279 206 -206 290 209 210 -209 213 -213 214 -85 234 -217 -22 -48 283 229 -134 -223 -123 -64 -201 -13 -159 -133 -101 -87 232 -15 272 278 236 -60 238 -237 -240 -113 -147 243 -243 -155 248 251 -248 288 257 -251 252 -247 -254 -255 -253 258 -250 262 267 261 -261 263 266 -264 268 -257 269 -266 -260 -271 -272 -229 -189 275 286 277 -181 -82 280 -23 -114 -233 284 -220 -91 -135 -288 289 -102 -208 -279 -156 -294 -262 296 -127 298 -216
right_child=3 2 35 4 7 18 15 37 11 48 -12 12 -14 36 -16 78 17 -19 74 52 217 204 26 24 116 -27 27 66 56 30 31 67 53 -35 -36 51 -38 38 39 40 42 45 -44 -45 -46 87 47 -49 54 55 70 -53 -54 -55 -56 -57 -58 -59 59 60 -62 81 63 -65 65 132 156 -69 73 -71 -72 -73 128 -75 75 -77 -78 85 79 -81 215 82 -84 211 -86 230 -88 -89 89 90 -92 140 93 133 95 -97 97 -99 -100 220 117 -103 103 114 105 -107 -108 -109 -110 110 -112 240 281 -115 -116 -117 -118 118 -120 -121 -122 122 -124 125 -126 126 -128 -129 155 -131 -132 228 221 274 138 -137 137 -139 -140 -141 -142 -143 143 145 -146 241 150 -149 149 -151 153 -153 -154 244 292 -157 -158 158 163 160 161 162 -164 -165 165 173 198 -169 169 -171 -172 172 -174 -175 -176 -177 -178 -179 -180 180 -182 182 -184 -185 185 186 -188 188 190 -191 191 194 -194 -195 195 -197 -198 -199 202 225 -202 -203 -204 -205 205 -207 207 208 -210 -211 -212 212 -214 -215 297 216 -218 -219 219 -221 -222 222 -224 -225 -226 -227 -228 233 -230 -231 -232 282 -234 -235 -236 237 -238 -239 239 -241 -242 242 -244 -245 -246 246 247 -249 249 250 -252 255 253 254 -256 256 -258 -259 259 260 294 -263 264 -265 265 -267 -268 -269 -270 270 271 -273 -274 -275 -276 -277 -278 291 -280 -281 -282 -283 -284 -285 -286 -287 287 -289 -290 -291 -292 -293 293 -295 -296 -297 -298 -299 -300
leaf_value=-0.05643373094808643 0.02282722027795421 0.036493654436252958 -0.066532747268508205 0.062390684684238508 0.047287970383108939 -0.093573703801531849 -0.14991825956378871 0.024007147880936691 -0.068545725553923173 -0.1348650737205743 -0.11474075312030513 0.036391698488857496 0.037241395864150366 -0.0074859790591036181 -0.14601750588154411 0.015790287028201715 -0.13218575246246297 0.0056909114297227538 -0.0029786084629243956 -0.0809707176283265 3.4490136053188765e-05 0.042758026634553845 -0.056787167301675157 -0.020865609865574775 0.050230316812558753 -0.12972967074727323 0.026622664458613072 -0.026487990052614836 -0.027879847085324885 -0.032135125217032864 -0.12734512440892021 0.020325507253790457 -0.044751923521959849 -0.038806059443258621 -0.082095239566071329 -0.062364740672150323 -0.063154938851462547 -0.14029029383680788 0.062677734714022298 -0.059766833524397434 0.03326830177490879 -0.10763191232701144 0.03591405263716458 -0.096341091401894632 -0.16033734525966112 0.0061749436630685051 -0.021481006019944685 -0.053472981306417339 0.017730060663350086 -0.012175125439517541 -0.025894400880410801 -0.055356428921925119 0.0092332538201120151 0.049185259671012768 -0.07036687633687369 -0.098561494276276307 -0.033364294020644281 -0.030220776910928161 -0.0077361966154435319 0.0034519457496794363 -0.094440595075155481 -0.041969166375521297 -0.00034353909034594374 -0.032147041497758225 -0.10595477731494121 0.020459386652125339 0.044790669216901467 -0.061968877592733007 -0.085779909845584507 -0.042421771501535588 -0.0016425953788830666 -0.00923450965349361 0.062520765260676792 0.0031133029625643148 -0.085514522052164518 0.0060233416378054558 0.053731476690209626 -0.02460699935419066 -0.13567000551169764 -0.052851663384166261 0.038499366670560177 0.062870075769100114 -0.036648773904625266 -0.10613253797364582 0.022839074912921892 0.0064666622899439688 -0.060760696255278447 -0.073426032789754389 -0.094004453543007793 0.062412238656573318 -0.062060104463309708 0.062567489216920125 0.047216508395096057 0.062412513774016826 -0.13767925541442896 0.0090679870030841488 -0.033207259418918771 -0.074859875361953682 0.06287071848859592 -0.030004156590732259 0.017046018959397811 0.049638039720545736 -0.15132083698355872 0.018523753818038301 -0.085233769306762422 0.018591528661061254 -0.076682091713098921 -0.040655894681975148 -0.10205957930506582 0.013285455502508739 -0.069696359242776354 -0.00517529364637399 -0.090816408276728114 0.023232971921934728 -0.066085151872555578 -0.082344365329715744 -0.027028627911741734 0.046887438542247972 -0.033901818066580762 0.050306343649517117 -0.06396994741949559 0.032469515091191635 -0.068014522195893573 0.03896409029141331 0.035258170726655193 -0.01076885501544543 -0.071906712502042947 -0.087148610296099299 -0.044302148281626576 0.036735761997379754 -0.059883931930356349 0.00014384091913772335 0.0018090593729531595 0.050596156966763561 0.043191639010839687 0.025662302895485045 -0.019396039225401975 -0.10587928745366347 -0.030015365439337877 -0.013918096689849183 0.062232474039843381 -0.01589307873592926 0.0071816869834179483 -0.050096712098884458 -0.1105547187468144 0.062254479779466403 -0.064573893751299669 0.05408327580567867 -0.078365810562860586 -0.00011422667145410788 -0.037824312326032783 0.044927471154211612 0.010175349257497357 0.062402997449954367 -0.012943542088623854 0.031409926547808324 -0.0069408583204824629 0.054897259110148339 -0.0055121052286222537 -0.093771016869274471 0.062365287292315413 -0.051869721653511391 0.062578910193153467 -0.092998115415229343 -0.065905585012840676 0.016124735683309549 -0.056467448781890188 -0.066402314265847709 0.034664680074752208 -0.055451895182196981 0.032614817500347969 -0.061555676410991411 0.045508338795739123 0.051726280624870218 -0.086423765143248538 0.020210787236626573 -0.051669853298358263 0.041203665916595009 -0.040208809404419836 -0.0061333892021981518 -0.055773169403240563 -0.054784189413472961 0.05201836519560548 0.032950844726362324 -0.11039337978607822 -0.010942562558893844 -0.11417784970531311 -0.011925447171863493 -0.14796129334029942 -0.02470668360022301 0.021719689504399693 -0.092407000448229415 -0.013278173626307677 -0.030000717901413555 0.019170120735040055 -0.071508734510745062 0.033092306491109814 -0.061733870812782365 0.0077482457398295838 0.04748734943939429 0.062604651484505697 -0.033160446147526987 0.062447893771576501 0.062790620348672749 -0.062895333402000514 0.055733476003112362 -0.046693457034962055 -0.022207195265410089 0.062084847807032821 -0.019166816364111546 0.04483015768537843 -0.1175399471034529 -0.030399862663082169 0.0044377414381599348 -0.0014674318491935058 -0.034791384052760922 0.050737256657952826 0.049331237939819833 -0.024186154362978225 -0.017889891527193624 0.06287073036053413 -0.089656727147861826 -0.029891572465217838 -0.030884888535308703 0.050431021005830884 -0.016461186263739661 -0.022959250725938796 0.030211354742464409 -0.065532182591781299 0.024575362806154612 0.062618441090817309 -0.051676750400893305 0.052227526282948848 0.062456902959415354 0.056271526313326985 0.045659834654519151 0.062579847224113472 -0.035589118644222102 -0.047921561483626349 0.031681558238903278 0.049639530186799584 0.027841544290537812 0.041641939858396954 -0.054324900640052742 0.031340192225704083 0.044849534902381416 0.033805767314173861 -0.06647574502132135 -0.038331904466123057 -0.025431684476549685 0.047716903443234801 0.05196438011385477 0.02449295680075194 -0.080571712616738234 -0.0035631447297948243 -0.0060649141680755485 -0.021934550303042047 0.01767044499166177 0.0035087054215187487 -0.068805799495221087 0.055684308168364033 0.02637062945140688 0.062239414128420802 -0.052479713721579606 -0.01708667294597668 -0.04792502692909055 0.052207439800986327 0.048032525836520186 0.036584526624013958 0.062193464244175725 -0.023293260144625193 0.043382354531758344 -0.011296794270413779 0.042514534584763758 0.048060645264677848 -0.055725083270556565 -0.018912301873771478 0.062848267686791262 -0.00962815095506344 0.062420299730211327 -0.010646696306083919 -0.029318169920367412 0.0011042080421073484 0.045552628719996782 0.028854116204379762 0.0029525305701068633 -0.027413290034716809 0.046858305042906917 0.016496994409096615 0.062197657082023655 0.0070069926086726271 0.011205325019183116 0.03569040502963497 -0.023262541401214924 0.0074535819267585058 -0.027870078581534504 0.050561936204565172 -0.057951396367005796 -0.075391115293390917
leaf_weight=3.3620946556329789 4.9517774134874388 23.262172058224678 4.6245918571948996 6.3597574234008816 6.4647036790847876 4.1635200679302207 3.285584598779681 3.8737702220678321 3.4225713014602714 4.2913291752338436 5.9045020043849936 3.8324065804481506 5.9258812367916098 7.8137077838182538 3.5891476273536673 3.2064397335052517 3.3240014016628248 4.3760046064853677 3.8222437947988492 3.8118657916784278 3.9997514039278057 25.785405725240711 3.3537646234035483 4.1890954226255408 4.1265601366758347 3.8950507193803778 4.1715310364961642 4.4910094290971783 3.8655574023723593 6.3201556205749574 4.4602601230144518 3.5427712351083782 3.2520996630191794 6.3834383636713028 3.4445746243000022 3.20246697962284 3.5717317163944236 3.4420575499534598 3.5433942675590515 3.259736597537997 3.3941929787397394 4.1002926528453809 5.547283232212064 4.3958971798419952 3.8016499429941177 4.4029523879289627 4.1648855954408637 4.3118955940008155 4.4687259197235099 4.6754087656736356 3.3861847519874555 5.5023087710142127 3.7317235320806503 3.7051713019609451 3.3821558654308319 3.4075841903686523 4.169015869498252 3.2279972285032299 4.2436143755912834 7.5912631303071958 5.3980935066938391 5.7166381329298002 3.9828158468008104 4.2127897888422003 4.7358719706535366 3.5503573566675248 16.850504681468014 3.6000441312789908 3.3700263500213614 5.2192518860101691 4.6664025634527206 3.4921407997608185 3.3588098138570768 3.3640805184841156 4.7169347554445249 7.9295963943004608 5.5104283243417731 6.2974838912487021 3.5133740007877332 5.1592890620231628 6.2415622770786339 3.7355355769395828 4.5269524157047254 3.8333284705877295 7.5443305373191833 5.3314378410577756 5.6402028799056998 3.2942465096712112 5.4115368872880962 3.3436557948589343 4.8136785924434635 3.3671324104070672 6.547070160508162 4.2973986417055157 3.7398820966482145 6.5044511407613754 4.6895655244588834 3.2652848660945883 4.8755915313959113 3.2340531945228639 4.4231179207563427 3.9540535807609549 3.2662655264139167 5.6537787318229622 5.3966955542564374 3.3952806293964386 3.9346997439861289 4.3538851588964453 4.5479139536619186 4.0432839989662162 3.3968305736780167 5.8717884272336942 3.2530586123466483 7.5921234488487244 6.1989931315183631 3.4388821572065345 3.3520153015851966 3.1999359279870969 6.1950456351041794 4.032451629638671 3.9358129203319541 4.9774548709392565 3.8083578944206229 10.661579787731165 3.6724676191806784 4.7808611690998166 4.0783321410417548 5.668580636382103 3.2637512236833572 3.8608218133449554 4.8609405308961868 3.2044284492731085 3.2693742662668273 4.1693794131279045 15.51852104067803 8.0843789577484113 4.865021809935568 3.2582188546657562 3.2334546744823447 3.9048910588026038 7.5727663338184348 5.7431713193655023 3.6322229802608508 3.9961008578538921 4.6241750419139862 4.1075650900602367 5.1149402111768705 6.0350695401430121 3.5450797379016858 4.791131004691124 4.4837063848972276 5.7237117439508429 4.7825834155082703 10.501893341541289 3.9808072000742021 3.206707239151001 4.3194687217473975 13.469230622053145 3.6759140938520423 3.1993435919284812 4.6042318642139426 4.8060306757688576 3.8498758077621451 3.5343774706125259 3.506055340170863 6.4952388405799848 3.3613134026527423 5.8089283257722846 3.6287193000316611 3.3853748142719269 5.0586689114570609 3.2196787446737272 5.8994157612323761 4.743348002433776 3.6909830272197715 3.5359380096197128 3.5055366456508636 11.619305372238157 3.3984285593032828 5.0638483613729539 5.8920816630125037 4.6802417039871198 4.7851780354976645 3.3724630773067474 4.0426840484142357 4.0643594115972501 6.208212748169899 4.0232684314250928 3.7889219671487826 4.5628749281167984 6.1101884692907253 3.2238164693117239 3.27510766685009 3.2342866212129593 4.5682759881019575 3.7232231497764587 5.1061921566724768 6.0178558826446533 7.3174873888492566 3.3450799882411957 3.8540794104337701 4.1772326231002808 4.7818144559860229 3.5632746070623398 3.1907054036855689 7.481793373823165 3.2035813927650434 3.536489397287375 7.2059852778911582 6.1116209775209418 17.130419224500656 3.6000738441944113 3.7494393736124039 5.9961908161640158 8.5645230710506528 6.1487223356962186 4.0829459726810455 18.997993960976601 4.0284732133150092 4.9707693606615058 4.0646863877773241 3.9295459836721314 5.3842034339904785 3.2095671445131302 12.652403593063353 4.4415605664253235 5.234001964330675 10.914176359772688 3.8952510505914697 11.791155979037283 4.3406261950731277 3.9240069091320038 4.8181648850440979 3.9862478971481314 8.2446633726358396 5.8332678675651568 6.4154435098171234 4.5666395872831336 3.604400709271431 3.2247618138790131 3.8532317876815796 4.3232309222221357 7.2729172259569168 3.413006603717804 22.5613754093647 5.7125324457883861 3.4980356991291046 3.4927827268838874 3.9715615361928922 5.1167696863412848 24.127899214625362 14.653176069259642 3.9639310240745527 3.4973322153091431 3.7965884655714035 5.8528237044811231 4.146998018026351 6.6981636434793472 9.3511239588260668 4.1837942153215426 7.345798045396803 4.1525469869375229 7.5755369365215328 4.7848627567291251 3.1525430530309739 3.1736865490674964 5.0294538885354996 42.269504353404045 15.534428894519804 7.2425627559423473 3.5001902878284445 8.00444647669792 6.0922052264213553 4.9771351516246796 3.3971717804670325 4.2170702219009391 4.8871359676122657 4.8707213252782804 4.8392199277877808 9.709723621606825 5.4607897102832785 3.2534675300121307 4.8620635569095594 14.812675788998606 20.917327284812927 3.3577421754598618 4.4231363385915756 3.1969549506902695 4.3869739323854438 25.362665519118309 5.4126761108636856 3.8792454749345779 22.444047823548321 3.5010177642107001 3.6444193124771118 3.8656247854232779 4.1664385795593262 6.2021471709012976 3.253665715456008
leaf_count=21 30 147 28 40 40 26 20 24 21 26 36 24 37 48 22 20 20 27 24 23 25 164 21 26 26 24 26 28 24 39 27 22 20 39 21 20 22 21 22 20 21 25 34 27 23 27 26 27 28 29 21 34 23 23 21 21 26 20 26 47 33 35 25 26 29 22 105 22 21 32 29 22 21 21 29 49 34 39 21 31 39 23 28 23 47 33 34 20 33 21 30 21 41 27 23 40 29 20 30 20 28 25 20 35 33 21 24 27 28 25 21 36 20 47 38 21 21 20 38 25 24 31 23 67 23 30 25 35 20 24 29 20 20 26 97 50 30 20 20 24 48 36 23 25 29 26 32 38 22 30 28 36 30 66 25 20 27 85 23 20 29 30 24 22 22 41 21 36 23 21 32 20 37 30 23 22 22 72 21 31 36 29 30 21 25 25 38 25 23 28 38 20 20 20 28 23 32 37 46 21 24 26 30 22 20 47 20 22 46 38 108 22 23 37 53 38 25 119 25 31 25 24 33 20 80 28 32 69 24 73 27 24 30 25 52 36 40 28 22 20 24 27 46 21 142 36 22 22 25 32 153 93 25 22 24 37 26 42 59 26 46 26 48 30 20 20 32 268 98 46 22 51 38 31 21 26 30 30 30 61 34 20 30 93 132 21 27 20 28 161 34 24 141 22 23 24 26 38 20
internal_value=0 0.181489 0.273945 -0.305548 -0.274887 -0.324119 -0.642583 -0.304743 -0.261744 -0.343218 -1.08469 0.0314011 -0.388438 -0.301319 -0.821228 -1.47463 -0.676696 -1.12344 -0.0726193 0.222868 0.323654 0.329024 0.293269 0.182066 -0.611761 -1.46636 0.415786 0.0369533 0.490163 -0.303232 -0.0733891 -0.261319 -0.87524 -1.50448 -0.36835 -0.126129 0.0434407 -0.793847 -0.910215 -0.582398 -0.897831 -1.49467 -0.166991 -0.797389 -2.27822 -1.11213 0.218031 0.180852 -1.11771 -1.57024 -0.364397 -0.0718649 -0.726958 0.105507 -0.404441 -0.971868 0.510428 0.36784 -0.382894 -0.225643 -0.489435 -0.378147 0.0886298 0.480887 -0.612772 -0.897477 0.472162 -0.054112 0.0327193 0.122227 -0.88807 -1.10205 -0.0357945 -0.827451 0.0224236 -0.562374 0.216738 0.490931 -1.18887 -1.72804 0.127665 -0.540638 0.16689 -0.661271 -0.101979 0.189508 -0.6603 -0.557854 -0.0132314 -0.389522 0.023151 0.116855 -0.0608382 0.0118003 -0.283236 -0.890096 0.0553224 -0.437277 0.364344 0.192985 0.528963 0.0689976 -0.507903 -0.588325 -1.47801 -0.902771 -0.159055 0.197916 -1.39106 0.222854 -0.492008 -0.211514 -0.512558 -0.105704 -0.498662 -0.453691 0.312033 0.545053 -0.127699 0.0455962 -0.12735 0.118274 -0.327685 -0.0993742 -0.571148 0.126014 -0.286321 -1.06502 0.338024 -0.032507 -1.78493 -0.255068 -0.538879 0.367908 0.169311 -0.161888 -0.629746 -1.08169 0.458023 0.634205 0.708105 0.262113 0.212043 -0.122288 -1.17518 0.253829 0.24947 0.168307 0.139461 -0.667834 0.442012 -0.0313359 -0.569086 0.551601 0.289731 -0.135597 0.68471 0.176286 0.0908939 0.151175 -0.0501986 0.0414433 -0.0524737 -0.967929 0.376805 -0.0680645 -0.143314 -0.404294 0.572556 -0.176607 -0.199568 -0.403298 0.154145 0.229189 -0.825753 -0.426334 -0.152781 0.346815 0.169569 -0.416392 -0.083374 -0.512273 0.161459 -0.360817 -0.631441 -0.786241 -1.46665 -0.632724 -0.477395 -1.2992 -0.74846 -0.390185 -1.36164 -1.87278 -0.827718 -0.430968 -0.116583 -0.457136 0.216148 -0.186705 0.436258 0.147224 0.587326 0.448149 0.588945 0.422092 0.308933 0.426286 0.600077 0.42742 0.667177 -0.871979 -1.46169 -0.716355 -0.937261 0.440421 -0.0132238 0.815152 0.410062 0.488248 0.469659 -0.806379 -1.10214 0.152652 0.765491 0.220212 0.0425726 0.725035 -0.717788 0.256551 0.633329 -0.00398135 0.30581 0.485769 0.680598 0.288229 0.691708 0.0386096 0.309234 -0.206652 0.330867 0.51633 0.31689 -0.168159 0.824134 0.570169 0.502534 -0.325946 0.732264 0.49471 0.69837 0.53649 0.0683296 -0.352155 -0.809753 0.588215 0.540645 -0.063503 0.570774 0.677217 0.26683 -0.427919 0.359096 -0.0306759 0.566548 0.331513 0.417335 0.78993 0.550601 0.533107 0.764019 0.461937 0.306837 0.363587 0.172935 0.00563414 0.241805 0.46117 0.349621 0.805978 0.668493 -1.20131 -0.449373 0.594024 0.405774 0.652398 0.406304 0.0749366 1.00973 1.10985 -0.259184 0.799054 0.446482 0.554706 0.793814 0.0802994 0.355814 -0.685102 -0.436387
internal_weight=0 1048.61 886.5 618.491 595.074 162.106 71.5301 572.745 526.461 411.964 23.4172 114.497 35.8616 50.7252 20.2251 20.8049 17.5127 12.5609 90.5754 78.6356 71.092 779.222 684.992 359.076 15.5627 8.08415 325.916 53.4867 272.43 391.739 100.828 70.5424 17.801 10.8437 16.6359 107.279 30.5001 46.2835 42.4097 27.1702 20.3988 15.2395 13.3374 7.79009 7.06139 11.7975 343.513 320.251 20.2252 12.3743 27.8258 102.654 7.54359 6.95727 7.85088 8.08299 269.076 6.77139 290.911 128.841 73.2755 67.8774 48.0943 20.848 29.9358 20.8694 25.661 52.7414 49.1414 55.5652 12.6005 7.65566 13.1914 6.73411 82.9198 12.6465 26.9284 22.3293 17.5193 8.67266 70.2732 56.7228 8.26249 48.4603 13.261 15.9695 8.84664 7.6972 97.1516 24.9579 19.5464 72.1937 55.5107 52.3082 28.6071 10.2443 18.3627 11.8157 30.2856 25.4101 264.907 15.2253 162.07 131.707 12.0582 8.79198 30.363 315.939 7.9341 50.346 7.44011 27.2462 17.5212 11.0147 119.649 113.45 7.47858 261.041 9.39498 26.4283 22.3959 18.4601 11.9954 40.7161 13.1633 27.5528 16.8913 9.49082 9.82927 8.55039 8.18494 11.2712 16.1335 23.7011 42.4073 19.7504 11.666 8.12324 22.6569 19.4234 16.6831 9.1103 311.585 31.3692 8.2564 23.1128 280.216 197.122 191.087 8.33621 83.0941 15.6212 9.89752 67.4728 34.4096 6.47046 21.17 182.751 133.857 126.646 66.9204 63.721 59.1168 7.21029 59.7261 18.2502 55.2669 32.0196 41.476 7.01409 26.2107 21.152 9.11909 14.7441 12.033 8.34197 10.0008 42.9059 31.2866 110.011 24.593 85.4181 12.8379 8.0527 72.5802 55.8024 10.2726 45.5298 36.9242 8.60556 27.9238 17.6255 10.2983 7.02321 11.5153 8.2915 16.7778 11.6716 23.2473 11.148 14.7327 10.8786 12.0993 11.1545 94.2292 53.2733 45.7915 42.6008 33.9845 26.7785 20.6669 35.1994 7.34951 27.8499 21.8537 29.5571 10.2317 22.9977 48.8941 44.7292 19.0899 12.5831 9.31375 8.18702 16.6352 7.78664 9.06641 34.4619 7.09968 15.0252 9.67206 21.4179 12.6319 20.9926 19.3254 27.8881 10.6591 17.2291 12.6624 6.82916 9.72502 19.1167 15.0092 7.73624 33.0633 251.646 177.559 6.99082 74.0872 39.9144 29.2447 170.568 16.9704 11.2579 7.29392 153.598 138.945 10.6697 134.798 89.6944 19.3266 8.33634 45.1033 15.6671 29.4362 21.8607 10.8823 70.3678 18.687 28.0983 18.7472 11.5046 17.0064 9.0004 19.4037 16.0065 18.701 13.8138 11.0808 40.9559 31.2462 6.50653 8.78607 39.7585 24.9458 6.7014 11.7895 7.62009 34.1728 29.7858 8.61626 8.74997 29.9259 25.9451 10.9902 12.8129 8.9473 18.0203 11.8182
internal_count=10386 6570 5567 3816 3674 1003 439 3535 3251 2541 142 710 221 313 125 126 106 76 564 489 443 4901 4307 2254 97 50 2053 333 1720 2416 623 436 109 66 103 666 188 284 260 167 125 93 82 48 43 72 2157 2010 125 76 173 638 46 43 49 50 1699 42 1793 794 451 418 299 131 184 128 160 327 305 343 78 48 82 42 516 78 166 139 106 52 438 349 51 298 82 99 54 47 604 155 122 449 344 324 177 63 114 73 187 157 1673 95 999 812 74 54 187 1983 49 311 46 168 108 68 738 700 47 1649 58 163 138 114 74 254 82 172 105 59 61 53 49 70 99 147 263 122 72 50 141 121 105 57 1956 197 52 145 1759 1237 1199 52 522 98 62 424 216 40 132 1147 840 795 419 399 370 45 376 115 346 200 261 44 164 132 57 93 75 52 63 265 193 679 151 528 80 50 448 344 63 281 228 53 172 109 63 43 71 51 104 72 146 70 92 68 76 69 594 335 288 268 214 168 130 216 45 171 134 184 63 144 307 281 118 77 57 51 105 49 56 217 44 93 60 132 78 132 121 172 66 106 78 42 60 120 94 48 208 1591 1122 44 469 252 185 1078 107 71 46 971 878 67 852 567 121 52 285 99 186 138 69 446 118 178 119 73 107 56 120 99 115 85 69 259 198 40 54 250 157 42 73 47 217 189 54 54 188 163 69 80 56 111 73
shrinkage=0.05


Tree=2
num_leaves=300
num_cat=0
split_feature=26 15 7 24 21 8 7 21 4 1 7 8 8 19 0 8 15 8 8 8 15 0 0 14 15 7 7 19 21 0 14 12 1 1 4 21 4 7 0 0 0 15 0 4 15 15 12 3 0 18 0 12 7 0 14 24 14 14 14 8 0 0 1 3 4 7 14 18 4 18 15 12 1 3 1 15 15 8 1 0 14 8 15 7 3 7 21 15 8 3 7 1 19 12 19 19 3 1 4 15 15 14 14 7 12 0 8 3 3 1 15 24 0 12 14 14 14 15 15 15 14 4 3 7 15 19 4 4 3 19 3 15 8 14 12 8 8 3 8 7 1 3 4 4 7 3 15 12 1 0 21 14 14 14 24 4 4 14 24 0 3 12 4 7 1 1 0 15 8 8 1 21 4 15 14 14 8 12 3 4 14 3 1 15 12 8 4 14 14 24 24 19 19 14 14 15 0 0 21 19 0 4 3 12 4 12 3 4 3 4 14 1 3 1 14 14 3 0 24 0 1 4 12 8 21 15 7 3 21 15 4 24 7 14 14 0 15 0 0 15 3 14 1 8 4 7 12 3 3 3 15 12 8 7 8 15 21 8 18 14 7 18 4 3 24 12 3 4 4 3 7 7 14 3 14 4 3 8 18 12 15 4 14 0 4 4 7 1 1 15 14 4 1 7 15 1 14 0 3
split_gain=82.9091 44.3715 18.0883 15.3909 11.7157 10.6741 13.3971 10.9918 10.5987 13.8921 10.3494 9.88845 14.8911 9.41075 8.66248 8.5788 9.21079 8.26248 8.55034 8.18223 7.77526 7.17909 11.1022 7.14506 7.86015 6.96309 10.2519 8.98497 7.88428 6.88711 8.85944 10.2477 8.02783 6.76255 15.5141 6.65268 6.94985 10.1476 6.80506 6.59776 8.03102 6.84257 8.49392 6.43918 6.02158 14.7125 8.42447 7.8115 6.71492 10.7162 5.89516 7.76622 5.65304 13.7116 11.8143 7.5101 6.44068 9.38177 6.07684 8.51347 11.6535 5.60153 7.99915 7.32653 8.15267 5.34421 5.26211 7.03602 6.40677 5.25464 11.462 5.2444 5.22592 5.20266 7.02011 5.04949 8.95923 6.46829 5.97775 6.73858 6.36695 7.61674 5.35117 4.92784 9.58943 7.43553 4.87261 4.77303 4.75111 6.56902 6.15607 4.73163 4.64984 7.33756 4.65081 5.4843 4.54025 4.50079 6.19179 4.46166 5.70819 4.36907 4.29656 4.28249 6.2512 6.16208 6.12901 5.59748 7.11613 4.26968 4.57894 5.59485 6.13338 4.34536 4.60951 7.41407 4.51133 4.23564 4.67413 6.03486 7.14696 4.13371 7.0976 4.13232 4.09958 4.00615 3.91405 3.89238 4.07335 3.87921 3.87185 3.8476 3.83442 3.72768 3.71737 3.81467 4.17892 6.80529 3.75422 9.31764 7.08821 7.25782 10.5596 7.69177 5.98797 4.50495 3.70177 4.05199 13.0559 5.40246 4.59114 3.62967 3.61979 3.61465 4.9052 4.38596 7.1475 6.05816 5.18892 6.5388 6.11388 7.37481 5.44499 5.41498 7.87171 5.12942 5.09119 4.33287 3.58849 4.00229 3.5599 5.43683 5.76464 4.7079 3.54845 5.12328 4.75426 5.01229 5.20071 5.57982 5.85 5.46312 4.90461 4.40491 5.99851 5.97751 3.92953 3.91022 3.70693 3.48065 3.76342 5.16071 6.06418 5.75808 5.99732 4.71868 4.50821 5.36328 5.30353 4.75483 4.88475 4.40895 3.80052 4.13918 3.78044 3.75512 3.47805 3.44573 3.4169 3.38669 4.89103 3.94007 5.17525 7.61987 3.38481 3.34272 3.3285 5.55288 3.29656 3.28815 3.99974 3.25844 7.54373 3.23364 3.22309 5.28733 3.19804 4.4121 3.17543 3.17072 3.14415 3.08688 3.06853 3.04286 2.96665 2.95404 5.22478 5.0273 5.5934 2.91687 2.9147 2.87683 2.73321 6.61996 2.72989 8.57214 3.7795 2.70739 5.34514 4.18352 4.04222 2.70717 2.53074 2.51685 2.50327 2.47414 2.47091 2.42613 2.41593 2.79335 2.40138 7.48865 4.49401 4.38648 3.28757 2.3637 3.35329 5.30954 6.69048 5.21173 4.77458 10.8829 2.7277 5.14652 2.65221 3.00047 2.41649 2.36207 2.30039 2.5788 5.89035 5.45785 4.54505 2.24768 4.11875 4.90522 3.40119 2.35651 2.22742 2.0922 2.07927 2.07677 2.06512 2.01532 2.01076 1.97296 1.86355 1.82934 1.81229
threshold=1.0000000180025095e-35 -5.5363892999999988 5.5865847170000009 13.854495515000002 6.7653095825000014 17.374009960000006 7.0071769395000008 5.2188118915000006 0.62924452600000003 2.6723208365000004 0.8756192570000001 90.094197460000018 99.09643766500001 19.844437480000003 602.79901895000012 24.135184375000005 -1.2239838434999999 42.718535350000003 36.67326446500001 108.4745597 -5.5861801759999992 1047.2900537000003 766.89546725000002 12.744930790000002 -5.5764439679999986 0.8756192570000001 0.67981607950000011 13.418789335000001 23.714617825000001 14.804820240000003 10.302920370000002 441.30400000000003 4.0478210825000014 10.791786150000002 6.0956496410000005 36.246456520000002 17.530682480000003 6.1930837420000016 1676.1933940000001 158.23584075000002 280.45698810000005 -0.93106056349999988 250.65426760000003 1.4000886135000001 -0.83293981449999988 -0.91120849449999997 110.09550000000002 1.7664422005000002 128.44288750000001 13.819738405000001 431.83596125000003 399.69150000000008 0.8907105325000001 287.27121925000006 10.248719060000001 14.281590540000002 8.8792824070000016 9.6208564815000024 10.087874070000002 30.605565845000005 235.66838995000003 118.45811190000002 4.6382466630000012 2.5639593495000006 1.7286394790000001 0.98576571600000007 9.4972222220000031 12.235895375000002 0.40479178200000004 19.621526755000001 -5.5616225529999985 849.24900000000014 4.2359814365000004 9.7663008415000014 19.255554950000004 -1.5363078699999997 -1.0673022629999998 29.890115540000004 4.5375459735000012 305.4822109000001 10.267285525000002 12.005782960000001 -1.6833457864999997 1.4917864540000003 3.5536787520000002 2.8730705255000006 5.7853581925000013 -1.0962353555 18.140653955000001 1.9370548795000002 0.28836887650000004 3.7763316595000007 61.340442740000007 801.27800000000013 31.680552940000002 45.411703365000008 27.075229050000001 5.6850139035000007 2.5151904575000006 -1.4986621314999997 -1.7043295799999998 10.092854305000001 9.2961425735000009 2.5648769560000004 233.10750000000004 313.21335205000008 12.176870000000003 4.375948203000001 3.8739203610000001 12.114445410000002 -1.2951089814999999 19.149311625000006 637.34889530000009 285.61900000000009 12.749997460000001 12.644380275000001 12.392127630000001 -4.7542502219999987 -1.6011111109999998 -1.7154745369999997 10.184307830000002 2.6187372850000004 3.1695323740000005 0.72881465450000016 0.31944433250000004 6.7513364420000004 1.7286394790000001 1.2917614510000002 2.1414103025000002 19.844437480000003 1.6941123205000002 -1.2630972539999998 94.466001660000003 11.652877575000002 319.61100000000005 92.36405713500001 89.20828068500002 12.759456055000003 50.376817330000002 3.2403101500000004 16.617664270000002 10.562058970000001 5.8966094995000011 8.9875194940000025 4.1693523615000005 12.539257760000003 -1.5363078699999997 181.06900000000005 5.548930265000001 176.73187675000003 19.348641135000005 12.686122060000001 11.918197970000003 8.9739139270000017 4.9505322895000008 1.6372741320000002 2.6935124480000003 9.0914358680000031 4.7607000690000012 162.17015825000001 3.4696427035000004 147.58350000000004 1.8755384010000002 0.31152889800000005 4.2961120765000009 3.1381900560000004 201.05295275000003 -0.96977725849999985 6.0002099000000007 6.4154584645000012 3.4040302060000003 6.338295403500001 1.1244606355000002 -1.0265046299999998 10.747222225000002 10.487721800000001 36.959056920000002 122.52350000000001 2.6341197995000005 1.8227838745000002 10.138147910000002 3.5276137945000001 4.1086602365000013 -1.1905524249999997 140.07350000000005 17.499830460000002 1.7129942715000002 9.9934911190000033 10.233541665000002 15.827693520000002 4.6509556195000004 36.17278816000001 19.465456680000006 12.152339015000001 11.386754060000001 0.18170512900000005 494.28429210000007 377.61083285000001 5.5493267105000017 6.0711935880000008 145.96710295000005 2.3924328650000004 3.5680175160000007 196.12150000000005 3.1108253410000004 272.63350000000008 12.539257760000003 12.313128890000002 20.390429725000004 3.4061189895000004 10.657945270000001 7.0596054100000005 3.7331438860000001 5.6050558580000009 12.133464145000001 12.659045540000003 3.5680175160000007 204.28770035000002 9.5602372530000022 355.26190320000006 10.674344110000002 5.8259735780000002 398.58400000000006 24.144610250000003 12.108207900000002 -1.0521845454999996 2.0067383730000006 12.678896990000002 6.338295403500001 -5.5848390739999987 3.4597184635000002 19.149311625000006 2.5876628885000001 10.657945270000001 9.8530342970000024 253.01287325000004 -0.11518904999999999 489.67106415000006 395.60213225000001 -0.92749564799999995 10.468800350000002 9.5534976535000009 5.2342228755000013 6.0589304680000007 5.4385449225000011 1.8231911365000004 212.11800000000002 2.2743896660000007 1.6704351825000001 3.6286801500000005 -0.80988284199999994 158.09400000000002 110.98195770000002 4.689457399000001 12.005782960000001 -1.2662169309999998 6.0711935880000008 11.740510195000002 20.548222670000005 12.745573315000001 0.34847422350000007 9.0195110315000022 1.1624314710000003 4.7870858685000011 14.20295585 202.29900000000001 6.5446277030000006 3.4137711140000007 3.6926553860000007 6.1372874630000007 0.82887424900000017 0.60634602600000009 11.679671740000002 8.0218362245000012 11.084270135000002 4.2544845640000011 4.8741707880000016 6.0002099000000007 26.958322800000001 683.77850000000001 -5.5835709829999987 8.0104226105000027 12.642181565000003 458.74278625000005 3.1211340740000004 2.5864753735000003 0.79236037200000009 5.3264421625000002 4.8180237865000004 -5.5835709829999987 9.6462037035000012 2.1759525045000006 24.491437720000004 3.4103840850000005 -1.0000000180025095e-35 6.1006425290000008 10.068460305 207.65847430000002 20.559191960000003
decision_type=2 2 2 2 2 2 2 2 2 2 2 2 2 2 2 2 2 2 2 2 2 2 2 2 2 2 2 2 2 2 2 2 2 2 2 2 2 2 2 2 2 2 2 2 2 2 2 2 2 2 2 2 2 2 2 2 2 2 2 2 2 2 2 2 2 2 2 2 2 2 2 2 2 2 2 2 2 2 2 2 2 2 2 2 2 2 2 2 2 2 2 2 2 2 2 2 2 2 2 2 2 2 2 2 2 2 2 2 2 2 2 2 2 2 2 2 2 2 2 2 2 2 2 2 2 2 2 2 2 2 2 2 2 2 2 2 2 2 2 2 2 2 2 2 2 2 2 2 2 2 2 2 2 2 2 2 2 2 2 2 2 2 2 2 2 2 2 2 2 2 2 2 2 2 2 2 2 2 2 2 2 2 2 2 2 2 2 2 2 2 2 2 2 2 2 2 2 2 2 2 2 2 2 2 2 2 2 2 2 2 2 2 2 2 2 2 2 2 2 2 2 2 2 2 2 2 2 2 2 2 2 2 2 2 2 2 2 2 2 2 2 2 2 2 2 2 2 2 2 2 2 2 2 2 2 2 2 2 2 2 2 2 2 2 2 2 2 2 2 2 2 2 2 2 2 2 2 2 2 2 2 2 2 2 2 2 2 2 2 2 2 2 2 2 2 2 2 2 2
left_child=1 11 29 8 17 6 7 -4 66 87 -6 21 20 25 83 -12 69 18 117 289 132 22 152 24 215 26 44 28 39 294 31 33 43 34 52 258 37 38 -37 -27 41 42 97 -32 45 48 47 -46 49 61 99 244 153 54 56 103 -54 102 59 60 65 62 63 64 88 -59 68 257 -2 226 208 298 -48 -8 -75 82 77 101 -78 80 81 -80 -28 84 251 -85 -24 -10 90 -90 170 131 93 292 207 -96 -39 98 -41 100 -42 -77 242 104 105 -55 107 108 125 110 129 112 124 -111 115 116 134 -5 119 120 -119 122 -103 -122 189 -107 -63 -93 -129 146 239 -50 -13 283 -115 136 138 -138 140 -140 141 142 -136 206 145 -141 147 148 -34 -150 221 -117 -1 247 155 157 158 -155 160 162 161 163 -160 -157 -165 168 -161 -167 241 -170 171 172 -11 254 175 176 177 182 186 255 218 183 -130 185 -185 -182 187 -179 -188 190 195 192 193 194 196 235 197 198 199 200 -192 -200 -202 -204 -196 -206 -143 -95 -71 210 211 212 213 -101 -147 -22 -99 -218 -181 -29 -221 222 232 -177 225 -211 -17 240 -19 -210 -109 -7 265 -20 -158 -112 237 238 295 -89 -228 -159 -58 -244 245 246 -52 248 -31 -249 -250 291 -137 -209 -172 -180 296 -68 -23 278 261 262 -156 290 -263 -149 267 270 -269 274 271 -267 -268 -274 -270 -276 -272 -70 279 280 281 -260 -281 284 285 286 287 -120 -166 -14 -262 -15 -40 -35 -3 -237 -65 -60 -26
right_child=3 2 5 4 10 231 73 -9 9 13 15 12 19 14 -16 16 -18 228 233 -21 23 35 86 -25 71 27 75 219 -30 30 32 -33 109 293 -36 36 -38 96 92 40 50 -43 -44 -45 46 -47 72 -49 91 -51 51 -53 53 55 -56 -57 57 58 297 -61 -62 126 -64 256 -66 -67 67 -69 277 70 -72 -73 -74 74 -76 76 78 -79 79 -81 -82 -83 -84 85 -86 -87 -88 130 89 -91 -92 127 -94 94 95 -97 -98 216 -100 209 -102 121 -104 -105 -106 106 -108 230 -110 113 111 -113 -114 114 -116 151 -118 118 133 -121 123 -123 -124 -125 -126 -127 -128 128 174 -131 -132 -133 -134 -135 135 252 137 -139 139 144 -142 143 -144 -145 -146 214 -148 150 149 -151 -152 -153 -154 154 260 156 234 165 159 166 -162 -163 -164 164 288 167 -168 -169 169 -171 173 -173 -174 -175 -176 223 -178 178 179 180 181 -183 -184 184 -186 -187 188 -189 -190 -191 191 -193 -194 -195 204 -197 -198 -199 201 -201 202 -203 203 -205 205 -207 -208 253 229 224 -212 -213 -214 -215 -216 -217 217 -219 -220 220 -222 -223 -224 -225 -226 -227 227 -229 -230 -231 -232 -233 -234 -235 -236 236 -238 -239 -240 -241 -242 -243 243 -245 -246 -247 -248 249 250 -251 -252 -253 -254 -255 -256 -257 -258 -259 259 -261 263 264 -264 -265 -266 266 272 268 269 -271 276 -273 273 -275 275 -277 -278 -279 -280 282 -282 -283 -284 -285 -286 -287 -288 -289 -290 -291 -292 -293 -294 -295 -296 -297 -298 -299 -300
leaf_value=-0.019548281691183642 -0.018675544767439999 0.0096816948827341941 -0.032263818899813945 0.062490431377416999 0.062410694260098078 0.051200443116667209 0.046541184594650717 -0.13889558560028023 0.050666398624312006 -0.014135225136407329 0.026554121853076991 -0.041859516880932181 0.061798693150792984 -0.011778744981318279 -0.10895516631141314 -0.042976545889779699 -0.10781532146597089 0.044768257133801982 -0.080738156832596178 -0.04164638800299289 -0.082466225914207977 0.050245075256169419 -0.11568929460761856 -0.0067543166845016132 -0.046277362601115118 -0.062260106917933961 -0.032380881852094784 0.062647070858571269 -0.087331459111737453 0.034242705284483074 0.017267137751070853 -0.058360914505563903 0.054092772705615626 0.047666358080945187 -0.069932765683922662 -0.069649649269643218 0.050585871790295847 -0.026484267758098631 0.051785095991841723 0.062553372715370439 -0.027671665008768262 0.055809966112416523 0.041870324097942807 -0.07732597987060591 -0.070538087670026436 0.047143224768962051 -0.13102605768697329 0.02156433286988093 0.062801692271966955 -0.11050263714419908 -0.0057828018421025532 -0.06620242264271356 -0.058912332967430862 0.04731769713745862 -0.099243471775221234 -0.039985301877358492 0.039886305844829405 -0.019336387063285502 -0.019938324647244297 -0.11384323192995634 -0.082574388000852705 -0.027286799900411402 -0.081580155719322464 0.015010527472832685 -0.098691553560239106 0.062292269079884999 0.03415624761344125 -0.07098265821038939 -0.1244985138482419 -0.049945265351708616 -0.10984939585036116 -0.0036513796594578882 -0.046765232195925134 -0.060877294368968098 0.024662667431926084 0.042634293065106826 -0.10177754485272326 -0.073465390695967359 -0.0029161950339459484 -0.084084872490026052 0.012589353333876695 -0.091651267918973073 -0.10140624776601224 0.05005390010193337 -0.096387745772643613 -0.052207462734195721 -0.043154540685970084 -0.049782511778467972 -0.029808997610467083 0.062369410885976501 -0.080295567014554564 -0.057137007081732874 0.039660954161019196 -0.036835225785288771 -0.079193030218550856 0.0015058410422382205 -0.089392114433623285 -0.063190333778021218 -0.018447368445931006 0.0370627248232041 -0.10557731778864476 0.021243507034872339 0.053917164528481477 -0.024609534207468187 0.050470750753779894 -0.016556312606979082 -0.048640824000399874 0.062583837433384984 -0.055435515484741328 -0.046796208797163924 0.055768620740755365 -0.035975343553632508 0.039313703427602188 0.062080887554106012 0.049620732850502947 -0.063383716760791936 0.046380120076741582 0.06215140139991019 0.0070663641517279613 -0.071863480786092948 -0.060140372007413512 0.024027856746637793 -0.069470067376944319 0.0049887657082176642 0.062047922913660972 0.062161342703453894 -0.10252237643267686 0.038474530717349853 -0.090615180349644164 0.061753324465008988 0.047716919356221417 -0.00052536277098446846 0.019573333245641335 -0.025641805928130059 -0.050222057649309738 0.062113032180713894 0.017383701306163318 -0.082986747098784744 0.044716225061088959 -0.058328448772745504 0.051402003188211469 -0.11048499230383074 0.048125422473928231 0.010483223482865241 0.049081803830576143 -0.035695371419664959 0.050973667573882234 0.052489359203998581 -0.0030996962831207221 -0.081794795394019543 -0.033649013922090208 -0.0013934675855711003 0.047234892497252337 -0.039492755627160342 0.019117659348202486 0.038141264183648452 0.0071307299218826368 0.0049658637928290585 -0.05305090424790862 -0.12114436216214966 -0.055478308202020744 0.048712549765675982 0.028360813776048949 -0.090045612946760667 -0.024461263725891285 0.0037205825159936433 -0.03216401339320854 0.054866294445199373 0.062007649783990093 -0.010169785518361214 -0.01108407480917796 0.019887656277660818 -0.081811489233326595 -0.03673967702974254 -0.054653398679733158 0.05281715910685178 -0.057366433543096673 -0.019619368707904213 0.00091693378614571839 -0.015706902492792763 -0.11377913589155536 0.019778694188840457 -0.01705222873052116 -0.045652848308140426 0.036354654060357566 -0.027527536436453282 -0.035880033395201037 -0.091971051982521146 0.033203358882684546 0.061911421253128533 0.04110845049307342 -0.049027240997377278 0.048799082377738369 -0.059339574933072708 -0.016077472486104426 -0.025818440719847353 -0.044120049226028787 0.041169635060736169 -0.083487231065059342 0.062117631379215658 -0.048588627436832926 -0.012369377598685297 0.038715065941861457 -0.030908065967069867 0.062083987885045357 -0.0016929821829462866 -0.04056949473483832 -0.011902757876739604 0.034478873652484164 -0.062041817349792652 0.034381060473422154 0.022957619217610026 -0.089165765108857958 -0.059129298916357299 0.029535006392129467 -0.14718218082831208 0.019133324698046211 -0.054431325979554704 0.030257343487862805 -0.029378780384386946 0.048164123587976844 0.053220824007830174 -0.029662487385549125 -0.010285549412495164 -0.078422774829657427 0.021508574393504665 0.0042431383230080947 -0.042266840874514516 -0.0059331815273542853 -0.027059261609114812 0.0077275432396902476 -0.0041736672880442784 -0.0079172052875997895 -0.019449975803511786 0.062307496798115196 -0.01761380842440578 0.055893265245429417 0.036839832180701436 -0.062528894289459833 0.0083182642951037233 0.063024236405988837 -0.06046672166581938 -0.05377661675586707 0.017896760291477295 0.050722428676942072 -0.049733462816270113 0.054441358971104283 0.038155198951675372 -0.056538818497194401 -0.017737594116643541 0.0053458922774880322 0.017626321887463058 0.007323050444550447 0.048655419409194767 0.034177307334904206 0.054617571536769355 -0.0090294645258689726 -0.022952722185794566 -0.046758260035398153 -0.030609239870173457 0.011791924529837024 0.062015934587446087 -0.054577046141015342 -0.0089003758551743986 0.0052330676676633769 0.042941941483581852 0.043988724319500384 -0.056261725200778157 0.053666333656304868 -0.031080357810808864 0.010797515618344888 -0.072890215797793118 0.051039118471634684 -0.023269161937528218 -0.025013961679064792 0.038001877127489453 0.046428465637087434 -0.071185943017155681 0.05033809512877039 -0.051817867553319366 0.055593365285769906 0.036317299156184639 0.014866535823866454 0.062624157295200586 -0.017017081730802359 0.062495025205183519 -0.023235185275528661 0.062474780110317964 0.025212453425670425 0.014823685544136073 0.052401689584837777 -0.064507784047817859 0.0064149962794901351 0.010034335821721833 0.042140039617380477 0.035979387874558719 0.062670010657154773 0.025741953807836455 -0.091305181898019588
leaf_weight=5.4726781100034732 3.6162784248590496 5.7435267716646186 4.724993899464609 3.5148131847381583 3.659069910645484 4.3477740138769132 3.1661756932735434 4.9472043961286545 8.8561916053295153 5.8023138046264666 6.9178001284599295 5.6868297755718178 4.3214841783046714 3.9870594292879193 4.6208591163158408 4.2445542812347439 3.7985562533140174 19.913223072886471 3.4712345004081708 5.2491782754659644 3.7528989166021347 4.2232458144426337 3.9174553453922254 4.2426036894321433 3.6478173285722786 5.5557179301977149 5.2355572283267975 5.4591395407915098 3.3179388195276251 14.443977952003481 3.3265199661254874 5.7583543807268134 6.2553693652153006 13.988150581717493 6.3872343450784674 3.766638219356536 4.063658893108367 5.5795537084341031 4.7424523234367388 3.8410416543483752 6.0591582655906677 6.9980341643095008 9.5473099797964078 3.9181299209594727 3.7450303584337252 9.4668232202529889 3.3413416147232047 5.9752344638109207 3.8854785263538361 3.728010728955268 4.3738895952701622 3.4735356122255316 6.159580096602439 10.16933251917362 4.0152344852685919 5.3764275163412085 4.4454532861709657 5.4827264249324852 3.6458263844251615 3.3964292556047431 5.5016314238309851 3.3087357729673377 4.8274192512035361 5.2127375900745374 3.3832145333290091 3.161212146282196 3.4469598829746229 5.5406818985939026 4.243690073490141 6.1686875075101844 4.8950855582952526 3.7068340629339227 4.0957526117563248 6.0526906102895719 3.9728930741548538 4.9874074012041119 4.8403341770172181 3.2926732450723639 4.5523296147584968 6.4468383640050879 6.9651678353548041 5.1589547842741013 6.0552974045276624 3.6846299767494193 6.5581145435571662 3.4344755858182907 5.6612353324890137 3.5546675324439994 3.7661160528659812 3.9703979194164276 4.5153046548366538 4.576682820916175 6.3980266749858847 4.5186310261487979 5.9622873514890653 3.2546007931232452 5.9023366421461105 5.1369582265615454 6.1157004833221436 3.8041304796934146 3.8422472029924375 3.6474362313747388 5.9988159090280524 4.5982991904020301 17.307543605566025 3.1686994135379845 4.9472843855619422 6.0826646089553815 5.0895643532276154 3.1991517692804328 7.7217482328414908 5.0819763392209998 26.225336149334908 3.28767505288124 7.6951381713151923 4.7681635320186597 9.54516753554344 3.4560520350933102 4.4977578371763318 3.7134898602962485 4.0634472519159299 5.1057650744915 5.2744076699018478 6.0789892822504044 4.061198264360427 3.2991456687450409 3.620052769780159 4.1565274447202674 3.5593817532062513 7.8395253717899314 3.4576250910758963 6.2677395045757276 4.5902711451053619 4.5218813717365256 4.4401380717754417 5.0112377852201444 3.3309901952743521 3.4254835098981857 17.324963569641113 5.3606296777725246 4.4783058315515509 3.7470968514680845 7.0837349593639374 3.8387022763490677 3.6942902952432624 3.5541728734970075 13.467279180884359 10.352577507495878 4.5872419476509076 4.157485619187355 3.1315761506557456 4.6780933886766434 3.2245586663484573 4.4210759550333014 3.4717401713132876 4.199117377400408 5.4204840809106809 3.4844042956829053 3.8820271939039213 3.2585048377513877 4.6554901450872412 7.3983230441808692 4.3611104637384415 3.5931137800216666 5.1603455096483213 5.9401585906743994 3.1729266196489334 13.671252414584162 3.5882697701454163 4.1326673626899719 5.3940812349319405 3.4588555693626395 6.8747389167547226 6.9879751056432786 4.6575181782245627 5.007927864789961 5.7967241555452338 3.6210430860519391 3.23253333568573 5.7135060131549862 3.3784497827291382 5.8142770528793326 6.2346889674663544 5.494694232940688 3.7528161406517029 4.9547104388475418 4.553913801908493 3.8560617715120316 3.3853284567594528 3.258219137787818 4.7280470132827856 4.4791365414857855 7.5106396079063407 3.6883590519428244 3.1827035695314398 4.5163115113973609 6.0889670103788367 7.181229665875434 3.415180563926695 3.2883329242467871 5.8330717980861655 6.0222152024507523 4.2533298432826978 4.2858031690120697 8.7577434927225095 3.133901208639144 3.3863653242588043 3.3213255107402802 3.6137116104364368 3.9859383702278137 5.232686609029769 3.7466513067483893 3.2831827849149695 4.4872674942016602 4.5151562094688416 4.2606343626976013 5.7007341384887678 4.6637850850820541 12.295639365911482 3.250458300113678 3.4050560742616653 11.376542553305624 5.9539463669061652 3.4143314063549042 3.8684462755918503 3.6072032749652845 5.9747532904148084 3.313246250152587 3.6549989730119696 4.9747337549924859 4.5780846029520035 5.9762188196182251 5.6924433261156073 4.8615627884864807 4.4246336668729782 3.1357558667659777 7.5057534426450756 7.945404812693595 3.9974914342164993 5.5065958201885215 3.25938381254673 3.2435541152954102 4.7136236429214469 10.178317695856093 4.1828677505254737 4.8815655410289756 6.4422328621149063 33.159849613904953 3.359298199415206 3.7238458245992652 12.301554337143896 3.3430633693933487 3.6373427957296371 3.5491906553506851 7.044291615486145 6.3747667670249921 5.5527581274509421 4.0386443883180618 4.0954376161098489 3.7417360842227927 3.957360774278647 6.0764403343200666 5.1189800798892975 4.875841796398162 4.3911400139331818 5.1931927651166898 36.356905966997147 4.1994422823190716 6.1600736528635043 4.8320332318544379 5.8312385827302959 3.3268542885780334 4.6335355937480909 4.6872742176055908 3.4432111233472824 4.1848700195550919 25.866340979933739 4.0705429911613464 4.0338809043169013 3.9183232635259611 7.3086230903863951 3.8221542537212372 7.3452208638191223 3.2091422677040091 6.2714621424674979 7.1669304370880118 4.6573879718780518 3.3468009680509567 4.0108376443386078 5.2499239444732657 15.488865956664084 3.512437105178833 5.3235113322734833 4.7711781710386267 28.19134809076786 3.7962797731161118 3.3816909044981003 5.4949650317430496 5.7681675404310226
leaf_count=34 21 37 29 22 23 27 20 30 57 35 43 34 28 24 27 26 23 126 21 32 22 27 24 25 22 33 32 34 20 93 21 35 40 90 39 23 25 34 30 24 37 43 59 24 23 58 20 36 24 22 27 21 38 65 25 34 28 34 23 21 34 20 29 32 20 20 21 32 25 37 29 22 25 37 25 31 29 20 28 39 43 31 36 22 39 20 35 22 23 25 27 28 39 28 36 20 36 31 37 23 23 23 38 29 111 20 31 38 32 20 49 32 167 21 48 30 61 22 28 23 25 31 32 38 26 21 22 26 21 51 22 38 28 28 28 32 21 21 111 33 28 23 45 24 23 22 86 66 29 26 20 29 20 28 22 27 34 22 24 20 29 47 27 22 32 37 20 87 23 26 33 21 41 42 28 31 35 22 20 35 20 36 38 33 23 30 28 23 21 21 30 28 48 23 20 28 38 46 21 21 36 38 27 27 56 20 21 20 23 24 32 23 20 27 28 25 35 28 76 20 21 73 37 21 23 22 37 20 23 30 29 37 36 30 28 20 47 51 25 34 20 20 29 65 26 30 41 210 21 23 78 21 23 22 44 40 34 24 25 23 25 39 32 30 28 33 235 26 40 31 37 21 30 30 22 27 167 24 25 24 46 24 46 20 39 45 29 21 25 33 99 21 33 30 184 24 21 35 33
internal_value=0 0.174148 0.263144 -0.28671 0.00908844 -0.461045 -0.842131 -1.73609 -0.3701 -0.335795 -0.371904 -0.304002 -0.67206 -0.374007 -0.923164 -0.497605 -0.674439 0.233187 0.0437879 0.170406 -1.02224 -0.139805 -0.71371 -1.31939 -1.55712 -0.335095 -0.422694 -0.141816 -0.227295 0.291557 0.27311 0.1561 0.366358 0.177604 0.144942 -0.0292475 -0.248037 -0.345884 -0.112358 -0.182617 -0.127586 0.213493 0.0330304 -0.677835 -0.322339 -0.274548 -0.891346 -0.278419 -0.333708 -0.554179 -0.347078 0.0555467 0.174891 0.00934268 -0.325828 0.331944 -0.211328 -0.0968353 -0.51066 -0.855149 -0.513788 -0.474113 -0.389415 -0.297647 -0.473665 0.210328 -1.00485 -0.565403 -1.48465 -0.519984 -0.87098 -1.08058 -1.69244 -0.18668 -0.539598 -0.78367 -0.647942 -0.175286 -1.025 -0.813461 -0.477815 -1.0011 -1.38799 -0.686477 -0.973224 0.0143974 -1.45639 0.451501 -0.367516 0.349944 -0.506014 -0.177368 0.0177661 -0.14399 -0.485839 -1.01394 -1.17645 -0.268626 0.256011 -0.571402 -1.15806 0.0487889 0.338984 0.434648 0.512644 0.282352 0.0337845 0.257923 -0.224142 0.383372 0.439557 0.312178 0.347601 0.212458 0.246856 0.188968 0.277745 0.188036 0.114837 -0.307436 0.00109998 -0.23703 -0.647689 -0.422089 0.253138 0.471926 -1.3319 -0.241079 -0.199503 0.546984 0.0540499 0.474178 -0.28841 0.331946 0.20032 0.155761 0.0763991 -0.670068 0.158509 0.377274 -0.120878 -0.349594 0.204645 -0.931702 -0.145837 -0.45598 0.515927 0.473602 -0.0212125 -0.810271 0.524712 -0.653683 0.104241 0.27862 0.184619 0.0539322 -0.131162 0.311444 -0.304607 -0.789207 -0.0595354 0.141124 -0.199585 -0.222231 -0.546289 0.454394 -1.54492 0.787492 0.0022809 0.467487 -0.366361 -0.713516 -1.01672 -0.0780069 -0.241856 -0.19802 -0.274289 -0.207894 -0.109428 0.044392 -0.114923 -0.444716 -0.875733 -0.722617 -0.247453 -1.24992 -0.618407 -1.13865 -0.128451 0.219061 0.190051 0.0606688 0.126015 0.026048 0.100393 0.444164 -0.0821376 0.0427823 -0.133355 0.131681 -0.0595345 -0.762106 -0.34959 0.0754223 0.646449 0.905527 -1.5459 -0.0584598 -0.431131 -0.389967 -0.147092 -0.432173 -0.720691 -0.299919 0.0160798 -2.33749 -0.605604 -0.27938 0.313498 0.677702 0.205866 0.551108 0.506433 0.544714 -0.825511 -0.447006 -0.109201 0.144622 0.738108 -0.0233242 0.780534 0.382924 0.558913 -0.899622 0.63857 0.57137 0.412139 0.131501 -0.308528 -0.289485 0.499823 -0.531585 0.109621 -0.0957885 0.29659 0.105306 0.601751 0.468618 0.246095 0.650243 -0.158571 -0.395877 0.781399 0.387611 0.290981 0.730982 0.339344 0.0668946 0.291259 0.203302 0.46183 0.196038 -0.495901 0.6701 0.763912 0.593204 0.549725 0.400224 0.014938 0.272083 0.618837 -0.0457494 0.756043 0.273415 0.585275 0.191148 0.797473 -1.96795 0.303268 0.19614 0.464496 -0.133084 -0.166628 0.462995 0.365326 0.590329 0.21222 0.614116 -0.0547487 0.720657 0.88275 -0.729495 0.555811 0.761903 0.732928 0.234722 0.675267 0.150445 -1.47722
internal_weight=0 1042.72 879.096 623.954 137.219 33.188 22.864 9.6722 486.735 461.778 50.8196 163.623 50.4766 440.403 29.1406 47.1605 40.2427 86.3992 62.831 14.8206 35.6561 113.147 18.2759 25.379 21.1364 411.263 283 128.263 116.148 845.908 811.973 360.103 451.87 354.345 335.585 94.8708 56.3822 52.3186 40.8367 112.83 107.275 42.0036 35.0055 7.24465 221.438 204.28 17.1574 9.72026 194.813 80.8287 65.271 23.3541 329.198 126.811 62.1938 64.617 58.1786 52.019 26.6828 17.542 14.1456 77.1007 70.1719 65.3445 51.1973 8.64394 24.9568 13.0263 11.9305 36.4442 19.6522 13.1228 7.43709 13.1918 10.0256 61.5622 50.2713 22.3077 27.9636 23.1233 16.6765 9.71128 11.2909 24.5198 17.4007 7.11911 9.57869 21.3751 47.8141 7.73651 40.0776 113.985 37.07 30.672 20.606 9.21689 11.4819 25.4582 9.95674 41.9169 9.90141 19.015 25.3362 59.2406 54.6423 37.3348 27.1654 22.2182 11.5574 444.625 334.623 153.094 148.012 110.002 106.803 99.1077 89.6615 54.4982 50.9833 17.312 13.5985 14.0276 8.92184 10.1424 121.787 6.46785 6.92879 103.832 99.2548 181.529 12.5189 10.1532 10.2771 33.6714 80.1163 76.8286 68.18 6.75647 61.4236 34.4492 26.9743 22.496 11.5239 10.9722 17.1242 13.43 173.689 160.222 15.0001 8.74473 145.222 9.44626 8.69724 202.387 135.399 92.0183 53.5369 38.4814 43.6918 14.6746 29.0172 24.3617 8.24314 16.9634 12.7643 34.0603 6.43143 19.6114 14.4489 7.72094 35.5623 16.1359 12.6771 19.4263 95.0983 90.4408 82.0185 76.2218 66.4277 51.0114 41.4041 23.3949 9.79407 17.5807 9.24751 8.33316 15.4163 7.4771 7.93924 117.726 114.467 75.8487 71.3695 63.8589 60.1705 38.6187 45.0962 39.0072 31.826 22.3886 19.1003 9.4374 14.3722 8.53913 15.0743 11.8916 7.13346 11.3891 14.7571 32.0155 20.5539 15.3212 11.5746 8.2914 8.06933 8.01353 15.5015 10.3645 18.0091 12.1147 6.65551 142.09 130.714 8.42226 11.4616 7.59314 16.7919 12.5474 23.5682 8.58845 10.6607 10.324 124.76 8.3328 9.84512 34.1024 26.3807 18.8749 10.9295 9.06126 9.23414 6.72796 19.3374 14.8919 19.8806 15.6977 10.8161 66.9885 30.1048 36.8837 15.6609 10.8426 8.64858 6.87052 12.4384 9.6073 14.1472 7.4856 38.4886 34.2654 43.3804 19.0583 8.59072 24.3221 10.4676 119.068 108.715 63.0373 22.8196 18.6202 40.2176 8.52005 45.6777 9.32081 13.7882 7.62808 31.6976 8.31423 30.5236 26.4898 15.2262 7.91759 11.2635 29.1495 25.9403 19.6689 12.5019 7.84456 9.17118 9.57141 19.4462 7.4995 10.066 18.7593 33.9349 6.93204 8.59443 9.14079 9.41598
internal_count=10386 6570 5567 3816 851 205 141 59 2965 2818 311 1003 304 2683 174 288 245 540 391 93 211 699 113 149 124 2509 1725 784 709 5362 5141 2272 2869 2237 2117 586 346 321 251 689 656 257 214 45 1350 1246 104 59 1188 491 399 145 2078 800 390 410 365 327 167 109 88 469 427 398 311 54 147 77 70 222 119 77 45 82 62 375 307 137 170 141 102 59 68 147 105 42 59 135 291 48 243 697 228 189 126 56 70 155 61 254 60 117 160 376 347 236 171 140 73 2824 2132 969 937 692 672 624 565 340 318 108 85 86 55 63 770 41 42 635 607 1163 78 62 62 210 504 483 428 42 386 217 169 141 73 68 106 83 1112 1026 95 55 931 59 54 1278 853 578 335 243 273 91 182 153 51 106 79 215 40 124 91 49 216 97 76 119 581 553 501 466 407 313 253 142 59 106 56 50 94 45 49 744 723 479 451 403 380 244 284 246 200 141 120 59 90 54 96 76 44 70 90 194 125 93 70 50 50 47 94 63 111 75 41 911 838 52 69 46 103 77 149 53 67 64 801 51 62 216 167 120 69 56 57 42 122 94 124 98 68 425 192 233 99 66 55 42 77 60 87 45 240 213 275 121 54 154 67 765 699 404 146 120 258 54 295 60 89 49 204 49 190 165 95 49 70 182 162 123 78 49 57 61 124 45 63 120 221 44 53 58 55
shrinkage=0.05


Tree=3
num_leaves=300
num_cat=0
split_feature=26 7 5 19 8 22 8 5 9 23 23 2 5 5 17 0 0 7 2 7 19 0 7 7 2 5 14 7 8 8 14 0 5 0 7 2 14 0 14 17 23 0 5 5 2 6 7 18 16 5 2 7 23 5 7 22 9 17 17 18 8 8 2 19 2 17 9 14 7 6 14 19 19 19 5 0 22 9 19 19 19 2 5 22 2 19 6 16 0 7 5 22 6 6 0 0 6 14 0 7 14 18 0 8 22 14 9 8 18 9 7 14 14 6 14 26 5 5 17 8 14 23 8 8 14 2 6 2 23 17 9 7 9 5 14 14 6 2 5 0 17 23 14 0 0 5 18 6 8 23 23 2 5 9 19 7 7 9 5 7 2 9 8 19 0 19 0 5 2 14 9 8 22 2 6 0 2 5 19 16 0 14 2 19 0 14 14 2 23 0 6 5 14 9 2 5 6 23 9 5 0 6 5 5 19 8 18 23 2 6 23 19 19 19 6 23 18 23 2 2 2 14 23 22 0 14 17 7 14 6 5 5 14 17 5 2 2 17 23 6 6 23 0 2 2 16 22 5 5 9 7 23 5 17 0 0 14 8 8 5 14 2 5 14 6 14 14 23 18 18 14 7 16 9 23 0 16 5 22 7 23 14 22 22 9 17 14 9 6 2 19 23 23 14 19 22 7 19 23
split_gain=74.5684 38.3859 10.8961 10.3533 10.9196 10.5182 9.21814 8.27207 8.21569 12.5877 9.21469 7.90531 8.83639 10.9892 7.64082 6.20342 7.88921 7.733 11.2765 18.8351 5.99543 5.91428 10.563 7.9735 7.73955 7.09882 5.86013 7.04119 7.05357 6.46159 6.35667 7.82513 6.86033 6.4141 9.52975 22.2238 9.82156 9.02712 8.24476 8.00654 9.17887 7.71068 8.97627 7.35444 7.75957 6.68562 8.89486 6.02715 5.99667 5.91346 5.86677 5.84489 5.7885 5.94196 5.77536 5.7143 9.61738 5.59208 9.47366 14.4673 7.52491 5.59601 5.59198 5.54057 12.0428 7.56331 5.52246 5.43866 5.95241 12.2211 8.1983 7.95506 6.57413 6.55745 7.62049 11.4911 5.42796 5.22568 5.19062 5.83547 5.17469 11.1907 6.72332 6.29569 5.11266 5.07699 5.01826 4.98843 5.38981 5.09844 4.98571 4.95191 6.2426 11.3105 7.73221 6.08142 8.47231 7.01854 4.95109 4.71752 8.19927 4.6732 6.06471 4.77798 4.66142 4.64904 9.44535 6.01346 6.07928 4.62618 7.34589 5.17743 4.56491 4.55821 5.46146 6.37167 4.88908 4.70615 4.52909 4.40729 4.37031 6.19302 6.26626 8.33333 4.29718 5.96743 4.27502 5.39416 4.26076 5.57078 6.78539 5.11453 4.19731 5.24235 5.28327 11.6452 6.86845 4.18695 8.78751 4.5931 5.87905 4.56802 4.40809 4.29434 4.16696 4.08061 8.12609 5.66046 4.55814 6.32519 4.95363 4.40951 5.77656 4.02487 4.02374 3.94109 5.57266 3.93238 3.82566 5.82825 5.46093 5.39112 3.78118 3.70038 3.67489 3.86784 3.75933 4.26118 3.65093 3.64036 4.43027 4.8698 3.62933 3.62812 7.18895 3.58966 3.54522 3.46774 3.45358 8.23518 3.4374 4.71405 3.33684 3.33077 3.32695 3.31687 3.30433 3.25683 3.25258 3.24783 3.24279 4.17801 3.22532 3.16432 3.13381 3.6626 7.14977 5.06253 3.83312 3.10968 3.08247 3.07929 3.29125 5.41367 4.75703 4.94163 4.54155 6.91941 3.78619 5.89844 3.60622 3.55059 3.67062 3.76793 4.46648 3.50818 3.49686 3.23498 4.69277 3.06492 3.01416 3.6404 3.01242 3.91877 3.00719 2.98538 5.12625 2.98115 2.90872 3.24174 9.52989 2.9065 4.19344 3.64425 4.18931 2.87857 2.74296 6.00627 4.81011 3.01312 5.46562 2.65834 2.76992 3.47537 2.65562 3.41627 2.63729 2.60535 4.22371 2.58866 3.23149 5.36666 2.55099 2.50709 2.50368 2.63143 2.49402 2.46365 3.25915 2.44895 2.43509 2.38143 2.38109 2.33084 2.3142 2.29878 2.62843 2.28451 5.29956 7.79386 7.60764 3.92751 4.14372 3.80339 2.66896 5.79835 3.85789 3.58097 2.8213 5.98771 8.30352 3.6397 2.42812 2.41123 2.3517 2.27511 2.26734 2.25228 2.24012 2.23604 2.14613 2.09958 2.07175 2.60541 2.06421 2.03419 2.0208 2.0004 1.97659
