tree
version=v3
num_class=1
num_tree_per_iteration=1
label_index=0
max_feature_idx=27
objective=binary sigmoid:1
feature_names=BertzCT Chi1 Chi1n Chi1v Chi2n Chi2v Chi3v Chi4n EState_VSA1 EState_VSA2 ExactMolWt HallKierAlpha HeavyAtomMolWt Kappa3 MaxAbsEStateIndex MinEStateIndex NumHeteroatoms PEOE_VSA10 PEOE_VSA14 PEOE_VSA6 PEOE_VSA7 PEOE_VSA8 SMR_VSA10 SMR_VSA5 SlogP_VSA3 VSA_EState9 fr_COO fr_COO2
feature_infos=[0:4069.9597800000001] [0:69.551167280000001] [0:36.841399840000001] [0:39.901993320000003] [0:27.761176710000001] [0:29.948379630000002] [0:22.880836290000001] [0:16.072809700000001] [0:363.70595409999999] [0:99.936429000000004] [1.0072764519999999:2237.3184900000001] [-7.7300000000000004:0.81000000000000005] [0:2035.133] [-104.04000000000001:1512.2422309999999] [0:15.63025112] [-6.3275141909999997:6] [0:42] [0:97.663462199999998] [0:482.43422270000002] [0:375.4251476] [0:211.50127889999999] [0:100.34841609999999] [0:80.742293309999994] [0:492.72973910000002] [0:115.4061569] [-5.4305555559999998:384.45051910000001] [0:8] [0:8]
tree_sizes=30871 31319 31294 31290 31316 31383 31315 31379 31390 31410 31467 31445 31349 31356 31495 31306 31385

Tree=0
num_leaves=300
num_cat=0
split_feature=23 22 8 0 13 23 9 6 9 26 23 23 8 20 8 23 13 9 24 23 3 3 12 0 22 12 3 12 13 20 8 12 20 22 20 13 0 3 6 23 13 0 23 3 13 22 10 0 9 26 26 3 0 20 3 22 22 0 0 13 10 6 12 6 20 9 3 10 3 13 26 0 12 26 13 12 10 8 0 6 6 13 9 6 3 6 6 3 0 12 8 6 0 0 12 10 23 6 0 3 12 10 8 3 3 23 20 8 9 3 3 23 20 9 18 10 9 3 12 10 8 23 23 13 23 20 3 8 0 8 3 9 9 23 13 13 12 12 24 10 23 8 3 9 6 0 6 10 10 12 3 13 8 10 13 12 18 8 22 3 6 24 8 24 0 13 8 9 6 12 8 13 23 13 13 13 23 13 26 0 3 6 13 0 13 13 0 10 18 10 18 23 10 8 20 22 0 9 6 23 6 13 8 3 9 10 20 0 24 24 13 20 23 10 9 9 6 10 6 3 0 13 13 3 23 12 23 23 13 12 10 3 13 18 8 13 0 3 3 0 20 13 0 6 3 20 13 22 13 9 6 13 9 13 0 13 0 3 8 10 0 10 12 6 6 23 10 3 13 6 3 10 10 3 9 23 13 3 18 13 10 6 10 0 23 22 6 0 0 0 13 9 9 23 0 3 3 23 6
split_gain=161.155 195.517 168.029 178.631 86.5505 47.7188 30.8711 24.9208 40.4513 27.8697 24.4327 21.224 17.0955 17.0543 14.537 14.3474 13.3614 13.2836 16.1249 12.2882 11.5159 10.8004 11.77 9.95625 9.37007 9.36671 10.5775 13.2795 22.6233 9.85371 9.52312 10.52 9.06615 8.7133 8.32862 14.1014 8.30173 8.23298 12.6027 8.08371 8.08329 12.2093 17.435 16.3211 11.4668 10.1493 7.94818 15.4383 7.89597 9.28523 7.7421 7.21825 7.94172 7.00708 6.97763 6.97702 9.44972 6.63406 8.32687 6.51156 6.39131 6.15063 8.9184 8.61433 12.5558 8.36772 10.8349 12.634 12.1078 8.4715 7.10081 10.4519 14.5322 18.6618 8.61341 7.91036 6.54732 6.3775 8.65588 6.25289 6.08862 6.01119 6.47901 11.8258 5.80798 11.7734 5.76705 11.6055 5.76693 9.08909 5.66729 11.5748 14.0928 5.53146 10.7444 6.94782 7.96898 5.96287 9.46565 5.10524 4.99206 4.98381 8.15939 8.58047 4.92579 7.54085 6.66671 7.49062 4.88343 5.39819 10.1487 4.94021 9.28974 5.72007 4.81812 4.78893 5.51377 8.97114 9.08932 8.47612 6.5631 4.74993 4.71393 5.64978 7.56464 4.7135 4.71168 5.09232 5.89769 6.4954 7.63053 5.50963 4.69083 5.34204 4.63976 6.00113 5.59704 4.59413 4.66639 4.58152 4.44459 4.44063 4.37031 4.31526 5.08914 4.30409 4.19834 4.19148 4.10755 4.14003 6.58687 4.08576 4.06848 6.61334 3.9809 3.96414 3.91207 3.90567 4.25913 5.4226 3.85671 4.44538 3.51004 3.50114 3.46862 3.40994 3.40825 3.39412 3.32951 5.18078 3.21754 3.14441 5.14806 3.11464 3.26102 3.07628 3.06712 3.02013 4.76123 7.26973 3.28457 2.96035 2.9391 2.91531 2.86771 3.33459 2.83839 3.54941 5.08217 2.79786 2.78575 2.74869 6.42828 2.68559 2.82746 2.64852 2.66699 2.6068 4.33339 3.55123 2.60269 2.59524 2.54527 2.54391 2.51362 2.44978 2.62436 3.11582 3.88136 9.18589 2.40689 2.40497 3.24022 7.89304 3.20873 4.10067 4.62078 3.47609 2.36246 3.23202 2.20205 2.08623 3.34235 2.08143 2.0252 2.67109 1.98018 1.97264 1.89605 1.86418 5.34936 1.80987 1.77438 1.77204 2.11785 2.02474 1.75177 1.75061 3.54496 1.72569 2.31134 2.43662 1.68215 1.65414 2.3728 1.64533 1.643 1.62583 3.36313 6.25762 3.79933 1.8591 1.54742 1.77683 2.39177 1.98223 1.52584 3.15445 1.76768 3.00546 5.13393 1.51457 6.02262 1.47267 1.90801 1.4559 2.02043 3.66418 1.44265 1.39432 2.19987 1.31535 1.25032 1.17932 1.15559 1.1231 1.1039 1.10352 1.06342 1.05879 1.82571 0.977743 0.931083 0.893761 0.893761 0.880475 2.41315 0.863709 0.860505 0.828718 0.817153 0.80535 2.34545 1.03741 0.804385 0.686852 1.66692 0.804385 0.658069
threshold=10.535762361000002 11.933577050000002 23.991387620000005 289.89593500000007 1.8398760720000003 30.929717345000004 35.890309620000004 0.65563898200000015 4.7989977845000009 1.0000000180025095e-35 31.093713375000004 30.674829500000005 11.740510195000002 65.241050215000016 12.519424850000002 97.252758050000025 3.6296017245000001 5.2651336995000007 14.239425975000001 12.977841150000001 3.4806494050000008 5.9114412095000004 339.56350000000003 344.42638280000006 5.6442185430000009 196.07950000000002 2.8640216560000007 131.22750000000005 2.3955529260000001 6.0711935880000008 12.0422089 108.05400000000002 11.378360770000002 11.191560630000003 52.520865160000007 15.031667060000002 801.85765200000014 9.8664342070000028 6.3455520250000008 13.058608200000002 2.8607453200000004 814.57184605000009 73.157166175000015 9.4928593695000014 3.4575610020000007 5.7634018465000008 324.19601970000002 685.19981415000007 5.5613591935000013 1.0000000180025095e-35 1.0000000180025095e-35 2.0845302435000002 72.55479818000002 92.203338285000015 7.1190551080000004 74.390050930000015 34.519834030000005 94.763604795000006 116.12946465 5.8638235430000014 328.72393865000009 6.0536872875000016 542.72550000000012 1.9255714155000003 13.172158065000001 16.957844025000004 11.827434735000002 467.99031045000009 12.631871840000001 8.6012796600000012 1.5000000000000002 224.37059780000001 168.00450000000004 1.0000000180025095e-35 2.7484033665000003 136.08750000000003 458.11962845000005 95.094183700000016 1240.0260590000003 7.7241485235000011 0.87069355850000008 3.5189664855000005 5.5613591935000013 1.5935129830000003 3.4159295280000008 1.5053176830000001 1.3144683680000002 2.7256964780000001 635.91760670000008 495.27900000000005 12.107829430000001 1.5125235710000002 268.04025985000004 71.793987520000016 143.06550000000001 131.05565205000002 6.0589304680000007 1.2627199690000002 169.10851800000003 5.0803654300000014 511.11000000000007 299.1098882500001 34.835005160000009 5.9846649890000014 2.6863393745000006 25.617889045000002 5.7353156105000016 17.804602900000003 28.678353845000004 3.9522684050500003 3.1365000745000002 25.306333840000004 19.324432260000005 12.457299295000002 5.6576648585000013 544.19609695000008 6.5584466480000012 10.169858330000002 356.27350000000007 443.16036250000008 45.935844070000009 5.9745102790000013 12.252771395000002 3.8472677300000004 18.597691620000003 18.651918870000006 22.136234880000003 90.603910070000026 1960.1784500000001 95.094183700000016 21.148025025000003 50.822539750000011 6.4153584645000006 24.363910815000004 6.5487337235000007 7.0828337300000008 520.15500000000009 164.59750000000003 8.8389349075000023 290.62833780000005 12.493725230000001 24.135184375000005 3.1695323740000005 5.5613591935000013 4.7101470190000008 105.21350545000003 2.5757885970000003 168.00977395000004 339.57155365000006 244.14150000000004 5.8908393400000012 3.0147366335000005 45.006015260000005 214.52186380000003 12.715957705000003 515.3850000000001 5.6576648585000013 23.882426140000003 16.837195350000005 7.8474057335000005 1.4052521820000001 13.817966720000003 37.084924810000011 36.755539285000005 862.29684165000015 5.8695994830000009 45.006015260000005 6.4153584645000006 3.8414677180000005 289.16800000000006 32.482724200000007 1.9249612160000003 25.204415415000003 2.4819911785000004 2.0415872045000003 3.6670192350000006 24.450200220000003 3.0729461890000005 1.0000000180025095e-35 134.18601610000002 2.0134276180000001 1.6175631380000002 1.8958236015000003 1255.9158245000001 1.4712100020000001 2.4819911785000004 633.32610855000019 328.72393865000009 5.6576648585000013 589.07662170000015 5.829524343000001 25.204415415000003 158.54329160000003 11.740510195000002 6.3329322450000012 24.940489260000003 562.71170930000017 46.869029625000003 8.2348315635000002 59.892087085000007 5.187645207500001 2.4819911785000004 11.788939395000002 2.9497255275000005 6.5084886355000009 388.02397985000005 18.893609865000005 371.28133600000007 13.854495515000002 14.354774435000001 5.5824468115000014 49.020775945000004 57.336156255000013 303.57029730000005 17.653277540000001 12.069866685000003 3.2937102435000005 268.07649550000008 1.9531096455000003 4.5322488325000014 279.03993785000006 2.5026530700000005 3.1420335830000004 4.8263134375000005 61.570212180000006 303.58650000000006 24.570863110000001 24.794688180000005 1.8844035535000001 259.6665000000001 314.13847105000008 1.3417796675000002 1.8448697600000001 23.672656260000004 6.0589304680000007 1.4604316775000001 271.45698810000005 9.6586944665000019 10.562058970000001 49.161341995000008 18.477060750000003 2.4343656375000005 56.240914015000008 1.1892486620000002 2.6993588025000004 18.124870695000002 5.4149962965000009 11.867875035000003 1.4910762030000002 5.7129860410000015 1.3467457425000002 1.4025509020000002 17.151938045000005 1.0265483805000002 205.45842055000003 0.90721645750000002 306.31202500000006 3.6697864590000004 6.0002099000000007 147.06131715000004 97.021058945000007 586.29898110000011 642.1110000000001 1.9102332665000001 2.4316957955000005 19.166004645000005 147.06131715000004 3.0245811045000006 3.2461467435000002 2.5757885970000003 4.8263134375000005 177.97060460000003 853.13907800000015 1.9730415115000002 48.346962040000008 6.5758191855000012 3.9256359945000003 1.6902718345000001 7.709229725000001 1.6639302255000004 44.019926715000004 1.2259282490000001 152.04038475000002 254.83288815000003 25.838284050000002 5.7634018465000008 2.0167866885000003 728.49373515000013 288.89377840000003 479.28533825000005 1.8844035535000001 5.7511827200000001 5.7129860410000015 6.7653095825000014 176.73187675000003 20.683437185000006 21.634824635000005 64.09819395000001 14.481530930000002
decision_type=2 2 2 2 2 2 2 2 2 2 2 2 2 2 2 2 2 2 2 2 2 2 2 2 2 2 2 2 2 2 2 2 2 2 2 2 2 2 2 2 2 2 2 2 2 2 2 2 2 2 2 2 2 2 2 2 2 2 2 2 2 2 2 2 2 2 2 2 2 2 2 2 2 2 2 2 2 2 2 2 2 2 2 2 2 2 2 2 2 2 2 2 2 2 2 2 2 2 2 2 2 2 2 2 2 2 2 2 2 2 2 2 2 2 2 2 2 2 2 2 2 2 2 2 2 2 2 2 2 2 2 2 2 2 2 2 2 2 2 2 2 2 2 2 2 2 2 2 2 2 2 2 2 2 2 2 2 2 2 2 2 2 2 2 2 2 2 2 2 2 2 2 2 2 2 2 2 2 2 2 2 2 2 2 2 2 2 2 2 2 2 2 2 2 2 2 2 2 2 2 2 2 2 2 2 2 2 2 2 2 2 2 2 2 2 2 2 2 2 2 2 2 2 2 2 2 2 2 2 2 2 2 2 2 2 2 2 2 2 2 2 2 2 2 2 2 2 2 2 2 2 2 2 2 2 2 2 2 2 2 2 2 2 2 2 2 2 2 2 2 2 2 2 2 2 2 2 2 2 2 2 2 2 2 2 2 2 2 2 2 2 2 2 2 2 2 2 2 2
left_child=12 2 7 4 5 20 14 19 9 15 11 16 121 32 122 86 48 18 21 51 24 23 54 -5 -4 26 30 -28 29 -29 31 -11 46 93 55 53 224 59 -39 140 41 42 -15 -44 -42 88 47 50 114 -50 90 52 -2 -36 60 56 61 -52 -59 101 -23 63 65 64 70 66 67 -63 -68 134 71 72 80 -74 75 -72 -67 163 -79 -78 -16 202 84 142 -83 -86 87 -9 -46 -90 91 243 -93 242 95 96 -95 -96 -99 -25 -40 102 223 162 -60 106 151 147 109 110 204 112 113 -112 -6 116 156 118 125 120 -120 239 -3 229 -125 148 127 197 129 130 131 -129 133 -18 136 155 -70 -116 -139 171 184 -66 -84 144 -58 -33 166 -108 149 176 -151 228 153 -140 191 -136 -65 -152 -159 -160 -100 -162 -104 -64 211 177 -13 -97 205 -170 236 172 -88 174 232 -150 -118 178 218 180 231 265 -181 -165 -34 289 187 -103 -189 -146 -56 192 -126 -21 -195 196 -171 261 -199 -200 -48 -94 -35 -82 -41 206 207 208 -158 -210 -177 212 214 -214 215 216 -111 -217 256 -220 -154 275 -223 -19 225 -20 -145 -92 -106 233 -231 -180 -77 -124 235 -235 -73 -198 -239 279 241 247 -14 244 -10 -187 -193 248 252 250 -250 -249 253 254 255 -241 258 -258 291 260 -260 -8 -263 281 -265 266 -76 -268 -168 270 -85 -269 -128 -98 -131 -204 285 -243 -224 -1 -281 -251 -179 -172 -211 286 -242 -47 -87 -186 -244 292 293 -123 -30 -264 297 -297 -274
right_child=1 6 3 17 10 -7 126 8 13 25 -12 146 33 40 34 -17 132 37 36 193 -22 22 -24 99 -26 -27 27 28 294 -31 -32 145 39 81 35 -37 -38 38 100 108 44 -43 43 -45 45 287 200 -49 49 -51 57 -53 -54 -55 190 -57 143 58 104 -61 -62 62 77 115 141 76 68 -69 69 -71 74 170 73 -75 181 173 79 78 -80 -81 203 82 83 269 85 288 139 -89 89 -91 227 92 201 94 97 167 273 98 160 -101 -102 186 103 -105 105 -107 107 -109 -110 164 111 -113 -114 -115 137 -117 117 -119 119 -121 -122 165 123 124 154 -127 272 128 -130 274 -132 -133 -134 -135 135 -137 -138 138 152 -141 -142 -143 -144 226 189 -147 -148 -149 175 150 157 -153 220 -155 -156 -157 168 158 159 -161 161 -163 -164 183 -166 -167 268 -169 169 195 283 -173 -174 -175 -176 210 -178 282 179 182 -182 -183 -184 -185 185 245 -188 188 -190 -191 -192 246 -194 194 -196 -197 237 198 199 -201 -202 -203 221 -205 -206 -207 -208 -209 209 284 -212 -213 213 -215 -216 217 -218 -219 219 -221 -222 222 278 -225 -226 -227 -228 -229 -230 230 -232 -233 -234 234 -236 -237 -238 238 -240 240 276 277 290 -245 -246 -247 -248 251 249 263 -252 -253 -254 -255 -256 -257 257 -259 259 -261 -262 262 295 264 -266 -267 267 271 -270 -271 -272 -273 298 -275 -276 -277 -278 -279 -280 280 -282 -283 -284 -285 -286 -287 -288 -289 -290 -291 -292 -293 -294 -295 -296 296 -298 -299 -300
leaf_value=-1.8269882741920296 -1.7807162436538331 -1.743665797045457 -1.5161630547133242 -1.737571973590132 -1.7140672259767358 -1.7180297121644346 -1.8289793254200071 -1.8098273088461283 -1.8135103889564896 -1.7558534439561071 -1.7842912867476237 -1.5906431191672961 -1.8289793254200071 -1.5876639165891371 -1.7052278337118687 -1.6461646217602572 -1.8098273088461285 -1.7715232756983714 -1.8128916314979491 -1.8260858552901404 -1.4804126237754174 -1.7646285497317751 -1.6278831513942822 -1.5675542991865647 -1.6278831513942822 -1.7715232756983714 -1.5650405970112431 -1.5273350643814196 -1.7686504732122896 -1.6681023861994271 -1.768041090866757 -1.5913202106623323 -1.7507752577433362 -1.7715232756983714 -1.7163654679656011 -1.6278831513942822 -1.694915209402857 -1.6433520878577994 -1.7163654679656011 -1.766136771036968 -1.8289793254200069 -1.792416384688057 -1.7991872996384182 -1.6366264633084442 -1.7571592632679625 -1.8098273088461285 -1.8289793254200071 -1.6278831513942822 -1.6655886840241056 -1.788760090614862 -1.810697855054032 -1.8128916314979491 -1.6732919648839619 -1.8289793254200069 -1.8289793254200069 -1.6882120036019996 -1.7083216210045722 -1.6520146922773693 -1.785499071576607 -1.7098112222936515 -1.6651231836212683 -1.7787052819135758 -1.8228855019646819 -1.7396032480752404 -1.7351344442080021 -1.6278831513942822 -1.8289793254200069 -1.645119966310773 -1.7451892529092883 -1.8289793254200071 -1.6681023861994271 -1.788760090614862 -1.7516346431024206 -1.5847911141030555 -1.8207713183169161 -1.7816625785904248 -1.7765194539350353 -1.694915209402857 -1.7954632964157196 -1.6681023861994271 -1.8289793254200069 -1.8240139877897421 -1.7361657066389031 -1.8088697080174345 -1.6827275624922071 -1.8289793254200069 -1.8289793254200071 -1.6732919648839619 -1.6278831513942822 -1.7396032480752404 -1.7816625785904248 -1.6596351788720283 -1.7945056955870256 -1.7060872190709531 -1.8289793254200069 -1.6603180181726249 -1.7686504732122896 -1.6827275624922073 -1.7284312384071445 -1.6583522686709071 -1.8021665022165769 -1.8289793254200071 -1.719290503224157 -1.6566111762551001 -1.6882120036019999 -1.8088697080174345 -1.8140833125292126 -1.6757631928289787 -1.7158627275305367 -1.8226950699817031 -1.7842912867476237 -1.79067529227225 -1.6566111762551001 -1.6949152094028572 -1.5800031099595859 -1.7311487542723571 -1.8289793254200069 -1.8289793254200071 -1.7523712591244927 -1.7858872881287802 -1.6515415248090735 -1.8289793254200069 -1.8242196526620016 -1.7231392338275202 -1.8289793254200069 -1.8194033171330677 -1.7945056955870256 -1.6681023861994273 -1.7116732239050008 -1.8289793254200071 -1.8289793254200069 -1.7671035795659378 -1.6781571949007135 -1.7202786908115071 -1.7396032480752404 -1.6882120036019996 -1.6461646217602572 -1.5913202106623323 -1.6536647121668111 -1.7381616984406474 -1.8247457217563074 -1.6566111762551001 -1.6479927687968547 -1.7787052819135758 -1.8289793254200069 -1.6781571949007135 -1.5739305193386 -1.7284312384071445 -1.8289793254200071 -1.6681023861994273 -1.801241922106114 -1.7332192425506143 -1.6603180181726249 -1.7523712591244929 -1.737571973590132 -1.8151106237630605 -1.8289793254200071 -1.6992398583066362 -1.8030314319973328 -1.7083216210045722 -1.8166041762491931 -1.7451892529092883 -1.792416384688057 -1.7332192425506143 -1.7284312384071445 -1.7511356451519844 -1.6781571949007135 -1.7284312384071445 -1.7140672259767358 -1.7637589446549071 -1.788760090614862 -1.8289793254200071 -1.7324531618876591 -1.719290503224157 -1.8289793254200069 -1.737571973590132 -1.7596358171352744 -1.8289793254200071 -1.7284312384071445 -1.8289793254200069 -1.6882120036019996 -1.7600320657540443 -1.7671035795659378 -1.8088697080174345 -1.8221625059615079 -1.737571973590132 -1.8289793254200071 -1.7083216210045722 -1.801241922106114 -1.7590328301067113 -1.7558534439561071 -1.788760090614862 -1.719290503224157 -1.8191697559553375 -1.7654752704645149 -1.7548912613052663 -1.8227917508346001 -1.7284312384071445 -1.761947267411432 -1.8220449745915337 -1.774629008115757 -1.7381616984406474 -1.8242753213492298 -1.7641095918633216 -1.8191697559553375 -1.7590328301067113 -1.761947267411432 -1.8222386715420498 -1.7052278337118687 -1.8289793254200069 -1.8002513005591891 -1.8289793254200071 -1.7041610105074882 -1.8128916314979491 -1.8289793254200071 -1.7116732239050008 -1.7580042051756335 -1.79067529227225 -1.7396032480752404 -1.8053209520052158 -1.6037516105111953 -1.7600320657540443 -1.788760090614862 -1.8289793254200069 -1.8289793254200069 -1.7528888811940571 -1.8177291898101762 -1.8289793254200069 -1.6278831513942822 -1.7427952508375535 -1.8289793254200069 -1.788760090614862 -1.7284312384071445 -1.7787052819135758 -1.7646285497317751 -1.8289793254200071 -1.7324531618876591 -1.7516346431024206 -1.8289793254200069 -1.8289793254200071 -1.8289793254200069 -1.7906752922722498 -1.7731192770795279 -1.8289793254200069 -1.7485408558097171 -1.792416384688057 -1.8289793254200071 -1.7558534439561071 -1.7158627275305369 -1.7988148993161484 -1.792416384688057 -1.8098273088461285 -1.7765194539350353 -1.8226289199244579 -1.7590328301067113 -1.7787052819135758 -1.7580042051756335 -1.8289793254200069 -1.8155729138182921 -1.8289793254200069 -1.7318984138213813 -1.7485408558097171 -1.8289793254200069 -1.7523712591244929 -1.8114927015916831 -1.8289793254200071 -1.7427952508375535 -1.8289793254200069 -1.6278831513942822 -1.8146153129895981 -1.7451892529092883 -1.7842912867476237 -1.8269980823261576 -1.8140833125292126 -1.788760090614862 -1.788760090614862 -1.788760090614862 -1.8257873226576939 -1.8289793254200069 -1.7830144856426984 -1.8229764545535674 -1.8289793254200071 -1.7980414524929724 -1.8289793254200069 -1.788760090614862 -1.8289793254200071 -1.7686504732122896 -1.7686504732122896 -1.788760090614862 -1.788760090614862 -1.8088697080174345 -1.8253559709330569 -1.7735045187922209 -1.7940060777633593 -1.7284312384071445 -1.8088697080174345 -1.8289793254200071 -1.7686504732122896 -1.810697855054032
leaf_weight=25.112361654639244 3.1079655513167364 4.1025145277380934 4.4754703938961091 2.7350096851587313 2.6106910631060662 3.6052400395274153 11.312994606792925 2.6106910631060662 3.232284173369413 2.7350096851587349 4.475470393896102 3.3566027954220754 3.3566027954220754 3.729558661580084 3.232284173369413 2.7350096851587287 2.6106910631060583 2.6106910631060662 3.1079655513167364 17.280288465321068 9.3238966539502126 3.1079655513167364 2.4863724410533896 2.4863724410533905 3.2322841733694077 2.6106910631060591 3.9781959056854239 2.4863724410533887 2.4863724410533905 2.4863724410533905 4.1025145277380934 2.7350096851587296 4.4754703938961091 4.3511517718434325 3.1079655513167364 2.7350096851587296 2.9836469292640677 3.2322841733694059 3.1079655513167381 3.9781959056854266 3.7295586615800884 2.7350096851587287 3.3566027954220772 2.8593283072113991 3.4809214174747449 2.6106910631060591 4.2268331497907621 2.4863724410533896 3.9781959056854239 2.4863724410533905 2.7350096851587322 3.1079655513167381 3.8538772836327553 2.4863724410533905 2.4863724410533905 2.4863724410533896 2.4863724410533923 3.1079655513167408 4.5997890159487751 3.3566027954220763 3.3566027954220772 2.9836469292640713 8.2050290554761904 3.3566027954220763 3.7295586615800849 2.4863724410533896 6.2159311026334789 4.3511517718434334 2.9836469292640713 2.7350096851587287 2.4863724410533896 2.4863724410533887 3.2322841733694068 3.4809214174747467 6.0916124805808165 4.2268331497907621 2.8593283072113991 4.1025145277380926 4.4754703938961029 2.4863724410533905 2.4863724410533905 10.069808386266233 3.2322841733694068 2.4863724410533887 2.7350096851587278 2.8593283072113991 2.4863724410533887 3.8538772836327553 3.9781959056854248 3.3566027954220772 4.2268331497907621 4.7241076380014411 4.3511517718434316 4.4754703938961047 5.2213821262121227 3.8538772836327544 2.4863724410533905 2.7350096851587322 2.4863724410533896 4.1025145277380943 3.7295586615800858 3.1079655513167364 2.7350096851587278 2.61069106310606 2.4863724410533967 2.4863724410533896 3.3566027954220754 2.61069106310606 3.9781959056854239 7.9563918113708585 4.4754703938961011 2.6106910631060591 4.3511517718434334 2.9836469292640686 2.6106910631060627 4.5997890159487715 2.8593283072114017 5.9672938585281363 2.6106910631060583 3.4809214174747467 4.2268331497907639 8.2050290554761904 21.00984712690115 4.7241076380014446 2.6106910631060662 5.2213821262121192 4.3511517718434325 2.4863724410533958 2.9836469292640677 6.340249724686144 2.4863724410533905 3.2322841733694077 2.9836469292640686 4.5997890159487724 3.3566027954220754 2.4863724410533905 2.7350096851587296 2.7350096851587304 4.8484262600541115 3.8538772836327544 11.810269095003603 3.4809214174747467 2.4863724410533905 3.9781959056854275 2.8593283072113991 2.9836469292640686 5.0970635041594496 2.4863724410533905 3.978195905685423 2.4863724410533932 3.6052400395274153 2.61069106310606 3.8538772836327553 2.61069106310606 2.7350096851587287 3.6052400395274162 4.5997890159487715 3.8538772836327535 3.8538772836327553 2.4863724410533905 8.0807104334235174 2.9836469292640677 4.1025145277380943 2.6106910631060591 2.4863724410533896 3.8538772836327544 2.9836469292640686 3.4809214174747467 2.6106910631060627 4.5997890159487786 2.4863724410533905 5.3457007482647896 3.1079655513167381 2.7350096851587287 2.4863724410533905 2.7350096851587296 3.6052400395274162 9.8211711421608907 2.4863724410533887 4.724107638001442 2.4863724410533905 4.3511517718434325 3.2322841733694077 2.4863724410533905 7.3347987011075002 2.7350096851587287 6.3402497246861449 2.4863724410533905 3.6052400395274162 2.8593283072113991 2.7350096851587296 3.729558661580084 2.7350096851587296 5.0970635041594488 4.724107638001442 4.7241076380014411 8.0807104334235174 2.4863724410533896 3.729558661580084 7.2104800790548325 4.5997890159487724 3.8538772836327553 21.258484371006492 3.8538772836327553 5.0970635041594505 2.8593283072113982 2.9836469292640677 22.253033347427845 3.2322841733694059 3.1079655513167381 3.4809214174747467 3.4809214174747458 3.6052400395274153 3.1079655513167381 5.0970635041594496 2.9836469292640677 4.2268331497907639 2.61069106310606 3.3566027954220763 4.2268331497907639 3.1079655513167381 4.3511517718434316 2.4863724410533905 3.9781959056854248 2.4863724410533905 4.5997890159487724 17.777562953531742 4.5997890159487724 2.7350096851587296 3.4809214174747458 3.7295586615800858 2.4863724410533905 2.4863724410533905 2.9836469292640668 3.1079655513167372 6.0916124805808067 3.1079655513167381 3.2322841733694068 2.7350096851587296 5.7186566144227964 4.9727448821067872 2.6106910631060627 4.4754703938961029 3.4809214174747467 2.4863724410533905 2.7350096851587296 7.9563918113708496 4.1025145277380934 3.9781959056854275 4.9727448821067828 2.7350096851587296 2.61069106310606 2.8593283072113982 23.62053819000721 2.8593283072113982 2.9836469292640686 4.226833149790763 2.4863724410533905 3.729558661580084 3.8538772836327553 3.6052400395274162 3.7295586615800884 8.2050290554761904 2.6106910631060591 2.8593283072113991 4.9727448821067801 3.4809214174747449 3.2322841733694077 2.7350096851587296 3.4809214174747467 2.9836469292640686 3.3566027954220772 25.236680276691914 3.3566027954220772 2.4863724410533905 2.4863724410533896 2.4863724410533896 15.664146378636358 4.8484262600541115 4.3511517718434325 8.3293476775288564 5.8429752364754677 3.2322841733694068 3.1079655513167381 2.4863724410533905 20.139616772532463 2.4863724410533905 2.4863724410533905 2.4863724410533905 2.4863724410533905 2.4863724410533905 13.799367047846316 3.6052400395274153 2.8593283072113982 2.4863724410533905 2.4863724410533887 5.3457007482647896 2.4863724410533905 8.2050290554761869
leaf_count=202 25 33 36 22 21 29 91 21 26 22 36 27 27 30 26 22 21 21 25 139 75 25 20 20 26 21 32 20 20 20 33 22 36 35 25 22 24 26 25 32 30 22 27 23 28 21 34 20 32 20 22 25 31 20 20 20 20 25 37 27 27 24 66 27 30 20 50 35 24 22 20 20 26 28 49 34 23 33 36 20 20 81 26 20 22 23 20 31 32 27 34 38 35 36 42 31 20 22 20 33 30 25 22 21 20 20 27 21 32 64 36 21 35 24 21 37 23 48 21 28 34 66 169 38 21 42 35 20 24 51 20 26 24 37 27 20 22 22 39 31 95 28 20 32 23 24 41 20 32 20 29 21 31 21 22 29 37 31 31 20 65 24 33 21 20 31 24 28 21 37 20 43 25 22 20 22 29 79 20 38 20 35 26 20 59 22 51 20 29 23 22 30 22 41 38 38 65 20 30 58 37 31 171 31 41 23 24 179 26 25 28 28 29 25 41 24 34 21 27 34 25 35 20 32 20 37 143 37 22 28 30 20 20 24 25 49 25 26 22 46 40 21 36 28 20 22 64 33 32 40 22 21 23 190 23 24 34 20 30 31 29 30 66 21 23 40 28 26 22 28 24 27 203 27 20 20 20 126 39 35 67 47 26 25 20 162 20 20 20 20 20 111 29 23 20 20 43 20 66
internal_value=0 0.220626 0.695277 1.51728 2.59631 4.35383 -0.222816 0.239671 0.35263 1.12799 1.96754 2.15629 -0.565723 0.145188 -0.0888621 0.330153 1.77574 0.482592 0.929327 -0.524594 5.05345 1.42591 0.875988 2.26179 4.14906 1.78603 1.9642 2.56439 1.94674 3.45496 1.29865 1.90534 0.0158527 -0.26102 0.00450714 0.99078 0.0439121 0.11854 0.915188 -0.187234 0.80977 1.43217 1.94674 0.921147 0.40797 0.777866 0.284634 0.409788 2.12356 1.15009 0.308884 0.418655 0.984348 0.0810116 0.45563 -0.0230493 -0.0370791 0.67812 0.831267 -0.111099 1.15009 0.0229611 0.301182 -0.0602515 0.210607 0.586156 0.355852 1.42014 0.0321773 0.449688 0.0763944 0.467634 0.978866 2.10687 -0.192964 0.424647 1.51103 -0.210476 0.461831 0.887475 0.187799 -0.481568 -0.164773 0.329447 -0.56421 0.0672615 0.0527876 0.840708 1.32611 1.82915 -0.0395922 0.230641 0.840708 0.0625974 0.234228 0.812385 0.283454 -0.240329 0.0578148 2.92756 0.146012 -0.251861 0.13921 0.734868 0.626776 0.854026 1.10167 0.485833 0.0196647 -0.0525821 0.319348 0.840708 1.11589 0.438516 2.40479 -0.215768 -0.252553 -0.0132618 0.129137 0.961851 1.60853 -0.720597 -0.503556 -0.569276 -0.190292 -0.0959938 -0.702699 -0.54346 -0.121056 -0.348255 0.292264 0.928141 0.79166 0.355304 0.741809 0.311508 1.45274 2.57342 2.38536 -0.291514 -0.600217 1.4648 1.45274 -0.569468 0.0485112 2.6768 3.20447 -0.143379 0.0439121 0.280276 0.549042 1.76639 2.15823 1.64509 -0.46199 -0.164773 -0.436429 0.279088 0.595469 0.0915264 -0.284692 -0.537591 0.146012 -0.64402 -0.298368 -0.532773 2.79658 1.55647 -0.488823 -0.208071 -0.276493 -0.621809 -0.0977405 0.0865976 -0.191948 -0.483584 -0.396807 -0.575761 -0.492725 -0.00259826 0.706644 -0.542441 -0.667513 0.00689487 -0.31022 -0.516282 -0.655447 -0.300648 0.143028 -0.470789 -0.404173 -0.641826 -0.0478562 -0.875066 -0.457508 -0.357311 -0.526746 -0.723373 -0.350973 -0.621809 -0.603785 0.0485112 -0.742924 -0.381641 -0.509115 -0.664503 -0.730558 -0.805898 -0.425453 -0.0373173 -0.0441149 -0.384013 -0.291514 0.319348 -0.470789 -0.270243 -0.595693 0.438516 -0.632761 -0.115323 2.70803 -0.831565 -0.485671 -0.714941 -0.385488 -0.132338 -0.802535 -0.717079 2.27711 -0.798999 -0.338131 0.23742 0.170388 -0.899113 -0.595693 -0.839684 0.259764 -0.743147 -0.332353 -0.825888 -0.765477 -0.682043 -0.588771 -0.62675 -0.295922 0.109449 -0.913535 -0.594639 -0.646011 -0.344129 0.468308 -0.127533 -0.828521 -0.886019 -0.564803 -0.825517 -0.717383 -0.276493 -0.792016 -0.455245 -0.0795624 -0.872333 -0.720877 -0.679026 -0.25618 -0.697086 -0.551496 -0.276493 2.32707 -0.388213 -0.0733652 -0.714941 -0.985033 -0.485671 -0.943666 -1.0018 -1.00406 -1.00609 -0.897581 -1.01149 -0.775947 -0.892879 -1.01704 -0.812749 -0.812749 -1.06155 -0.768061 -0.385488 -0.796121 -0.864791 -0.308413 -0.924372 -0.761244 -0.989493 0.438516 -0.954311 -0.782598 -0.365869 -1.05064
internal_weight=0 928.909 448.666 159.998 78.3207 20.6369 480.243 288.668 251.497 53.0841 57.6838 53.2084 362.264 198.413 375.442 23.9935 39.036 81.6773 36.674 37.1713 17.0317 23.4962 14.1723 9.3239 7.70775 29.0906 26.4799 13.9237 9.94549 4.97274 12.5562 8.45367 166.09 122.081 306.445 8.32935 13.1778 45.0033 10.0698 94.6065 32.3228 12.6805 9.94549 6.21593 19.6423 15.9128 71.4832 62.6566 28.8419 6.46457 60.1702 10.0698 6.96184 5.59434 11.686 298.116 295.63 29.2149 26.4799 34.9335 6.46457 265.669 61.1648 204.504 74.5912 39.2847 31.4526 7.3348 24.1178 17.9019 67.3807 27.4744 16.2857 6.71321 39.9063 14.421 7.83207 21.8801 8.57798 5.3457 9.57253 72.6021 32.8201 14.6696 18.1505 8.08071 21.2585 6.46457 10.8157 7.3348 30.9553 22.1287 12.9291 49.4788 39.1604 17.6532 10.3184 21.5071 16.2857 6.58889 6.83752 31.5769 16.0371 9.44822 23.3719 18.7721 16.2857 8.45367 63.0295 59.0513 23.4962 14.421 11.8103 7.45912 22.3774 129.913 125.313 54.4516 48.4843 10.3184 6.83752 240.184 68.9968 64.8943 24.4908 38.1658 104.801 67.0077 20.0153 17.0317 8.20503 5.71866 10.1941 7.21048 15.1669 9.44822 5.71866 19.7667 17.156 14.7939 31.5769 7.21048 5.71866 29.9608 8.20503 5.71866 14.1723 5.84298 32.9444 22.7503 16.2857 7.83207 14.421 7.45912 19.7667 6.96184 70.8616 13.7994 10.1941 6.34025 13.5507 11.0644 6.83752 13.3021 35.5551 86.2771 9.07526 7.3348 67.505 25.9826 11.1887 10.94 5.59434 11.9346 9.19958 10.1941 6.46457 82.4232 69.3698 15.4155 7.45912 25.4853 7.95639 5.09706 19.7667 15.2912 15.5398 9.19958 6.09161 5.71866 5.22138 17.0317 5.3457 27.1015 9.82117 23.3719 18.6478 46.9924 13.4264 10.94 8.82662 8.20503 39.782 6.34025 9.07526 41.5224 38.6631 35.6794 13.4264 8.82662 6.21593 33.0688 29.5878 6.71321 22.8746 17.7776 12.1832 5.59434 53.9543 7.58344 6.96184 35.4308 11.686 6.58889 10.1941 7.70775 21.7558 8.82662 5.22138 40.4036 7.21048 4.97274 6.71321 33.1931 12.1832 9.07526 5.59434 14.048 5.96729 153.906 116.114 86.0285 10.3184 9.19958 5.71866 5.47002 11.686 67.7536 61.0404 22.9989 6.71321 6.71321 38.0415 35.1822 11.5616 8.7023 46.3708 6.71321 39.6576 11.1887 7.3348 33.566 22.253 16.2857 5.47002 21.1342 16.1614 10.0698 5.71866 8.95094 5.47002 6.58889 37.7929 5.84298 8.82662 23.7449 30.0851 18.2748 7.3348 37.7929 12.6805 10.8157 13.0535 5.59434 5.59434 27.5987 7.45912 5.09706 5.3457 9.82117 6.96184 28.469 14.6696 11.0644 4.97274 18.5235 10.3184 4.97274 33.4417
internal_count=10386 7472 3609 1287 630 166 3863 2322 2023 427 464 428 2914 1596 3020 193 314 657 295 299 137 189 114 75 62 234 213 112 80 40 101 68 1336 982 2465 67 106 362 81 761 260 102 80 50 158 128 575 504 232 52 484 81 56 45 94 2398 2378 235 213 281 52 2137 492 1645 600 316 253 59 194 144 542 221 131 54 321 116 63 176 69 43 77 584 264 118 146 65 171 52 87 59 249 178 104 398 315 142 83 173 131 53 55 254 129 76 188 151 131 68 507 475 189 116 95 60 180 1045 1008 438 390 83 55 1932 555 522 197 307 843 539 161 137 66 46 82 58 122 76 46 159 138 119 254 58 46 241 66 46 114 47 265 183 131 63 116 60 159 56 570 111 82 51 109 89 55 107 286 694 73 59 543 209 90 88 45 96 74 82 52 663 558 124 60 205 64 41 159 123 125 74 49 46 42 137 43 218 79 188 150 378 108 88 71 66 320 51 73 334 311 287 108 71 50 266 238 54 184 143 98 45 434 61 56 285 94 53 82 62 175 71 42 325 58 40 54 267 98 73 45 113 48 1238 934 692 83 74 46 44 94 545 491 185 54 54 306 283 93 70 373 54 319 90 59 270 179 131 44 170 130 81 46 72 44 53 304 47 71 191 242 147 59 304 102 87 105 45 45 222 60 41 43 79 56 229 118 89 40 149 83 40 269
shrinkage=1


Tree=1
num_leaves=300
num_cat=0
split_feature=25 11 22 9 13 2 19 11 25 19 15 20 15 5 11 14 2 22 9 14 2 5 15 13 1 5 11 15 13 9 14 20 5 25 14 22 13 15 3 9 25 2 2 3 13 1 11 20 15 3 15 2 13 9 5 16 5 14 22 9 14 5 3 20 22 11 25 1 13 13 22 25 5 2 9 15 9 5 1 5 5 25 1 25 9 11 3 16 1 14 2 26 5 1 3 14 3 14 9 2 15 3 9 25 22 3 2 25 5 5 9 22 15 5 3 22 22 15 25 14 20 14 13 25 26 13 25 13 15 3 2 22 14 13 20 3 25 3 1 5 5 13 15 22 15 5 14 14 14 5 25 19 1 1 9 13 14 25 15 11 13 11 5 2 13 5 3 14 9 11 15 9 1 2 25 5 14 5 3 22 15 1 15 25 1 13 2 14 22 2 13 13 2 5 25 14 13 2 25 15 5 3 20 16 22 13 22 25 14 11 9 25 3 2 5 2 1 20 9 13 22 3 9 3 1 1 2 25 2 15 1 5 3 5 15 3 1 13 15 9 9 14 5 14 13 1 13 5 13 13 15 14 5 1 13 9 5 9 20 13 9 19 14 25 5 13 16 14 3 15 1 1 15 11 22 15 3 14 15 14 1 2 14 25 14 5 1 3 13 3 2 14 5 11 25 22 3 2 14
split_gain=87.5135 192.337 119.734 79.0884 48.463 56.5613 37.124 26.8002 26.7742 29.4919 25.9897 24.3347 23.0857 22.9312 20.4247 17.3382 16.2234 13.8648 21.8789 16.7218 15.3624 16.9793 16.3623 12.935 16.5819 12.3409 11.7675 11.4047 18.399 17.7694 17.6855 11.3561 11.2217 17.6401 10.6111 10.2399 12.6061 9.68843 9.62403 9.85926 9.55353 9.45191 10.2395 9.66699 9.14387 8.32641 8.29958 8.27231 12.8168 8.07823 7.71075 7.55516 7.40969 7.29583 6.99024 10.009 6.97183 15.2105 6.81719 9.86693 15.0631 7.38787 13.2512 14.4591 6.82514 8.02307 6.79035 6.78241 13.4267 8.28025 7.36289 6.64128 13.072 9.87943 6.2856 6.2529 9.40255 6.56438 12.725 9.51474 6.17062 9.14225 6.04183 6.02673 5.98296 5.87044 7.61278 8.72743 7.8674 5.8459 10.9561 5.8134 7.05606 5.72867 6.87672 8.636 5.63986 5.53014 5.52235 5.54391 5.51501 5.50262 5.48218 5.40757 6.83648 5.28858 8.80192 8.34521 11.3436 5.23324 5.16782 5.12717 5.09769 5.08027 4.8884 4.82014 4.7375 4.67912 10.2866 4.67805 8.19666 4.66376 4.63808 4.63104 4.61441 6.63597 4.55594 4.36837 4.3292 4.26244 4.1712 4.96565 5.44567 4.09393 4.09196 4.55686 4.19748 8.32063 12.6824 4.14736 5.14069 6.5302 8.82899 7.6472 5.54962 6.2027 6.28426 4.33061 6.0972 4.08482 4.33514 4.04526 6.43444 4.02325 3.9818 3.96469 10.4604 9.92304 3.93324 3.9068 3.89176 7.57085 3.97534 7.85712 3.77838 5.41263 3.76833 6.4148 3.68578 4.75734 6.73533 5.48578 3.68522 4.67415 3.58448 3.52176 6.70763 4.61308 3.55518 3.48604 3.45806 3.45521 3.56016 7.47715 3.44184 3.43951 3.4021 6.73146 3.36138 6.50839 8.84308 3.30923 3.282 3.16083 3.13373 9.72545 7.0821 3.11264 4.13742 3.05779 4.07561 3.05203 3.044 3.03965 4.14364 3.01665 3.14406 4.83268 2.90572 2.86628 3.13341 5.22794 8.6713 3.03351 3.83663 2.74264 6.20814 2.71038 4.32354 2.6038 3.6352 2.54123 2.51135 2.49776 2.49145 7.34208 2.39411 3.38998 2.36953 2.35418 2.27334 4.57275 3.53912 3.39749 4.06846 2.21267 2.19215 2.18401 3.54978 2.15903 2.14957 2.11106 2.35698 3.69253 2.10978 2.09632 6.22938 1.97039 8.5622 1.93933 1.89652 1.81256 1.81146 1.77597 1.72075 1.71207 1.71009 1.67933 1.54207 1.40286 3.5363 3.14825 1.30439 2.21061 4.59841 1.30895 1.29284 1.23157 1.20816 1.19478 1.17334 1.15593 1.02849 1.02366 1.00327 0.988288 0.941626 0.926592 0.902525 0.851899 0.844789 0.817054 0.786204 1.81879 0.783116 0.76076 3.99386 4.5597 1.38214 0.749406 2.24193 0.6578 0.557176 0.921775 0.538906 0.986873 0.530542 0.462035 0.886887
threshold=23.725263370000004 -0.82499999999999984 11.484254345000002 5.2651336995000007 3.5988917615000005 2.5778996105000003 5.5682780110000012 -0.59499999999999986 55.958333335000006 11.877905550000003 -1.6370053199999999 52.520865160000007 -0.91289351849999989 1.8119543620000003 -2.4299999999999993 10.271755010000001 3.5240180040000006 11.933577050000002 5.2651336995000007 12.119348915000002 2.4873742195000004 5.8209535100000007 -0.88141534399999988 1.9191050585000002 5.5281628840000012 3.1449487025000002 -1.9449999999999996 -1.0110264189999998 2.9535828505000006 12.069866685000003 10.138147910000002 13.596016610000001 2.7534880355000007 28.458482160000006 12.733739050000002 16.578388340000004 11.359090590000003 -0.83449074049999983 12.837884115000001 28.177353110000002 28.458482160000006 3.3651523105000005 8.8140809430000022 10.298413665000002 5.5824468115000014 5.7753835100000011 -2.0149999999999992 6.0711935880000008 -1.2882119234999998 3.2543645390000004 -1.1848642604999997 2.8405035735000004 3.2671174495000002 37.904995105000005 17.731003440000006 5.5000000000000009 2.4024890340000007 9.9934911190000033 11.867875035000003 12.483486710000003 10.373768450000002 2.2708175420000005 3.8214177550000006 1.0000000180025095e-35 11.568422995000001 -1.115 36.541666665000008 17.626082645000004 4.2351286165000008 5.4905376295000012 21.507915500000003 34.041666665000008 4.3308893830000006 5.9728959595000006 11.241381685000002 -0.88141534399999988 13.037687786500003 1.9335523805000003 7.4702890125000012 8.6573056425000008 8.0201528930000006 52.162025310000011 5.6119702135000002 57.189395795000003 11.694788385000001 -1.345 13.961400650000003 16.500000000000004 16.617664270000002 12.614340590000003 15.42844657 1.0000000180025095e-35 2.6775518735000006 3.7763316595000007 6.0334753590000014 12.145243185000002 5.8038357755000005 9.6208564815000024 6.5584466480000012 2.7669779335000002 -5.5363892999999988 8.8630038060000018 11.518644675000003 29.169814815000006 11.701574590000002 15.057236365000001 9.9041360805000007 88.269134505000025 11.009222615000001 4.6414432915000008 5.8625212535000015 7.709229725000001 -1.0203008334999997 6.0326382705000006 3.4611026310000006 14.252753425000002 6.3481279145000009 -1.1898140629999998 38.184398860000009 9.8954861115000021 15.807151160000002 10.516465520000002 3.4239671745000004 32.168456675000009 1.0000000180025095e-35 2.1349234935000001 27.583333335000003 4.8807717305000011 -1.7437522829999998 3.3359471600000004 8.1086475520000025 11.484254345000002 11.637408985000002 2.9290530530000005 30.674026780000002 12.919738870000002 54.229220020000007 8.3467330250000007 11.248110455000001 5.9128760115000008 2.2481028100000002 3.8472677300000004 -1.5561574629999997 13.623250985 -1.1969294634999998 2.5880630015000006 10.501873270000003 9.8099537040000033 9.694050926000001 2.4622719525000005 47.142790640000008 22.603921890000002 7.2477097900000009 9.0808359320000012 19.367356105000002 1.4737670050000002 9.575231481500003 21.645115740000005 -0.64895833349999987 -0.57499999999999984 5.8491690715000013 -0.44999999999999996 3.7998559780000005 6.0410635101500008 4.2351286165000008 3.4535258905000004 19.736611685000003 12.745573315000001 17.081121830000004 -1.3549999999999998 -0.44703420249999998 11.966646835000001 6.6934888865000008 3.2384390680000004 28.958983850000003 2.2511464555000003 10.236669580000003 1.9517363690000002 5.0046507835000007 32.322658290000007 -4.7312964349999991 5.189958926500001 -1.0703472219999999 33.151967595000009 7.2220539925000002 3.0190716160000006 1.3417796675000002 9.3558796300000022 11.701574590000002 3.3773968785000004 3.4216966830000004 5.9633993945000006 3.3917380200000005 2.5527903205000002 83.957673225000008 12.192640005000001 5.9852139495000012 7.086299426000001 47.214869255000004 -1.6692824074999997 2.8416654385000002 5.8324299540000011 28.810407745000003 5.5000000000000009 14.603791015000001 6.5391941185000002 23.584264820000005 44.759002505000005 12.165057545000002 -1.4517532469999999 5.800553862000001 37.666488135000002 4.1975966585000011 4.0476839185000015 3.4137711140000007 1.7540976100000003 3.9842164565000004 5.9179394875000009 6.5584466480000012 5.7770112230000015 19.592556275000003 8.9216758525000017 35.890309620000004 3.4159295280000008 24.491437720000004 24.235481935000003 4.2657897890000012 44.507940955000002 7.0461809550000014 -5.5708382294999987 9.4604152055000004 4.6498856625000009 4.269330987500001 2.6935124480000003 -0.98594043999999992 8.569146378500001 4.1688649755000009 3.1996740475000003 -4.4345359204999992 6.5584466480000012 11.310871030000003 10.036272900000002 1.8165772065000001 10.253585100000002 1.9610358565000003 4.4593043185000001 1.4379088125000001 11.333590695000003 6.7632597815000013 1.7534077390000002 -0.88310768149999985 10.381622105000002 1.8788200995000002 8.0855707565000028 2.3626828455000006 12.212128860000002 2.8524405160000001 19.052299390000005 6.0711935880000008 2.1312749055000002 11.518644675000003 13.418789335000001 12.721462685000002 119.80655195000001 18.623575005000003 22.776675395000002 4.5000000000000009 12.663664225000002 2.8822581750000005 -1.0699659044999998 9.0808359320000012 3.7763316595000007 -1.5968157889999997 -1.4949999999999999 39.866264735000009 1.0000000180025095e-35 2.0689323815000003 9.5534976535000009 -1.2413442459999999 9.8530342970000024 16.050690635000002 3.4696427035000004 10.152328825000001 42.332404395000005 10.166997075000003 0.96425305250000004 2.4571067810000007 1.0635448400000003 1.7202384895000002 1.6902718345000001 1.5429192590000003 11.094781430000003 0.45655193500000008 -0.33499999999999996 1.0000000180025095e-35 12.195919325000002 2.8405035735000004 2.7256964780000001 9.6208564815000024
decision_type=2 2 2 2 2 2 2 2 2 2 2 2 2 2 2 2 2 2 2 2 2 2 2 2 2 2 2 2 2 2 2 2 2 2 2 2 2 2 2 2 2 2 2 2 2 2 2 2 2 2 2 2 2 2 2 2 2 2 2 2 2 2 2 2 2 2 2 2 2 2 2 2 2 2 2 2 2 2 2 2 2 2 2 2 2 2 2 2 2 2 2 2 2 2 2 2 2 2 2 2 2 2 2 2 2 2 2 2 2 2 2 2 2 2 2 2 2 2 2 2 2 2 2 2 2 2 2 2 2 2 2 2 2 2 2 2 2 2 2 2 2 2 2 2 2 2 2 2 2 2 2 2 2 2 2 2 2 2 2 2 2 2 2 2 2 2 2 2 2 2 2 2 2 2 2 2 2 2 2 2 2 2 2 2 2 2 2 2 2 2 2 2 2 2 2 2 2 2 2 2 2 2 2 2 2 2 2 2 2 2 2 2 2 2 2 2 2 2 2 2 2 2 2 2 2 2 2 2 2 2 2 2 2 2 2 2 2 2 2 2 2 2 2 2 2 2 2 2 2 2 2 2 2 2 2 2 2 2 2 2 2 2 2 2 2 2 2 2 2 2 2 2 2 2 2 2 2 2 2 2 2 2 2 2 2 2 2 2 2 2 2 2 2 2 2 2 2 2 2
left_child=51 6 3 4 5 37 14 75 9 10 16 54 25 236 194 44 192 18 20 26 122 22 23 24 -22 91 46 28 29 30 -15 47 33 -6 85 36 93 50 39 41 258 56 123 102 -13 -18 113 48 49 -25 174 124 109 80 55 103 97 -58 61 172 -61 181 63 114 65 154 129 68 110 -70 272 -30 127 -74 -68 76 77 -4 117 197 158 -82 -11 -83 175 105 87 -87 100 90 222 92 -12 -9 98 115 -51 -29 99 -95 -89 160 -44 104 119 106 179 108 -108 133 269 -85 -52 -19 -63 180 -75 118 -79 120 -8 -100 215 -43 203 155 -99 -73 -10 -65 188 132 -132 -47 135 136 137 139 -139 140 147 143 153 149 -144 -146 -147 148 271 -142 185 152 -112 256 168 186 157 -157 -17 -35 161 -34 -163 -164 281 -166 -91 224 169 170 171 217 173 -60 -3 176 177 -53 251 191 -96 182 240 -184 -138 -151 187 -126 209 190 249 -21 -7 -76 270 196 -196 198 -80 200 -145 -54 -154 245 -205 206 230 -208 -193 210 211 244 -213 -212 -215 -16 -217 218 -64 237 -221 -38 -69 -93 225 -168 -135 -228 -222 267 231 232 233 234 -37 -23 254 238 -186 -202 -42 -149 243 -243 -105 285 -247 248 -197 -190 -128 -177 -185 -162 -5 -36 -143 284 -20 260 261 -191 -56 264 -264 -265 -201 -226 -244 -57 -2 277 -71 -170 -249 -207 -256 -28 -171 -158 -72 -101 283 -125 -216 286 292 -288 -289 290 -127 -66 294 -294 295 -1 -211 -287 -299
right_child=1 2 7 13 32 8 11 35 128 82 12 15 -14 27 17 53 45 19 40 34 21 235 -24 31 -26 -27 134 38 71 -31 -32 -33 101 159 255 205 221 -39 -40 -41 58 42 43 -45 -46 52 -48 -49 -50 96 112 84 201 -55 262 67 57 -59 59 60 -62 62 64 66 291 -67 74 89 69 70 280 72 73 116 193 -77 -78 78 79 -81 81 83 -84 111 -86 86 -88 88 -90 166 -92 223 -94 94 95 -97 -98 126 121 164 -102 -103 -104 130 -106 -107 107 -109 -110 -111 151 -113 -114 -115 -116 -117 -118 -119 -120 -121 -122 -123 -124 282 125 289 250 -129 -130 -131 131 -133 -134 226 -136 -137 184 138 -140 -141 141 142 144 199 145 146 -148 241 -150 150 -152 -153 202 -155 -156 156 279 -159 -160 -161 253 162 163 -165 165 -167 167 -169 273 278 -172 -173 -174 -175 -176 178 -178 -179 -180 -181 -182 -183 183 252 219 -187 -188 -189 189 259 -192 208 -194 -195 195 247 -198 -199 -200 266 239 -203 -204 204 -206 275 207 -209 -210 296 213 212 -214 214 257 216 -218 -219 -220 220 228 -223 -224 -225 229 -227 227 -229 -230 -231 -232 -233 -234 -235 -236 -237 -238 -239 -240 -241 -242 242 268 -245 -246 246 -248 274 -250 -251 -252 -253 -254 -255 276 -257 -258 -259 -260 -261 -262 -263 263 265 -266 -267 -268 -269 -270 -271 -272 -273 -274 -275 -276 -277 -278 -279 -280 -281 -282 -283 -284 -285 -286 297 287 288 -290 -291 -292 -293 293 -295 -296 -297 -298 298 -300
leaf_value=-0.016436048788752843 -0.025562024209559442 -0.042001794060749886 -0.017200326769810231 -0.058288712579809679 0.00531835219836738 0.088970973220982824 -0.036652123610024255 -0.058391414008424215 -0.020297995610646477 -0.024936515289913402 0.15221316390449174 0.04249895858033672 0.079921135461035034 0.21776862497815908 -0.058478052094094859 0.020635470386892896 0.21368207884650989 -0.026695655759446074 -0.017890368956147287 0.044631037012582808 0.064276989994645886 -0.058512506336456473 -0.015843714445732224 0.10325631601197055 0.20493489081056221 0.11972247612921715 -0.058244315678901648 0.074628035946144908 -0.025269594245244765 0.022326478356541897 0.073298572826895156 0.15752210872093514 -0.044104689619006383 0.17514489929448879 -0.058461155874286866 0.022389189467329304 0.10927984993038709 -0.058305103105668811 0.1138097712131043 0.10789853993671694 -0.0069116654151861997 0.016763445416647486 0.01834103775675381 -0.042077324088667177 0.15843076286737556 0.13036645850861139 0.091373882729535505 -0.026183335236188307 0.1503104141031105 -0.025863997314584133 0.11415622430418906 -0.0074557844841866257 0.13678369947642902 -0.05838137546271005 -0.053871599125764641 -0.058424318276820111 0.0081402474287749042 0.17380177582535825 -0.020859123198797042 0.14063173068672713 -0.0070722651172066822 0.066593171608876567 -0.040883059078076676 0.022712693306717404 -0.058521045526400264 0.064520894064353379 0.10547940558169343 0.0081205458226768275 0.099960246723323043 -0.04168855921606044 0.041741188854029443 0.15318998641224973 -0.058454727501861051 0.012932117469968899 -0.022068648449975036 -0.02815006585658112 0.13558616547118393 0.0055174210456437212 -0.040923521240770221 0.096546926382752224 0.11475497160751912 -0.058468759162644483 0.080644460724840092 0.065562470592665331 0.041951742382716151 0.12129469840186358 0.12590338198874709 -0.010059884603177116 -0.058410072510674385 -0.054296920518699901 0.10244962917803802 0.23480210701540891 0.23636183491895466 0.049428449808956609 0.043796899168970234 0.061186763440848946 0.059776258207685055 0.046737689241087281 0.016530047745576499 -0.022159367991498938 0.075372385898634292 0.066208483717973832 0.10796586809679587 -0.058333809653653368 0.057682578348205144 -0.0433439836246736 0.077638708071670504 0.11294759617202819 -0.043977431197657263 0.16302851063559384 0.037413022800841848 -0.0071862002936500195 0.034384931653062237 0.06149748072226538 0.16070786823223043 -0.058439520994012721 0.099661357436137563 0.13741199245044364 0.11609772641956553 -0.050909802189363799 0.067681284831417721 0.097570663402131538 0.045298663444741628 -0.058557676304619811 -0.058310982048747496 -0.058127505908341016 0.00059727319801715633 0.06352315583652493 0.061912089550905318 -0.058340899153262162 -0.023684362880859133 -0.058472391849059883 0.058057335315886964 0.1069311275887676 0.042569213768687802 0.045641682257167075 0.016219594504280881 0.10430376357715823 -0.022811774605711502 -0.058400495430959098 0.056903719753319287 -0.009719014541757779 0.088881690722362822 0.040187103864204793 -0.04071630469356266 0.10336145491465441 -0.003502854198178518 -0.058312700916638274 0.049800858367364781 -0.049239847124590258 0.036150904998974012 0.056520380934905495 -0.051316116469308941 0.032740077284020334 0.039058601705327003 -0.01754487028424092 -0.058447985050705524 0.11378688858646864 -0.058643601245316451 0.095763671740020553 -0.0042314098282539266 0.095313503377305486 -0.023498732308776547 0.073299899626717277 -0.034436686785646091 0.043244406523102422 -0.058153969272810774 0.051858776555246379 -0.058517592282542677 -0.018277064638185125 0.082111616180228081 0.050553624684206794 -0.042406579555733792 0.073063392894049381 0.038472153617888555 -0.053814107968753744 -0.058369262388512227 0.071750991969865327 0.0071038276775095407 -0.058353957030247663 -0.039108627465371248 -0.051312017783379793 -0.035795189901725227 0.023411890687130385 0.023193139065537095 0.021929223849612059 -0.051008065169217923 0.034309963406470051 2.5814441533286635e-05 -0.038045348336561605 0.065667129305444119 -0.044331126729683201 0.017213043231921962 0.054532828668439608 0.10183949255292933 -0.058393751138978947 -0.017743507848191852 -0.058487253892583649 0.037212071878346513 -0.018853796631306742 -0.05822427995328007 0.19680675388592395 0.0090018747538114282 0.015819716637162782 -0.05855277019543921 -0.051669606135293991 -0.03234640511475019 0.04739045602449167 0.021832259145730299 -0.037469727885895497 -0.058258831255943812 0.054154029367199923 -0.045659902093591803 0.012192485377115071 -0.030411897466245313 0.041191909633980062 -0.058802461590588377 -0.048106925994396643 0.046159077084441058 0.015188640260664861 -0.0083354181953672352 0.039475193011450582 -0.058376130264202554 0.29795730068047172 -0.058223162135874695 0.063036549561853381 0.089743450559406121 0.011243460015919762 -0.05831633310166684 -0.0019282318334270755 -0.051995896611521243 0.043941769064227032 -0.058330778585226395 0.03899307410000491 -0.058255086715425945 0.00469936484752309 0.000681121191051565 -0.058378506972876679 -0.058325191449848629 0.0013670135813593734 -0.058335421928983916 0.031104232781380012 -0.023784278639939344 -0.043326221496562727 -0.0080176328450774301 0.044025514132423234 -0.058344678681221118 -0.025537021408895178 0.059452777352163949 -0.047152817521636581 -0.058412186181153937 -0.017250032665451685 0.084206690544426852 -0.058736197891156139 0.002692365492107223 -0.0082832231244685476 -0.058473459628872265 -0.0079881537056850447 -0.058345846453386453 -0.053719513299322674 -0.058283085999271726 0.041704633991761886 -0.058281995005664104 -0.058090569364990366 0.025201538060175301 -0.016568457470514095 -0.058308543372786514 -0.026932525603370797 -0.058320842363512072 -0.01758909485370563 -0.054792745875618831 0.00018054809770834873 0.0019030332649147238 -0.017987650894163081 -0.053611390151754992 -0.017324003487882871 -0.040036626258235286 -0.017186776540542965 -0.058435890245551764 -0.017270594345751195 0.08298591158229178 -0.058442264829063388 -0.05306432688707944 0.001970515576507932 -0.058388668278987636 -0.055346543363420125 0.044335851459049821 -0.012527234846556844 -0.058128449014291574 -0.05841875384896178 0.00070873005703775307 -0.029677531906387888 -0.058103487400284218 -0.024369641625037741 -0.058088586915615331 -0.058282052176422586 -0.055307256970031277 -0.058471555604185592 -0.017396069025353105
leaf_weight=2.3999374881386784 4.5613555237650898 3.0047996342182168 4.8384272232651773 6.5794108435511571 4.6802851483225805 2.691615179181098 4.6246273294091242 4.7901632860302916 2.6140622049570084 2.9414113461971274 4.233960449695596 4.441003054380416 4.3239826932549468 4.3241809383034688 3.4638005644083005 2.5194969400763512 2.9219316244125393 4.7149729579687119 3.6995317786931974 3.8740937486290985 4.047369569540022 2.4807317405939093 4.6926474869251278 3.385985195636751 4.3443536311388016 3.3462621867656699 3.1562783867120725 3.0014074221253422 4.4992027804255512 4.3122900053858748 4.152763657271862 2.7668064609169951 3.4104861095547703 2.980587400496006 3.9504463002085677 2.4733947888016719 2.6761351078748694 3.0501563549041739 2.6018719002604476 2.6966529116034499 3.8693813830614125 3.9827850386500421 3.2485076710581762 3.0124374851584435 2.7565776109695435 3.9440841525793067 4.3369128629565221 3.059029906988143 3.3364003449678448 4.4833952039480209 3.7527364045381546 3.9272623881697672 5.3404258415102959 4.540250912308692 23.279246956110001 6.6442853510379791 2.99668876081705 2.5772825703024864 2.643248572945593 4.2576713040471068 2.9030564650893211 2.7907527759671238 2.8420483916997892 3.0810592398047438 4.5944634154438955 4.8608992472291055 3.0430106893181783 2.997685492038725 4.4113172590732566 2.9738586023449889 2.4921612218022346 2.5912683159112921 3.4583325460553151 4.1823926120996475 2.7393812760710716 3.3101199790835372 2.5777635723352423 3.8940521478652936 2.8473372980952245 2.5718886107206336 2.5884542837738982 2.4690204560756674 2.5123182460665703 4.8241086229681951 4.4775235056877127 2.5011028572917011 2.9820766076445571 3.0972748398780823 2.5831480622291565 12.448956392705439 2.4848686009645462 3.5634222105145446 6.052238717675209 4.6267014592886033 2.44758590310812 2.5035784244537345 3.3655622005462646 2.8505379036068899 3.9940606430172911 2.7433149740099898 4.8425260707735998 4.7894624993205062 3.593826949596405 6.9678388163447398 3.4455117285251609 3.3204312250018111 4.4011789262294752 4.0747136399149895 3.3975077122449875 2.921945422887803 4.6781321093440082 4.863908164203167 4.2946329414844513 2.4979953542351723 2.7288340851664543 10.364038079977036 2.5252423509955406 3.0563861057162311 4.5726287066936493 6.8054960966110229 3.1747956871986389 3.1957629770040512 3.3689987584948531 2.4843184277415267 3.2951701804995555 4.4492738917470005 2.52688929438591 2.8546758741140366 4.133749656379222 3.4251887202262878 4.3165826946496946 3.2118956744670859 3.8591297268867493 2.7016938626766187 2.9689783975481978 2.8774255737662306 3.345853127539157 3.6786449402570716 4.2053608819842339 5.6564810276031485 3.4664779007434836 3.079725883901121 4.4044722169637671 2.5267594605684227 2.8265709504485113 2.7763456553220749 2.7269607037305832 9.7609379515051859 3.6957274302840224 5.355149604380129 4.2248898595571518 2.6074470505118361 7.1031197831034643 2.7385802790522575 4.6091219112277022 2.4505891129374486 2.5910145863890648 3.4818075001239777 4.1274387910962167 3.2292927354574203 3.6664492413401595 2.5911290645599392 4.2314765527844411 4.1546484306454659 4.1312256902456266 4.9046784564852715 2.530619338154799 2.719272553920745 4.2180897668004036 2.4823506101965904 2.8452356681227711 3.6598490700125685 3.1026031598448753 2.6554020345211029 2.5649121254682541 11.287362135946756 3.0652732402086258 3.4558581337332726 4.5746512487530699 2.447994001209735 2.5874281525611886 7.0176995918154708 4.4254506751894951 2.4465406760573387 2.4519270732998848 2.4856758266687393 6.8380308076739302 4.8475634381175041 4.2825818955898267 2.45765668153763 4.0208558663725844 3.5581455081701279 3.9055816829204559 2.6488964110612869 2.4934101775288608 3.9269584640860584 2.4593126401305199 2.5969739630818367 4.1835093423724174 2.5412252768874231 3.8749595433473587 3.509640596807003 2.9646712988615036 4.7080372124910346 3.1099446192383766 14.789782114326956 3.8301041945815077 3.7713352590799332 3.1097250282764435 4.7837687358260146 17.985620908439159 4.8766088932752591 3.9290222525596619 4.2576011195778873 3.5707374066114417 3.5061593800783157 2.7852771505713463 4.8219360783696175 2.8646817803382874 4.7429558783769599 3.9824529364705068 2.5425267443060875 2.6975937485694885 2.7923853099346161 9.2124235257506388 2.4691210240125656 2.6802243590354919 2.8247851431369781 5.8616497963666916 3.5457914695143691 7.7647563815116873 2.4447266459465018 6.3587715849280348 2.5687393173575401 4.2534521147608793 3.1325396150350571 4.2214555740356436 14.845300786197184 2.9328730702400234 2.5009710043668747 4.2800676971673965 3.3477117195725468 4.3247902393341047 3.3177600428462029 2.9719479084014893 2.442801244556903 3.7943219467997551 4.5597303211688986 2.5371297597885132 4.432869166135788 2.9526619166135788 4.8439508602023116 2.4546037316322327 2.5229668319225311 2.4557551816105843 2.9840273633599281 4.3235702738165855 2.9697555676102629 6.4839167520403862 10.692299097776411 4.7490679249167442 2.4926289692521095 3.043615601956847 8.9901890903711301 3.6010589674115181 2.4060062021017066 11.348278179764746 4.7743662372231475 6.1094789206981659 2.4524153769016284 13.879076600074766 2.5635136738419533 2.482800528407096 2.4703135788440695 10.534294031560419 2.4400616437196723 2.7146358862519264 2.433803915977478 3.2059523090720168 2.4378868862986565 2.473962590098381 3.5718977749347687 9.0829001814126951 2.4801000207662582 8.3519046157598478 35.071801468729973 2.4362349882721883 3.280500091612339 3.367250457406044 9.2238145619630796 2.5453486889600754 3.4692806527018547 3.7197472453117371 4.4447961673140508 22.409907557070255 3.4120966643095016 32.416825667023659 2.8438394963741294 2.4431087076663971
leaf_count=20 37 24 39 54 37 20 38 39 21 23 30 35 34 32 28 20 21 38 30 31 31 20 38 26 32 25 26 24 36 34 32 21 27 22 32 20 21 25 20 21 31 32 26 24 21 29 35 24 25 34 29 32 39 37 193 54 24 20 21 33 23 22 23 25 37 38 24 24 35 24 20 20 28 33 22 27 21 31 23 20 20 20 20 38 36 20 24 25 21 102 20 26 41 37 20 20 26 23 32 22 38 37 28 57 28 27 35 32 27 22 37 39 34 20 21 84 20 24 36 56 26 25 27 20 27 37 20 22 32 28 35 26 31 20 24 23 27 29 34 46 28 25 35 20 23 22 22 80 30 43 34 21 58 22 37 20 21 28 33 25 29 20 33 32 33 39 21 22 34 20 23 29 25 21 20 93 25 28 37 20 21 57 36 20 20 20 56 39 35 20 32 29 29 21 20 32 20 21 34 21 32 26 24 38 25 120 31 30 25 39 148 39 32 35 29 28 22 39 23 38 32 20 22 20 76 20 20 21 48 29 63 20 52 21 35 24 34 121 24 20 35 27 35 27 24 20 31 37 20 36 24 39 20 20 20 24 35 24 53 87 39 20 25 75 30 20 93 39 50 20 113 21 20 20 86 20 22 20 26 20 20 29 73 20 68 290 20 27 28 75 21 28 31 37 187 28 264 23 20
internal_value=0 0.102132 0.700975 1.15817 1.694 2.1003 -0.186111 -0.0223378 2.49473 2.69686 2.90676 -0.446226 3.69352 0.492832 0.00362532 0.364831 2.33479 0.0771955 0.291844 -0.0884304 0.830524 1.14479 1.41463 1.69686 2.7419 4.14675 -0.240015 0.704006 1.16141 2.09917 2.93989 1.26692 0.7233 1.57238 0.412687 -0.271831 0.0266715 0.444825 0.403564 0.30096 0.0527304 0.189157 -0.168525 0.651129 1.73799 2.68007 0.734262 0.971331 1.28518 0.774097 0.805664 -0.653568 2.48544 -0.0162868 -0.540796 -0.476093 0.779138 1.69477 0.140457 0.752524 1.61501 0.0368069 0.207732 0.879413 -0.0849693 0.0886777 0.368364 -0.204786 0.0892795 0.85079 0.364737 0.565062 0.873557 0.203818 0.960642 0.743718 0.882624 0.71754 0.93405 0.222255 0.22807 0.588661 0.47401 0.225329 -0.241849 0.59316 1.07681 0.746808 0.347721 -0.469391 0.296918 4.49909 4.0345 -0.128103 -0.0175983 -0.498784 0.217155 0.328738 0.299488 0.0290171 0.840914 0.35878 1.3083 -0.628028 -0.113403 0.318486 0.476788 1.09912 0.49313 2.05898 -0.337801 0.580774 1.43169 0.0769479 2.26245 -0.778832 0.911666 1.68764 1.30478 -0.412319 0.116347 1.05103 -0.105608 -0.616526 -0.756847 -0.479425 -0.0905984 2.12376 0.601288 -0.399153 -0.695538 -0.115901 0.297993 1.77003 -0.311479 -0.333826 -0.357486 -0.260983 0.729996 -0.334992 -0.28783 -0.107429 0.315366 -0.359801 0.86978 0.389748 1.00818 -0.573045 -0.0694576 0.181315 -0.0935613 -0.0177717 -0.220798 -0.380767 -0.0830334 -0.165734 0.291289 1.19071 -0.571863 2.67729 0.134079 0.419318 0.82365 0.489144 -0.260184 0.15457 -0.635663 -0.413678 -0.218469 -0.0264028 0.238017 -0.0435711 0.0173928 0.524197 -0.0988535 -0.397195 0.0761125 0.592379 -0.636029 -0.0920551 0.0238566 -0.433542 -0.195537 0.226368 -0.644371 -0.533561 -0.500134 -0.0634305 -0.747837 -0.474281 0.0865657 0.157581 0.929797 0.311778 -0.634665 -0.414457 0.849193 -0.234188 0.111378 -0.728555 -0.271052 3.21174 -0.671084 -0.873945 -0.275304 -0.596146 -0.421112 0.144276 -0.269484 -0.845197 -0.702021 -0.368729 0.192352 -0.87026 -0.593276 -0.45496 -0.0615305 -0.410174 0.0562123 -0.737467 -0.415418 1.50542 -0.467518 5.25098 -0.588772 0.033919 1.36763 0.989255 -0.761929 -0.766344 -0.587281 -0.393093 -0.591729 -0.19847 -0.57206 -0.46473 -0.604465 -0.969683 -0.424129 -0.69699 -0.678386 -0.795197 -0.583389 -0.118875 -0.86579 -0.92478 -0.365017 -0.704765 -0.242789 -0.479405 -0.624001 -0.856691 1.07719 -0.52898 -0.82653 -0.737374 -0.763838 -0.832602 -0.872977 -0.824576 -0.549188 0.042227 -0.921021 -0.719195 -0.260768 -0.986485 -1.0218 -0.950843 -0.880123 -0.948308 -0.951247 -0.552398 -0.437084 -0.870963 -0.902609 -0.936113 -0.394837 -0.807375 -0.818215 -0.769724 1.24576 -0.853621 -0.886385 -0.566386 -1.0002 -0.965457 -0.87676 -0.283611 -0.712508 -0.981186 -0.734339 -0.922233 -1.02484 -0.794774 -1.0914 -0.820055 -1.06027 -1.06539 -0.78981
internal_weight=0 1114.27 362.064 221.84 122.88 86.623 752.209 140.223 69.9557 63.2079 57.7542 317.263 24.3123 98.9605 434.946 33.1303 33.4419 389.994 169.86 220.135 52.2191 39.0948 33.4816 28.7889 8.39172 19.9883 169.01 82.9892 32.9003 12.7892 8.47694 20.3972 36.2568 10.8902 51.1244 105.774 55.0791 16.6672 50.0889 47.487 117.641 44.7903 27.8849 9.85477 7.19758 26.8447 11.5499 17.6304 14.5713 11.2349 13.6171 177.677 23.9228 25.9327 284.133 242.812 16.9055 5.57397 107.457 15.562 7.16073 91.8951 67.4013 20.4571 46.9442 38.8805 14.9375 87.1649 41.2842 14.8341 10.4228 20.1111 15.6119 10.166 8.43129 34.4491 31.139 28.5612 23.7228 12.1997 21.3924 14.7455 5.45373 12.157 35.6319 44.1899 16.0061 13.0241 10.5229 45.8807 8.18015 16.642 10.2862 49.8604 45.0703 17.9026 7.84896 11.3315 27.1676 19.9778 7.9398 25.3666 6.84233 155.648 18.0504 28.1838 24.8634 11.8734 7.79869 15.0727 26.4501 9.68802 8.04737 7.21297 5.51959 15.3991 6.70763 11.5231 8.46668 14.6049 7.79942 7.18982 13.1242 18.0301 142.045 42.1605 8.33009 5.44594 6.74781 6.50625 137.597 11.3876 8.17571 12.1508 157.461 154.492 151.614 113.451 7.88401 105.567 99.9106 61.2006 22.8762 38.3244 12.7343 8.32988 5.50331 38.71 11.8493 15.5322 12.0657 17.3534 14.7459 10.1419 34.0196 25.9421 10.9613 5.9324 6.64694 6.20988 20.5772 14.3877 10.9773 8.38612 15.3511 9.0359 37.7006 25.2516 29.4105 22.7221 17.0338 14.1885 8.40125 5.29865 5.56971 31.1544 10.4484 7.38312 20.706 12.99 5.03501 24.4937 17.476 9.3266 38.163 7.84083 14.9808 8.14273 126.21 33.128 12.7363 10.542 6.5972 5.38828 44.9513 26.5108 4.95272 9.62782 7.03085 22.7922 8.90269 8.85007 10.0678 99.8843 7.81798 50.6951 33.4653 7.60144 6.66787 93.0816 55.881 18.7454 8.80563 37.1356 19.15 9.75524 6.29144 10.5287 5.70673 34.8172 14.5871 5.21866 5.69528 6.35581 22.5323 4.99974 8.2067 5.50501 9.8441 17.5326 25.8638 18.0991 15.6544 9.29559 6.72685 5.61327 15.9713 20.2301 5.3848 6.37593 8.14945 26.8607 17.0997 6.66547 9.93979 92.0663 6.23712 21.5581 6.46409 8.71545 5.47955 16.1313 4.90114 6.18942 11.7498 6.93447 7.4033 14.8924 10.1834 20.3917 9.69935 4.95029 41.3201 18.0409 6.64467 11.3962 13.8895 13.9868 10.4343 9.0967 18.4404 8.1536 5.45666 6.6884 15.094 17.2298 5.17039 5.59008 5.6883 5.0289 4.96612 6.31521 14.0473 4.96442 11.9226 85.8292 45.4705 9.08399 6.64775 16.2184 6.99462 8.06374 36.3865 8.16454 28.2219 5.81203 37.2006 40.3587 5.28695
internal_count=10386 8927 2849 1719 933 651 6078 1130 519 466 423 2582 176 786 3496 263 247 3131 1351 1780 406 301 257 219 63 142 1370 656 257 98 64 156 282 84 410 854 442 132 399 379 945 358 223 78 56 198 93 135 111 86 107 1459 177 207 2319 1976 135 44 862 123 56 739 540 163 377 312 120 708 333 119 84 159 123 81 67 276 249 228 189 98 170 117 43 97 290 354 128 104 84 375 66 117 71 401 362 145 60 91 217 160 63 198 54 1268 148 226 199 94 62 112 214 77 63 58 43 125 53 91 67 120 64 57 105 145 1169 344 67 42 53 53 1120 92 66 90 1277 1253 1230 920 63 857 811 495 184 311 102 67 44 316 97 125 97 140 119 82 274 211 89 48 53 47 161 112 85 65 123 72 309 207 237 183 137 114 67 42 44 254 85 60 169 105 41 199 142 76 310 63 122 66 1028 269 103 85 49 43 365 215 40 78 57 186 72 65 82 825 63 412 272 61 54 759 456 152 71 304 156 78 50 85 46 283 118 41 46 46 185 41 61 41 80 144 211 148 128 76 55 44 130 165 44 52 66 219 139 54 81 762 51 175 52 71 44 132 40 49 96 56 60 121 83 166 79 40 343 150 55 95 114 115 85 74 150 67 44 54 123 140 42 46 46 41 40 51 113 40 97 711 378 75 55 133 58 65 303 68 235 48 303 333 43
shrinkage=0.05


Tree=2
num_leaves=300
num_cat=0
split_feature=8 18 21 4 14 3 19 1 4 7 3 8 15 24 1 7 12 19 24 19 19 14 8 3 3 15 8 21 0 14 7 0 14 1 0 0 7 12 0 4 4 0 14 3 7 1 24 18 21 12 3 3 12 7 24 3 12 21 7 4 4 15 1 1 12 0 14 3 14 8 24 4 14 14 4 12 4 1 7 15 1 24 0 4 8 15 15 21 18 18 15 15 8 1 12 3 4 12 4 4 14 7 15 21 21 21 4 14 24 14 4 14 24 24 24 4 15 3 8 8 0 14 21 14 18 12 4 14 3 3 4 19 3 3 8 3 7 24 24 3 3 1 0 0 14 15 24 14 8 3 7 4 7 7 15 3 14 4 14 0 14 12 1 1 19 14 7 0 1 8 7 14 24 8 21 8 12 4 0 0 8 12 0 0 3 3 14 8 14 8 8 0 3 7 21 19 14 12 14 21 0 8 15 15 1 3 4 3 3 3 14 7 7 0 12 14 26 0 8 7 12 24 14 15 12 8 14 21 0 21 14 1 4 0 19 14 7 3 4 1 1 7 18 3 8 3 1 21 14 0 4 1 15 19 15 12 15 12 1 15 15 14 1 15 0 7 12 12 14 14 0 4 3 12 21 15 14 3 4 1 14 4 3 7 15 15 3 1 8 15 12 15 21 1 7 4 12 1 1
split_gain=104.721 155.036 89.309 56.2434 45.1338 38.2995 32.5756 31.4526 47.1187 30.2246 26.5969 22.1957 20.7259 20.0457 16.0162 15.5024 13.4094 13.2722 12.657 12.4153 11.4591 10.9208 10.5612 18.1328 11.6536 14.4721 12.35 10.3016 9.73175 9.60242 9.54296 9.37001 16.9659 17.1219 12.0638 9.31958 9.80509 9.24626 8.97739 8.94807 12.3508 8.83753 8.57781 8.42995 11.4974 8.5242 8.34395 13.8572 7.74037 7.7291 8.54672 7.60699 7.56554 15.5193 10.4735 7.13876 7.03322 6.9442 6.94695 18.5677 10.5361 9.94136 8.64037 7.52624 7.72127 6.81184 7.56454 7.07428 6.77192 9.11333 6.69526 6.62805 7.85795 7.13005 6.81398 6.54537 6.53307 6.49847 6.88891 6.06919 9.06527 10.1672 5.98421 6.04523 5.95734 5.7474 10.8084 7.31324 5.6487 5.18751 5.12533 7.43845 11.1368 17.2419 11.0452 6.83259 5.6482 6.09971 5.84704 5.68633 5.08579 5.06144 5.00012 4.9718 6.36265 4.89955 4.88288 8.30247 11.9295 5.3437 4.74565 4.65582 5.56524 4.75637 5.29958 4.60986 4.49683 4.46376 4.45892 4.45132 4.42814 4.40714 4.73761 4.28982 4.28782 4.21573 5.74086 4.13608 5.03584 4.06392 9.94678 5.04242 8.10443 6.60825 5.38814 3.9426 3.93977 3.89455 3.88948 3.87717 7.81109 4.4332 3.74618 5.93723 3.98145 3.744 3.68663 4.19869 4.98175 4.17643 3.66171 3.63504 3.56189 12.5272 9.17208 3.5592 3.54008 3.84854 3.52814 3.72076 3.48311 3.61451 3.47789 3.41327 3.37385 3.36616 5.55007 5.56224 3.3413 5.17725 3.25483 4.63459 9.09215 3.84442 3.25068 3.24956 7.17058 7.04249 5.21816 3.24933 3.22836 3.59081 4.41428 4.06287 3.21115 5.61576 3.15183 5.66089 4.30904 3.1374 3.14915 3.12566 3.9275 3.12034 3.10817 3.04275 3.37654 3.78404 3.27801 4.49503 3.01446 2.95348 6.63995 3.08038 2.89121 2.88926 2.7559 2.64222 2.55923 3.96964 2.53304 2.4841 2.46895 2.46179 3.00069 3.87038 2.45048 2.37587 2.34117 2.323 7.64873 2.31917 2.31845 4.87843 2.30939 2.98223 4.88456 3.26047 2.24127 2.19943 2.19632 5.93166 2.13299 2.13064 2.07054 1.99727 1.95639 3.09224 1.94969 1.88418 6.40338 3.30871 3.89852 2.5382 2.384 2.74731 2.3545 1.8503 1.83697 4.73692 1.78771 1.7507 2.34251 1.73076 2.38026 2.56615 1.71307 1.73762 2.34058 2.21866 6.42703 2.06541 1.69912 1.56378 1.55387 1.90881 1.41828 1.38936 1.36811 1.27598 1.2461 1.19206 1.7224 1.13721 1.08149 1.05851 0.997384 0.980229 0.952262 1.99019 0.947851 0.902656 0.900967 0.873947 1.47359 2.30588 0.867392 0.855673 0.803349 2.6579 1.18451 1.80991 1.27868 3.57824 1.09032 0.857062 3.82255 0.763945 0.603702
threshold=12.005782960000001 11.902672440000002 1.0000000180025095e-35 6.4118440215000012 9.3708680560000008 2.4939730965000009 5.5682780110000012 7.6205996870000012 1.978578763 4.3208356930000003 12.014982225000002 12.0422089 -0.38032786649999994 4.6509556195000004 3.6364816830000004 1.4917864540000003 109.05200000000001 103.64347310000001 14.239425975000001 1.0000000180025095e-35 62.674570270000011 9.8558912040000006 36.757903930000005 4.375948203000001 5.8824150575000003 -1.6833457864999997 45.104408590000006 12.038803905000002 1326.7582155000002 10.174727075000002 1.0830126255000003 633.22206050000011 10.627224745000001 10.763091110000003 532.60813975000008 273.16639105000007 0.8907105325000001 275.60000000000008 1204.2154555000002 6.0767127190000005 7.5141808610000007 133.58413280000005 10.510204550000003 3.4696427035000004 0.63427210450000004 5.8618224870000004 4.6509556195000004 13.062241250000001 12.903610640000002 285.61900000000009 10.169858330000002 3.2416342560000007 143.06550000000001 1.3260556495000002 4.7607000690000012 20.683437185000006 240.20750000000001 5.4750961990000011 0.28836887650000004 2.8209960875000006 2.5989925615000007 -2.0837490729999995 4.423285550000001 5.8742626120000008 168.00450000000004 246.47622880000003 11.094627205000002 7.2254236370000013 12.551963650000001 100.88012695000002 14.746458670000001 5.2731434335000005 11.639448785000001 12.332933205000002 5.9713636250000013 176.08750000000001 1.9228180720000003 15.109911970000001 5.7259369235000008 -1.5076843444999997 3.8818807220000004 9.5602372530000022 146.59629285000003 2.7059918000000001 11.740510195000002 -0.95442129649999996 -0.82100215049999992 6.338295403500001 17.825990970000003 7.709229725000001 -0.87881272549999989 -1.3127184899999997 37.471201860000008 11.350044945000002 216.10600000000002 10.151847900000002 1.7286394790000001 107.05600000000003 1.9517363690000002 1.8774948315000002 10.373768450000002 0.87820278900000004 -1.5561574629999997 19.681024140000002 19.052305595000004 5.5682780110000012 2.4243349395000005 10.372585440000002 10.399209240000001 10.243365025000001 8.389442574000002 10.786595860000002 9.5025630230000022 13.817966720000003 18.119229305000005 2.3924328650000004 -1.0225892489999999 2.6341197995000005 37.310841140000008 5.938242508500001 635.91760670000008 9.3708680560000008 5.2188118915000006 10.381622105000002 10.399209240000001 107.05600000000003 1.0928322835000002 10.152328825000001 6.3775546280000013 10.610603435000002 6.0418506275000015 11.625032265000002 7.4563849315000015 6.8572132135000006 24.401278180000002 7.086299426000001 3.6925742110000006 4.9505322895000008 14.20295585 2.4776982000000003 2.8666477410000004 4.3348605385000001 177.59784025000002 237.71506105000003 10.553333555000002 -0.91289351849999989 14.20295585 10.100967970000001 24.135184375000005 3.3359471600000004 0.076314114000000002 3.4597184635000002 3.3981218625000005 3.2975747240000008 -5.2676814779999992 5.8038357755000005 10.214861265000001 2.5880630015000006 10.503435810000001 289.75463155000006 9.8530342970000024 136.06400000000005 5.8978093675000007 6.2079222155000009 32.067144540000008 10.230271635000003 1.0606869310000002 299.18663165000004 19.537020265000002 88.097278910000014 3.4487755390000006 12.332933205000002 31.683575605000005 86.543506270000009 5.2188118915000006 18.546228175000003 190.61950000000004 2.4893257715000003 199.94518025000005 82.607762615000013 29.855464535000003 138.07600000000002 192.48274945000003 347.02181285000006 12.014982225000002 12.919738870000002 11.445435325000002 37.310841140000008 11.050768025000002 17.478295550000002 26.471787980000006 867.0273079000001 12.678896990000002 0.19839960700000003 6.4827890145000007 19.248178170000006 10.299810310000002 156.09550000000004 11.52663547 12.162857720000002 529.81241410000007 6.0364776705000009 -0.44814814799999997 0.66238425950000013 7.2477097900000009 11.871827990000002 2.7059918000000001 6.8142129045000006 2.8166027015000004 2.5778996105000003 10.087874070000002 2.2622375850000007 0.83668397150000018 133.94090360000004 95.505500000000012 9.8423387895000012 1.0000000180025095e-35 306.31202500000006 42.386868435000004 1.2500783580000003 257.07150000000007 22.943290965000006 10.040133460000002 -0.91411359899999989 867.33850000000018 90.603910070000026 12.746645705000002 17.099921490000003 602.79901895000012 11.798053575000003 10.269159290000003 4.6723208365000009 4.6290459055000008 1121.1768360000003 5.9921365575000012 12.332933205000002 0.34847422350000007 2.3056739995000002 2.3924328650000004 10.749564335000002 10.939124145000003 1.1624886660000002 102.73518440000002 6.0334753590000014 89.457006190000016 8.3889327680000019 15.662923935000002 6.338295403500001 10.692824075000003 466.19239460000006 12.186649795000001 9.2473986875000005 -0.78648148149999997 21.179503775000004 -5.5775979019999999 812.92050000000006 -0.48203018699999994 139.08850000000004 5.2726219280000004 0.13806655500000004 0.040444538500000009 8.7671296300000012 6.1180999330000008 -2.2673611114999996 1787.4468010000003 4.8271017585000005 80.053000000000011 124.05300000000001 11.379244480000002 9.9103472220000004 344.42638280000006 0.40479178200000004 1.0142078795 169.56750000000002 5.5682780110000012 -0.090674603499999992 10.373768450000002 5.8295223825000013 14.392928755000002 28.879031840000007 11.129455040000002 2.9495754350000003 3.2168948825000006 0.50341159450000006 0.12914399100000004 -0.7007523149999999 3.7819941800000003 25.646029605000003 6.1849831050000015 -1.0265046299999998 94.509500000000017 -1.1631944444999998 6.4827890145000007 2.6016972910000002 0.17780002050000002 0.72740851500000014 73.541500000000013 11.522931475000002 32.454974540000002
decision_type=2 2 2 2 2 2 2 2 2 2 2 2 2 2 2 2 2 2 2 2 2 2 2 2 2 2 2 2 2 2 2 2 2 2 2 2 2 2 2 2 2 2 2 2 2 2 2 2 2 2 2 2 2 2 2 2 2 2 2 2 2 2 2 2 2 2 2 2 2 2 2 2 2 2 2 2 2 2 2 2 2 2 2 2 2 2 2 2 2 2 2 2 2 2 2 2 2 2 2 2 2 2 2 2 2 2 2 2 2 2 2 2 2 2 2 2 2 2 2 2 2 2 2 2 2 2 2 2 2 2 2 2 2 2 2 2 2 2 2 2 2 2 2 2 2 2 2 2 2 2 2 2 2 2 2 2 2 2 2 2 2 2 2 2 2 2 2 2 2 2 2 2 2 2 2 2 2 2 2 2 2 2 2 2 2 2 2 2 2 2 2 2 2 2 2 2 2 2 2 2 2 2 2 2 2 2 2 2 2 2 2 2 2 2 2 2 2 2 2 2 2 2 2 2 2 2 2 2 2 2 2 2 2 2 2 2 2 2 2 2 2 2 2 2 2 2 2 2 2 2 2 2 2 2 2 2 2 2 2 2 2 2 2 2 2 2 2 2 2 2 2 2 2 2 2 2 2 2 2 2 2 2 2 2 2 2 2 2 2 2 2 2 2 2 2 2 2 2 2
left_child=3 2 4 14 5 -2 7 8 11 27 90 16 37 -7 222 22 21 49 31 46 84 150 23 35 25 26 142 57 38 160 162 34 -33 -34 118 43 -37 -5 65 218 -41 117 79 44 -10 51 124 48 52 200 105 -46 121 54 -54 110 -28 58 208 60 62 163 76 146 -65 -29 151 -68 69 221 189 -69 -73 74 -74 -63 -60 205 -79 236 125 -82 -45 -84 127 89 -87 -88 262 156 91 95 94 -94 96 175 97 -93 99 -98 277 -25 -12 104 -40 -51 123 108 109 -108 -30 112 -61 -113 129 -86 180 -18 -9 275 145 -48 139 282 165 126 -81 128 179 130 131 132 133 134 -115 155 170 206 -136 -123 141 -141 -24 -144 -145 -39 147 148 -64 -149 -6 -67 153 154 -76 -120 -56 -158 -109 -160 -8 -162 -27 -62 224 166 193 -168 169 -138 171 239 -173 -174 -130 247 177 178 -177 -21 181 -59 -183 -184 -75 -186 187 276 229 270 -191 238 -193 -16 267 198 -197 -198 -129 -200 -14 203 -203 210 -17 -52 -15 230 209 213 256 -199 -212 214 266 -216 -50 283 -20 220 273 -11 263 -224 225 253 227 -227 -96 -189 231 -49 -157 -154 -188 -122 237 -13 -182 241 -241 242 -116 -243 245 -242 -247 -4 -167 -250 -229 252 -92 -70 -255 -256 -181 258 261 260 269 -258 -66 -1 265 -223 -3 -124 -232 -259 -31 -265 -273 -114 -263 -55 -178 -58 -166 -280 -36 -254 -100 -195 285 -285 -210 -257 290 294 291 -274 295 -294 -290 296 -293 -107 -281
right_child=1 9 10 12 6 13 29 18 15 68 102 42 17 137 19 204 41 -19 39 20 -22 -23 24 101 -26 30 56 28 55 70 -32 32 33 -35 280 36 -38 120 103 40 -42 -43 -44 82 45 -47 47 207 216 50 77 -53 53 119 85 -57 100 116 59 111 61 75 63 64 88 66 67 71 164 -71 -72 72 73 184 152 -77 -78 78 -80 80 81 -83 83 -85 115 86 87 -89 -90 -91 251 92 93 -95 228 -97 98 -99 106 -101 -102 -103 -104 -105 -106 297 107 158 -110 -111 -112 113 219 114 136 -117 -118 -119 135 -121 235 122 194 -125 -126 -127 -128 195 174 -131 -132 -133 -134 -135 138 -137 168 -139 -140 140 -142 -143 143 144 -146 -147 -148 149 -150 -151 -152 -153 233 -155 -156 232 157 -159 159 -161 161 -163 -164 -165 278 248 167 -169 -170 -171 -172 172 173 -175 -176 176 186 -179 -180 201 191 182 183 -185 185 -187 234 188 -190 190 -192 192 -194 217 -196 196 197 211 199 -201 -202 202 -204 -205 -206 -207 -208 -209 286 -211 212 -213 -214 -215 215 -217 -218 -219 -220 -221 -222 264 223 -225 -226 226 -228 250 -230 -231 268 -233 -234 -235 -236 -237 -238 -239 -240 240 244 243 -244 -245 -246 246 -248 -249 249 -251 -252 -253 281 254 255 287 257 259 -260 -261 -262 274 -264 271 -266 -267 -268 -269 -270 -271 -272 272 288 -275 -276 -277 -278 -279 279 298 -282 -283 -284 284 -286 -287 -288 -289 289 -291 -292 292 293 -295 -296 -297 -298 -299 -300
leaf_value=-0.0075705373996486185 -0.022439486014331551 -0.016981525007438207 0.0020283742221306796 0.065653756567766203 0.032656166620446986 0.036864884126806545 -0.0096047347352244405 -0.01290716935840037 0.060897866755781717 -0.058488981860334237 0.15856508806307659 -0.058214428866790069 0.12713569553070256 0.15201091294602248 0.024798165572856013 -0.025855948261366724 0.10842695340207696 0.14444959429398146 -0.0053082470199472516 0.021410570831601142 0.064118076039004254 -0.043070416684533472 0.090118268058234793 0.053973417408349572 0.19231317809132889 0.21875078563150088 0.15997473385218819 -0.058653983873117294 0.0091484161640938994 -0.058440084679292348 0.072514320586204342 0.17778543818145542 0.13238910133744064 -0.033101694786757695 -0.058707119029736743 -0.026907701916189759 0.097647811759049338 0.059486227575677154 0.047823211981511064 0.11224038822974435 -0.040284681840727893 0.038343584788894991 0.081373547989192163 0.0084894277205134396 0.14027499099889904 0.081465723049225308 -0.047588981592547805 -0.057965297758730376 -0.058514151583860766 0.032138103011566159 0.058129819965682651 0.24009565939915978 0.12842719416520562 0.024428543504595286 -0.058538158633441223 0.042369906545623663 0.096419096742058799 -0.058012084520555146 0.022672064185054495 0.040667643895131063 0.053158885783327219 0.062245270504907795 -0.011406214399260749 0.080207731296623619 -0.058723778621098954 0.11738928912309275 -0.047166566449073424 0.076121997797180929 -0.052880346288665031 0.076060187672950544 0.044615885237826426 -0.058581976159696438 -0.037971206317163823 -0.046442637867165217 -0.027111198963312932 0.16524460998074356 0.12477129674261156 -0.028308112288890259 0.077567957010224842 -0.027304981275423308 0.12075866546853981 0.0028333570709177659 0.12967267001038932 0.038442997003975993 0.054123531756198363 0.12498797758107999 0.067277313871280858 -0.02878252389579616 0.050621703998281031 0.071308591323512208 -0.058567483909531343 0.028896676064860266 0.15509657528932208 -0.010001487634045337 -0.052409706147319574 0.062578744471890976 0.023297206027796974 -0.058423539021291049 -0.058687965782276731 0.11514546505715635 0.049192337100406054 -0.034722618209850273 0.060977633382590324 0.011950447018970215 0.14634122808299699 -0.020292674069155598 0.063868172630923939 -0.044853985942885442 -0.010874132367355878 0.15270240689549108 -0.058217771525677565 -0.049609131756036151 -0.017629777992505494 -0.05848294033629247 0.041339852031877559 -0.023076888662300666 0.03119332408098173 0.19330372054959982 0.016044928348452829 -0.058349560206538968 -0.05271765096449809 -0.01234643481431064 -0.058313779522409584 0.039560961635226467 0.028371539117218 -0.058605951412124616 0.061570141287808348 -0.052549606425158227 -0.012350359609720972 -0.040458789958800881 0.11673149845908176 0.065425874429052816 -0.049246115506638294 0.09459652121609971 0.074831211131167363 0.0072108758079180296 -0.0018572308165108568 0.12013202171667035 -0.0085226265090441716 0.12886831643071087 -0.014037875408614087 0.037173051043945221 -0.027538398368360629 0.10071081392838516 0.015312876895932232 -0.019053488737610334 -0.050064478879456586 -0.058243197014142871 0.083172036523267212 0.015393072907137723 0.11570310954507773 0.037019244042820788 -0.0022982460830953035 0.1548612338651367 0.10062119410053923 0.10397440845208034 0.058399957005312135 -0.025164439539525629 0.053577699577794603 -0.014655162033532038 0.090016013792163882 0.024199751172169243 0.14988796556745362 -0.021358478982328226 -0.057846216345218873 -0.058156474817473804 0.082621607627262922 -0.021195191240127684 -0.024442235914662481 0.086905965038923352 -0.058529228113621372 0.093034239819781192 0.023729209668723855 -0.058370986995748698 0.063941262936808282 0.036838452592337381 -0.019206537204321552 0.079638462994882711 -0.058734860080213537 -0.054725407300635964 -0.013996846051754186 0.040777153836147238 -0.058419707270282575 0.012887127381322323 0.063749190774762973 -0.02569723227986373 -0.053010293568358915 -0.027537034545383227 0.066840275566374882 0.028089932865881486 -0.035923414419040373 0.017195672951626242 -0.058153874668169903 -0.058129822569345319 0.013723632136361722 0.01589413262612599 0.022310875765499682 -0.058064511469048667 -0.046784982733895704 0.035092341175790173 0.06102272089622969 -0.044512377036253124 0.054837072963118211 0.010704655983073423 0.044497316289744765 0.13108004668346226 0.19790217603543903 0.011997260238690882 -0.058322385625286868 0.044213400602672488 -0.039399114796944502 -0.013244906531246676 0.026844480363283758 -0.058325184843342093 0.035620072925582509 -0.039559373670400959 0.0025488081367563056 0.0037246710006372842 -0.058402212909665102 -0.05389224098297684 0.050769047830457339 -0.021652146247246574 0.042995566241109257 -0.045883747986421961 -0.057928634609702115 0.023217119930103097 0.052862587436721314 -0.058103272850516599 0.0015933251503784296 0.02157502866269638 -0.058163979648780166 0.032465699432504241 0.05300024672221687 0.054566140360959414 -0.0032066773179479113 -0.010342281861589746 -0.059020260704779642 0.0091924572065337426 -0.055538518636459672 0.046819983842002311 0.013198258910004063 0.0024442438296177239 -0.040599638947842 -0.053704007965422434 0.019891809869670912 -0.04899071037577582 -0.0069305374946092351 -0.045586292759212797 0.020616584975758231 -0.058149612433936973 -0.014010882655296054 -0.058088274389472005 -0.019933323846701868 -0.04988930734414062 0.01597765190229344 -0.014933923290183178 0.0033083762164276076 -0.058042514013472435 0.024651020395826919 -0.058070838186296964 0.032035155141719215 -0.057925951755834343 -0.0019906965862069291 -0.052709650593381424 -0.039349286424562646 0.038504014571713506 -0.05808205048276649 -0.014572602457523901 -0.016760090049846091 -0.016240780519173877 -0.018011638962277976 -0.0011031462688199174 -0.0077540884272797733 -0.058506986559644564 -0.017223620065434476 -0.018050943612710525 -0.058543990177929786 0.13571415301282844 -0.0024793206928057391 -0.05777125925066337 -0.018334025048850629 0.022279588587761929 -0.021501672039460219 -0.058223369347850065 -0.05822794851916694 0.0035581534646850635 -0.025524838314139948 -0.05777924629037378 -0.057983287864274639 0.011280019994044788 -0.055236891762653062 -0.057965162190753372 -0.057681822564555799 0.023925813800079531 -0.017528149611821701 -0.053044403532018627 0.013888821746871777 -0.058630835898416916 -0.038643303301670998
leaf_weight=2.9728093892335883 4.1685345917940166 4.8464527949690908 2.475458212196826 3.6060354933142689 2.7398795858025569 3.6211469694972065 3.0450184792280188 3.2714449018240037 4.5586570352315965 3.2096238583326322 2.7547580450773239 2.7773476243019122 2.9451837465167108 5.6150687783956545 2.4089648351073327 2.953228957951068 3.2673793435096723 3.6625295132398596 2.8233544155955297 3.1392985433340064 3.255685329437255 3.2858392670750618 3.3274718299508086 2.6425961405038825 3.9552172720432273 3.5502878576517123 5.216962382197381 3.003733552992343 3.6963255032897022 8.3555387407541328 2.651111900806427 2.9484869986772519 2.607943095266819 3.9005672410130501 3.5044054538011542 3.1398493871092787 3.1805370524525642 2.5350103452801704 3.7416718453168851 2.6236255317926398 2.6861147955060005 2.5645811706781387 3.1929566711187354 2.9371724501252157 4.4850733727216703 2.8302344903349876 4.7079809904098537 4.0219647139310899 4.9492755606770507 4.3864311352372187 2.5608297362923604 3.3224128037691116 3.7329861521720913 3.6134210899472237 2.4766861870884913 3.4815925285220137 2.8660211712121964 3.2058287262916556 3.6974944099783889 2.5141851156950024 3.5661794096231461 3.3017499968409521 3.1911850944161433 5.0264890342950812 2.6365325227379781 2.5526544526219359 4.5579462572932234 4.4452671557664862 9.6543510556221026 2.961071513593196 3.3876309543848029 3.6052294149994841 2.449605241417891 4.1108765751123411 3.1927432492375329 2.8947102427482605 2.7189288213849068 3.243522122502327 2.9190317764878273 4.8452688530087489 3.3280876874923697 4.054608017206192 4.4726829379796982 3.0569243654608727 3.5422408208250991 4.339554786682128 4.7628317326307279 3.3928009122610092 3.6421192586421967 2.6980400010943404 2.4863516390323639 3.4353434816002828 3.2656288743019095 3.0662574395537376 8.406264699995516 2.8729184865951529 3.634290173649787 4.7865213602781296 2.7542243897914869 3.141946479678154 4.5745114684104919 4.1100988313555717 2.5072853416204444 2.839116595685482 2.9161874279379845 2.5777581259608269 4.8657766729593295 3.4927816689014426 4.1625128611922264 2.5960602909326553 8.9304690361022931 5.7289126291871062 2.4528416395187396 2.4670808613300448 2.9995732307434109 4.2582826390862465 3.343523643910884 2.9454711228609085 2.6489242017269126 4.5137653797864914 8.4757107496261579 4.357059113681319 3.8991107419133169 2.5389067977666855 3.4540372118353835 3.7406282648444176 2.907240130007267 45.96573443710804 3.2425599992275229 2.7455847486853591 2.5606721863150588 3.6130061671137801 5.497115656733512 2.6117429956793776 2.6101440489292145 3.7398919686675063 3.5157210901379568 3.5899299681186667 3.0174282863736153 2.6630657091736776 3.3629112839698792 2.6100496053695679 3.1097852289676648 2.7949401885271072 2.6674562394618988 3.7799836695194271 5.9999939650297156 4.4838252365589142 2.4699794426560402 3.3749537542462349 2.5745579451322556 3.1344229355454445 3.5399160310626021 3.0344651415944099 2.5105336755514172 4.8712751790881139 2.556384764611721 2.9885989502072334 3.5565848499536497 4.5590406954288483 3.6815111339092237 4.8134829252958298 3.7917452603578568 2.7003498077392578 19.787057362496853 11.417606808245184 2.4791512563824645 2.6902336180210114 2.9433828964829445 3.0835971981287003 3.9651516899466506 2.9594680070877057 3.0296206623315811 2.6936175897717476 2.4521150141954422 3.1046794056892377 2.5254620462656083 3.9423769116401672 2.6448304876685143 14.640907645225516 3.3639616295695367 4.5229493826627722 3.8076888993382436 4.2021742612123489 2.8485474735498428 4.5700490325689316 9.0365601703524572 4.7964709773659688 2.7854101210832587 3.4455384090542784 4.3430314585566521 4.6143913790583602 2.7660832181572914 6.1199749410152497 4.8414716050028801 4.0383807271719006 2.4718709588050869 10.258380845189093 4.4848612472414962 2.6767471581697464 4.1587313488125801 3.6929813921451569 3.0881539955735198 3.6258431896567336 2.8888025730848312 2.8879806995391846 7.8381659537553787 2.8378307446837416 6.089544326066969 2.4372014850378028 2.7022856175899497 4.4251044690608969 2.9335327371954918 4.0245467424392691 4.7707814127206793 2.6701295375823975 2.4594388008117676 3.2342970743775359 7.8464193195104599 11.129112161695955 2.7421924471855155 2.7147037982940674 2.4621054828166962 4.1398563161492339 6.4798557683825484 3.0623477026820174 2.6962139159440985 4.6592206433415395 2.4905453324317923 4.3445847630500793 11.539486579596995 3.3021719306707382 3.5462717637419701 3.0810334160923958 2.7135737612843505 4.1383786275982848 4.4866865277290344 4.3917980641126633 17.61217200756073 4.2638279944658306 3.5005734115839067 2.4627436995506278 2.8128997981548309 11.016022898256777 3.1926295086741439 10.648125216364859 4.8396156504750243 11.607631288468836 3.1653914079070082 4.8081974163651466 4.5377876088023186 4.5450635179877281 2.5927907228469831 6.2355198860168413 4.7155714631080645 2.3327832296490669 3.2527004107832962 7.7291598320007342 2.4133488684892646 11.821993768215178 3.3163658380508414 4.9512601271271706 2.6424799859523773 29.973402425646782 2.6507731080055237 2.5643467828631401 3.7025234028697014 3.3970509171485901 2.4122448042035094 2.3900638669729233 2.4692516550421706 2.6312373429536811 3.9676815047860137 5.5541916564106941 2.4344343170523643 2.4681677892804128 4.4517591148614883 3.5564120560884476 2.7065627127885845 8.7251509204506892 2.4844046533107758 2.4755308106541634 3.9864633902907372 2.4133253842592319 3.9868471026420593 4.0361877903342149 3.0135338082909584 2.328457698225975 5.2148807942867279 2.8799108788371068 18.134735651314259 5.5617090091109294 3.0009340941905966 2.4316168576478958 2.447030708193779 20.668796382844448 2.7741870582103729 2.6201443746685982 7.8239749372005454
leaf_count=25 34 40 20 28 22 27 24 26 34 26 21 23 22 37 20 22 24 26 23 26 26 27 24 20 28 22 37 24 30 68 20 22 20 31 28 25 24 20 29 20 21 20 24 22 32 21 39 34 40 34 20 23 29 29 20 29 20 27 30 20 28 26 26 39 21 20 38 35 81 23 27 29 20 33 26 22 21 25 22 40 25 32 32 23 28 33 38 28 28 22 20 28 25 24 69 22 28 39 22 23 33 32 20 23 22 20 37 27 33 20 74 47 20 20 24 35 27 20 20 37 68 36 32 20 28 30 23 388 26 22 20 28 45 21 20 28 28 25 25 21 27 21 23 20 20 30 49 37 20 27 20 25 28 23 20 35 20 24 28 37 28 38 26 22 169 95 20 22 24 24 32 23 24 22 20 23 20 29 21 122 27 36 31 34 22 37 73 38 22 27 34 37 23 51 39 33 20 86 38 22 32 31 25 30 22 22 47 23 50 20 23 36 24 33 38 22 20 27 64 91 22 22 20 35 55 25 22 39 20 34 96 27 26 24 22 33 35 34 144 34 29 20 23 91 26 87 39 94 26 40 38 38 21 53 39 20 27 65 20 99 27 42 21 259 22 20 31 27 20 20 20 22 33 45 20 20 36 24 23 75 20 20 31 20 33 33 24 20 44 24 153 47 26 20 20 176 23 21 67
internal_value=0 0.214169 0.675238 -0.37605 1.03807 2.31626 0.89431 1.05688 1.30258 -0.198098 0.0359442 0.541024 0.579932 2.87404 -0.499628 1.75176 1.45913 1.09775 0.373221 -0.384344 -0.574924 0.571693 1.86551 1.48877 2.21246 2.04288 1.67546 -0.0525338 0.26991 -0.0132552 3.07653 0.722326 1.56571 0.664201 0.390918 1.80314 0.715419 -0.154509 0.454821 -0.35917 0.701607 2.32865 0.0679422 2.07103 2.54669 3.1161 -0.175763 -0.00721403 0.205325 0.865933 0.563382 3.65506 0.311998 0.610724 1.01387 -0.420379 2.24327 -0.149126 -0.0700652 0.00759662 0.506512 1.30908 0.255725 0.0519261 0.61293 0.287491 0.379594 0.232859 -0.680303 -0.0380915 -0.400767 0.376247 0.221582 0.392791 0.789458 2.20724 1.31872 1.1403 0.436849 -0.095151 0.255204 1.11987 1.38044 1.85269 -0.612728 0.763879 1.22474 0.546315 0.0544387 0.226684 -0.050568 0.0109803 0.243248 1.50294 0.106686 -0.251434 0.314947 -0.43877 0.472677 1.31769 1.78963 -0.000247155 2.24132 1.34701 1.8195 -0.135553 0.296558 0.54148 1.13887 1.89549 -0.769944 -0.20444 -0.595683 -0.107826 -0.053377 0.239601 -0.494232 2.97333 0.798422 -0.414631 -0.434087 -0.0638601 0.102482 -0.316639 -0.507745 -0.300221 0.120475 -0.656426 -0.495305 0.339042 0.479924 0.24026 0.00206362 0.508824 0.062564 1.03187 -0.198514 3.32803 0.60276 0.522133 0.910141 1.66963 0.901799 0.552225 1.18017 0.24949 -0.348929 -0.0594197 0.59717 -0.532402 1.45776 1.46187 1.03649 1.4557 0.58231 1.33185 -0.176757 0.267219 -0.0567262 0.304943 0.725534 1.05446 3.66374 0.420963 -0.785913 -0.587165 -0.361324 0.571872 0.397184 0.792365 -0.295879 -0.232145 0.437636 -0.298218 0.410013 -0.330768 -0.186408 0.563343 -0.142524 -0.566778 -0.579012 -0.215818 0.025761 -0.420207 -0.219897 0.172957 -0.423458 -0.170652 0.247905 -0.636108 -0.152099 -0.780594 -0.220883 -0.578628 -0.346745 -0.825148 -0.504792 -0.698451 -0.952945 -0.323645 1.76864 -0.612052 0.0146346 -0.680361 0.178655 1.9359 3.57496 -0.66642 -0.502046 -0.320706 -0.735718 -0.891148 -0.0983655 -0.467438 -0.291488 0.172847 -0.764867 -0.709429 -0.887058 -0.757605 -0.426047 -0.452581 -0.829168 -0.25475 -0.604545 -0.515291 -0.161367 -0.429379 -0.801338 -0.0838985 -0.787314 -0.343869 1.64998 0.483268 -0.830173 -0.776306 -0.662528 -0.338423 -0.977529 -0.359299 -0.185942 -0.59694 0.0337178 -0.8689 -0.401689 -0.536118 -0.716955 -0.744336 -0.905919 -0.537613 -0.726963 -0.671359 -0.376319 -0.724782 -0.518969 -0.200559 -0.803555 -0.69236 -0.39609 -0.845456 -0.567442 -0.597788 -0.606506 -0.866109 -0.162293 0.151385 -0.69564 -0.758963 -1.02011 -0.963387 -0.984358 -0.887422 -0.815718 -0.919697 -0.890197 0.143771 -0.88611 2.36357 -1.00286 -0.844548 -0.839174 0.0136963 -0.733918 -0.86257 -0.686631 -0.391194 -0.949298 -0.726734 -0.846849 -0.593412 -0.894102 -0.794641 -0.868327 -0.423083 -0.901258 -0.951721 -0.681043 -0.792361 -0.974562
internal_weight=0 815.621 385.022 476.081 245.62 24.8328 220.787 187.246 137.743 430.599 139.403 51.1023 54.4973 20.6643 421.584 86.6402 17.3777 31.9621 49.5031 312.323 163.204 8.60028 80.7982 38.7362 42.0619 38.1067 28.1136 330.754 76.2424 33.541 9.99315 33.5236 9.457 6.50851 24.0666 31.9835 6.32039 22.5351 60.134 15.9795 5.30974 8.77743 33.7246 25.6632 15.1964 10.6377 149.119 98.9044 74.7907 28.2996 21.1957 7.80749 67.3819 37.5432 26.9479 16.1084 16.2139 254.511 207.072 175.518 52.347 12.463 39.884 33.4676 13.9476 50.637 47.6333 41.9462 99.8454 14.1005 22.001 37.3883 32.943 29.3378 17.8083 6.19646 6.41642 11.6114 6.16255 30.5317 18.8758 7.3827 10.4668 7.52961 159.949 23.2149 12.4952 8.15563 8.92113 10.7197 134.141 122.041 64.7391 6.33189 58.4073 57.3017 47.5105 8.22186 39.2886 6.77624 10.9969 6.75269 5.26204 9.49698 6.65786 9.58433 32.5124 23.2328 11.6243 7.46184 12.6268 123.171 24.3925 98.7783 93.0493 7.80052 47.4388 6.21285 18.0778 10.5954 18.9291 29.8387 25.1307 9.27959 50.2142 11.4931 7.75251 152.148 77.827 25.1228 22.3772 19.8165 16.2035 10.7064 8.09465 14.8064 67.9266 17.0432 5.62757 12.9931 8.63603 5.27312 11.8997 8.57218 5.4624 6.31499 19.5199 13.5199 5.66116 7.85878 5.31444 5.68708 15.3587 8.73774 5.70328 11.0665 8.02167 5.54498 11.6084 8.11563 11.54 8.49499 7.34203 6.26653 85.7449 46.7602 27.369 5.16938 9.5427 6.59932 58.3839 54.4187 8.68271 5.72324 5.69468 54.4288 40.3457 9.69189 5.74951 72.1323 44.0952 15.7386 12.5328 8.00986 11.5295 7.4186 30.6538 18.9037 11.9265 18.6134 7.78857 28.3566 7.38047 22.1996 12.1376 74.3211 21.1937 17.1554 53.1273 7.16161 7.10392 68.993 6.78114 62.2119 5.84203 5.44881 13.4532 24.1137 31.5547 22.4516 58.5861 14.6835 5.63582 20.0144 15.9899 7.44091 7.40871 19.7906 10.6698 21.8783 10.7492 11.1394 109.261 6.60196 46.7021 40.2223 14.9556 12.2594 10.8968 9.14106 21.2759 7.32414 8.41755 6.62095 11.7501 12.6141 11.6558 7.16915 20.9761 45.736 26.4448 19.2912 5.81247 13.4788 22.1809 18.9883 15.4877 14.0831 19.3912 7.97359 9.19701 12.0997 7.55467 25.2667 15.6123 9.37681 52.9502 38.3093 13.0517 25.2576 13.4356 10.6384 5.27901 102.659 7.92982 5.27905 8.54898 7.29616 13.9517 10.1192 10.8248 99.6861 69.7127 8.00703 7.38569 6.08159 6.97722 6.42243 39.0427 19.2557 5.98881 5.06832 6.74069 16.5563 10.4364 6.44951 9.10308 4.66124 67.0815 10.5418 56.5397 38.4049 34.4372 5.43255 7.66191 29.0047 8.3359 5.1979 16.5491
internal_count=10386 6460 2953 3926 1848 170 1678 1412 1028 3507 1105 399 423 136 3503 629 133 244 384 2576 1359 69 585 288 297 269 201 2668 611 266 68 256 73 51 183 236 49 179 478 128 41 64 266 187 110 76 1217 802 602 218 164 55 542 300 214 133 114 2057 1671 1413 417 98 319 268 109 404 380 335 839 113 176 297 262 233 141 48 51 89 47 242 150 57 77 55 1333 185 99 66 70 86 1064 965 511 49 462 454 373 67 306 51 77 52 41 74 51 75 255 182 90 57 104 996 198 798 751 63 386 44 135 86 151 242 203 73 415 93 63 1270 647 201 179 159 131 86 65 109 550 109 45 105 69 42 87 63 40 50 159 110 46 64 42 45 121 69 46 81 64 44 92 65 90 66 48 50 726 387 226 42 76 52 474 442 69 46 46 432 318 73 44 601 359 128 101 65 92 59 245 150 94 149 61 231 60 184 98 623 175 142 448 60 54 575 56 519 44 42 84 200 258 184 489 122 47 164 131 60 60 164 87 178 87 90 927 55 392 337 124 102 89 72 177 61 61 52 95 101 92 57 171 373 215 158 47 111 181 155 126 114 161 66 77 99 61 213 132 79 442 320 109 211 112 89 42 872 64 42 71 59 116 85 88 847 588 65 62 49 56 44 334 165 48 41 53 137 86 53 74 40 566 88 478 325 292 46 64 246 70 41 142
shrinkage=0.05


Tree=3
num_leaves=300
num_cat=0
split_feature=23 22 9 2 23 19 5 0 23 8 5 8 14 7 8 17 19 19 8 2 14 14 18 14 14 0 5 7 17 14 14 22 17 5 7 17 23 6 0 22 7 23 6 6 9 17 9 9 8 23 7 2 23 0 8 16 0 7 7 0 7 9 6 23 23 0 0 19 2 2 5 14 5 8 6 14 22 5 0 9 14 14 8 6 23 26 7 5 5 6 5 0 8 23 26 23 17 16 0 5 0 6 5 14 6 5 5 9 14 9 2 16 2 23 14 8 8 17 7 0 6 14 22 0 23 6 2 6 8 0 8 0 5 6 8 2 6 0 7 2 14 23 14 19 5 14 26 9 0 2 2 0 6 6 22 8 9 9 7 9 5 22 2 6 22 7 16 23 2 6 6 2 14 5 16 14 14 9 2 2 6 2 2 5 16 0 16 6 16 5 8 9 18 7 8 8 6 8 16 6 2 8 8 17 16 16 6 7 9 5 6 14 9 8 8 17 14 23 7 2 0 8 5 5 2 23 6 18 23 5 19 6 14 14 19 17 9 2 16 14 14 14 22 0 19 17 9 8 6 2 6 0 16 8 6 0 9 7 14 2 8 8 14 26 9 7 17 5 8 7 14 22 0 6 14 17 0 5 5 6 0 2 23 6 0 0 2 23 16 7 7 9 23 0 0 14 22 14 22
split_gain=128.765 139.659 101.922 53.7969 54.6717 37.3827 27.4367 18.6296 17.1628 15.737 19.9742 13.9832 13.979 13.604 12.8034 13.364 11.8492 11.1169 11.1162 29.5266 11.0544 10.8564 10.5882 9.6044 8.92685 8.6931 16.9117 11.8931 8.46906 8.3687 8.31734 9.83391 8.08672 9.32288 7.93152 7.79659 9.185 9.3671 8.00553 7.14903 7.11556 6.74402 7.11653 11.1064 7.18215 6.72581 8.41168 8.05732 6.69624 6.42305 6.42199 14.0974 8.80761 6.28322 6.28209 6.0724 5.94908 10.814 11.2517 13.2528 8.78165 6.44892 5.82527 5.81861 5.79298 8.4174 6.46638 5.64121 5.35753 9.49225 5.25219 5.24873 4.87158 8.5341 4.82588 4.80895 4.78664 4.75227 4.63704 5.61062 5.46373 7.18848 4.96318 10.6954 7.23711 7.6675 4.76797 4.63577 4.94899 4.59677 8.40232 4.51604 15.5062 4.50512 4.47075 4.56408 4.47046 9.03841 5.96517 4.39683 4.35734 8.57304 4.33946 4.33186 4.31321 9.4272 5.75457 8.49084 5.65203 5.60029 5.11075 4.77231 5.61918 4.25185 5.49759 4.24519 4.20676 4.17795 12.7905 4.16402 4.12253 4.08438 7.68566 4.06661 4.06588 3.98749 3.98629 3.87921 3.80162 9.20909 3.81203 3.79014 7.32778 6.89082 8.89134 5.02762 3.78873 5.08304 3.77565 3.71978 9.08632 3.68189 3.64171 7.76495 4.53733 5.96367 4.37069 3.59263 4.85753 3.58459 3.58337 3.56814 3.56809 4.17931 3.5477 3.4699 3.45065 4.04946 4.55993 3.3824 3.40983 3.31755 3.30394 3.19831 7.82816 4.71525 3.81336 6.28015 11.9998 5.51612 3.11381 7.51457 6.19382 3.09793 3.08987 2.98528 5.63224 2.94405 15.7087 9.30043 3.43336 4.64264 7.90016 5.087 9.45574 3.5125 3.37006 7.80652 9.1571 3.14124 2.83148 2.8204 2.75427 2.73309 2.70291 2.63207 2.58656 2.58487 5.11807 2.53731 4.62941 5.28547 4.57898 2.52096 2.5203 2.88739 2.46695 3.04908 2.44036 3.30366 5.04664 4.84596 2.94242 2.43374 3.7028 2.40941 2.3419 2.32628 4.38665 2.2779 2.19729 2.14118 2.10317 2.06007 2.14041 2.02063 1.97788 1.9658 1.7203 1.68431 1.65286 1.62216 1.57999 2.60736 6.38715 2.29443 1.58352 4.64328 4.18632 1.62571 1.57206 3.83211 4.66756 2.19271 1.99925 2.08495 2.47417 2.16679 1.9987 1.55124 1.54704 3.03798 1.52914 1.48562 2.40317 2.0453 1.73102 1.46141 1.42102 3.53239 1.41588 1.9267 1.37788 1.31025 1.21217 1.19505 1.18151 1.56846 1.14982 1.1473 1.11196 1.04542 2.19806 0.991465 0.990069 0.971197 0.996296 2.12266 1.92047 1.21544 0.951776 0.950235 0.940979 0.898581 0.894975 0.880393 0.878232 0.840289 1.02805 1.89685 2.387 0.777952 0.720915 0.695428 1.42099 0.617002 0.592413 0.454417 1.02051
