tree
version=v3
num_class=1
num_tree_per_iteration=1
label_index=0
max_feature_idx=31
objective=binary sigmoid:1
feature_names=id BertzCT Chi1 Chi1n Chi1v Chi2n Chi2v Chi3v Chi4n EState_VSA1 EState_VSA2 ExactMolWt FpDensityMorgan1 FpDensityMorgan2 FpDensityMorgan3 HallKierAlpha HeavyAtomMolWt Kappa3 MaxAbsEStateIndex MinEStateIndex NumHeteroatoms PEOE_VSA10 PEOE_VSA14 PEOE_VSA6 PEOE_VSA7 PEOE_VSA8 SMR_VSA10 SMR_VSA5 SlogP_VSA3 VSA_EState9 fr_COO fr_COO2
feature_infos=[0:14835] [0:4069.9597800000001] [0:69.551167280000001] [0:50.174587760000001] [0:53.431953749999998] [0:32.19536806] [0:34.579312880000003] [0:22.589275570000002] [0:15.62066735] [0:363.70595409999999] [0:99.936429000000004] [1.0072764519999999:2237.3184900000001] [-666:3] [-666:3.2000000000000002] [-666:3.3999999999999999] [-7.7300000000000004:0.81999999999999995] [0:2035.133] [-104.04000000000001:1512.2422309999999] [0:14.76985872] [-6.3275141909999997:6] [0:42] [0:97.663462199999998] [0:482.43422270000002] [0:375.4251476] [0:211.50127889999999] [0:100.34841609999999] [0:80.742293309999994] [0:492.72973910000002] [0:115.4061569] [-5.4305555559999998:384.45051910000001] [0:8] [0:8]
tree_sizes=30885 31376 31363 31427 31282 31402 31383 31412 31403 31390 31372 31389 31485 31351 31303 31413 31398 31472 31438 31488 31404 31492 31392 31465 31477 31472 31494 31467 31399 31533 31511 31461 31552 31479 31506 31481 31516 31460 31473 31541 31542 31609 31581 31454 31401 31542 31442 31460

Tree=0
num_leaves=300
num_cat=0
split_feature=27 26 9 6 18 8 13 3 9 29 9 8 10 24 23 18 6 9 9 9 12 27 0 18 9 18 23 3 13 10 27 13 13 6 9 6 29 0 26 20 27 13 23 0 9 12 9 18 23 18 22 0 13 3 3 3 24 29 18 9 12 22 13 3 0 8 29 6 29 9 13 9 13 22 10 18 8 8 6 0 20 13 12 12 6 0 6 0 13 6 9 0 8 0 18 8 12 18 6 12 0 20 18 18 3 27 26 20 13 27 0 0 18 24 3 22 3 18 6 20 22 23 12 29 6 22 0 10 0 3 3 12 30 24 6 23 0 0 26 20 29 9 0 0 26 6 26 24 18 6 8 20 8 8 24 6 0 0 8 29 12 27 9 13 12 9 9 26 12 8 29 0 6 12 13 9 9 10 9 3 6 10 3 13 29 18 18 0 0 20 0 8 8 8 12 9 18 6 20 8 6 26 0 10 18 6 13 18 0 8 29 12 18 23 18 29 18 9 6 12 12 3 24 29 9 27 6 13 10 10 29 29 0 0 3 12 26 10 10 29 3 29 26 8 0 29 24 26 0 18 10 12 10 10 6 24 29 9 29 27 0 3 12 23 8 23 0 3 12 27 27 26 13 13 6 0 22 0 20 8 8 29 30 8 0 12 18 18 26 0 22 20 0 0 10 27 29 0 22
split_gain=139.608 202.015 175.512 173.475 38.5149 37.3816 36.1328 31.4251 29.1326 28.4304 20.3936 17.9833 17.4334 18.2252 15.7789 22.3932 20.4512 19.9339 31.8679 15.4027 13.0946 13.7263 19.0649 15.6777 12.7093 15.316 11.6359 11.4055 11.0685 13.6123 17.8178 10.9736 20.7559 17.6732 11.1376 10.9544 10.2564 10.0771 9.88601 9.48508 13.1646 14.4531 12.0153 9.3503 9.02746 8.96493 8.80177 8.94044 15.3546 9.25083 9.98993 13.5143 8.69392 10.7645 12.7735 12.6662 11.6379 8.65444 9.88771 8.60725 8.49733 8.22014 15.6319 8.10897 8.10629 7.91564 9.62369 8.63568 7.75237 7.8253 9.36527 7.70084 7.54677 9.04471 11.2789 7.43914 7.36098 7.25419 7.60095 9.65034 7.13131 8.44656 7.38576 6.83704 6.7798 6.48536 6.41075 6.22769 6.17475 7.92785 6.13541 6.12166 8.09965 6.73625 12.3532 6.08015 5.95332 5.9288 9.9302 5.92542 9.16338 6.97321 7.72192 5.80768 5.80274 6.98932 5.71649 5.46659 5.44244 8.19294 13.5547 13.7302 5.31948 5.23966 6.52498 5.23578 8.15133 7.15726 5.06643 5.01058 9.47859 5.4052 5.00848 4.97891 4.9651 6.64305 4.96055 4.89033 4.85858 4.5878 4.49933 4.48577 4.43797 5.93256 4.39796 4.35671 4.36771 5.77914 4.29272 5.08316 4.15504 5.47525 10.3607 8.81868 4.82517 4.5892 4.4407 4.12601 4.10392 4.08995 4.08234 6.52747 5.92287 11.1402 10.4248 8.40411 8.02617 6.91228 7.87324 5.59493 9.98237 5.85809 5.20384 5.11685 4.85274 3.96334 4.51962 5.5627 8.02093 7.02464 10.5601 3.88163 3.84391 5.61183 3.81228 3.85492 13.5984 4.89978 5.24462 4.90419 4.58028 3.8382 3.80289 6.76657 4.11404 3.75709 4.60477 3.73443 5.7323 3.67133 3.5023 4.67982 3.54695 3.46874 3.32819 3.32016 3.47176 3.22906 7.57959 3.08076 4.70176 3.0507 2.75724 2.75697 2.74076 7.66259 6.62013 3.24251 2.71566 2.70146 5.15749 3.66593 3.57784 8.74564 13.0166 5.11106 2.65114 2.5872 2.55252 2.5477 5.33791 3.08811 2.50961 5.11194 2.46374 2.46031 2.45182 2.36872 2.36065 2.34201 2.33672 2.19324 2.17454 2.10553 2.09249 2.07977 2.04826 2.03058 3.74136 1.98891 1.96516 1.93007 1.8593 1.82397 1.82391 1.74102 2.88207 6.67499 4.47688 2.62586 4.33028 2.07111 1.72375 6.07972 1.6753 2.98219 1.77329 1.58601 1.56909 1.69323 2.34092 3.69865 1.52145 1.50202 2.9662 1.7015 1.47144 2.1725 3.00701 4.01848 2.29574 1.33501 3.3405 1.79167 1.31822 1.30645 1.29968 1.27911 1.26661 1.15804 1.05276 1.03785 1.01329 0.983984 0.972754 0.970031 0.943589 0.941639 1.7302 0.928187 0.905804 0.880873 0.867184 0.84923 0.832 1.47876 0.809323 0.772027 0.581714
threshold=11.446919760000002 11.933577050000002 23.964514665000006 3.1161330830000007 9.452476852000002 1.3413682080000002 1.4985294120000001 15.778421205000003 43.287284525000011 27.338221845000003 46.529346345000008 3.9416721355000006 5.5682780110000012 74.128121050000018 5.3595821095000007 9.8036342590000007 9.895329012000003 12.109539450000002 11.757217590000002 37.471201860000008 1.4900000000000002 30.674829500000005 5261.5000000000009 10.502525040000002 84.564228015000012 12.155812440000002 5.5682780110000012 2.7256964780000001 1.6183473390000003 5.8625212535000015 24.512167610000002 2.1213235295000001 1.8153409090000003 2.6775518530000006 36.33998337500001 2.4401077350000002 22.935659725000004 11576.500000000002 5.800553862000001 3.5000000000000004 77.990293180000023 1.6442133815000004 25.403255310000002 7386.5000000000009 26.830624625000002 1.4152298850000002 13.635056435000001 12.621609750000003 25.533835440000001 12.119348915000002 20.548222670000005 948.50000000000011 1.6292220115000002 4.0118659125000002 3.5240180040000006 3.6286801500000005 6.7513364420000004 37.221631110000011 10.268830300000003 45.293898985000006 1.3060200670000002 7.709229725000001 1.8228758170000001 5.9868873885000005 9466.5000000000018 2.2753388105000005 77.28776424500002 4.5778563170000011 39.674143495000003 12.109539450000002 2.0954545455000004 18.078844730000004 1.8110119050000002 11.933577050000002 5.8625212535000015 9.8737287415000008 0.095841617500000018 4.2256092965000009 7.3316033220000003 9498.5000000000018 1.5000000000000002 2.1961538460000005 1.4422222220000001 1.2845238095000002 4.0861297070000004 9053.5000000000018 2.2496378930000005 6890.5000000000009 1.8153409090000003 2.7059918000000001 18.618390140000002 4536.0000000000009 5.6391276300000008 7417.5000000000009 9.9993807090000022 1.2400187215000003 1.3090185680000002 11.317122500000002 5.7857130520000011 1.0291356105000002 10315.500000000002 16.500000000000004 12.432111180000001 9.5534976535000009 3.1625683975000003 24.384802770000004 11.484254345000002 7.5000000000000009 1.7314560440000002 69.378959470000012 3770.0000000000005 7542.5000000000009 11.817497872000002 24.191237760000003 3.7180508485000003 11.754483335000002 7.974136295500001 11.816615715000003 6.4015684730000011 5.5000000000000009 5.6576648585000013 5.9921365575000012 1.5527777780000003 50.113451695000002 2.8677597090000004 61.47873979500001 14240.500000000002 12.736360150000001 9092.0000000000018 2.2485729010000006 2.5264341385000004 1.8516483515000002 1.0000000180025095e-35 12.058503625000002 1.0919820945000003 25.533835440000001 8316.5000000000018 4601.5000000000009 11.867875035000003 5.5000000000000009 64.29633010000002 44.845654540000005 10745.500000000002 12351.500000000002 17.074580030000003 5.7518289145000008 13.685218375000002 18.124870695000002 10.565215735000002 2.4276560525000002 2.5451177500000006 18.500000000000004 0.6093567470000002 0.92466394000000018 13.596016610000001 2.2496378930000005 1640.5000000000002 3449.5000000000005 2.4589360785000003 50.569914700000005 1.0620192310000001 18.408201225000003 29.929630130000003 1.7343137255000003 0.74679487200000005 17.447232770000003 6.0589304680000007 10.936084645000001 1.0291356105000002 0.17780002050000002 26.819750000000003 3449.5000000000005 2.4868194845000002 1.6547619050000002 1.5345238095000002 52.373518015000009 49.413480730000011 11.139471595000002 44.908839215000008 6.2598149435000012 4.0011841380000011 6.5584466480000012 8.4102534320000029 1.8509259250000003 80.458333335000006 9.9946022300000017 10.625380255000001 10420.500000000002 7358.5000000000009 19.500000000000004 6521.5000000000009 2.5260268350000001 3.7702183610000004 0.82930525650000009 1.8516483515000002 38.654965005000001 9.7182399715000027 11.411209990000001 22.500000000000004 1.2391270310000002 2.8209960875000006 17.716980160000002 8801.5000000000018 6.4154584645000012 10.516467520000001 2.1813664950000002 2.0889328065000003 10.215435480000002 5973.5000000000009 0.83486617400000018 28.048098755000002 1.3266666665000002 10.230271635000003 5.9921365575000012 9.9993807090000022 39.188752420000007 10.086452425000003 12.231699295000002 6.6682295775000009 1.2204861110000003 1.0819892470000003 2.8405035735000004 21.365405950000003 43.594046810000002 18.546228175000003 12.252771395000002 10.646338605000002 1.8651515155000002 6.5084886355000009 5.800553862000001 84.427530830000009 13.218541665000002 5361.5000000000009 7187.5000000000009 7.9298630910000005 1.4422222220000001 19.692583465000002 6.5584466480000012 12.223308590000002 38.872992960000012 2.6888065045000005 51.206823141000008 13.623250985 0.078574785500000008 7453.5000000000009 20.208195835000005 6.7513364420000004 5.7431873935000004 6595.5000000000009 9.452476852000002 6.4154584645000012 1.7888888890000001 12.158070340000002 17.526131635000002 2.0034012385000004 19.324432260000005 33.814713245000007 6.0589304680000007 50.855694445000005 18.914546855000001 11882.500000000002 2.8655218700000007 1.0933035715000001 18.637439310000005 4.6968718445000013 109.11241895000002 11193.500000000002 1.4264829135000003 1.4152298850000002 6.0589304680000007 6.0589304680000007 14.252753425000002 1.9083916085000001 1.9828078820000001 17.042968800000004 3214.5000000000005 11.933577050000002 13687.000000000002 5.5000000000000009 1.2133634765000003 0.32483099700000001 31.600221560000005 1.0000000180025095e-35 5.6391276300000008 4173.5000000000009 1.0933035715000001 12.731064320000002 3.7894624920000006 12.384606895000001 9890.5000000000018 5.798461563500001 5.5000000000000009 11477.000000000002 1436.5000000000002 5.7511827200000001 5.6752813220000009 86.981043090000014 8213.0000000000018 6.0002099000000007
decision_type=2 2 2 2 2 2 2 2 2 2 2 2 2 2 2 2 2 2 2 2 2 2 2 2 2 2 2 2 2 2 2 2 2 2 2 2 2 2 2 2 2 2 2 2 2 2 2 2 2 2 2 2 2 2 2 2 2 2 2 2 2 2 2 2 2 2 2 2 2 2 2 2 2 2 2 2 2 2 2 2 2 2 2 2 2 2 2 2 2 2 2 2 2 2 2 2 2 2 2 2 2 2 2 2 2 2 2 2 2 2 2 2 2 2 2 2 2 2 2 2 2 2 2 2 2 2 2 2 2 2 2 2 2 2 2 2 2 2 2 2 2 2 2 2 2 2 2 2 2 2 2 2 2 2 2 2 2 2 2 2 2 2 2 2 2 2 2 2 2 2 2 2 2 2 2 2 2 2 2 2 2 2 2 2 2 2 2 2 2 2 2 2 2 2 2 2 2 2 2 2 2 2 2 2 2 2 2 2 2 2 2 2 2 2 2 2 2 2 2 2 2 2 2 2 2 2 2 2 2 2 2 2 2 2 2 2 2 2 2 2 2 2 2 2 2 2 2 2 2 2 2 2 2 2 2 2 2 2 2 2 2 2 2 2 2 2 2 2 2 2 2 2 2 2 2 2 2 2 2 2 2 2 2 2 2 2 2 2 2 2 2 2 2 2 2 2 2 2 2
left_child=36 2 9 4 6 8 -4 46 28 27 20 38 14 26 15 130 57 18 85 31 21 22 -10 -24 25 -13 37 103 -5 30 -30 32 33 35 44 -6 231 52 65 40 42 87 -15 -32 -34 -36 119 48 49 76 190 -52 63 54 68 -56 -57 208 64 61 108 107 232 -14 -59 67 97 -7 69 75 -71 126 195 74 90 -54 -48 78 -50 -80 -29 82 203 106 -31 -17 240 -42 89 -8 -74 199 93 94 -93 297 -64 98 -67 100 226 -101 182 -2 -39 -106 123 -40 109 135 -111 -112 115 114 -96 116 140 150 -100 225 -121 132 -20 -55 278 -126 165 -41 -19 131 -11 134 -122 -134 -105 236 137 -137 139 147 141 143 144 145 -143 146 148 -95 -78 -128 152 171 156 154 155 -154 -117 237 164 160 -157 193 -163 -153 -159 166 194 168 -168 170 -170 -152 173 -171 -166 176 177 178 179 180 201 -177 -103 184 -184 -149 -187 188 -174 241 296 -192 292 -162 209 196 -73 198 286 200 293 -176 -182 -82 205 217 207 -207 -16 219 211 -211 213 214 -212 275 -92 -169 -60 220 280 -222 223 235 -148 -3 -53 -109 243 -9 -61 287 -63 -161 258 282 -49 -155 -239 -218 -77 -114 -179 -136 -186 246 249 -248 -249 298 251 -251 -85 -254 255 256 294 -107 259 260 276 -262 -199 264 -231 285 267 270 269 284 -247 273 -273 -158 -238 -215 -227 -145 -75 -244 -38 -278 -214 -43 -269 -265 -110 288 -1 -188 -201 -275 -193 -28 295 -221 -51 -23 -233
right_child=1 7 3 5 19 11 88 229 10 12 -12 24 13 39 16 17 -18 128 122 -21 -22 95 23 -25 -26 -27 91 80 29 84 43 -33 34 -35 45 -37 71 104 59 127 41 283 -44 -45 -46 -47 47 60 77 50 51 99 53 83 55 56 -58 58 218 230 -62 62 96 -65 -66 66 -68 -69 -70 70 -72 72 73 124 -76 86 112 -79 79 -81 81 -83 -84 252 -86 -87 -88 -89 -90 -91 216 92 -94 138 113 -97 -98 -99 118 101 -102 102 -104 129 105 257 -108 227 197 110 111 -113 189 -115 -116 117 -118 -119 -120 120 121 -123 -124 -125 125 -127 149 -129 -130 -131 -132 -133 133 -135 228 136 -138 -139 -140 -141 -142 142 -144 277 -146 -147 224 185 -150 -151 151 163 153 157 -156 159 271 158 -160 233 161 162 -164 -165 174 -167 167 204 169 172 -172 -173 187 -175 175 181 -178 242 -180 -181 202 -183 183 -185 244 186 289 -189 -190 -191 191 192 -194 -195 -196 -197 -198 262 -200 290 -202 -203 -204 -205 -206 206 -208 -209 -210 210 212 -213 222 215 -216 -217 239 -219 -220 254 221 -223 -224 -225 -226 234 -228 -229 -230 263 -232 245 -234 -235 -236 -237 274 238 -240 -241 -242 -243 279 -245 -246 266 247 248 -250 250 -252 -253 253 -255 -256 -257 -258 -259 -260 -261 261 -263 -264 265 -266 -267 -268 268 -270 -271 -272 272 -274 291 -276 -277 281 -279 -280 -281 -282 -283 -284 -285 -286 -287 -288 -289 -290 -291 -292 -293 -294 -295 -296 -297 -298 -299 -300
leaf_value=-1.7845018379975202 -1.8368349132538142 -1.7743986949304313 -1.7181776752747475 -1.8166111548712436 -1.6754553542416104 -1.7181776752747477 -1.6002680526564852 -1.7789748244372892 -1.805995779620641 -1.8397719735998308 -1.7869048873715339 -1.7262839618297532 -1.7625692445045398 -1.7090254162610319 -1.7774159231767113 -1.693858815609731 -1.6515903214300591 -1.7849997671470905 -1.6258560783982956 -1.5618421488567835 -1.5357862277871228 -1.6660658331354263 -1.5695624217663127 -1.7340378011432367 -1.7698901929532314 -1.5634212955882782 -1.7992405408248031 -1.6923849453270028 -1.7774159231767113 -1.7292317023952097 -1.5634212955882782 -1.7331103084023893 -1.5818446741223815 -1.6097287064983221 -1.6081637863139582 -1.7849997671470905 -1.8011706090521853 -1.8397719735998308 -1.7521364432754465 -1.7384433916622615 -1.7432685622307171 -1.8221496115237317 -1.5695624217663127 -1.6979119588872338 -1.7108083238611063 -1.4749890786245814 -1.7046671976830716 -1.7845018379975202 -1.7613240391965512 -1.8397719735998308 -1.6371148097246921 -1.7789748244372892 -1.7046671976830718 -1.6959507605271518 -1.5965833769496645 -1.6596322723774855 -1.7874733506643112 -1.7587091080497754 -1.8252964618944638 -1.8340633210963058 -1.7164154390671378 -1.7587091080497754 -1.6497808824668883 -1.6446206306089566 -1.6371148097246921 -1.6624469552090844 -1.8045272494476328 -1.8397719735998308 -1.8397719735998308 -1.6609568290041203 -1.7818699267783626 -1.7749216811597865 -1.7205618772026905 -1.8017737553732422 -1.6797794758036688 -1.7906429641755548 -1.8040089446806886 -1.7834783169678479 -1.6145973470718991 -1.7432685622307171 -1.824182960994051 -1.8397719735998308 -1.7083186781132544 -1.8397719735998308 -1.8397719735998308 -1.8011706090521853 -1.7411820019848985 -1.6371148097246921 -1.4582996651289817 -1.4830953651795868 -1.8262614960081549 -1.6573805261122061 -1.7131112461778693 -1.8356778894811412 -1.8029252165316239 -1.5591697466957928 -1.7424965349397643 -1.6371148097246921 -1.8195062572123168 -1.6660658331354263 -1.7257773189200654 -1.8221496115237317 -1.6923849453270028 -1.8397719735998308 -1.7302275606943505 -1.8397719735998308 -1.8204712913260082 -1.7891076826310461 -1.8397719735998308 -1.8397719735998308 -1.650625287316368 -1.7818699267783626 -1.7963454384837296 -1.8397719735998308 -1.7094923682515275 -1.7292317023952097 -1.685366515409249 -1.7108083238611063 -1.7181776752747477 -1.6987930769910389 -1.8337225060214684 -1.7340378011432367 -1.5484523005293191 -1.7845018379975202 -1.7150598727535917 -1.8213485950657273 -1.7279611245652715 -1.824182960994051 -1.6979119588872338 -1.832902239231182 -1.7516601632193358 -1.7437764749221336 -1.7415139547512788 -1.8397719735998308 -1.7625692445045398 -1.8045272494476328 -1.8184396405603425 -1.7046671976830718 -1.7384433916622615 -1.749702122988658 -1.8397719735998308 -1.7432685622307171 -1.8195062572123168 -1.6979119588872338 -1.6467651508616037 -1.7451986304580995 -1.7789748244372892 -1.8397719735998308 -1.7239678799568945 -1.8017737553732422 -1.7834783169678479 -1.8085939483882709 -1.8397719735998306 -1.8351661289663048 -1.6746439141460141 -1.6660658331354266 -1.8397719735998308 -1.7239678799568945 -1.7139847684359517 -1.7587091080497754 -1.7587091080497754 -1.7011118088431569 -1.7869048873715339 -1.7164154390671378 -1.8397719735998308 -1.8397719735998308 -1.7094923682515275 -1.8354137550218708 -1.8097486900627733 -1.8397719735998308 -1.6860320561773119 -1.8365294589778285 -1.7934503361426564 -1.7647137647571869 -1.77644160988885 -1.8336308474217964 -1.6739615667928991 -1.7789748244372892 -1.8271059008576347 -1.6979119588872338 -1.7722195856414513 -1.7722195856414513 -1.8159299543204028 -1.693858815609731 -1.7181776752747477 -1.7181776752747477 -1.7789748244372892 -1.824182960994051 -1.6979119588872338 -1.7722195856414513 -1.7181776752747475 -1.8397719735998308 -1.7516601632193358 -1.8397719735998308 -1.7682459157615467 -1.7587091080497754 -1.8351131882233909 -1.8397719735998308 -1.7239678799568945 -1.8397719735998308 -1.7424965349397643 -1.7100713887197421 -1.8397719735998308 -1.7613240391965512 -1.8397719735998308 -1.8397719735998308 -1.7046671976830718 -1.7587091080497754 -1.8327837955351709 -1.7384433916622615 -1.8029252165316239 -1.8085939483882709 -1.8397719735998308 -1.7992405408248031 -1.6573805261122061 -1.7682459157615467 -1.7384433916622615 -1.7789748244372892 -1.7587091080497754 -1.8326611959200012 -1.8011706090521853 -1.7239678799568945 -1.8397719735998308 -1.7476550809293132 -1.8347680930103212 -1.8340633210963058 -1.8397719735998308 -1.8397719735998308 -1.7384433916622615 -1.7660784594634167 -1.7789748244372892 -1.8209201444021434 -1.8172545109470377 -1.8166111548712436 -1.7834783169678479 -1.7818699267783626 -1.8397719735998308 -1.7618269105709312 -1.8397719735998308 -1.8011706090521853 -1.8397719735998308 -1.8397719735998308 -1.7992405408248031 -1.8159299543204026 -1.7789748244372892 -1.7618269105709314 -1.8291058070800867 -1.6979119588872338 -1.7891076826310461 -1.8397719735998308 -1.7384433916622615 -1.7818699267783626 -1.7384433916622615 -1.8397719735998308 -1.8397719735998308 -1.7722195856414513 -1.7891076826310461 -1.7869048873715339 -1.7818699267783626 -1.8322661527155664 -1.8221496115237317 -1.7384433916622615 -1.8069086497281868 -1.83635640342216 -1.8303460590009872 -1.7992405408248031 -1.8397719735998308 -1.7992405408248031 -1.8367696452461251 -1.7516601632193358 -1.822883876610236 -1.7673944150729957 -1.8397719735998308 -1.8235594004898197 -1.7992405408248031 -1.8397719735998308 -1.822883876610236 -1.7476550809293132 -1.8397719735998308 -1.8397719735998308 -1.8397719735998308 -1.7789748244372892 -1.805995779620641 -1.7789748244372892 -1.8397719735998308 -1.8073468273798086 -1.8011706090521853 -1.8358558931384754 -1.8397719735998308 -1.8213485950657273 -1.8085939483882709 -1.7845018379975202 -1.7992405408248031 -1.8397719735998308 -1.8397719735998308 -1.7911342542697974 -1.8045272494476328 -1.6274644685877808 -1.8397719735998308
leaf_weight=2.7139431238174465 17.02382504940033 3.8241925835609427 2.4672210216522208 4.3176367878913906 4.5643588900566154 2.4672210216522243 2.7139431238174421 2.4672210216522208 2.9606652259826731 2.9606652259826687 2.837304174900054 3.0840262770652753 2.5905820727348319 3.8241925835609498 3.2073873281478935 3.084026277065278 3.4541094303131095 4.5643588900566092 4.440997838973999 4.3176367878913871 2.4672210216522208 2.5905820727348328 2.960665225982666 2.8373041749000549 3.5774704813957214 2.7139431238174438 2.4672210216522235 2.7139431238174465 3.2073873281478864 2.713943123817443 2.7139431238174438 4.6877199411392203 2.7139431238174421 4.5643588900566092 2.5905820727348328 4.5643588900566101 2.590582072734831 5.5512472987174979 4.5643588900566128 3.4541094303131095 2.590582072734831 2.8373041749000549 2.5905820727348328 2.4672210216522217 2.7139431238174438 2.4672210216522217 2.5905820727348319 2.7139431238174465 3.8241925835609418 3.8241925835609463 2.4672210216522208 2.4672210216522199 3.330748379230509 3.8241925835609454 2.4672210216522199 3.3307483792304993 3.8241925835609436 3.0840262770652753 3.4541094303131104 8.7586346268653852 2.837304174900054 2.4672210216522199 3.9475536346435547 3.3307483792304993 2.4672210216522217 3.9475536346435529 2.837304174900054 3.5774704813957214 2.837304174900054 4.194275736808776 2.5905820727348328 3.0840262770652798 4.1942757368087795 3.9475536346435529 4.6877199411392203 4.070914685726164 4.1942757368087866 4.4409978389739981 3.3307483792304993 2.5905820727348328 3.2073873281478864 4.3176367878913871 4.5643588900566101 4.5643588900566083 2.8373041749000549 2.5905820727348328 4.5643588900566092 2.960665225982666 4.1942757368087769 3.0840262770652771 3.7008315324783307 2.4672210216522208 3.9475536346435538 12.212744057178506 4.070914685726164 3.2073873281478882 3.0840262770652771 2.713943123817443 2.4672210216522217 2.5905820727348354 3.9475536346435547 2.8373041749000576 4.0709146857261649 4.6877199411392274 4.5643588900566083 2.8373041749000549 2.5905820727348328 3.9475536346435529 4.0709146857261675 3.4541094303131095 3.7008315324783307 4.3176367878913879 3.454109430313113 2.8373041749000549 3.4541094303131104 2.7139431238174465 2.5905820727348319 2.713943123817443 2.4672210216522217 2.8373041749000576 8.2651904225349444 2.837304174900054 3.9475536346435547 2.7139431238174438 3.2073873281478873 2.7139431238174438 3.5774704813957205 3.2073873281478882 2.4672210216522217 7.2783020138740531 2.8373041749000549 4.6877199411392203 4.0709146857261649 2.4672210216522217 2.590582072734831 2.8373041749000532 4.6877199411392212 2.960665225982666 2.4672210216522208 3.3307483792304984 2.4672210216522208 2.5905820727348319 2.4672210216522217 2.4672210216522208 2.5905820727348328 3.7008315324783316 2.4672210216522208 3.0840262770652753 2.5905820727348328 3.9475536346435547 4.4409978389740052 3.2073873281478873 3.5774704813957277 10.855772495269777 3.3307483792304984 3.4541094303131166 10.73241144418717 2.5905820727348319 3.5774704813957205 2.4672210216522208 2.4672210216522199 4.6877199411392212 2.8373041749000549 2.8373041749000549 4.194275736808776 9.3754398822784406 3.4541094303131095 11.472577750682836 3.3307483792305019 9.8688840866088885 3.5774704813957214 15.420131385326384 4.3176367878913862 3.3307483792304984 3.94755363464356 8.1418293714523298 2.713943123817443 2.4672210216522208 3.9475536346435538 2.4672210216522208 2.960665225982666 3.7008315324783316 4.1942757368087751 3.0840262770652762 2.4672210216522217 2.4672210216522217 2.4672210216522217 3.2073873281478882 2.4672210216522217 3.7008315324783316 2.4672210216522208 2.8373041749000532 2.8373041749000549 2.8373041749000549 4.194275736808776 2.4672210216522208 10.732411444187163 15.420131385326387 2.5905820727348328 8.511912524700163 3.0840262770652771 3.0840262770652771 3.0840262770652771 3.8241925835609436 6.6614967584609976 2.4672210216522208 2.960665225982666 2.4672210216522217 7.1549409627914429 4.4409978389739981 4.0709146857261684 3.2073873281478882 8.8819956779480034 2.4672210216522243 2.4672210216522217 4.194275736808776 2.4672210216522217 2.4672210216522208 2.4672210216522217 7.0315799117088407 2.5905820727348319 2.5905820727348328 12.952910363674162 2.713943123817443 9.992245137691496 8.7586346268653887 5.0578030943870544 5.5512472987174988 2.4672210216522217 2.7139431238174421 2.4672210216522208 10.609050393104559 4.440997838973999 4.3176367878913879 4.4409978389739981 2.5905820727348319 10.732411444187163 3.2073873281478873 2.960665225982666 2.5905820727348328 4.0709146857261658 9.8688840866088849 2.4672210216522199 4.1942757368087769 2.4672210216522217 3.2073873281478908 4.6877199411392194 2.4672210216522217 2.960665225982666 3.8241925835609418 2.4672210216522217 2.5905820727348328 2.4672210216522217 3.7008315324783325 16.530380845069885 2.9606652259826651 2.9606652259826651 2.8373041749000549 2.5905820727348319 19.984490275382996 2.837304174900054 2.4672210216522217 4.5643588900566092 43.916534185409546 5.3045251965522766 3.7008315324783316 9.992245137691496 2.4672210216522235 16.653741896152496 2.8373041749000549 2.960665225982666 3.4541094303131095 2.960665225982666 3.0840262770652762 2.4672210216522208 10.238967239856718 2.9606652259826651 2.7139431238174438 4.9344420433044434 6.1680525541305542 5.5512472987174988 2.4672210216522217 2.9606652259826651 2.4672210216522217 3.7008315324783325 3.0840262770652762 2.5905820727348328 25.535737574100494 2.960665225982666 2.7139431238174438 3.2073873281478873 2.7139431238174438 2.4672210216522217 2.7139431238174438 11.225855648517607 3.0840262770652771 2.8373041749000549 2.5905820727348328 6.6614967584609976
leaf_count=22 138 31 20 35 37 20 22 20 24 24 23 25 21 31 26 25 28 37 36 35 20 21 24 23 29 22 20 22 26 22 22 38 22 37 21 37 21 45 37 28 21 23 21 20 22 20 21 22 31 31 20 20 27 31 20 27 31 25 28 71 23 20 32 27 20 32 23 29 23 34 21 25 34 32 38 33 34 36 27 21 26 35 37 37 23 21 37 24 34 25 30 20 32 99 33 26 25 22 20 21 32 23 33 38 37 23 21 32 33 28 30 35 28 23 28 22 21 22 20 23 67 23 32 22 26 22 29 26 20 59 23 38 33 20 21 23 38 24 20 27 20 21 20 20 21 30 20 25 21 32 36 26 29 88 27 28 87 21 29 20 20 38 23 23 34 76 28 93 27 80 29 125 35 27 32 66 22 20 32 20 24 30 34 25 20 20 20 26 20 30 20 23 23 23 34 20 87 125 21 69 25 25 25 31 54 20 24 20 58 36 33 26 72 20 20 34 20 20 20 57 21 21 105 22 81 71 41 45 20 22 20 86 36 35 36 21 87 26 24 21 33 80 20 34 20 26 38 20 24 31 20 21 20 30 134 24 24 23 21 162 23 20 37 356 43 30 81 20 135 23 24 28 24 25 20 83 24 22 40 50 45 20 24 20 30 25 21 207 24 22 26 22 20 22 91 25 23 21 54
internal_value=0 0.206143 0.700858 1.55299 3.19146 0.871823 4.69059 -0.236866 1.63194 0.227871 2.39479 0.423896 0.397005 0.238764 0.90128 1.43453 0.334218 1.91293 2.6003 2.62859 2.75728 2.44734 1.57174 2.62602 1.71145 2.62602 0.103026 -0.372402 0.693845 1.12718 1.93105 2.3651 2.63658 1.8258 3.69536 1.02248 -0.528587 0.36697 0.221717 1.04619 1.43718 0.766044 2.57295 3.07774 2.7005 4.76302 -0.140422 -0.076094 0.002693 -0.0505572 0.324356 0.626753 0.551105 0.427458 0.758958 1.74154 1.06781 -0.0234547 0.574877 -0.0722773 -0.396383 0.2243 0.76849 1.70257 1.53369 0.784912 1.18726 -0.175804 0.390491 0.5843 1.48456 -0.41694 -0.0602092 0.218597 0.702271 0.203423 -0.14189 1.01676 1.49948 2.20921 0.281058 0.0255387 0.470094 -0.161418 -0.0875722 0.770049 -0.145287 1.89396 5.53679 4.86819 0.221239 -0.206648 -0.00409285 -0.134077 0.468436 3.36157 1.81812 1.59118 1.19592 0.458874 -0.122438 0.766044 0.557444 -0.655944 -0.345116 0.101249 0.474756 -0.315117 -0.468051 -0.217836 0.487713 1.20112 -0.162113 -0.0103695 0.426269 -0.115909 0.203046 -0.198973 0.25019 -0.462288 -0.0452503 -0.318101 3.83841 0.972873 -0.357782 0.351518 -0.503228 0.0325209 0.538176 -0.357782 -0.30604 -0.0947301 -0.560439 0.05518 -0.379303 -0.524453 -0.0239935 0.556331 -0.40301 -0.52143 0.0867565 0.17332 0.923534 -0.030686 1.72669 -0.296767 -0.492887 -0.689006 0.158073 0.293379 -0.227328 -0.58939 -0.154149 -0.0466018 0.466191 0.257696 -0.583822 -0.258521 -0.0875722 0.478856 0.79675 0.390491 0.957829 0.320499 -0.186414 -0.53414 -0.501918 -0.282037 -0.006112 -0.171736 0.713406 -0.866313 -0.435395 -0.789612 -0.256453 -0.171736 0.00249762 -0.187811 0.11423 0.375644 0.131654 -0.661768 0.226934 0.469223 0.0365781 -0.236653 0.139055 0.0325209 0.452847 -0.698481 -0.29988 0.0569585 -0.308653 -0.414337 -0.613297 -0.615709 -0.806523 -0.792169 -0.30374 -0.668022 -0.200496 0.680392 -0.506673 -0.172902 -0.606936 -0.435639 0.351518 -0.357782 -0.685893 -0.644334 -0.498334 0.269802 -0.608068 -0.315117 0.666975 -0.695051 -0.255026 -0.881462 -0.324006 -0.800739 -0.417828 0.375644 -0.836186 -0.585224 -0.847369 -0.631965 -0.769741 -0.747305 0.0205116 -0.906917 -0.81209 -0.78414 -0.29988 -0.284088 -0.695365 -0.821988 -0.854213 -0.815963 -0.357782 0.21559 -0.67712 -0.943236 -0.718061 -0.284088 0.655504 -0.694583 -0.534245 -0.0809818 0.673927 -0.709564 -0.267712 -0.70074 -0.702532 -0.357782 -0.91723 -0.76493 -0.88037 -0.63974 -0.764285 -0.81376 -0.604049 -0.0373007 -1.01829 -0.94702 -0.54485 -1.01062 -0.833638 -0.728534 -0.85663 -0.391095 -0.195656 -0.776171 -0.38896 -0.926432 -1.01689 -1.01101 -0.815963 1.14767 -0.830648 -0.936802 -0.922765 -0.431475 -0.999529 -0.414337 -0.844159 -1.06203 -0.868178 -1.00821 -0.63974 -0.396383 -0.997752 -0.478514 -0.791374 -0.782397 -0.980982 -0.772982 -0.868178 2.69173 -0.936802
internal_weight=0 921.754 435.465 155.435 45.6436 109.791 12.4595 486.289 40.7091 280.03 22.4517 69.0822 218.472 166.291 52.1817 26.8927 25.289 21.0947 14.0632 33.1841 19.6144 17.1472 8.75863 5.79797 9.37544 5.79797 142.359 61.5572 18.2574 13.9398 8.38855 28.8665 24.1788 13.6931 10.4857 9.12872 359.474 76.8539 59.7067 23.932 17.2705 10.8558 6.41477 5.18116 5.42789 5.0578 425.102 354.293 284.347 270.161 52.9219 35.6513 61.0637 55.1424 35.2813 9.62216 7.15494 21.8349 11.4726 39.2288 69.9457 28.003 13.9398 5.92133 5.55125 20.4779 14.4332 6.04469 25.6591 22.8218 6.78486 250.176 48.7276 32.444 17.6406 16.0369 217.239 14.1865 9.74552 5.92133 18.6275 15.9136 11.5959 19.8611 5.55125 5.67461 12.7062 5.55125 9.99225 5.79797 12.9529 65.5047 45.5202 41.5727 12.8295 8.38855 7.03158 11.5959 8.882 33.1841 11.4726 21.7115 19.121 42.9296 15.7902 10.239 9.12872 14.0632 67.1084 37.8718 11.4726 8.01847 214.648 10.3623 7.52502 197.624 40.8325 156.792 4.93444 70.8092 20.4779 17.6406 8.38855 6.53814 14.8033 5.92133 201.449 6.6615 7.03158 25.9058 5.79797 18.6275 14.8033 6.53814 13.9398 26.3993 10.4857 5.79797 28.7431 26.2759 38.2419 35.7747 7.64839 28.1263 5.18116 22.9452 19.2443 22.9452 6.78486 7.52502 154.078 25.9058 128.172 102.513 29.9767 26.646 25.6591 72.5363 55.5125 23.0685 16.2837 12.8295 7.52502 6.04469 51.935 193.924 184.548 62.0506 33.5542 30.1001 6.90822 19.8611 23.1919 13.1996 49.3444 45.1501 33.3075 30.5935 19.491 15.5435 13.0763 11.8427 15.05 12.2127 9.12872 10.7324 7.64839 9.99225 6.78486 17.0238 17.2705 10.6091 8.14183 5.30453 122.498 16.2837 13.8164 29.2366 9.25208 19.9845 8.26519 7.03158 6.04469 7.03158 28.4964 21.8349 7.89511 4.93444 10.3623 118.303 61.1871 7.64839 53.5387 23.4386 6.53814 16.9005 8.75863 13.9398 5.92133 57.1162 13.323 5.18116 30.1001 17.1472 12.4595 50.3313 7.52502 9.4988 9.25208 61.1871 11.2259 109.298 6.90822 6.78486 46.5071 14.4332 15.9136 17.0238 6.16805 5.0578 8.14183 13.323 11.1025 6.78486 4.93444 78.0875 36.2681 10.1156 5.42789 26.1525 8.882 6.41477 10.7324 6.16805 43.7932 27.2628 24.3021 5.67461 42.0661 39.4755 19.491 5.30453 19.9845 58.7199 8.01847 50.7014 41.8194 31.8272 25.6591 9.00536 6.16805 22.9452 6.41477 16.5304 13.1996 12.7062 14.1865 5.18116 8.882 8.63527 8.14183 5.42789 11.8427 5.30453 6.16805 47.0006 6.6615 31.2103 5.67461 5.18116 11.7193 5.79797 5.30453 5.18116 21.3415 10.1156 6.6615 5.18116 17.2705
internal_count=10386 7472 3530 1260 370 890 101 3942 330 2270 182 560 1771 1348 423 218 205 171 114 269 159 139 71 47 76 47 1154 499 148 113 68 234 196 111 85 74 2914 623 484 194 140 88 52 42 44 41 3446 2872 2305 2190 429 289 495 447 286 78 58 177 93 318 567 227 113 48 45 166 117 49 208 185 55 2028 395 263 143 130 1761 115 79 48 151 129 94 161 45 46 103 45 81 47 105 531 369 337 104 68 57 94 72 269 93 176 155 348 128 83 74 114 544 307 93 65 1740 84 61 1602 331 1271 40 574 166 143 68 53 120 48 1633 54 57 210 47 151 120 53 113 214 85 47 233 213 310 290 62 228 42 186 156 186 55 61 1249 210 1039 831 243 216 208 588 450 187 132 104 61 49 421 1572 1496 503 272 244 56 161 188 107 400 366 270 248 158 126 106 96 122 99 74 87 62 81 55 138 140 86 66 43 993 132 112 237 75 162 67 57 49 57 231 177 64 40 84 959 496 62 434 190 53 137 71 113 48 463 108 42 244 139 101 408 61 77 75 496 91 886 56 55 377 117 129 138 50 41 66 108 90 55 40 633 294 82 44 212 72 52 87 50 355 221 197 46 341 320 158 43 162 476 65 411 339 258 208 73 50 186 52 134 107 103 115 42 72 70 66 44 96 43 50 381 54 253 46 42 95 47 43 42 173 82 54 42 140
shrinkage=1


Tree=1
num_leaves=300
num_cat=0
split_feature=9 22 15 18 5 9 7 10 5 5 12 14 5 25 15 14 14 9 11 5 11 15 14 28 23 18 23 1 1 15 1 15 22 1 1 12 1 15 9 14 5 18 14 1 15 7 18 18 24 7 11 15 25 24 12 10 10 7 5 25 18 7 14 11 28 14 15 14 18 5 15 1 9 16 14 12 15 10 5 11 7 11 28 7 7 11 23 18 18 1 28 18 22 18 25 15 14 12 23 12 24 24 5 11 10 5 16 9 14 9 18 14 14 1 24 23 24 18 16 7 7 24 11 11 9 12 9 1 5 24 10 18 7 1 12 18 18 9 12 24 14 16 12 15 10 18 5 28 15 1 10 5 9 10 7 5 5 1 5 18 31 14 18 11 7 16 14 11 14 23 16 18 11 5 15 7 9 18 1 1 28 9 15 16 7 22 11 1 16 5 25 5 11 16 7 24 1 18 10 12 7 11 23 24 9 10 28 1 12 14 15 10 16 24 12 14 1 16 15 1 16 12 5 7 1 25 12 1 15 7 16 7 16 5 18 12 12 15 15 28 10 18 11 16 10 5 1 10 7 25 10 11 11 11 1 11 12 1 7 10 14 14 5 1 5 5 11 16 7 12 14 14 15 10 18 14 11 11 1 16 16 5 24 24 14 14 28 9 18 22 18 9 15 18 22 18 5 25 10
split_gain=83.5137 173.104 106.313 62.7349 61.713 34.5127 30.7112 29.691 33.3673 26.1333 24.5825 24.0769 16.0923 14.4639 14.3089 11.7108 15.328 11.7004 11.1725 30.5449 16.6397 12.5035 12.618 11.5208 10.3829 9.639 8.40023 11.8965 8.2984 8.73325 8.12 8.00823 12.8626 7.97245 17.6463 8.82273 7.85186 8.94826 7.62574 7.47868 8.20584 7.25182 13.8089 13.3815 7.19201 9.24922 7.14571 8.30394 7.0253 8.91665 14.1309 15.8627 7.75536 7.35862 10.3022 9.21117 8.82949 7.57421 9.49044 7.79795 7.27258 10.3195 11.5992 11.8046 7.01172 7.33796 6.9486 6.91281 6.87601 6.81344 6.77358 6.54092 7.00381 6.35598 6.32336 6.06768 5.85832 6.1754 6.61161 6.63934 6.25212 5.8411 5.62593 5.5219 16.8934 12.8696 6.28722 6.31224 9.44498 7.58988 6.51121 8.13179 5.35728 10.91 15.4379 10.292 16.8141 8.42021 7.5968 14.3892 6.8364 14.8361 6.90787 14.1345 11.9621 16.4842 10.7059 11.0488 10.4736 9.42565 10.1694 9.3471 9.26953 6.72336 7.62375 5.29722 6.66387 6.03509 7.10597 6.05104 5.28857 8.51884 7.41054 6.342 6.0817 5.96114 5.6271 6.91383 6.17266 5.01495 4.99209 6.0326 4.96649 4.86408 11.9808 4.85882 7.96447 4.69451 4.59848 6.27833 4.48351 4.30944 4.30434 4.19196 10.6182 10.4369 4.15369 4.10651 4.45609 4.42384 6.02188 5.74733 4.08838 6.26559 4.07851 5.32926 6.81443 6.42859 4.03703 3.8863 3.80519 5.06864 3.77785 5.01372 5.25055 3.70943 3.68982 3.59814 3.52125 3.46533 4.01896 7.70548 4.80834 4.22536 3.57891 3.29935 3.12311 4.98993 3.10665 2.98893 2.98144 2.97306 4.03004 3.85337 3.50657 2.94968 2.84289 2.84206 2.82108 3.22438 2.9164 3.14728 2.77607 2.7033 2.68474 3.07325 6.47433 4.02107 2.60503 2.60152 2.79055 7.41002 4.46167 4.27458 4.48687 3.47466 2.54219 2.53495 2.52887 3.00994 2.48276 2.43076 2.41591 2.35049 2.96018 4.53348 2.6613 2.33469 5.56854 3.39698 2.26944 2.24339 2.67872 2.21618 2.15562 2.13921 2.10954 2.46369 2.35351 4.10142 4.16088 2.0628 6.52993 2.19576 2.03862 2.03145 3.41507 1.94929 1.88741 1.94482 3.32666 4.9955 1.92764 1.84381 1.84048 1.75202 4.79296 6.72559 2.46754 1.72406 4.00644 1.70313 3.46039 1.69881 1.67457 1.59248 1.48703 1.4747 5.74091 1.6034 1.46894 1.46124 1.80061 2.31813 1.42152 2.89805 1.37888 6.37564 1.35199 1.33268 1.30652 1.28379 2.67268 1.27328 1.2598 1.25907 2.52401 1.23568 1.22888 1.15152 3.19709 4.60301 2.32421 1.07566 1.06702 1.06262 1.01545 1.00842 0.973044 0.966943 1.17432 0.962221 0.954853 0.951649 0.917643 0.911258 0.896128 0.866602 2.00058
threshold=11.980083340000002 8.9704119915000025 -0.24999999999999997 9.2249768520000011 6.4118440215000012 37.310841140000008 2.6693610910000003 1.0000000180025095e-35 1.5124779840000002 12.345439720000002 1.5313725490000003 1.9719937330000004 1.8241103395000002 6.338295403500001 -0.57499999999999984 2.1975609755000005 2.5979411750000003 5.7861605230000004 194.56609795000003 2.4518709035000001 328.72393865000009 -0.69499999999999984 1.9719937330000004 9.5025630230000022 36.813903865000007 10.908999160000002 25.403255310000002 637.28376495000009 281.45698810000005 -0.98499999999999988 1336.4583880000002 -1.2249999999999999 60.050088345000013 158.3482539 174.62357940000001 1.2696969700000003 808.26140155000019 -2.7649999999999992 36.33998337500001 2.1167945440000007 4.4598689315000009 10.138147910000002 1.9719937330000004 128.93715145000002 -2.4749999999999996 8.3643281000000016 10.230271635000003 11.128742670000003 12.058503625000002 1.9060466025000002 175.07115355000005 -0.74499999999999988 6.4465212440000004 18.544263175000001 1.6220238095000001 12.460839720000001 33.884997100000007 3.7099530635000004 2.2733091345000003 6.0541039490000008 10.486180555000002 0.97418232300000007 2.6220238095000004 148.04480145000002 13.854495515000002 1.8775000000000002 -0.66499999999999992 2.3726851850000004 11.906104125000002 6.8901122730000006 -1.3149999999999997 1037.3590150000002 12.0422089 156.09550000000004 2.4193996415000005 1.4900000000000002 -1.0000000180025095e-35 6.6621990605000017 1.9286987675000002 146.01826085000002 1.6269715910000002 177.95103020000002 14.281590540000002 1.2223663005000003 1.3603896355000002 167.07422755000002 5.5682780110000012 9.1187962965000029 10.332885865000002 374.53953515000006 4.7607000690000012 10.100967970000001 14.786028880000002 12.621609750000003 12.440437915000002 -1.5549999999999999 2.3982758620000006 1.1605882355000003 5.3595821095000007 1.0560796650000002 52.520865160000007 92.203338285000015 4.3937584170000008 358.09467315000006 6.4154584645000012 3.0135276630000001 264.66850000000005 44.908839215000008 2.6273148150000005 84.006457460000021 12.270151175000001 2.7752525255000005 2.4158805035000004 816.28820465000001 5.9179394875000009 12.137560660000002 15.807151160000002 10.175166890000002 241.18200000000004 2.9348709115000005 2.0684549745000003 13.596016610000001 294.22986255000006 308.18946065000006 24.135184375000005 1.5823643410000001 29.915815155000004 218.47931380000003 2.4314421650000004 5.9179394875000009 12.223308590000002 12.165057545000002 1.0367807620000002 72.064573185000015 1.8516483515000002 10.668243890000001 11.451063110000002 17.913120855000003 1.1206060605000003 13.172158065000001 2.4264069265000003 210.58650000000003 1.3489130435000003 -1.095 11.139471595000002 11.172993895000001 2.6139967235000001 20.832646235000002 -0.57499999999999984 714.35951345000012 11.509698475000002 4.5191953405000005 18.618390140000002 6.1849831050000015 3.0660138100000007 3.6177609715000005 2.8460839785000003 233.28105010000002 8.4197156995000011 10.382313045000002 1.0000000180025095e-35 2.6892045455000004 10.367879310000001 239.04635815000003 2.5718090325000005 144.06150000000005 2.2958333335000005 266.59750510000009 2.2480769230000006 31.680552940000002 791.70650000000012 12.746645705000002 876.23855230000015 11.912825465000003 -2.8049999999999993 11.118149480000001 70.306290205000025 12.660294030000001 348.34413650000005 265.18091455000007 22.943290965000006 49.413480730000011 -1.5349999999999999 240.20750000000001 2.9176544670000006 5.6576648585000013 175.56388965000002 1237.4006185000001 121.09550000000002 1.8887364890000002 11.798053575000003 2.1682406825000005 379.12074435000005 200.08150000000003 1.1510132730000002 1.0000000180025095e-35 305.4822109000001 11.089181205000001 17.031412380000003 0.99137931050000005 2.2672662205000003 215.10968375000002 22.603921890000002 18.124870695000002 6.0589304680000007 11.279808250000002 9.5602372530000022 130.71367205000004 1.3118055555000001 2.1647619050000002 -1.7649999999999999 6.5584466480000012 318.66200000000009 6.9857045915000002 1.2845238095000002 1.7393887945000002 134.18601610000002 99.056500000000014 -0.57499999999999984 129.83758305000003 550.41200000000015 1.8660714285000002 0.54399407850000014 3.8576072655000004 212.93133455000003 6.6621990605000017 1.0620192310000001 1924.4785290000002 -2.4749999999999996 12.008681650000002 843.31650000000013 0.9077673715000002 136.08750000000003 1.9335523805000003 9.7506828705000022 1.2512500000000002 1.1796590910000002 -1.6449999999999998 -1.095 48.730146160000011 42.172145955000005 12.663664225000002 606.07936135000011 170.10500000000005 6.1849831050000015 4.1617302025000003 577.30645460000017 16.874118295000006 1.3417607915000003 12.273992495000002 12.736360150000001 118.52725880000001 92.052626460000013 177.95103020000002 431.16570870000004 1016.4824635000001 1.0620192310000001 188.09171155000004 0.75716244950000011 6.3481279145000009 2.2958333335000005 2.1081871345000005 0.62703604650000011 70.082040135000014 7.107879725500001 5.8966094995000011 130.11306580000004 126.08250000000001 8.2348315635000002 1.1647286825000003 2.6580995475000004 2.2826923075000001 -1.1049999999999998 12.158070340000002 10.502525040000002 2.3536857785000005 302.61906190000008 880.13907800000004 56.240914015000008 95.505500000000012 83.032000000000011 0.87223720550000017 6.7513364420000004 12.722561280000003 2.3070719605000005 2.2958333335000005 13.854495515000002 33.271329950000009 12.127435895000001 23.053992490000002 3.7894624920000006 36.35254302500001 -2.3349999999999995 10.100042045 122.23353685000002 9.8530342970000024 2.8460839785000003 1.0000000180025095e-35 12.158070340000002
decision_type=2 2 2 2 2 2 2 2 2 2 2 2 2 2 2 2 2 2 2 2 2 2 2 2 2 2 2 2 2 2 2 2 2 2 2 2 2 2 2 2 2 2 2 2 2 2 2 2 2 2 2 2 2 2 2 2 2 2 2 2 2 2 2 2 2 2 2 2 2 2 2 2 2 2 2 2 2 2 2 2 2 2 2 2 2 2 2 2 2 2 2 2 2 2 2 2 2 2 2 2 2 2 2 2 2 2 2 2 2 2 2 2 2 2 2 2 2 2 2 2 2 2 2 2 2 2 2 2 2 2 2 2 2 2 2 2 2 2 2 2 2 2 2 2 2 2 2 2 2 2 2 2 2 2 2 2 2 2 2 2 2 2 2 2 2 2 2 2 2 2 2 2 2 2 2 2 2 2 2 2 2 2 2 2 2 2 2 2 2 2 2 2 2 2 2 2 2 2 2 2 2 2 2 2 2 2 2 2 2 2 2 2 2 2 2 2 2 2 2 2 2 2 2 2 2 2 2 2 2 2 2 2 2 2 2 2 2 2 2 2 2 2 2 2 2 2 2 2 2 2 2 2 2 2 2 2 2 2 2 2 2 2 2 2 2 2 2 2 2 2 2 2 2 2 2 2 2 2 2 2 2 2 2 2 2 2 2 2 2 2 2 2 2 2 2 2 2 2 2
left_child=4 2 7 11 12 76 64 8 133 33 18 -4 73 15 17 -12 -17 44 19 38 28 22 -21 -24 48 39 268 -28 29 -20 -11 36 83 152 35 186 188 -38 41 -8 -41 42 -10 -44 45 -6 -22 82 49 50 52 142 60 54 185 57 212 58 -55 -60 61 207 63 137 65 -7 193 -37 -49 -46 -61 72 -51 160 -39 -75 77 78 79 -5 -80 -13 -48 132 85 140 87 -86 89 90 -89 -92 120 94 100 98 129 -98 130 -100 102 -102 104 275 154 166 112 -108 109 110 192 -110 -107 -111 158 285 165 118 -118 -119 121 125 -122 -124 -123 126 271 128 -128 -97 131 288 138 278 217 296 -137 -63 -33 295 -85 -74 -52 144 -71 -145 -144 148 149 151 -151 167 251 231 155 156 157 243 260 -43 257 213 -67 -164 -165 -117 -106 254 -82 170 173 172 174 180 -172 -176 177 235 287 -168 -95 182 -30 -184 -185 -50 -35 -160 -14 -190 191 224 -105 -31 -193 196 -196 -198 -187 -197 203 -202 205 204 208 -203 -59 211 209 -201 -210 -9 -57 214 215 -162 221 218 -135 -219 294 261 -223 -34 -191 -19 228 -228 -32 -230 -231 234 -233 -234 -154 236 264 -211 239 242 241 -241 -182 -94 -224 248 247 -247 -192 250 -250 252 -3 -40 -143 -232 -83 259 -259 266 -115 262 -216 -264 265 286 279 -268 -16 -253 -153 -36 -273 -215 284 276 -104 -171 -2 280 289 -282 -283 -260 -166 -88 -125 -129 -96 290 -1 -25 -132 -54 -194 -140 -90 298 -205
right_child=1 9 3 5 14 6 25 24 10 30 13 81 31 -15 26 16 -18 225 20 21 46 -23 23 291 -26 -27 27 -29 181 66 226 32 223 34 92 67 37 74 253 40 -42 159 43 -45 69 -47 47 68 53 71 51 -53 293 55 -56 56 -58 206 59 70 -62 62 -64 -65 -66 162 -68 -69 -70 143 -72 -73 141 75 -76 -77 -78 -79 80 -81 168 256 -84 84 86 -87 115 88 135 -91 91 -93 93 169 95 96 97 -99 99 -101 101 -103 103 108 105 106 107 -109 111 113 -112 -113 -114 114 -116 116 117 119 -120 -121 122 124 123 176 -126 -127 127 178 -130 -131 292 -133 -134 134 -136 136 -138 -139 139 -141 -142 147 146 145 -146 -147 -148 -149 -150 150 -152 270 153 -155 -156 -157 -158 -159 187 -161 161 -163 163 164 274 -167 179 -169 -170 277 171 -173 -174 -175 175 -177 -178 -179 -180 -181 238 -183 183 184 -186 198 -188 -189 189 190 245 194 220 -195 195 199 197 -199 -200 200 201 202 -204 297 -206 -207 -208 -209 210 237 -212 -213 -214 273 216 -217 -218 219 -220 -221 -222 222 244 -225 -226 -227 227 -229 229 230 255 232 233 -235 -236 -237 -238 -239 -240 240 -242 -243 -244 -245 -246 246 -248 -249 249 -251 -252 269 -254 -255 -256 -257 -258 258 283 -261 -262 -263 263 -265 -266 -267 267 -269 -270 -271 -272 272 -274 -275 -276 -277 -278 -279 -280 -281 281 282 -284 -285 -286 -287 -288 -289 -290 -291 -292 -293 -294 -295 -296 -297 -298 -299 -300
leaf_value=-0.025472315301470372 -0.058272468457769011 -0.045389551008737386 0.07496281697861984 0.051768422547841697 0.035687057267455295 0.057108465209761594 -0.0090858637073842601 -0.021168670898225939 -0.058427494637287705 0.036042345472348428 0.049227378393107674 0.16824139116057055 -0.058164247425398434 0.035450423510474068 0.05899524525529326 0.22904237607676117 0.09710585770168749 -0.0017271613357259204 -0.031372902875726541 -0.0029277046857262099 0.12259872471027203 0.20059119885734358 0.051938580314950349 0.18945901777231139 0.095500030861044097 -0.043946499646268664 0.19374534350100375 0.062420298075775954 -0.058499395951908284 0.057348003224993921 -0.058057706240007612 0.063826758628560104 -0.051524261994214074 -0.03832026582732747 -0.052459145806144115 0.13181413806041806 -0.058281241750344409 0.092094883882419695 0.10394554273461346 0.034577439606146912 0.15440610826421056 -0.049325411019096273 0.015718425638952371 0.16557843374088965 0.091312332932654366 0.15614850069936448 0.053309910137566419 0.14867194053124186 0.0010695136146002414 0.073328335605917006 0.082097763058990136 0.16162340693536323 -0.017588028808983622 -0.027740409952133279 0.046314944197895613 -0.058411648832876674 0.059549725095407735 -0.058579200843443605 0.11729515211906319 0.076025958758321924 -0.058248417952357967 -0.00056157158961022541 -0.022916571347468537 0.16794280944015927 0.047232042318080175 0.10193658466120553 0.0027073635681088204 0.041126228752828148 0.038755330644987103 0.048511059097089304 -0.024017065385757264 0.059270764663690328 -0.050178940790588128 -0.037722719985358165 -0.0055835964489332869 0.071125910978404303 -0.035820030493344389 -0.04061812377018998 0.11210663548385542 -0.058167775128996936 -0.007429950848894422 0.22346745905319959 -0.042032310394734096 0.069576601780879654 -0.04477187349847471 0.1600269650096201 -0.020915483835064495 0.13073571887540239 -0.017632702698498658 -0.01869587510281016 -0.019551289473814921 0.10389677453911467 0.0031967322477361327 0.022684729401375461 0.0025673168397109692 0.056336664348757372 0.17720963234539747 0.062612226404025612 -0.01980101237075195 0.14528710449173676 0.11802339968141062 -0.039890040334254126 0.00088816059014358594 0.0074531564107732972 0.034205495711209032 0.18721204243099579 -0.041284410529193183 0.10190859949561998 0.10035341731087749 0.069044963214227151 0.060820722487284706 -0.019560054825956883 0.066494447865027617 -0.058272685031381999 0.081139603904081717 0.009499361275430258 0.01050510424454152 0.043875200642699973 0.11115739294544297 -0.058356402661582089 -0.055217620025639319 0.00080823984930808446 0.063117579929390322 -0.017071167219564906 0.10900210841472241 0.062369796712498454 -0.008783042461040079 -0.058398035342317835 0.089512305671531039 -0.028971815337391391 -0.058688445652978705 0.057649743983471294 -0.044277514744962498 0.062497356577319023 0.072793138689041414 0.064317609084625957 -0.04148014981307438 0.094505939316152712 -0.018925638744974303 0.048456665054750762 -0.0051507079557960266 0.012927038099993911 -0.02656682679767914 -0.025812662236908132 -0.050826234431800565 0.10148287948239879 0.052588020662160367 -0.058465875726931953 0.053744620082201461 -0.025813438721086681 0.065664365898447638 -0.047624818000760218 -0.0052055269677628224 0.057509529080543111 -0.058248130869114949 0.049165833106514692 -0.051904871823466807 0.055999262390022786 0.055754227502293842 0.020386058102614697 -0.037618861199798126 0.026184891654497989 0.19696067962398905 0.083313780288160943 0.14948509203584456 -0.051627844587435447 -0.058384622550201652 0.043622030441313686 0.06897067265517276 -0.058216774934189842 -0.039785885038291724 0.078110972615363788 -0.048816819712284375 0.035305634843866451 -0.0010021648063083279 0.065710333503438204 0.029697539712713095 0.042180019492357411 0.022873291805325862 0.0071193141907339615 -0.058186044622222946 -0.05835959724699491 0.052603431131419777 -0.05888531058347321 0.014704127302102672 -0.052738989754869604 0.036307812847272025 -0.0137401999071649 0.02798748351421973 -0.0090949851269158163 0.0033363481746169401 0.030902874696943028 -0.052832188452407884 0.12744090665493021 0.065293142801176901 -0.051193063736826507 -0.058438980126621833 0.019279874712522571 -0.0079322733758014664 0.044357072289478452 0.066562218502217926 0.0074425516790023773 0.042887540778544044 -0.050268104853123587 0.032124422849973903 -0.051423886163111179 0.010301938237249572 -0.042775318315210933 0.0004262085824180447 0.0090539614334033871 -0.0486586989380439 0.044838618662765062 -0.0039284797669681603 -0.05434327871414224 -0.058087794367854023 0.057539450946647752 0.019340419970070355 -0.058529528896087583 -0.040416031576572212 0.0079501139939409781 0.0018122561995217012 -0.044264596007420574 0.042996598293696925 -0.0021415975506263569 -0.058159622608752605 -0.048948369938549299 -0.047474743200872999 0.0064233400507656153 -0.058125536714018579 0.045672091328018111 -0.058026341910028506 0.065309207789627247 0.0039331773526082641 -0.058586293260317404 -0.058208985045277321 -0.052249477615856535 0.026938195413022656 -0.038563147463779895 0.00047528384556312772 0.052123652199700166 -0.058233882599393209 -0.041477897627789764 -0.017088653778710064 -0.058292845061370384 -0.018048026204762709 0.0534007119755361 -0.058322307804807905 -0.044000896492793845 -0.05822787589139708 -0.058273464773571364 0.022256835070528919 -0.017581900269239902 0.010076616988465402 0.048546988261054025 -0.041225364188708341 -0.0058489845934697714 0.26961864060892876 0.039888887354105833 -0.058163234293137404 -0.056097205742519467 -0.013722752055070401 -0.053887655930266724 0.015667863303582785 -0.038016267855222302 -0.058198381760433307 0.014677547129110714 0.044833733962802921 -0.058108128842534912 0.012144337329983169 -0.058196255068354352 -0.01499714836670903 -0.047271140120929644 0.0155690465789949 -0.022748048124186425 0.12670537355014219 -0.058311936284445115 -0.051452397530146236 -0.016863644541019556 -0.022237028931264714 -0.058096777000147697 0.045972641465148296 -0.058094144775309289 0.0037688482720257205 -0.01906480378820755 0.19072574644387785 -0.058150165658195287 -0.058277884385530679 -0.017822723138203572 -0.040645702485187778 -0.015913884924580585 -0.052745530806367416 0.14676399980475305 -0.017791329428431858 -0.058565380472483941 -0.021659565526060034 -0.058055820607780986 -0.058473733319289102 -0.05835571876554943 0.0030390648459008964
leaf_weight=4.5868329703807822 4.134835861623289 7.8310720175504702 4.0936541631817809 2.7206989750266137 4.2274088039994231 3.0081130862236085 3.0217161104083043 2.6905700191855519 2.4617342203855568 3.178333491086959 2.7765799611806896 3.9368625506758672 6.3872245326638213 4.7785223573446265 3.3985356464982015 4.6772789880633336 4.1586650684475899 4.3910198062658292 3.6522441655397406 2.6798838153481475 4.1297183856368092 3.4530281573534003 3.6039344295859319 2.6137400344014168 3.2344710454344741 3.4488055557012549 2.9669425562024117 4.1181038320064545 3.0941869914531734 2.5770971551537505 32.009660743176937 2.4547412991523769 15.14156272262335 2.4767332077026358 8.4559480324387568 3.9338655024766904 2.5532004311680794 3.982343561947344 2.7570798173546782 3.2062735110521317 2.5770028829574585 5.4460624605417234 3.3640394881367683 2.6734045147895813 3.000894218683249 2.5575303435325623 3.1270780414342862 2.6516893208026886 4.1982592046260896 2.6502436101436606 3.9057216569781286 3.6247164830565444 2.4518069773912421 3.2777051702141788 4.2835744693875304 7.8667419627308828 2.5346768870949736 2.4907997921109191 4.825969919562338 4.0883187875151616 2.4260693415999404 2.5908489152789098 2.8204368948936454 3.3068086206912994 2.8239009678363791 4.9529263675212887 3.2584254071116474 4.5109197646379471 3.0701972544193268 4.6492077112197894 2.8865145221352595 4.2290497049689284 5.8895550966262809 2.4330619871616355 2.837386280298233 2.7023184895515442 4.4258729442954055 2.7653572708368293 4.0923940837383253 2.7732292413711548 2.9177499935030937 3.8719230517745018 3.0626373067498207 4.2980848699808103 3.6780110374093082 2.7446254715323439 2.6768514961004239 3.6923926547169703 2.4543088972568494 2.5041586607694617 2.5754002258181572 2.7675330713391304 2.4389578104019254 2.4654217660427085 2.459741987288 3.4816380292177183 3.6055389642715454 2.8859360814094543 2.588679075241088 2.6930439248681068 3.3863808363676062 2.6523578390479088 3.3634757027030009 3.0422084480524125 3.2337495535612124 2.848956495523451 2.9316750168800354 2.4924302771687508 4.4014647156000128 4.7046496272087124 2.9251782968640319 2.5763325095176697 3.5992051884531975 4.1355145797133428 2.5040724575519553 3.6824889034032839 4.3457020223140699 2.4459142684936523 2.9397718235850334 3.5457119345664978 16.30991455167532 2.5198968201875678 2.467661276459693 2.428087174892438 2.6804693564772606 2.4817331731319419 3.0315634757280341 4.0539707094430906 3.3755118846893311 3.4101079851388931 3.3969437032938004 4.7204602137207985 10.654318191111086 2.4783382415771484 4.9397189021110526 4.4763750210404396 2.9519429057836533 2.6034661084413528 2.543915927410124 2.8093667328357697 3.7659900784492493 2.7871042490005475 3.0820399895310402 3.0344163030385962 6.3838467225432396 3.4307506829500198 3.5854373350739479 3.2049476876854888 3.5535692423582139 3.0336747094988814 4.420499250292778 9.2428062185645086 2.8214994296431604 3.0124692991375914 4.3665486648678771 3.7152117267251006 7.6436229795217505 4.3636215850710869 2.6232642903923988 3.1588806733489037 2.4249950200319281 4.1431586220860472 4.4795361310243633 3.4977600127458564 3.5817927718162519 7.6122700273990631 4.0504743307828903 4.8885819613933563 3.1217268407344818 7.1407033652067167 2.6927154362201691 2.9318411871790877 5.3214133381843558 2.6720356270670882 4.3667578324675578 3.2199366092681885 2.8362123295664778 2.4823524728417388 2.4604493826627731 3.0549540296196938 13.160143435001379 3.9187708124518386 3.1443820074200612 2.6763305068016052 4.0967267230153084 18.014019399881366 2.6325457543134689 3.3499688282608986 2.900849185883998 3.047572284936904 2.4342151135206249 2.8025173470377913 18.02840821444989 2.9504372105002403 3.2301923185586912 7.1304498314857474 3.4508983269333839 3.2146337479352951 3.9563404247164717 2.4354818835854593 3.2004747167229679 3.7978557571768743 2.4666084349155417 6.2907536998391169 4.4192581400275222 7.3740416690707207 2.8980425596237183 3.1975764632225037 3.4065266996622023 3.721839912235736 10.569087088108066 2.8960161730647087 2.7445390969514847 12.94189063459635 3.7129419147968319 2.5867785662412643 2.5739187225699416 5.3344167321920377 2.7988456711173084 3.0034854039549828 2.4850850179791442 3.6063664332032186 2.4648832529783249 2.673017479479312 8.4332041293382627 5.2851310968399048 4.6910210251808149 3.8687952607870102 9.2491346821188944 2.408034220337866 2.9791630953550339 2.4278971478342992 2.4147799983620644 3.3565448150038719 5.0810763239860535 8.3591555133461934 2.9320750683546057 5.0867304727435103 3.4039980098605183 2.7133971452712995 3.6336957588791847 3.0030958577990532 3.6430779397487631 2.4375976324081421 2.4740985035896301 3.576426684856413 5.1283328682184219 3.5133447423577309 4.1175665259361294 16.418015405535698 2.4760062247514725 2.4511240199208251 4.3873615488409996 2.7783780246973038 2.9267179742455482 2.8721821829676628 3.177956685423851 2.5475255921483031 5.6647771596908552 24.63104423135519 3.3485550731420517 11.779865965247152 3.3844491541385633 4.9547470584511757 3.8677300959825507 3.4235688373446465 2.4255007356405249 3.959470123052597 2.8155427649617195 11.478025667369364 4.5928206816315642 4.5222239419817924 2.7036493048071852 4.2313077300786963 2.6838480979204178 12.561667479574679 7.307606153190136 2.4182377681136131 5.5300247073173523 10.907504163682459 2.4016914665698987 4.0744142308831215 2.4201145991683006 2.5514409467577934 2.790203183889389 6.7423339262604713 3.8907582834362984 2.4607850760221481 2.7693781107664108 2.3764419928193083 28.288790963590145 2.6653847247362137 2.4613548815250388 3.3566044643521309 2.7165822014212599 3.5839913636445999 2.9666049778461456 7.7084034681320182 2.4437829107046127
leaf_count=38 34 65 31 22 33 23 24 22 20 26 22 28 53 38 27 35 32 35 29 21 32 25 28 20 25 28 23 32 25 20 268 20 126 20 69 31 21 32 21 25 20 44 27 21 24 20 25 21 34 21 31 28 20 27 34 64 20 20 38 33 20 21 23 26 22 37 26 36 24 36 23 33 47 20 23 22 36 22 32 23 23 27 25 35 30 22 22 29 20 20 21 22 20 20 20 28 29 23 21 21 26 21 27 25 26 23 24 20 35 38 23 21 29 34 20 30 35 20 23 29 134 20 20 20 21 20 25 33 27 28 27 37 87 20 39 36 24 20 21 23 31 22 24 24 51 27 28 26 28 24 35 75 23 24 36 30 62 35 21 25 20 34 33 26 26 63 33 39 24 59 22 24 44 22 36 26 23 20 20 25 109 32 25 21 33 148 21 27 24 25 20 23 147 23 26 59 28 26 32 20 26 31 20 52 36 61 23 26 28 31 88 23 22 107 31 21 21 43 23 24 20 30 20 22 70 43 39 32 77 20 25 20 20 27 42 69 24 42 28 22 30 25 30 20 20 29 42 29 34 135 20 20 36 21 24 24 22 21 47 205 27 98 28 41 32 28 20 33 22 95 37 37 22 35 20 103 60 20 45 91 20 34 20 21 20 56 32 20 22 20 237 20 20 27 22 30 24 63 20
internal_value=0 0.194474 0.701261 1.73749 -0.333604 1.29824 1.85724 0.421633 0.781895 -0.229698 1.05421 3.56927 -0.457101 2.17339 0.714469 2.77598 3.33892 0.394403 0.83336 1.2361 0.499393 2.34199 1.84333 2.4171 0.136395 0.538204 1.60398 2.34828 0.0520144 0.672184 -0.835508 -0.304151 -0.102598 -0.131292 -0.0775935 1.03988 -0.455064 0.431257 0.502605 1.09328 1.75945 0.172438 0.827615 1.64154 0.729469 1.62188 1.31846 0.925472 0.100092 0.2742 0.612896 1.4272 0.204946 -0.155252 -0.51132 0.16733 -0.485856 0.586864 0.950533 1.36865 0.470547 0.667898 1.29895 1.88197 2.43827 2.60703 1.21243 1.66743 1.79388 0.434093 0.692469 -0.00599466 -0.112765 -0.703772 1.0291 0.391103 0.316508 0.56508 0.808851 -0.0745051 1.28784 4.34056 0.122702 0.0437459 0.17642 1.33016 -0.024528 0.325754 0.509919 1.1666 1.59355 0.887847 -0.125179 -0.0451436 0.0879376 0.684433 1.37034 2.52525 0.249164 1.28748 -0.0663344 0.973281 -0.11567 -0.294508 0.187875 0.721727 1.52566 0.490284 -0.0259039 -0.186481 -0.552261 1.12158 2.39661 0.330302 0.0206365 -0.313759 -0.0693431 0.410977 1.02239 -0.332464 -0.335476 -0.0593969 -0.553794 -0.279085 1.13151 -0.244015 -0.363165 0.0665704 0.86006 0.282503 -0.0977578 0.333451 -0.394762 -0.177828 0.121808 -0.0798209 0.445492 0.941753 0.0642449 -0.268727 0.693567 -0.206738 0.808312 0.195342 -0.179332 0.834738 0.319974 -0.0853166 0.0126969 -0.105658 0.568701 -0.311353 -0.524991 -0.173474 -0.287085 -0.100993 -0.339591 0.238224 -0.277485 -0.474686 -0.739332 -0.54432 2.80745 3.03097 2.70688 -0.633964 -0.201417 0.242631 0.641211 -0.40073 -0.301173 0.0747969 -0.204732 -0.502001 0.194709 0.546238 -0.404954 -0.508413 -0.499873 -0.604429 -0.602808 -0.403604 -0.17363 0.137228 -0.287485 -0.746645 0.00263405 0.335593 -0.513905 -0.483135 -0.506072 -0.412061 -0.749187 1.89523 -0.343988 -0.377712 0.143941 -0.419139 -0.893407 -0.451403 -0.386529 -0.038148 -0.359496 -0.513833 -0.286982 -0.628248 -0.430718 -0.145443 -0.449854 -0.0968194 -0.733887 0.260974 -0.886399 -0.621765 -0.488806 0.229924 -0.591867 -0.362203 0.158309 -0.691644 -0.866822 -0.669669 -0.230079 -0.882291 -0.902708 -0.550389 -0.92068 -0.462287 -0.999919 -0.705143 -0.192967 -0.421117 -0.0697279 -0.64855 -0.785697 -0.643192 -0.440155 -0.368875 -0.690932 -0.782098 -0.416535 0.0590224 -0.985516 -0.55079 0.248347 -0.741275 -0.430022 0.102665 -0.890726 -0.992008 -0.560088 -0.781956 -0.509458 1.52279 -0.296215 -0.648293 4.88543 -0.86274 -0.513774 -0.90638 -0.766799 -0.827291 -0.582487 -0.324573 -0.651046 -0.447417 -0.819962 -0.380059 0.75535 -1.02099 -0.735877 -0.784691 -0.475174 -0.93117 3.10881 -0.951675 -0.699098 -0.955104 -0.753075 -0.870978 -0.799093 -0.263407 -0.700832 -0.920434 3.35088 -0.951368 -0.848875 -0.861435 -0.406372 -0.934279 -0.978807 3.35805 -0.830112 -0.825366 -0.975002 -0.836229 -0.799661 -0.922739 -0.707072
internal_weight=0 805.268 366.903 77.9693 476.792 62.8889 40.0719 288.934 127.676 438.365 99.4565 15.0804 426.533 16.391 50.2593 11.6125 8.83594 36.9602 83.0655 37.6556 45.4099 15.016 11.5629 8.88306 161.258 12.2538 13.2991 7.08505 29.3686 12.4382 61.2563 263.283 112.727 377.109 331.847 13.5541 150.555 9.37293 22.6396 8.80499 5.78328 17.1041 8.49918 6.03744 27.2841 6.78494 16.0413 11.9116 158.023 93.9577 42.5381 14.1979 28.3402 64.0655 30.4522 33.6133 13.146 20.4674 15.0785 11.8008 22.5318 20.1057 11.3216 8.50112 27.8181 24.9942 8.78596 8.44479 5.72189 20.4991 6.97483 51.4196 47.1905 163.25 6.81973 5.13538 22.817 18.3912 15.6258 5.49393 10.1319 10.9867 6.18972 94.9128 72.8665 10.8087 62.0578 28.0667 24.3887 11.5395 9.03533 5.34293 318.293 230.549 167.763 34.4728 13.3832 6.49148 21.0896 5.28172 133.29 6.03874 127.251 80.074 47.177 22.2114 11.8723 5.42411 56.8413 49.8635 29.1975 6.9778 6.44816 20.666 15.9614 33.991 24.5719 13.2771 7.28547 5.99163 87.7437 38.7462 48.9975 32.6876 5.20037 33.5458 31.0641 15.3823 6.40708 6.89175 15.8079 9.94958 22.0463 28.2197 18.5548 12.8492 7.42832 5.19432 11.392 8.93727 8.06407 44.5403 10.5732 17.4982 11.0331 6.46517 6.66748 38.6507 35.4458 31.8922 7.45417 24.438 45.2619 19.1143 24.9656 20.599 16.8838 9.24018 13.4573 8.60494 158.115 61.2794 21.9861 17.0331 12.5536 11.2948 10.3392 10.6024 6.03948 62.7865 53.2275 18.5327 15.6008 34.6949 10.2794 7.58669 30.2199 27.3837 8.97521 7.10543 32.0228 16.9304 13.0116 9.91744 6.77306 26.1686 5.10928 5.97323 141.182 134.795 131.894 94.2303 26.2723 5.52753 82.7495 79.947 9.89572 6.66553 21.9704 70.0513 62.9208 16.839 13.6385 46.0819 29.6389 11.1719 5.38884 8.78416 25.2197 11.2441 13.9756 5.58659 10.6113 57.1362 39.963 5.01177 34.9513 13.6151 5.27718 8.3379 23.2301 32.3774 8.54535 17.8146 11.4808 9.67615 58.078 8.55982 49.5182 17.5085 8.25938 16.1018 8.19922 5.77132 7.90258 24.9014 16.5422 8.80857 29.5574 26.1534 9.35019 5.71649 16.8032 4.87656 4.93898 37.6639 12.2181 7.08977 25.4458 23.0116 6.59357 26.1476 12.2184 5.53546 5.71382 5.85135 7.04988 96.8355 10.7637 86.0718 7.48407 23.832 12.0521 8.3392 13.6101 9.74241 61.4408 6.38497 6.21408 13.9291 13.8356 15.6818 7.22587 17.1732 9.05584 23.2327 10.6711 9.55894 9.66486 55.0558 44.1483 8.89622 6.49453 8.21622 6.372 9.41919 6.31885 6.51476 5.22912 35.2521 32.8756 5.27912 5.8583 5.80841 20.745 6.12791 5.42091 16.4429 8.73454
internal_count=10386 6476 2896 594 3910 486 304 2302 1009 3580 781 108 3513 127 397 89 67 293 654 293 361 114 89 68 1293 97 104 55 234 98 511 2158 921 3069 2697 108 1237 76 179 69 45 137 68 48 215 53 127 95 1268 750 339 111 228 518 248 270 106 164 121 94 181 161 90 67 207 185 69 67 45 162 56 411 378 1355 55 42 182 146 124 45 79 77 50 773 592 88 504 226 196 92 72 43 2589 1873 1356 276 108 52 168 42 1080 47 1033 650 383 180 96 44 460 404 237 56 52 167 129 278 200 107 58 49 716 314 402 268 41 273 253 125 52 56 126 79 181 228 149 104 60 41 94 74 66 357 83 138 87 51 52 310 284 256 59 197 372 156 203 167 137 75 109 69 1313 506 162 125 92 93 84 85 47 517 438 152 128 286 84 62 248 225 73 58 264 136 104 79 54 214 41 48 1161 1108 1084 775 214 43 680 657 80 54 180 577 518 138 112 380 245 92 43 71 209 93 116 45 86 472 330 41 289 110 43 67 189 268 70 148 95 78 485 71 414 146 69 132 67 47 65 205 136 73 244 216 77 47 139 40 40 309 100 58 209 189 54 216 101 42 46 49 49 807 89 718 61 198 100 69 112 80 513 53 49 115 112 128 59 142 66 190 87 79 79 460 369 74 54 68 46 78 52 53 42 295 275 40 47 47 169 51 44 135 72
shrinkage=0.05


Tree=2
num_leaves=300
num_cat=0
split_feature=27 26 21 25 4 6 27 7 6 6 10 13 4 7 13 19 6 28 25 6 13 10 27 0 28 26 18 0 4 11 21 13 19 19 6 19 19 10 26 18 11 11 18 19 18 4 19 19 25 22 21 13 7 13 7 13 0 26 13 25 6 22 21 27 22 18 6 13 27 13 19 4 10 26 4 4 0 20 19 11 6 11 0 19 19 27 6 7 10 7 26 11 26 21 28 25 13 27 26 4 21 25 11 21 13 0 10 25 0 6 4 19 13 13 0 31 18 28 11 10 4 10 11 7 11 28 27 0 0 7 4 11 26 28 28 4 6 6 0 0 4 27 4 11 13 4 0 18 4 19 27 4 13 18 21 13 27 11 25 27 13 4 7 21 7 18 4 18 18 4 18 11 26 18 25 6 7 4 11 10 21 27 26 25 0 0 0 13 27 27 13 18 7 18 13 13 10 4 7 20 7 22 11 26 7 18 26 6 6 7 19 0 27 6 18 18 10 20 19 18 27 28 10 19 22 13 0 22 13 13 26 20 10 27 13 27 4 4 4 4 26 28 18 0 19 11 11 6 28 11 22 18 0 13 19 18 10 4 11 13 19 0 21 31 27 7 6 0 0 13 6 7 0 4 6 4 19 0 27 13 0 19 11 7 6 18 31 4 10 19 6 26 11 0 0 4 19 4 18
split_gain=118.439 161.299 107.591 90.5533 46.5402 66.4789 40.6595 28.2172 25.7958 23.8029 23.786 34.1289 21.912 23.0656 17.9238 18.9932 15.2362 14.579 13.405 17.379 12.9773 12.4619 11.4056 11.3306 11.2111 10.6512 12.8038 10.6418 10.3714 9.58467 9.42186 9.13289 9.05959 8.97433 8.68208 14.836 13.1827 10.9146 8.33874 10.3764 7.86977 7.82237 7.51941 7.42915 8.33574 11.8158 8.10388 11.3768 8.29262 7.614 7.46874 11.1189 9.02591 7.20329 7.1563 10.2389 7.09418 7.91521 6.84691 6.56864 11.3091 7.10135 6.5525 6.42433 6.35858 8.30006 6.34113 6.30475 8.70264 6.25374 6.05008 5.98776 5.85412 5.82107 10.2586 8.18198 6.6774 6.19398 5.79447 5.51919 6.29243 5.29709 6.25159 5.00928 6.41459 5.57438 7.50654 5.41984 6.25237 9.11123 7.47541 4.95968 4.9439 4.9422 11.2757 6.53653 5.80299 7.82494 6.88456 7.39024 6.21161 5.29576 4.94034 11.2389 15.6447 9.78657 6.9038 11.6674 6.39768 7.40573 17.3331 5.64002 4.93163 12.1792 7.86616 8.45272 7.75674 6.91832 4.85895 7.53452 7.17065 5.06011 4.84513 4.80506 7.47019 8.37097 4.78742 6.76002 4.74178 4.73087 4.66441 5.91578 7.97859 7.36136 14.4309 5.44353 5.24128 4.63014 4.6234 4.56051 4.55599 4.40198 4.39222 4.30673 4.27601 4.2061 8.41125 7.53381 7.07383 4.10057 4.05774 3.98417 3.95794 3.89346 6.54229 4.50334 7.76738 3.84552 4.42304 3.78068 3.77017 3.71407 3.58622 9.65872 5.83237 3.53744 3.50155 6.25998 3.41208 7.07318 4.24814 3.4104 4.31253 3.39924 3.35993 4.28083 11.4912 3.87987 3.34619 3.29394 3.28361 3.86577 3.22708 3.21159 3.15088 3.09009 4.54596 3.35822 3.02132 3.01527 3.00165 2.99189 4.25326 2.93659 3.46139 13.8062 5.79931 4.31357 4.24841 4.06934 5.07174 6.11116 4.03308 3.399 4.14836 2.93528 2.91674 2.91254 2.84841 2.84789 2.77031 2.99362 2.63752 2.75071 2.61119 4.30148 3.39062 2.5709 2.5619 7.6271 2.46196 2.45729 4.37966 2.42227 3.46695 2.39185 2.34076 3.5233 2.33414 2.30984 2.27308 2.16034 2.97844 2.15935 4.95673 2.5763 2.15576 2.00098 5.15732 1.98119 1.97358 4.10307 4.80219 2.30039 2.19979 3.90174 1.96095 1.95339 1.94128 1.90732 3.2035 3.02614 2.28125 1.90485 1.89269 2.25779 1.81413 1.77787 1.74914 1.7058 1.47836 1.399 1.38155 1.6847 1.31991 1.79203 4.23629 2.12178 1.29329 1.31065 1.2439 1.22141 1.19735 1.10801 4.20003 1.10645 1.09676 1.06943 1.05029 1.04706 1.02939 1.02806 1.00194 0.988352 2.94994 0.970405 1.26686 0.960065 0.956187 0.955749 0.941669 0.90093 0.875537 0.859569 0.857132 0.840158 0.733696 0.727538 0.706757
threshold=11.446919760000002 11.933577050000002 5.9745102790000013 1.0000000180025095e-35 2.1820567100000003 2.9696462026000003 13.819738405000001 5.3884001475000014 17.731003440000006 2.6194516735000004 5.7680492765000002 1.6183473390000003 10.143746215000002 1.6408469320000003 1.8153409090000003 -0.86995370399999994 2.1723582995000004 14.214013090000002 4.7525029340000016 4.5625698260000007 2.3303030300000005 30.345723560000003 24.887718350000004 6296.5000000000009 9.5602372530000022 11.867875035000003 10.241686850000002 13274.000000000002 5.8324299540000011 87.533349830000006 12.205999675000003 1.8729838710000002 -0.37565906399999993 0.20153167150000004 2.8363987525000005 -1.4201402034999997 -1.8306546704999997 12.205999675000003 6.250380551500001 10.143835485000002 288.21675515000004 592.26905320000003 10.749560185000002 -0.85229166699999992 12.621609750000003 8.8577000275000017 -4.6595055689999993 -5.0715062319999991 13.058608200000002 20.548222670000005 36.418620965000009 1.7475490195000003 7.7401946965000006 1.8110119050000002 1.5328411845000003 2.0754985755000006 11003.500000000002 10.258563720000001 1.6292220115000002 12.602131215000002 9.3828112875000027 143.31964680000002 24.112453025000004 32.352135850000003 11.933577050000002 11.600082345000002 6.5265163725000006 1.648529412 24.570863110000001 1.8153409090000003 -0.083991822999999979 10.240306895000002 11.966646835000001 6.3481279145000009 10.801624405000002 13.145479895000001 7932.5000000000009 1.5000000000000002 -1.6692824074999997 529.54724003500007 8.1421785335000028 148.04480145000002 8459.5000000000018 -4.7078009259999991 -1.3327116399999996 60.143544875000011 7.4246323620000014 2.7049586720000005 12.158070340000002 2.2707375035000004 6.250380551500001 341.63945985000004 19.692583465000002 5.6705526080000004 14.912335140000001 6.4465212440000004 2.2641025645000004 6.1638428200000011 6.250380551500001 2.8077139160000004 6.5758191855000012 18.665582705000002 339.57155365000006 17.106145850000004 1.7257053290000002 8731.5000000000018 6.4154584645000012 6.0541039490000008 5435.5000000000009 2.2708175420000005 3.1743475750000005 -1.0413241684999999 1.7475490195000003 1.9174242425000003 10717.000000000002 1.0000000180025095e-35 10.353947235000001 14.354774435000001 150.04225875000003 5.5870776705000011 2.8920311495000006 11.384897315000002 114.03731075 2.0102458885000005 180.5818854 13.854495515000002 13.217035815000001 6796.5000000000009 7769.5000000000009 7.6097085295000015 2.6888065045000005 153.04566710000003 11.762645665000003 6.9857045915000002 4.6509556195000004 2.8551719380000002 3.2432775820000006 2.4401077350000002 6296.5000000000009 12945.500000000002 12.678896990000002 12.252771395000002 5.829716448000001 349.05979810000002 1.9083916085000001 19.687491630000004 8951.5000000000018 12.660294030000001 20.759084510000005 -1.0501580214999997 30.674829500000005 8.5811994675000012 2.0754985755000006 9.5534976535000009 5.5682780110000012 1.8313008130000001 18.153471545000006 104.02132635000001 5.6442185430000009 62.138367035000009 2.0954545455000004 5.8038357755000005 1.2868595490000001 5.7305984180000005 0.93775219650000008 10.778606860000002 7.9945683560000012 11.094627205000002 10.267285525000002 4.7239060700000008 10.048826770000003 294.22986255000006 10.936084645000001 11.374199080000002 17.099921490000003 3.6907974715000003 3.6442134655000005 8.3889327680000019 179.56148430000002 11.384897315000002 12.708915250000002 45.855122290000004 14.603791015000001 6.338295403500001 6003.5000000000009 4071.0000000000005 8951.5000000000018 1.9130602005000001 31.520277620000005 30.674829500000005 1.6622807020000001 10.590317045000001 2.2707375035000004 8.4059398150000018 1.9365362485000002 1.9083916085000001 6.0541039490000008 2.2602220610000003 0.65563898200000015 3.5000000000000004 0.38841294550000005 8.9704119915000025 90.525658225000015 17.737628160000003 1.9173014055000002 10.249708835000002 5.514920601500001 1.2221995220000001 3.8417497965000007 11.630406000000002 -1.1848642604999997 7321.5000000000009 63.688308545000005 11.222667280000001 10.246965205 10.102720380000003 6.1849831050000015 19.500000000000004 -4.6684907119999997 10.055736465000001 62.327857430000002 13.468210645000001 5.7129860410000015 -1.0764675294999997 7.2597497635000012 2.0444664035000009 10115.500000000002 58.65779409000001 1.7154761905000002 1.8088023095000001 21.473983550000003 8.5000000000000018 11.384897315000002 69.378959470000012 1.6916083915000002 70.746270690000017 13.969100455000001 2.7365209305000007 2.2721355385000002 2.6346128504000004 6.4411580855000006 5.428019614000001 10.477918795000003 2691.5000000000005 -4.6520593789999989 229.52714615000002 164.07372605000003 2.7190134230000003 55.012401040000007 882.14706575000014 26.455978540000004 12.718510310000001 8623.5000000000018 1.7399355880000003 -1.4412595494999998 10.508520645000003 5.2651336995000007 8.5709800990000016 267.57716420000003 2.4226190480000001 -1.4276851849999999 1053.5000000000002 5.8002328935000014 1.0000000180025095e-35 13.819738405000001 2.5888055385000004 4.0574513922000008 3157.5000000000005 4601.5000000000009 1.5707142855000003 2.8086472800000002 5.300234692500001 3351.5000000000005 1.0526474835000001 0.50859313350000013 7.7809582490000002 -0.71124999999999983 9923.5000000000018 6.4827890145000007 2.0889328065000003 2489.0000000000005 -1.5544325814999997 180.5818854 0.94635124250000013 1.9874715705000001 3.7894624920000006 1.0000000180025095e-35 7.0348376665000005 6.5584466480000012 -0.65527777799999987 1.0513253265000002 69.045062255000019 349.05979810000002 5575.5000000000009 13067.500000000002 5.9833194080000007 -5.5735277099999996 3.5276137945000001 9.6351861450000023
decision_type=2 2 2 2 2 2 2 2 2 2 2 2 2 2 2 2 2 2 2 2 2 2 2 2 2 2 2 2 2 2 2 2 2 2 2 2 2 2 2 2 2 2 2 2 2 2 2 2 2 2 2 2 2 2 2 2 2 2 2 2 2 2 2 2 2 2 2 2 2 2 2 2 2 2 2 2 2 2 2 2 2 2 2 2 2 2 2 2 2 2 2 2 2 2 2 2 2 2 2 2 2 2 2 2 2 2 2 2 2 2 2 2 2 2 2 2 2 2 2 2 2 2 2 2 2 2 2 2 2 2 2 2 2 2 2 2 2 2 2 2 2 2 2 2 2 2 2 2 2 2 2 2 2 2 2 2 2 2 2 2 2 2 2 2 2 2 2 2 2 2 2 2 2 2 2 2 2 2 2 2 2 2 2 2 2 2 2 2 2 2 2 2 2 2 2 2 2 2 2 2 2 2 2 2 2 2 2 2 2 2 2 2 2 2 2 2 2 2 2 2 2 2 2 2 2 2 2 2 2 2 2 2 2 2 2 2 2 2 2 2 2 2 2 2 2 2 2 2 2 2 2 2 2 2 2 2 2 2 2 2 2 2 2 2 2 2 2 2 2 2 2 2 2 2 2 2 2 2 2 2 2 2 2 2 2 2 2 2 2 2 2 2 2 2 2 2 2 2 2
left_child=29 2 7 4 126 6 38 16 43 14 11 27 13 20 23 30 153 22 19 28 25 58 31 137 178 118 -27 42 34 273 81 -13 254 160 35 36 -18 189 179 -40 -34 53 218 44 45 66 47 49 62 71 59 52 230 73 205 -56 57 67 -14 61 -61 217 79 69 65 -48 102 -12 152 161 292 -47 -62 74 76 129 -9 -77 -25 80 -49 82 -16 -15 231 87 -87 88 138 90 -90 -42 140 101 95 96 100 98 -98 -100 130 168 103 108 142 106 225 -108 111 122 -111 162 182 114 116 -116 -114 -118 120 -120 149 -121 -110 124 183 -126 127 -4 -125 -76 207 133 136 134 135 -132 256 -8 -86 -107 -46 -45 -105 287 -113 233 147 209 -149 -5 -71 226 -69 239 155 156 -155 158 -157 -54 174 -24 163 -3 -165 -58 167 -145 169 193 -171 -89 173 -173 175 185 -177 -178 -11 -6 -66 -182 -112 -115 -33 -20 187 -187 -168 277 -97 280 -193 288 195 197 -197 198 202 259 201 -201 -195 204 223 -37 -202 210 -184 228 -95 -212 213 -74 215 216 237 272 -7 -220 -73 283 -223 224 -199 295 275 246 -147 -64 -52 232 -85 248 -235 -236 -142 238 -124 -2 241 243 -243 -170 245 -242 -228 -117 281 250 251 -10 -253 -230 255 -21 -133 271 -221 278 -159 -251 263 279 -164 266 267 -266 -180 -270 -269 -68 -51 274 285 -143 -262 -36 -196 -192 -102 -94 -134 -208 -285 -1 -287 -104 -31 -209 -204 -214 -55 -70 -246 -106 -148 -162 -288
right_child=1 8 3 12 5 10 9 41 249 24 56 17 21 83 15 -17 18 -19 33 32 -22 -23 63 78 -26 26 -28 -29 -30 93 -32 184 40 -35 37 54 -38 -39 39 -41 91 -43 -44 141 92 46 64 48 -50 50 51 -53 159 70 55 -57 165 -59 -60 60 72 -63 229 -65 180 -67 257 68 293 150 -72 220 212 -75 75 77 -78 -79 -80 -81 -82 -83 -84 84 85 86 -88 171 89 -91 -92 -93 145 94 -96 190 97 -99 99 -101 191 -103 143 104 105 139 107 -109 109 110 112 144 113 123 115 247 117 -119 119 121 -122 -123 214 128 125 -127 -128 -129 -130 -131 131 132 282 -135 -136 -137 -138 -139 -140 -141 236 151 -144 166 -146 146 296 148 -150 -151 -152 -153 -154 154 -156 157 -158 260 -160 -161 297 -163 264 164 -166 -167 188 -169 240 170 -172 172 -174 -175 -176 176 177 -179 268 -181 181 -183 208 -185 -186 186 -188 -189 -190 -191 262 192 -194 194 199 196 -198 203 -200 200 206 -203 290 -205 -206 -207 221 289 -210 -211 211 -213 291 -215 -216 -217 -218 -219 219 258 -222 222 -224 -225 -226 -227 227 -229 253 -231 -232 -233 -234 234 235 -237 -238 -239 -240 -241 244 242 -244 -245 294 -247 -248 -249 -250 261 -252 252 -254 -255 -256 -257 -258 -259 -260 -261 276 -263 -264 -265 265 -267 -268 270 269 -271 -272 -273 -274 -275 -276 -277 -278 -279 -280 -281 -282 -283 -284 284 -286 286 298 -289 -290 -291 -292 -293 -294 -295 -296 -297 -298 -299 -300
leaf_value=-0.02244359347232093 -0.057732743544560594 -0.058392933880054822 0.067938980263600998 -0.0023926613462750454 0.039475522071330552 0.06172924436888743 0.16713391379027559 0.1622780420253736 -0.057834673823399074 0.1642135511925758 0.098861417198817442 0.12499939175886032 0.18295603059621057 0.055904745958111748 0.16384235430400609 0.029164176246166629 0.034842190747309335 0.018380159809206317 -0.058351259591543997 0.013314897485665576 -0.058634106808427212 0.0018988866693100057 0.078750749656012226 -0.025628759069378518 0.10411024814121342 0.16758072618682093 0.03235656747560104 0.10983980475549736 0.12695947657463916 -0.057944346190793687 0.22473025407204741 -0.0041464374993326752 -0.025380975667296114 0.064188930422207635 -0.058998841082177289 0.013376403288394539 0.18288158500418183 0.076132658346057799 0.16584774070053679 0.032741758715661269 0.11352542364734808 -0.021869968304269832 -0.047741061129371751 0.033009636773255566 0.060942552377264848 0.031183710874024679 0.095195109874927727 0.044162715090645233 0.13778808634376929 -0.017761395192382276 -0.05849302663416122 0.10771319495382631 0.090707113054031452 -0.040195184221567759 0.11106092584625871 -0.0040127430623024948 -0.058571354508468759 -0.042163030890745877 0.082358985289254436 0.11291250793090316 -0.058664029390770471 0.03850465513422844 0.026425556553716978 0.072363435467742085 -0.052618560200044219 -0.026146496670287084 -0.05822059098479429 0.098439919887471514 -0.040541134780578462 0.22103031559663183 0.072621579588839788 -0.052195417142092193 0.083168339979236991 -0.0024462044903960302 -0.041883789419616353 0.13654573883550947 0.071371872976849451 0.032636484175606745 0.069265720719007037 0.00099903955541933375 0.13802687416207923 0.19073095447736096 0.069642210404577062 0.0024544003162868468 0.023419732520390094 0.099102339409869136 -0.019292137447607025 -0.052683281487959477 0.062139960531845208 0.11001992600691118 -0.058715594798713661 0.016428404320941857 -0.051093314111133242 -0.041823525768570513 0.070215020167755535 -0.00075424717166133791 0.085814705776450409 -0.043842681236051506 -0.058141231517503403 0.06377405882227237 -0.025549400715160819 0.030601568320058205 -0.025249262037295342 0.047734877799777919 0.00030210625768451257 -0.058270834951788197 0.14137209294287306 -0.0023062253360972211 0.045128274226400845 0.11175097290431751 -0.05062173350830608 0.063940210267100839 0.0071715407902329846 -0.058505021555738404 0.081245985252611494 0.0025810314469731231 0.15047013773265985 0.046199602506330678 0.10273088810875429 -0.026338039807822285 -0.058294175607343429 0.05590108628904028 -0.038032141315851274 0.017132903645852009 0.086328262189880461 -0.016373049012370921 -0.049148517942027133 -0.026680889875889957 -0.052762753621161333 0.049814436059142528 0.06430591364210618 -0.0087773964720958813 0.066511292771139041 -0.030648467434596489 0.13103589432417528 -0.031455700730506964 0.033715675009538586 0.077475308152729419 -0.049349219807079694 0.021351105125500647 -0.041543072534243539 -0.052596118384145546 0.12681843882942198 0.039450374321138466 -0.014195082381760885 -0.039184441256692112 -0.057803856460982489 0.10771712025178282 0.0085866112590674681 0.074625069998744839 0.1495923110408327 0.012868854024178195 0.018221662891903849 0.069385385353352411 0.057214276773153327 -0.035307762340623987 -0.034724022860332777 -0.016480152251427748 0.044166757475669213 0.014467438462341872 -0.030172804611918992 0.14900053385233297 -0.058262790091627159 -0.019126016975929892 0.082303932883753553 0.0097186578279426852 0.055180614161406571 -0.051391291748301288 -0.0047780796542171919 -0.0084119445367489207 0.079463623064940259 -0.020317441532570014 -0.058095575898352472 0.061241052533684365 -0.049305784006621306 0.075242891691652436 -0.058296868027294474 0.014889948976518907 0.24977646466459352 -0.02611692380709283 0.04389782217770271 -0.035045473347490912 0.041305872553096409 0.010355860370288697 0.065864367847446897 0.05673976184191102 -0.047062518903096887 -0.020605226335329591 -0.013509510453738964 0.013850009665300001 -0.05795400537981521 0.025933930035169341 -0.058053650954816974 0.036487268187400813 -0.053306891213687063 0.0044820332595084953 0.10894340056093972 0.012482120348981033 0.06038005148082836 0.071393337947808971 0.008481989700992008 -0.027080540281558069 -0.015570644295481276 0.02148148415657973 0.021087723706739305 -0.058320553105391727 -0.058040558345659944 -0.051885900499110266 -0.025204591678075289 -0.057861796715465687 -0.020160940185549245 0.055366530386986537 -0.021409260852420595 0.013057532381860894 -0.052054718173929232 0.043457952989250551 -0.057955975199858012 -0.0013391350356102855 0.059432495584707527 0.00015505324968437078 -0.0075622417363511649 -0.043580172892309615 0.043896952163064419 -0.058083085193347254 -0.058026852188492385 -0.038784832646977116 -0.020086992487427843 -0.048280799428783355 0.045801954493655588 -0.038824987504434437 0.0037213832372209698 -0.058540433702433441 -0.058120311062873464 0.035510580153674261 0.0043193306055118834 -0.058151197930233392 0.021130021538321792 -0.034407859297742871 0.064046342540773224 -0.015085792902764773 0.019091260342298216 -0.037002280540429359 0.062452853836969316 -0.049624744017226885 -0.055891821584565182 -0.058328445183018919 0.041827721036303389 -0.058122739794429681 -0.0033089285372434295 -0.016425976790341704 0.018856359569310355 0.025212204758330456 -0.040631773666853416 -0.015002618528115651 -0.058507440424692497 -0.045635866227738485 -0.052935519383513166 -0.0052569464921208252 -0.058357114163691694 -0.01062527539164497 -0.058182447616278936 -0.055975490673389972 -0.057986253725715399 0.0037139106395876354 -0.058474106281107933 -0.058033379633500574 0.030328362561213015 0.0050357521835396107 0.19517962658694563 0.23684324939989648 -0.040713596935763888 -0.018674263606304382 -0.058358239517970693 -0.055042632719229191 0.023109504100619332 -0.016567126735686343 -0.024737181229651711 -0.017463008062336572 -0.01976919166815427 -0.018123456816294833 -0.058291600236202529 -0.016689786271623316 0.021312410962470649 0.0067726029610979581 -0.051490666181479794 -0.055000510174393086 -0.045012508643576782 -0.058110760145433482 -0.025623504795915877 -0.015840978350485212 -0.057937774553647126 0.020235315285823143 0.00091955075301238898 -5.3589185380362975e-05 -0.029232344835555604 0.041133700384938118 -0.02925096053082131 -0.058173520061230492 -0.013914163627457527
leaf_weight=4.2323369085788753 12.856940343976023 4.9000681489706022 3.1557225510478002 3.5440942049026489 5.0438822880387288 3.6969972401857403 2.8543449640274066 4.2820606306195348 9.7038246169686335 3.1026661023497608 4.1071903407573762 5.3998356536030787 2.6793706789612752 2.6058370321989051 3.5713352188468033 2.8310417532920829 2.6465955823659897 4.5152076035737982 4.6324984952807453 2.7728626057505608 2.9957792237401 3.2687773406505585 3.2201898470520991 2.9855832159519196 3.0305399149656287 3.7414096742868415 3.2897288724780083 2.9489575773477545 3.2252214178442946 8.8529787883162481 5.2304410859942427 2.6998064145445824 4.5362144187092763 3.2425942718982688 4.2328470349311811 3.4543997645378131 3.4826514720916739 3.7022467330098143 2.6611418798565856 3.2551777586340904 2.6041977852582932 4.0252800136804572 4.6058707237243643 2.730509139597415 3.3477481976151449 4.4576314762234714 2.5913193970918682 3.9015682712197322 2.5413154065608969 2.4576779976487177 2.7179457768797892 5.0920859873294821 4.0052421763539314 2.6706108301877975 4.1037501841783524 3.654472328722477 3.970744088292121 3.0697925314307204 4.5875817686319351 3.1907845810055759 2.6323836147785178 4.6312169805169097 2.9444606974720946 3.0356266126036635 8.8394292220473272 3.0895545184612274 8.9286933690309507 3.803677096962927 2.7019047513604164 3.7188865095376968 2.6491164192557326 8.40245273709297 2.8143203184008581 2.6601274237036696 2.8778549283742887 3.051397405564785 3.8239961788058281 2.7060093805193901 3.488194115459919 2.5094351768493652 3.2920588552951813 3.783450148999691 3.4750805795192719 4.8777961954474467 3.6460940614342707 2.8439351916313163 2.5296586602926254 8.9648158624768275 2.4849253818392736 2.9668787941336632 2.6376468315720558 2.6570103839039803 22.000795669853687 3.087210901081562 3.8798644691705695 4.3488103076815632 4.8369876146316511 3.4887317493557921 2.5184110924601555 2.4545383453369141 3.0492878556251553 3.9301079586148253 3.0273602306842831 3.2844474390149143 2.5356727987527865 6.4201765805482847 2.9919093251228333 2.6773930341005325 2.4187855347991016 3.8102535828948012 6.3931116461753827 2.8563752025365821 3.0312559679150599 4.0799699500203159 2.5016457587480536 2.4578438475728035 3.5818029940128326 2.8618595078587532 4.9171416014432889 3.0666781291365623 2.9182960912585258 4.7950508296489716 2.4998437687754684 3.3094384446740142 4.4745560735464078 3.5647979527711868 5.6061580926179886 4.697643406689167 9.0950757116079313 2.75124391913414 2.4450064748525602 3.0291737392544773 2.4060403481125823 3.6240012347698203 3.6855942010879517 3.7756948545575142 2.71148707717657 2.9059563800692558 5.4387516379356384 2.4981939643621445 3.008494570851326 18.739719517529018 3.7720637172460556 2.556103467941286 4.5246649384498596 2.6386900916695648 6.2978094965219498 3.0049607902765265 4.486502580344677 3.3730713576078468 4.2702330723404884 4.2030774354934684 2.5811057910323143 3.1235635355114928 2.5921355932950965 4.3566792234778431 4.2013049423694611 3.538591809570792 2.9267431646585464 2.7375100180506706 3.543411046266554 4.5257909893989563 7.877993211150172 2.5527981966733932 3.1861814260482788 3.62986920773983 3.0794830396771422 7.3486886397004128 3.7648565769195583 3.01208322495222 2.5309399366378784 2.6113116815686217 2.7465373501181602 2.5013165026903152 5.5015742927789679 4.844962500035761 3.8806356564164162 3.3952893987298012 3.1990868896245939 3.0845296531915665 2.444630615413188 4.2411835193634033 2.5001253038644791 2.8944443315267563 3.9707204774022102 3.0146237015724164 4.4027096927165985 2.6258224323391914 3.3339757472276688 3.4362182840704918 4.8437749445438403 3.5542502254247657 2.6175547167658806 2.641429163515566 21.842560335993774 2.3946869373321524 2.9845157563686371 3.5298335403204009 2.5302331894636154 3.0797725617885581 4.4910479262471226 3.2256519123911858 2.3603529706597328 2.5128345787525168 2.5232169777154914 2.4329773187637329 7.731204189360148 8.1800826787948591 4.520220048725605 3.0422087162733078 2.6056873351335543 2.6424930021166801 2.6692395433783531 2.7818300873041153 8.25601878762245 2.452926591038703 5.7830570787191382 4.3644098863005629 4.613552927970888 2.5412842780351639 4.8863507285714141 3.4539187401533118 2.44281966984272 14.801116347312931 3.4448288381099701 2.5568425953388214 2.6301501840352994 5.2489689067006111 2.8727031350135803 2.5145689398050308 3.1928272172808647 8.5103283748030645 3.4749870970845222 3.1927126199007017 2.4012214690446854 5.2780508324503899 2.5225189924240112 4.2065906897187233 2.4500956907868385 3.4551065638661376 3.2201228961348525 2.3778022304177275 2.4792678877711296 11.890049546957014 23.301656223833564 3.2902543619275093 2.4891253337264061 2.8759241923689842 2.7395275458693495 2.4235423058271435 2.6029809564352027 2.3993193060159674 2.9120592176914215 2.3349644094705582 6.9199616163969058 3.9209277108311653 10.017839342355726 2.822102725505828 2.5678097531199455 3.1490412205457678 13.478814460337167 28.897033296525478 11.605910614132879 2.4201420173048973 6.1604678332805651 5.7069685682654372 2.8010585978627196 3.137631319463253 4.662082314491272 3.1718419939279556 2.8221947401762009 2.4989402070641509 6.9591858610510826 17.986954741179943 2.4688784927129737 2.4043308719992629 2.9960676133632616 2.4447354450821877 2.6137875393033019 2.5024096742272377 11.282859809696673 2.4092609509825769 2.5001851618289948 3.0676188394427282 7.4454998150467873 19.143491327762607 3.9352891370654097 8.3613336756825429 3.0859941989183417 2.3724336624145499 2.9516003578901291 2.5293866395950317 2.5135510265827179 2.5464021861553192 3.4630610123276702 2.5038090497255325 3.5003399327397329 6.7181274145841599 3.410193607211113
leaf_count=36 111 40 25 28 38 27 20 32 83 21 31 39 20 20 26 22 20 35 38 22 24 25 22 23 21 28 26 22 25 75 34 20 37 25 33 27 24 29 20 25 20 31 37 22 27 36 20 32 20 20 22 39 31 21 31 29 32 25 35 24 21 37 24 23 73 25 74 29 21 25 20 70 22 21 22 22 29 20 26 20 25 27 26 38 29 22 20 74 20 24 21 21 187 26 31 36 38 29 21 20 25 32 25 26 20 53 23 22 20 30 52 23 24 33 20 20 28 23 36 24 24 38 21 27 35 29 47 38 75 21 20 25 20 30 29 32 22 21 44 20 25 159 30 21 37 22 54 24 37 27 29 34 20 25 21 36 34 28 24 22 29 31 65 21 25 28 25 61 32 25 20 21 23 20 45 38 32 27 20 25 20 34 20 23 29 23 36 21 27 27 41 29 22 22 186 20 24 29 21 25 37 27 20 21 21 20 65 69 37 26 21 22 21 22 69 20 49 35 34 20 39 29 20 124 29 21 22 45 23 20 25 69 29 26 20 44 21 35 20 28 26 20 20 100 196 27 20 24 23 21 22 20 25 20 56 32 85 23 21 26 112 250 98 20 50 48 22 25 30 20 23 20 57 154 21 20 25 20 22 21 93 20 20 25 62 167 34 70 26 20 25 20 20 20 29 20 30 56 29
internal_value=0 0.18216 0.609299 1.02883 1.50174 1.66677 2.44666 0.0445754 -0.222256 2.8822 1.07921 1.44634 0.293929 0.136652 2.36081 2.97149 -0.131702 2.04585 0.0878568 0.397932 0.810823 1.65958 2.29155 1.41783 3.82756 1.01126 2.08624 0.435745 0.826292 -0.501292 3.39247 1.53319 -0.275701 -0.319874 0.661829 1.08678 2.37917 0.0536015 0.949076 1.85225 0.457589 0.871538 0.147638 -0.144083 -0.102966 -0.0320414 0.233892 0.367308 1.08403 0.187389 0.377926 0.906471 0.404329 1.04725 0.506268 1.13712 0.296174 0.625624 2.38899 0.110177 0.565986 -0.301207 0.803826 2.77921 -0.32117 0.584065 -0.172126 0.912098 0.536042 3.03617 0.223019 -0.379249 0.163842 1.3387 1.52807 0.915972 2.38787 1.75416 0.510044 1.29692 1.74237 2.86018 2.34771 -0.237337 -0.300146 -0.0791129 0.867345 -0.228705 0.16647 0.805884 -0.00178753 1.28979 -0.402593 -0.432398 -0.271832 -0.329584 -0.198496 0.409427 0.86687 0.0406694 -0.30836 -0.536068 -0.124714 -0.059391 0.503253 0.0907124 0.635308 1.47037 -0.179878 -0.0242622 0.168795 -0.480964 0.0333885 0.192876 0.849603 0.108318 1.46262 2.0832 0.677037 1.0837 0.148679 0.47643 -0.450394 -0.221743 0.158774 0.815772 -0.27709 0.226805 -0.682302 0.0586815 -0.127791 0.0925175 -0.244043 0.606544 1.05268 0.123656 -0.590752 2.43806 -0.402885 -0.719346 0.298103 -0.563592 1.80018 -0.515578 0.320847 -0.49657 -0.203771 0.195137 0.966993 0.703282 3.65693 -0.657153 1.32022 -0.566626 -0.388065 -0.502792 0.193433 -0.689618 -0.0674404 1.19509 -0.442056 2.39592 -0.632149 -0.136702 0.743722 -0.519154 -0.186211 -0.55896 -0.561635 -0.469575 0.634239 -0.632109 -0.151247 0.391689 -0.274292 -0.128148 0.311653 -0.482889 4.20175 0.291696 -0.652406 -0.123606 -0.498441 -0.598543 0.750569 -0.491387 -0.179743 0.41466 0.389454 -0.484158 -0.772397 -0.775837 -0.193729 -0.521799 -0.468469 -0.248892 1.2488 -0.464907 0.0789666 -0.618291 -0.391553 0.420346 -0.280089 -0.677566 -0.792064 -0.325052 -0.570352 -0.526642 -0.0303701 -0.335909 -0.0848082 0.357353 0.489909 0.966329 -0.577985 -0.358152 -0.559664 -0.661219 0.526023 0.256595 -0.715672 -0.708015 -0.146827 -0.932713 -0.446854 0.0120855 -0.779132 -0.389925 -0.0174623 -0.0726103 -0.497732 -0.816212 -0.454927 -0.713567 -0.336973 -0.772347 -0.259197 -0.181061 0.249883 -0.973991 -0.771643 -0.527669 0.275282 -0.776791 -0.922038 -0.400712 0.200351 -0.602999 -0.864373 -0.910239 -0.647019 -0.824561 -0.217759 0.37078 -0.803428 -0.424317 -0.853663 -0.815924 -0.585058 -0.905251 -0.916044 -1.0583 -0.926495 -0.649334 -0.817058 -0.684081 -0.501801 -0.757951 4.45976 4.24097 -0.332565 -0.991456 -0.95526 -0.900977 -0.792658 -0.969984 -1.042 -0.875842 -0.994451 -0.887722 -1.02651 -0.953954 0.869564 -0.889396 -0.689801 -0.893502 -0.964544 -0.987509 -0.991801 -0.875644 -0.782241 -0.0229426 -0.405212 -0.417943 -1.04885 0.411776 -0.95207 -0.970092 -0.611498
internal_weight=0 933.76 454.122 260.555 158.537 145.078 62.3364 193.567 479.638 48.2916 82.7415 56.3308 102.018 91.4821 31.1254 18.8913 159.555 35.3563 106.03 60.2273 32.6412 10.5357 30.8411 12.2341 17.1662 29.6455 7.03114 20.9745 36.8161 348.08 16.0603 12.0704 23.4112 45.8022 33.5909 19.7748 6.12925 13.816 14.0447 5.91632 9.79742 34.0112 18.0255 430.7 392.254 317.175 109.432 88.2259 17.7034 70.5225 52.776 17.7456 12.6535 29.986 13.6456 7.75822 26.4107 18.8101 7.26695 35.0304 16.6179 18.4125 15.1621 18.7707 21.2061 5.68087 207.743 15.7403 11.6331 15.7351 7.83328 17.7464 13.4272 22.1527 19.4926 11.3865 8.10606 5.75741 6.47378 9.70306 7.19363 10.8299 7.04642 58.8408 56.235 39.3719 5.37359 33.9983 17.1743 8.08945 5.12257 5.26121 75.0785 296.903 116.486 112.607 86.8856 13.2987 9.80994 4.97295 73.5869 180.417 193.493 165.787 29.2405 22.184 13.2656 5.6693 136.546 90.0196 61.9523 46.5264 58.1421 44.7286 17.3103 7.83541 9.47492 6.44366 22.6143 12.7789 9.83546 7.86173 28.0673 27.4183 15.0138 8.03935 13.4595 7.85337 12.4045 5.6291 53.0829 34.195 20.6647 13.5303 9.9063 6.2207 15.7585 5.7603 9.08485 8.91837 8.87876 38.4459 7.05651 27.7069 7.38104 66.1997 28.1782 18.38 7.49146 6.91717 7.98912 35.7154 6.38478 53.5259 37.2139 34.6218 7.32487 27.2969 7.28342 6.74275 42.5597 7.74598 39.1454 10.639 5.73898 7.60061 16.3183 9.90479 176.487 122.7 5.54302 16.824 7.85917 5.11263 32.2981 26.7965 12.1209 7.27593 14.1357 8.12841 15.5252 6.68581 13.4135 6.97441 6.67053 14.6757 10.0432 5.64045 6.41346 10.1138 25.721 20.504 6.1718 117.157 105.218 42.6746 5.3792 37.2954 10.4836 62.5429 34.9375 6.30542 7.95338 26.8118 24.299 5.88738 28.6321 18.8879 7.02035 10.8886 8.33539 5.24818 10.7948 5.59615 25.6485 17.3925 14.9396 13.7813 13.4196 9.72265 13.2888 24.1411 5.89674 21.7758 6.97466 7.59632 31.5123 10.3682 7.84636 5.45903 5.91077 16.8631 8.35278 38.0216 10.872 7.67927 5.53101 9.15653 4.94994 16.312 53.7871 20.512 4.85707 15.6549 33.2751 6.51038 5.11928 5.33377 27.1496 48.9388 17.6182 15.0152 5.31138 5.20767 13.6138 6.69379 13.047 14.2497 5.10909 27.6054 20.0135 31.3206 21.3722 9.76633 28.5063 20.6283 14.9214 12.1203 11.033 7.83392 5.95983 11.4276 9.41686 51.1771 33.1902 21.1441 16.4749 6.67758 24.4563 7.34618 14.3321 24.4101 4.90623 18.2443 10.5131 30.7213 26.489 11.3887 11.939 10.5525 5.31195 5.19863 5.18416 5.24831 26.7647 5.03948 9.79815 10.2615 7.34548
internal_count=10386 7472 3530 1984 1175 1065 445 1546 3942 337 620 414 809 729 225 135 1287 253 843 473 255 80 218 90 112 231 54 161 285 2914 113 88 188 370 260 151 44 109 108 45 78 259 139 3521 3199 2570 876 704 141 563 418 139 100 228 107 60 206 146 55 279 130 149 121 130 172 45 1694 121 90 107 61 145 106 167 146 85 61 42 49 77 57 79 52 474 454 318 42 276 138 65 41 41 629 2473 965 934 718 108 79 41 610 1508 1577 1348 235 179 106 45 1113 734 500 379 470 361 139 64 75 51 177 98 79 62 234 222 120 64 110 63 102 43 441 283 172 111 81 52 132 41 73 73 73 322 56 229 60 556 236 152 61 55 54 300 49 444 305 284 59 225 60 53 345 53 319 86 46 60 134 82 1476 1026 45 138 64 41 260 215 97 59 91 63 127 54 109 56 49 118 80 44 52 80 216 169 51 981 880 356 44 312 88 524 290 52 67 224 203 47 238 158 57 91 69 43 85 44 214 145 125 112 102 75 109 201 49 182 58 61 266 87 65 44 47 136 67 320 90 64 46 76 41 139 450 172 40 132 278 53 42 44 230 421 150 128 45 43 110 54 110 117 41 234 165 271 180 82 233 168 120 98 70 50 48 94 77 441 287 179 137 53 208 62 118 207 40 152 87 266 230 95 101 89 45 41 41 41 225 40 84 85 63
shrinkage=0.05


Tree=3
num_leaves=300
num_cat=0
split_feature=27 26 21 15 29 2 29 17 5 14 2 5 27 6 29 4 27 21 18 17 15 17 17 21 2 11 14 15 29 26 29 14 10 12 17 2 15 11 5 10 17 4 6 10 17 17 10 17 17 21 7 4 15 7 14 26 15 15 4 15 27 5 6 11 21 18 21 14 17 14 29 12 17 18 18 7 29 26 2 10 27 6 14 10 17 26 26 11 15 17 5 12 18 18 18 27 17 12 11 11 4 11 5 2 15 7 2 12 29 15 6 6 18 7 17 17 7 18 29 12 27 15 12 17 26 21 17 14 17 18 12 21 11 29 2 6 4 6 21 18 29 6 5 29 5 15 14 2 6 6 7 4 27 12 7 26 29 10 4 11 18 6 12 15 17 17 5 6 29 17 4 29 29 18 15 10 7 6 12 14 10 12 17 14 15 15 14 17 15 4 27 18 12 29 26 7 6 12 4 5 14 17 10 12 4 17 26 29 2 4 12 11 2 29 17 14 11 14 26 11 27 11 7 15 12 5 18 5 15 27 12 12 17 18 7 12 7 4 14 11 2 12 18 29 15 10 5 15 12 6 7 11 12 27 2 12 5 11 10 7 11 10 11 29 26 17 4 15 14 27 14 10 18 4 6 14 7 17 10 11 7 7 2 18 31 15 7 10 7 4 18 7 15 17 4 7 2 29 5
split_gain=107.912 142.471 91.6295 83.0419 54.9076 59.3875 34.8538 27.5342 27.0259 21.4459 18.451 16.6641 16.0455 14.8756 28.4219 14.5311 14.5291 12.2049 11.6419 11.5442 10.63 12.1406 10.2519 9.4577 9.32893 9.25345 9.10553 8.64398 15.1385 9.47956 9.16567 9.08096 10.8503 11.0094 10.3104 8.41367 8.37422 8.11135 7.87208 7.54373 7.38007 12.5961 10.6511 7.32645 9.20078 7.09081 6.87627 8.10013 7.45596 7.05534 6.63885 6.59804 7.04947 6.48153 6.4385 10.1427 10.013 6.43209 6.35349 8.64817 10.9668 6.30438 6.01247 6.04347 5.99689 7.56066 9.77178 7.4693 9.2849 7.03184 7.26279 11.0186 5.70337 5.70154 5.64229 14.6943 5.29484 5.79071 5.25127 5.20536 8.84086 5.15742 5.08211 31.8522 9.48579 5.00765 6.00363 6.50358 5.00239 4.96621 4.86404 4.7977 4.78477 15.7085 6.20215 4.9199 8.60612 4.76426 8.28714 13.0639 4.75074 6.62913 5.03521 4.46599 4.46537 4.38749 4.35423 4.27318 4.99428 4.14027 4.12674 3.90983 5.70245 4.0343 3.8459 7.07171 4.34105 6.71086 3.85705 3.60425 5.10561 3.5793 4.33797 4.23976 7.03319 7.07672 9.40046 5.14812 6.0455 6.44608 4.82341 11.5476 13.8847 9.31805 6.59077 4.2897 4.46607 4.14982 9.20356 8.26859 4.08962 3.93295 3.76398 9.90492 8.62971 6.99722 5.47669 7.34349 8.21108 8.92163 6.30235 4.97889 3.71849 4.3989 4.6081 3.5789 3.56246 4.76428 3.78489 3.54642 6.81169 3.5324 3.5248 3.31431 3.83348 13.847 3.95746 8.94487 3.90562 3.25315 3.24088 3.24853 9.73822 3.22461 3.20015 5.45765 4.31329 3.41776 3.19945 4.32936 3.16664 3.06351 3.02603 3.22834 2.87586 4.5487 2.81641 4.75585 5.91462 2.81223 4.10425 2.80989 4.49739 4.824 11.007 9.5149 9.41475 2.71202 2.71389 2.66599 2.63328 5.67582 3.17427 3.70843 5.52367 2.58492 2.70852 6.62211 4.84056 7.75188 5.83184 2.57129 2.5144 5.54479 2.47096 2.41772 2.37275 2.32564 2.29044 2.23136 2.22936 3.23561 4.84836 2.15016 2.06469 2.03815 2.01731 2.01154 1.94808 5.75602 2.10519 1.92828 1.88463 1.87525 1.85976 1.82378 1.8177 3.61687 1.79376 1.77811 8.9704 1.74788 1.64485 2.76392 2.40865 1.77622 2.78632 1.63972 2.07224 1.96846 1.62991 3.30457 1.59331 1.53957 1.52804 1.52262 3.25914 10.1647 1.57831 2.58469 3.38222 1.47803 2.28246 1.52761 1.4345 1.3886 1.2948 1.25773 1.23075 1.1984 1.16033 1.81375 1.13828 1.10915 3.97129 1.10627 1.04715 1.01767 0.979352 0.976071 0.960537 3.95794 0.958684 0.956579 1.26613 1.80077 0.929619 1.40579 0.911057 0.899843 0.89178 0.883887 0.864897 2.87982 0.958365 0.813165 2.87215 0.487 0.386788
